~h "f"
<BEGINHMM>
<NUMSTATES> 5
<STATE> 2
<NUMMIXES> 2
<MIXTURE> 1 0.470150
<MEAN> 39
-16.669408 -5.809111 -0.325595 1.997529 -0.700531 -0.238111 -1.786921 0.418528 0.237754 0.238917 0.532356 -1.360235 45.053101 -0.803865 -0.358985 -0.103117 0.204727 0.253044 0.536399 0.438460 0.471463 0.543519 0.567627 0.435727 0.255925 -0.128666 0.462215 0.080665 -0.033951 -0.244124 -0.154751 -0.137882 -0.112335 -0.129945 -0.200342 -0.122374 -0.089032 -0.084559 0.216875
<VARIANCE> 39
30.300591 23.948160 19.033825 17.308101 20.115234 19.452024 19.523853 19.895588 19.556449 20.021258 18.544612 15.200800 57.160213 2.845162 2.024818 1.695746 1.542247 1.648903 1.783781 1.907108 2.208105 2.401494 2.098924 1.958423 1.751443 2.333808 0.584554 0.399491 0.401735 0.473451 0.421234 0.401263 0.437610 0.456116 0.494793 0.440627 0.422347 0.364063 0.389136
<MIXTURE> 2 0.529850
<MEAN> 39
-18.812679 -7.331284 -1.324984 0.620606 -2.542817 -1.484939 -2.504683 0.044455 0.073186 0.319092 0.869253 -1.198345 46.336096 -0.397381 -0.738561 -0.714159 -0.586203 -0.480827 -0.306722 -0.409525 -0.313522 -0.191599 -0.120630 -0.050156 -0.011767 0.568793 0.700766 0.203126 0.066662 -0.144104 -0.035498 -0.085334 -0.131404 -0.224533 -0.271400 -0.181809 -0.194565 -0.169973 0.290895
<VARIANCE> 39
18.672468 19.735549 15.355621 16.029022 17.227570 19.138970 19.173064 19.461058 19.618129 18.615600 16.066933 13.541580 46.108812 2.140914 1.615427 1.478073 1.453637 1.543661 1.625796 1.738242 1.987851 2.080677 1.840212 1.622571 1.490032 2.374291 0.585285 0.323882 0.343932 0.430389 0.379345 0.387119 0.428355 0.474744 0.511543 0.426928 0.408685 0.348146 0.432779
<STATE> 3
<NUMMIXES> 2
<MIXTURE> 1 0.531504
<MEAN> 39
-14.809034 -7.586534 -2.211331 -0.499569 -1.762915 -0.687212 -2.636654 -1.146258 -0.768304 0.591100 0.683376 -1.817782 51.472299 4.848202 1.124483 0.266975 -2.117196 -1.110254 0.494016 0.134685 -0.125823 -0.676413 -0.726146 0.067743 -0.918980 1.760214 1.327084 0.221996 0.070057 -1.123708 -0.864356 0.251450 -0.100015 0.063232 -0.271548 -0.332714 0.118133 -0.450334 0.404434
<VARIANCE> 39
33.903552 15.880011 13.394963 14.290371 16.756459 17.575173 16.537131 15.667552 15.620802 14.283088 13.928142 11.610404 29.464049 5.292105 3.688990 2.141786 4.419004 4.809828 2.792812 2.253906 2.829075 2.635925 2.817617 2.739972 2.262655 3.899335 0.738261 0.808149 0.451274 0.582407 0.768570 0.649940 0.566618 0.661828 0.596415 0.551274 0.740891 0.413357 0.643851
<MIXTURE> 2 0.468496
<MEAN> 39
-15.785426 -7.747156 -2.048941 -1.032670 -3.402410 -2.491499 -3.859500 -1.679160 -1.200588 -1.177070 -0.125715 -1.911336 49.660177 5.205519 0.013818 -1.462333 -3.416814 -1.190484 -0.777925 -1.396763 -1.722659 -2.076432 -1.193753 -2.125980 -1.605073 3.182457 1.171856 -0.054118 -0.383865 -1.266607 -0.231889 0.138338 -0.132798 -0.181516 -0.526385 -0.057787 -0.600274 -0.444348 0.444817
<VARIANCE> 39
28.876178 18.096326 13.057267 15.252602 16.424715 16.106008 16.644212 18.079491 17.858649 15.184901 15.202802 12.127585 38.794069 5.254206 4.757322 2.083494 5.965823 2.804260 2.645985 2.601916 2.786379 3.482777 2.636441 3.972547 2.892228 5.067169 0.745554 0.890778 0.387525 0.863489 0.651329 0.583558 0.581048 0.721104 0.647031 0.547907 0.748110 0.534609 0.747286
<STATE> 4
<NUMMIXES> 2
<MIXTURE> 1 0.526526
<MEAN> 39
4.574787 -13.051579 -4.928822 -15.381921 -5.954529 2.625433 -3.587367 -3.366026 -4.246451 -1.868531 -0.455443 -10.813012 64.486035 1.977527 -2.070471 -0.240158 -2.394442 -0.225358 1.562904 0.262080 -0.159313 -0.198174 -0.546731 0.068613 -1.256327 2.659920 -1.688458 0.198211 0.238125 1.092066 0.417619 -0.137881 0.122177 0.104544 0.364475 -0.010637 -0.112964 0.603484 -0.882484
<VARIANCE> 39
13.468456 56.302909 32.461537 45.438113 45.276799 55.154082 48.134765 56.631442 42.843667 47.977176 120.505671 48.546694 31.537709 8.701725 3.539558 2.017148 6.102510 6.801826 3.082661 3.108480 3.674682 3.289425 2.877532 4.494246 3.470996 2.493333 0.321796 0.592060 0.335746 0.621575 0.447115 0.478809 0.482790 0.495621 0.452008 0.506388 1.275704 0.572704 0.396676
<MIXTURE> 2 0.473474
<MEAN> 39
2.470608 -6.377264 -7.214876 -12.686294 -7.156116 -4.119845 -6.667716 -6.226774 -6.843582 -4.725722 -7.332244 -7.927683 58.015345 5.223192 -0.728089 -1.627274 -4.961994 -1.368223 0.236213 -0.899745 -0.884396 -2.051538 -0.963122 -2.034834 -1.983168 3.120346 -1.475431 -0.389982 0.310843 0.482761 0.286690 0.420538 0.278988 0.517110 0.372134 0.272004 0.548664 0.412867 -0.416023
<VARIANCE> 39
18.391118 61.014153 26.419522 46.754771 29.262241 26.540805 29.039006 35.921528 30.740461 29.605977 52.563548 28.120331 38.420522 5.278417 9.104821 3.791973 8.089512 8.469970 4.539075 4.560576 5.755695 5.765017 4.606579 8.956176 4.422596 3.680060 0.408605 0.425002 0.327148 0.844188 0.401025 0.378339 0.447305 0.466056 0.444159 0.464586 0.613457 0.479306 0.500209
<TRANSP> 5
0.000000 1.000000 0.000000 0.000000 0.000000
0.000000 0.872693 0.127307 0.000000 0.000000
0.000000 0.000000 0.644747 0.355253 -0.000000
0.000000 0.000000 0.000000 0.556088 0.443912
0.000000 0.000000 0.000000 0.000000 0.000000
<ENDHMM>
~h "k"
<BEGINHMM>
<NUMSTATES> 5
<STATE> 2
<NUMMIXES> 2
<MIXTURE> 1 0.522371
<MEAN> 39
-4.115987 -2.251217 10.683445 2.168140 -12.639821 -16.858237 -5.246898 -0.451792 -11.726641 -2.044644 2.206366 -3.795265 49.007432 -1.735259 3.422707 -1.748688 2.462886 3.331076 2.051768 0.327323 -0.360944 1.619645 -0.107154 0.472323 1.353318 -6.355796 -0.559417 -0.587197 -0.860389 -0.792312 0.443059 0.833244 -0.045440 0.057582 1.232843 0.258896 -0.297155 0.192803 0.287324
<VARIANCE> 39
19.752940 46.989689 41.548085 51.284865 56.531399 47.178540 65.706308 129.262218 68.266108 69.746351 75.262864 40.664998 93.754790 2.185176 5.112267 4.087517 5.497088 3.800316 5.427622 6.759073 9.028200 8.579349 6.389714 9.175353 3.834280 4.165829 0.402889 1.497492 0.652008 0.690991 0.904421 0.814285 0.870228 1.582264 1.257856 1.156452 1.122024 0.784466 2.224541
<MIXTURE> 2 0.477629
<MEAN> 39
-5.994760 2.889696 8.739154 2.533096 -10.366316 -14.535971 -4.960486 -6.311640 -10.160798 -2.002377 -1.461728 -3.331189 41.846369 -2.031806 1.619321 -2.906835 1.620034 3.406171 2.869549 -0.476787 0.379950 2.700006 -0.630151 0.709406 0.928000 -4.770505 -0.413888 -1.548014 -0.752920 -0.922224 -0.022359 0.230119 0.035847 0.696703 0.696786 0.324336 0.049474 0.076133 1.714674
<VARIANCE> 39
20.687151 45.972345 31.392385 54.096918 66.454777 44.845938 49.524581 89.138489 52.386804 57.431555 62.733395 43.763731 71.091311 2.781786 9.680002 4.398123 8.574040 4.125279 4.403614 6.078354 10.186554 7.146033 9.023885 8.905180 4.335498 8.777390 0.587000 1.624435 0.664945 0.849715 1.179805 1.014661 1.210853 1.231121 1.180554 1.328882 1.315776 0.997436 2.629979
<STATE> 3
<NUMMIXES> 2
<MIXTURE> 1 0.496615
<MEAN> 39
-12.791420 -1.093041 -1.627902 1.812104 -2.012189 -5.235918 -3.371595 -0.454320 0.581815 0.799157 1.969320 0.323011 36.784154 -1.618330 -1.946557 -2.346188 -0.100072 1.248864 1.100761 0.733688 1.472046 1.948402 0.486947 0.178839 0.257912 1.912086 0.093116 -0.289371 0.457818 -0.120645 -0.794149 -0.844754 0.077619 -0.058102 -0.694663 -0.208070 -0.277781 -0.372665 1.683620
<VARIANCE> 39
13.550986 57.104827 39.678192 17.950634 21.673008 28.342437 27.185335 24.567504 22.735694 22.437053 19.865829 18.554409 93.240594 4.116270 6.219828 4.808897 2.932462 3.826853 6.014271 3.711136 4.445196 4.193938 3.180628 3.473143 2.926056 12.206653 1.040014 2.356215 1.009675 0.607014 0.771034 0.875111 1.000075 1.025808 0.739172 0.708644 0.767494 0.606630 3.125761
<MIXTURE> 2 0.503385
<MEAN> 39
-11.336408 -6.361983 -5.257314 2.501057 -0.603045 -5.140497 -4.488723 0.641038 0.455258 -0.073387 0.443761 -1.302387 43.018356 -1.134964 -2.596985 -2.543337 -0.372137 0.303042 -0.754583 -0.555501 0.529095 0.710874 -0.371507 -0.754005 -0.669429 5.146310 -0.767924 0.792675 0.970703 -0.075533 -0.619876 -0.779876 0.154871 0.119530 -0.459742 -0.277708 0.129750 0.055141 0.591994
<VARIANCE> 39
21.332846 70.286103 56.128151 23.287745 29.630624 38.032423 36.470502 28.920924 27.869792 23.495726 21.384084 17.959569 110.002368 6.234308 5.485932 4.856032 4.485022 4.209835 5.720094 4.178249 3.769380 3.941905 3.251480 2.903186 2.596805 6.485499 1.059785 2.026885 1.110697 0.555388 0.738818 1.051575 0.978504 0.862948 0.799746 0.645921 0.641933 0.594720 3.205926
<STATE> 4
<NUMMIXES> 2
<MIXTURE> 1 0.521067
<MEAN> 39
-20.312276 -5.615297 -4.905930 1.067642 -0.902514 -11.626701 -4.433000 3.428512 1.721379 -1.620063 -0.083086 -1.401620 56.368464 -5.221488 2.564544 1.556664 -0.378015 -0.377027 -0.628700 1.853215 1.296214 0.311316 -0.609561 0.315041 0.871619 1.361544 -0.036812 0.975319 0.556267 0.003019 -0.059065 0.805353 0.397475 -0.225503 -0.398820 0.023139 0.195240 0.195452 -1.793655
<VARIANCE> 39
46.727329 21.463010 44.001187 34.879931 47.270814 36.541413 41.644554 30.317210 29.450915 21.930134 19.065081 17.229913 20.588553 2.341435 2.778491 2.858569 2.592161 3.608657 3.854034 2.598404 2.705775 3.015552 2.379819 2.460396 1.762926 3.185575 1.023268 0.690797 0.725351 0.490663 0.509232 0.617147 0.742421 0.590661 0.555614 0.524256 0.403804 0.443738 0.497308
<MIXTURE> 2 0.478933
<MEAN> 39
-25.267027 -4.954829 -3.023123 2.298679 -2.972925 -10.944985 -2.030049 5.249585 2.862964 -2.446572 0.005194 -0.515576 55.213361 -4.124994 1.953103 0.803927 -0.587865 -0.804601 0.257587 1.445577 0.694914 -0.554339 -0.836971 0.086024 0.511864 0.399171 0.826777 0.342176 -0.054804 -0.173611 0.118816 0.730615 -0.105342 -0.560481 -0.579770 0.121417 0.123811 -0.042255 -1.200948
<VARIANCE> 39
32.364722 19.265598 33.519527 32.383038 54.874989 35.698091 45.784954 27.706907 26.949759 22.416391 26.254674 18.357852 18.849091 2.364302 2.511851 2.772087 2.011575 2.869387 3.411779 2.576366 2.751051 2.833719 2.244832 2.412517 1.690809 2.718211 0.708099 0.519907 0.558755 0.352695 0.590626 0.480165 0.601129 0.532599 0.528231 0.475486 0.470509 0.444109 0.464664
<TRANSP> 5
0.000000 1.000000 0.000000 0.000000 0.000000
0.000000 0.724813 0.275187 0.000000 0.000000
0.000000 0.000000 0.768691 0.231309 -0.000000
0.000000 0.000000 0.000000 0.560263 0.439737
0.000000 0.000000 0.000000 0.000000 0.000000
<ENDHMM>
~h "n"
<BEGINHMM>
<NUMSTATES> 5
<STATE> 2
<NUMMIXES> 2
<MIXTURE> 1 0.515535
<MEAN> 39
3.780432 -3.415459 9.779202 2.009365 -9.771209 -4.796530 -3.784090 -7.583724 -9.806217 -1.642496 -3.267015 -8.250586 55.200337 0.123906 1.170629 -0.031514 0.865791 0.366913 -0.227570 0.722941 -0.873831 -0.565065 0.478459 -0.366057 0.056013 -1.050410 -0.198870 -0.091779 -0.206132 -0.168713 0.264292 0.097313 -0.121084 0.396209 0.309359 -0.208519 -0.064751 0.122313 0.057487
<VARIANCE> 39
10.125987 36.269489 29.758496 64.032721 49.271518 44.876021 56.999758 85.417495 56.209869 60.495608 71.406443 45.116631 37.730424 0.756721 1.919000 1.808334 2.746552 2.156053 2.285740 2.790880 4.304250 3.452292 3.056254 2.346203 1.924271 1.358986 0.164068 0.299208 0.377845 0.593871 0.453945 0.477551 0.579318 0.820777 0.659156 0.531375 0.500065 0.369929 0.188736
<MIXTURE> 2 0.484465
<MEAN> 39
2.197997 -1.742668 6.655453 -7.993539 -14.479280 -9.132382 -5.720730 -16.077895 -14.605381 -6.314360 -12.630015 -4.959188 53.084917 0.487575 1.207621 -0.009093 0.833495 -0.162077 -0.155630 -0.117646 -1.268635 -0.032109 0.127838 -0.271989 -0.040574 -0.914953 -0.203265 -0.227297 -0.167832 0.135646 0.363057 -0.039018 -0.092369 0.577783 0.046437 -0.226685 0.179812 -0.062522 0.110396
<VARIANCE> 39
13.608837 44.046931 27.610178 78.215473 40.929478 61.075797 58.148922 84.044187 71.122670 64.044007 59.104392 48.252435 40.881064 1.442317 2.279632 2.018288 3.333168 2.654798 3.476289 2.703839 4.770203 3.165730 3.499863 2.881562 2.426092 1.805561 0.233762 0.329173 0.420967 0.747830 0.511892 0.705260 0.544325 0.967934 0.635475 0.604395 0.530956 0.482291 0.184558
<STATE> 3
<NUMMIXES> 2
<MIXTURE> 1 0.527023
<MEAN> 39
3.358311 1.371852 9.040010 4.011344 -8.225935 -6.680703 -2.594014 -10.330745 -11.559762 -0.910729 -6.121189 -7.803212 50.846928 -1.391104 0.033545 -0.305276 -0.132666 1.513887 0.676013 -0.260418 1.462352 1.052280 -0.618353 0.324250 0.414799 -0.245175 -0.795172 -0.691938 -0.423754 -0.653047 0.263933 0.345705 -0.246630 0.906953 0.770308 -0.254302 0.234645 0.241494 0.329991
<VARIANCE> 39
14.037187 33.751058 23.641144 45.993413 50.701304 47.805432 55.928175 62.538845 61.365664 71.571207 63.082869 36.879979 36.245514 3.855546 5.263394 2.568179 4.835978 4.813125 4.051082 5.182157 5.725014 5.267984 4.233006 4.373254 3.256385 4.700465 0.535564 0.506852 0.473264 0.560045 0.813237 0.688331 0.840256 0.795811 0.906986 0.952124 0.725370 0.500480 0.345032
<MIXTURE> 2 0.472977
<MEAN> 39
2.631644 0.815911 6.932196 -3.884763 -14.103003 -10.967252 -6.401685 -17.096486 -14.005523 -6.751541 -12.585702 -3.715770 50.729950 -0.939892 -0.946732 -0.333138 -0.038329 1.364783 0.189482 -0.534585 2.329075 0.069751 -0.885216 0.564259 -0.447576 0.708325 -0.681636 -0.716768 -0.462770 -0.289574 0.573475 0.424846 0.048013 1.171883 0.332110 -0.067367 0.440560 -0.060501 0.320207
<VARIANCE> 39
11.956179 37.431696 21.374102 49.520713 42.474934 59.556943 59.506801 70.684372 67.031457 69.189868 55.209644 48.140822 32.969971 3.423933 5.157087 2.463726 5.533808 4.987877 5.187411 4.790726 9.486338 4.787152 4.510594 4.361734 3.509514 4.603224 0.434486 0.442269 0.424863 0.575223 0.734547 0.777583 0.837804 1.080565 0.842198 0.924612 0.708604 0.689203 0.335107
<STATE> 4
<NUMMIXES> 2
<MIXTURE> 1 0.547119
<MEAN> 39
-6.614884 -1.034671 4.063387 2.285061 -2.418258 -3.013921 -1.812447 -1.887810 -5.187686 -4.573300 -3.712697 -3.721864 43.806549 -1.888555 -0.422870 -1.121708 -0.339844 0.742335 0.842441 0.505503 1.363849 1.637916 0.598400 1.042718 0.755475 -0.824101 0.141325 -0.082951 0.005593 -0.193173 -0.292596 -0.148325 -0.016240 -0.237325 -0.100357 0.152560 -0.035258 0.031198 0.283220
<VARIANCE> 39
37.700189 42.204943 37.578125 40.175470 44.458035 35.397946 51.720184 67.265531 62.876572 50.915822 40.538828 38.198509 74.153014 4.707854 3.661656 2.902479 3.592407 3.885926 3.533305 4.222754 5.455733 5.385265 4.821773 4.492236 2.908114 3.567846 0.435411 0.670891 0.537692 0.629656 0.654001 0.591255 0.800440 0.757974 0.838011 0.732622 0.640430 0.561787 0.669957
<MIXTURE> 2 0.452881
<MEAN> 39
-2.174206 -8.678514 4.549825 -5.981875 -6.602280 -6.045969 -6.802071 -0.117597 -8.044766 -7.690838 -7.180772 -4.793230 56.052803 -1.044107 -1.891677 -1.674934 -1.152318 1.093515 0.998025 -0.409286 2.059684 1.028900 -0.949350 0.160027 -0.059825 1.240862 0.129432 0.356665 -0.112255 0.350400 -0.115740 0.032347 0.200133 -0.848378 0.021172 0.288728 0.011167 -0.016073 -0.278977
<VARIANCE> 39
34.975459 66.656255 37.738238 81.077174 51.918379 57.696045 67.140654 76.458609 98.217032 63.919919 52.301840 43.316839 112.522788 3.383605 4.771124 3.216794 5.027195 5.479806 4.853588 5.003775 8.011119 6.384643 4.743075 4.920916 3.589644 5.529156 0.285861 0.595569 0.500606 0.874956 0.705103 0.799070 0.931504 1.177642 0.941997 0.724811 0.707558 0.555301 0.699591
<TRANSP> 5
0.000000 1.000000 0.000000 0.000000 0.000000
0.000000 0.749686 0.250314 0.000000 -0.000000
0.000000 0.000000 0.590686 0.409314 0.000000
0.000000 0.024604 0.000000 0.681597 0.293800
0.000000 0.000000 0.000000 0.000000 0.000000
<ENDHMM>
~h "r"
<BEGINHMM>
<NUMSTATES> 5
<STATE> 2
<NUMMIXES> 2
<MIXTURE> 1 0.514218
<MEAN> 39
6.190271 -12.210183 4.549014 -0.039184 -8.755898 -11.190772 -20.125291 2.280071 -1.283533 -7.816473 3.357449 -1.957836 62.451068 0.707099 -0.728924 -1.071933 1.132061 1.034173 -1.226923 -1.252910 1.138068 1.121365 -0.402321 -0.503876 0.327873 -0.187430 -0.342065 0.483684 0.038055 -0.208922 0.140764 0.217188 0.500682 -0.229673 -0.138474 0.266411 -0.211336 -0.035092 -0.142655
<VARIANCE> 39
20.967576 27.871400 182.110440 59.062769 106.657604 76.252718 81.279834 62.683885 83.187606 67.394601 51.900999 33.882729 26.205576 1.659895 1.097182 7.470996 1.788425 5.944728 2.920683 3.366796 4.585350 3.269539 4.019663 3.071938 1.905275 0.797095 0.253692 0.205030 0.980344 0.374069 1.009370 0.545691 1.228500 0.568119 0.807465 0.632702 0.560695 0.350052 0.067745
<MIXTURE> 2 0.485782
<MEAN> 39
3.552437 -13.551154 1.450495 -8.045442 -11.471799 -23.637412 -9.763060 1.721999 -16.319855 -0.205532 -6.048638 -8.155906 60.313402 0.915624 -0.999552 -1.733657 1.455152 1.369538 -2.275253 -0.753627 2.399058 0.349886 -1.276665 -0.307198 0.063998 -0.152364 -0.283056 0.458522 0.105883 -0.287248 0.040715 0.736060 0.010943 -0.437433 0.345283 -0.038283 -0.108553 0.214888 -0.104087
<VARIANCE> 39
15.671363 22.946191 129.581517 38.511608 87.707159 76.720733 79.141377 51.134665 58.159664 47.980590 44.362780 28.690850 18.895695 1.393011 1.066268 7.138710 2.153094 5.020116 2.859792 3.640896 2.605757 4.291135 2.876988 2.636164 1.847633 0.785162 0.289362 0.178302 0.966719 0.283285 0.989038 0.587668 1.278335 0.468799 0.678541 0.613603 0.550972 0.354373 0.072946
<STATE> 3
<NUMMIXES> 2
<MIXTURE> 1 0.535173
<MEAN> 39
9.303361 -11.383792 -4.735254 -0.881720 -2.171168 -9.626689 -23.631115 2.087931 3.147442 -4.293137 1.704353 -1.497467 61.553925 -0.043457 0.003280 -0.344447 -0.273167 -0.073342 0.308702 0.530845 0.340318 -0.112765 0.270559 0.227398 -0.153840 0.003830 -0.275611 0.068703 0.512064 -0.151868 -0.398618 0.132053 0.606874 -0.047671 -0.394530 -0.034768 0.213294 -0.121019 0.028355
<VARIANCE> 39
9.832038 29.457445 88.660873 51.510571 73.337158 70.173209 84.501877 94.305413 67.834810 56.104322 48.706724 35.359432 24.645170 0.958953 1.045331 6.029917 2.214552 4.544797 2.921575 3.912750 3.304086 3.329006 3.329549 2.653601 1.731705 0.680736 0.094836 0.208491 0.203486 0.269812 0.306007 0.405478 0.535640 0.587928 0.445616 0.408149 0.304746 0.286669 0.087666
<MIXTURE> 2 0.464827
<MEAN> 39
6.584964 -13.998534 -6.546017 -5.468487 -5.275093 -23.893801 -14.283305 5.444832 -11.839735 -3.415647 -7.048115 -8.061692 58.913791 -0.195505 -0.412412 0.168698 -0.072350 -0.402644 0.012532 0.705184 0.666744 -0.327039 -0.266247 -0.235772 -0.100727 0.229898 -0.325095 0.178777 0.609123 -0.279396 -0.491420 0.564622 0.537888 -0.541095 -0.238286 0.243794 0.085577 -0.064155 0.027051
<VARIANCE> 39
7.724110 25.674312 66.478294 31.518163 57.893602 68.892817 64.555194 61.379363 55.411500 46.712598 47.667607 28.292392 19.440644 0.978698 1.025172 6.194512 1.404964 5.272699 3.115390 4.576601 2.853141 3.893617 2.943130 2.222428 1.712339 0.765944 0.087333 0.248966 0.234880 0.208236 0.348000 0.550701 0.406190 0.696923 0.386377 0.405017 0.359193 0.276504 0.099872
<STATE> 4
<NUMMIXES> 2
<MIXTURE> 1 0.501099
<MEAN> 39
1.507872 -6.904366 -2.667974 0.494723 -1.526260 -7.504453 -10.969400 2.081960 -2.553974 -5.252303 -2.641662 -3.754075 53.372747 -2.675625 1.177615 2.534139 1.201683 -0.247307 0.965240 2.508533 -0.532359 0.160461 0.098303 0.393540 0.328441 -1.590263 -0.362555 0.121937 -0.198095 -0.342360 0.060846 0.364236 0.180436 -0.071224 -0.072480 0.294472 0.281661 0.011698 -0.077914
<VARIANCE> 39
53.050131 43.186050 84.558871 63.688117 106.817256 85.571261 112.874698 77.935646 84.552568 66.463390 66.766492 42.265319 94.902200 4.643541 4.966842 5.275176 5.896134 6.193094 5.744608 6.511425 5.865400 7.711544 5.237164 5.220082 3.790651 3.656949 0.781347 0.833754 0.947879 0.811045 0.992466 0.998905 1.205595 1.094134 0.884520 0.929515 0.742985 0.625383 0.597023
<MIXTURE> 2 0.498901
<MEAN> 39
2.803102 -13.891611 1.807597 -2.979704 -9.998890 -18.259329 -8.831030 4.876678 -12.019895 -4.883419 -2.760096 -5.634449 59.120025 -1.425773 0.480749 2.543531 -1.212917 -2.115135 1.498167 2.155366 -1.599440 -1.280378 0.874061 0.349652 -0.593382 0.001859 -0.043159 0.552197 -0.203496 -0.364389 0.419252 0.699772 -0.479642 -0.826203 0.525103 0.356759 -0.313173 -0.081220 -0.196800
<VARIANCE> 39
24.141058 35.909498 100.333821 70.967575 96.470820 132.822554 85.791079 63.185945 113.391808 73.541463 79.802348 40.417082 60.997946 1.094909 1.960846 4.746095 2.864592 4.638372 3.462738 4.096816 5.190107 4.992767 4.756240 3.308259 2.639834 1.496832 0.181445 0.333554 0.375817 0.378522 0.582836 0.822704 0.648193 0.817803 0.735113 0.557302 0.521896 0.382038 0.176632
<TRANSP> 5
0.000000 1.000000 0.000000 0.000000 0.000000
0.000000 0.454035 0.545965 0.000000 0.000000
0.000000 0.000000 0.759902 0.240098 -0.000000
0.000000 0.000000 0.000000 0.617349 0.382651
0.000000 0.000000 0.000000 0.000000 0.000000
<ENDHMM>
~h "s"
<BEGINHMM>
<NUMSTATES> 5
<STATE> 2
<NUMMIXES> 2
<MIXTURE> 1 0.406789
<MEAN> 39
-18.927445 3.549929 2.351268 0.321240 -1.912635 -6.892840 -2.482696 -2.148250 -4.036346 -4.407017 -1.354385 -2.984342 53.443656 -4.687573 0.805838 -1.760859 0.055000 1.508210 1.519615 2.018503 1.658270 1.482425 0.892299 1.415004 0.828501 0.097312 0.473994 -0.547196 -0.441352 -0.412094 -0.352288 0.114840 -0.292506 0.022648 0.045951 0.357940 0.024208 0.056758 -0.109938
<VARIANCE> 39
63.175147 39.077630 76.113351 41.922900 60.336593 56.904809 50.085959 57.458518 47.249878 39.183482 31.830784 24.135158 51.646893 6.549158 4.637145 5.803192 6.225722 4.920819 5.715674 5.607069 4.931873 4.702484 4.412877 4.989545 2.841867 2.790289 1.085700 0.873225 1.017192 0.836937 0.946542 0.949676 0.960279 0.912669 0.786570 0.868351 0.739636 0.555262 0.293120
<MIXTURE> 2 0.593211
<MEAN> 39
-24.410476 1.509298 -1.880681 -1.584750 -0.840564 -4.959815 0.399835 1.567083 -0.974706 -1.908947 0.878953 -1.195821 51.759467 -2.767771 0.323301 -1.614852 -0.705839 0.093364 0.539063 0.421663 0.358174 0.320409 0.376001 0.521848 0.317024 0.492697 0.925056 -0.160327 0.030655 0.072827 -0.223415 -0.062389 -0.433288 -0.361746 -0.194246 0.052086 -0.191027 -0.123905 -0.201003
<VARIANCE> 39
41.187475 36.139581 52.569602 45.223394 58.751968 38.977236 39.033118 39.870197 30.581139 27.416663 27.565042 21.309984 48.961278 3.904506 3.169487 3.786305 3.632362 2.721879 3.595457 3.095648 3.491993 3.523822 3.022096 2.615131 2.261027 3.383419 0.844328 0.600283 0.674452 0.609247 0.776502 0.680355 0.699680 0.644331 0.635564 0.605901 0.607339 0.456757 0.319517
<STATE> 3
<NUMMIXES> 2
<MIXTURE> 1 0.497742
<MEAN> 39
-29.081932 1.751311 -6.036314 -2.452743 -1.020965 -4.355591 -0.307691 1.499185 -0.621812 -0.762294 1.391962 -0.415986 53.657442 -0.030129 0.078806 -0.116936 0.011770 0.143142 0.276695 0.181293 0.079428 0.156248 0.250537 0.098202 0.105871 0.076090 0.550130 -0.083714 0.336702 0.078975 -0.031917 -0.107911 -0.063215 -0.044604 -0.000928 -0.045144 -0.088642 -0.103924 0.013736
<VARIANCE> 39
14.987855 21.721887 40.668157 56.342346 48.878745 36.654096 27.590360 27.123028 19.921724 18.728043 18.787252 14.686237 25.286758 0.884847 1.025618 1.146834 1.189376 1.354103 1.599174 1.464643 1.584528 1.572012 1.529892 1.408982 1.342239 0.555312 0.346116 0.225542 0.263803 0.282170 0.291819 0.326561 0.340403 0.336627 0.331009 0.332085 0.305376 0.293800 0.120736
<MIXTURE> 2 0.502258
<MEAN> 39
-28.512345 1.629309 -7.149247 -0.191999 -2.489985 -2.496274 0.196334 1.184383 -0.191788 -0.310386 2.080545 -0.818161 52.287139 -0.018632 -0.161219 -0.258971 -0.321253 -0.277172 -0.010792 -0.226971 -0.262783 -0.167658 -0.067121 -0.173865 -0.088755 0.113406 0.627617 -0.071282 0.332329 -0.087605 -0.160743 -0.333176 -0.188064 -0.205581 -0.144262 -0.171859 -0.185684 -0.098662 0.107079
<VARIANCE> 39
13.863828 21.682152 37.286494 50.850113 47.514386 33.651443 23.896645 24.722756 19.595313 18.455624 18.242178 14.372347 24.697648 0.837676 0.995584 1.176400 1.226670 1.355418 1.596956 1.526239 1.585615 1.611541 1.565282 1.429335 1.355350 0.631498 0.367100 0.217864 0.270127 0.283591 0.311778 0.380408 0.355652 0.371462 0.384750 0.353445 0.323329 0.297245 0.136857
<STATE> 4
<NUMMIXES> 2
<MIXTURE> 1 0.568184
<MEAN> 39
-19.592340 -1.656512 -1.127989 -3.246020 -0.531587 -6.887756 -1.886174 2.296094 -0.058360 -0.754274 -0.480244 -1.030725 48.100531 2.188503 -0.303913 0.726883 0.490533 -0.067882 0.383560 -0.192719 -0.093870 0.218039 0.468680 -0.074414 -0.189008 -1.274410 0.286683 -0.054460 0.066529 0.132574 -0.137718 0.129990 -0.084306 -0.034375 0.022263 0.010199 0.048826 -0.124609 0.053809
<VARIANCE> 39
78.407602 33.826252 32.400270 39.929987 52.815202 51.416878 48.526658 39.177063 38.079451 36.378418 30.769033 30.379789 88.169836 5.808924 3.169438 3.154388 2.910806 4.160568 4.479798 3.996743 3.561971 3.290618 3.098331 2.840457 2.847193 4.151901 1.583037 0.631696 0.593243 0.548815 0.802414 0.840624 1.011581 0.759773 0.752144 0.678687 0.591894 0.609839 0.748335
<MIXTURE> 2 0.431816
<MEAN> 39
-23.334298 0.655813 -5.465920 0.010986 -3.807122 -2.716266 0.429353 -0.149164 -0.681537 -1.003966 1.512088 -1.260348 51.300231 3.552955 -0.045550 1.681463 -0.927618 -1.381524 -1.657216 -1.066689 -1.361058 -1.111933 -0.893398 -1.245585 -0.668216 0.822741 1.224362 -0.448503 0.505029 -0.506000 -0.721026 -0.899625 -0.608639 -0.218183 -0.256831 -0.132257 -0.511562 -0.106924 0.509090
<VARIANCE> 39
58.750520 26.465471 39.793174 36.152933 44.265942 43.221662 27.086872 27.854143 25.597438 23.768858 26.771834 19.106772 53.139456 5.203746 3.356300 2.784240 3.590821 3.934363 4.526686 3.778371 3.425492 3.077085 2.721228 3.000074 2.357710 3.563544 1.021592 0.561739 0.609765 0.666564 0.681784 0.922302 0.702066 0.693118 0.688941 0.627247 0.709567 0.494876 0.626690
<TRANSP> 5
0.000000 1.000000 0.000000 0.000000 0.000000
0.000000 0.641871 0.358129 0.000000 -0.000000
0.000000 0.000000 0.831225 0.168775 0.000000
0.000000 0.023654 0.000000 0.639447 0.336899
0.000000 0.000000 0.000000 0.000000 0.000000
<ENDHMM>
~h "t"
<BEGINHMM>
<NUMSTATES> 5
<STATE> 2
<NUMMIXES> 2
<MIXTURE> 1 0.505904
<MEAN> 39
-8.851259 4.090527 7.468888 3.220083 -4.242840 -5.854765 -5.783400 -5.035899 -4.781341 -3.273936 -1.512624 -2.511009 38.125543 -2.371841 0.291169 -2.287414 0.348631 2.334706 1.748960 1.841919 1.647625 2.325341 1.168026 0.996048 1.052803 -2.996077 -0.047324 -0.825257 -0.005138 -0.916351 -0.411902 0.117996 0.004754 0.218077 0.000893 0.380173 0.132894 -0.005851 1.214554
<VARIANCE> 39
35.455470 37.866734 48.307714 42.064335 48.917246 36.295299 35.406351 37.205154 38.724230 35.869567 30.717154 26.945677 59.871659 3.904373 7.515800 7.155345 5.959116 5.692086 3.989349 4.353369 5.643851 5.175619 4.858815 5.893286 3.152120 9.422786 0.596549 1.140766 1.300573 0.851868 1.201648 0.907260 0.765128 0.837750 0.894561 0.888859 0.903995 0.610303 1.866603
<MIXTURE> 2 0.494096
<MEAN> 39
-6.321648 5.706115 7.329550 2.380976 -6.451978 -7.772050 -6.712396 -7.547952 -7.422936 -4.780787 -3.966180 -4.097365 38.171643 -1.548407 0.144592 -2.761368 0.761407 2.274463 1.041696 0.706883 1.010679 1.168616 -0.261154 0.574686 0.069342 -2.193291 -0.460043 -1.032050 0.253480 -1.122842 -0.390542 0.223069 0.080049 0.257272 0.167389 0.660356 0.240940 0.246655 1.439700
<VARIANCE> 39
27.713285 41.214742 41.346437 40.103127 52.398174 38.949011 41.120031 41.994099 45.153747 48.963295 40.749976 37.618051 39.581135 4.208244 7.747592 6.629308 8.194046 5.988757 4.254875 4.466745 5.706138 5.035755 6.244934 5.614045 3.765676 11.199697 0.594792 1.179036 0.993192 0.893785 1.123121 0.851614 0.921805 0.919410 1.034279 1.117534 1.032794 0.774209 1.596733
<STATE> 3
<NUMMIXES> 2
<MIXTURE> 1 0.493472
<MEAN> 39
-15.088077 0.213213 1.474931 0.115395 -0.545837 -0.795819 -0.465408 0.459454 1.117159 1.293478 1.960706 -0.129174 35.318678 -1.197814 -0.963217 -0.654941 -1.009149 0.222937 0.469398 0.853661 1.012934 0.883597 0.865217 0.797765 0.356634 1.555451 0.307452 0.026636 0.458177 -0.207171 -0.505313 -0.495679 -0.250251 -0.410643 -0.596508 -0.288092 -0.292520 -0.226255 1.145795
<VARIANCE> 39
11.947201 27.570987 17.360971 27.021041 20.605394 20.716653 21.451913 19.779993 21.498494 18.349917 15.841999 15.125372 96.352917 2.847389 3.833847 2.712124 3.381114 2.921538 3.089742 3.540080 3.533449 3.752192 3.133426 2.767513 2.381987 15.054869 0.494958 0.824567 0.617097 0.765396 0.667908 0.557571 0.662403 0.688756 0.688629 0.572172 0.551265 0.431455 2.599361
<MIXTURE> 2 0.506528
<MEAN> 39
-14.784159 -2.499507 1.535178 -2.829824 -1.318778 -1.655636 -1.712383 -0.402412 -0.058316 0.895100 1.416231 -0.813043 40.780849 -1.099407 -1.590057 -0.395945 -2.304266 -0.718353 -0.738366 -0.199366 -0.148366 -0.857437 -0.115384 0.085032 -0.273289 5.492754 -0.035238 0.485842 0.464286 0.072637 -0.446156 -0.427626 0.035105 -0.165249 -0.457887 -0.157527 -0.117699 -0.076892 0.727277
<VARIANCE> 39
21.974847 43.724580 23.901616 41.699059 27.668565 26.596020 25.908206 28.742740 30.006971 20.775129 17.802589 16.207874 148.612067 3.955747 4.315985 3.531568 3.729301 3.449715 3.510640 3.801447 3.613612 3.728551 3.197014 2.918965 2.448232 13.144700 0.573081 1.040032 0.644276 1.060225 0.668206 0.632992 0.785531 0.825090 0.731680 0.625930 0.560891 0.425527 3.417897
<STATE> 4
<NUMMIXES> 2
<MIXTURE> 1 0.509155
<MEAN> 39
-20.802976 -1.252813 2.804798 -7.139638 -3.948893 -5.481739 0.197319 0.853839 -3.227769 0.513323 3.090366 -0.437480 56.936847 -0.800625 0.721027 1.007800 0.790852 -0.528057 -0.451317 1.247917 0.851382 -0.100275 0.059827 0.289585 0.324172 0.727967 0.957313 0.031815 0.347057 0.858510 0.025458 0.235295 -0.080915 -0.075175 0.120140 -0.146604 -0.257420 -0.085935 -1.644690
<VARIANCE> 39
34.128759 26.970343 40.959084 30.821553 26.522638 27.445505 36.051518 37.628896 25.907152 29.941520 21.857068 20.788219 65.308130 4.588383 3.217997 3.011141 3.636296 2.758748 3.476103 2.908437 3.075799 2.913317 2.583933 2.165294 1.929902 8.267731 0.751739 0.737394 0.687786 0.795590 0.600710 0.571974 0.763905 0.661763 0.609338 0.541314 0.507616 0.459520 1.498589
<MIXTURE> 2 0.490845
<MEAN> 39
-17.775724 -2.316388 4.467620 -5.138929 -6.022680 -4.853348 2.895998 -0.183056 -3.547698 1.098154 2.029303 -0.961658 51.978011 1.554685 -0.541578 1.005079 0.486570 -1.144930 -0.420117 -0.054903 -0.401534 -0.892846 -0.771150 -0.817685 -0.296024 -0.076590 0.903884 -0.027314 0.133863 0.033395 -0.214246 -0.300858 -0.830329 -0.426703 -0.314764 -0.354496 -0.426323 -0.202123 -0.186874
<VARIANCE> 39
68.860228 31.926918 32.275684 38.068021 39.192170 31.691572 41.782988 49.877082 36.890060 36.155235 30.472448 24.435255 91.727888 4.329847 2.586071 3.674285 3.758835 3.343729 3.093052 3.249338 3.612476 3.366018 3.268157 2.942679 2.281007 5.478307 1.097012 0.682830 0.540058 0.642597 0.772701 0.829460 0.882469 0.759689 0.820351 0.697616 0.754647 0.477524 1.150087
<TRANSP> 5
0.000000 1.000000 0.000000 0.000000 0.000000
0.000000 0.604311 0.395689 0.000000 0.000000
0.000000 0.000000 0.697662 0.302338 -0.000000
0.000000 0.032379 0.000000 0.695290 0.272331
0.000000 0.000000 0.000000 0.000000 0.000000
<ENDHMM>
~h "v"
<BEGINHMM>
<NUMSTATES> 5
<STATE> 2
<NUMMIXES> 2
<MIXTURE> 1 0.497163
<MEAN> 39
1.792365 -15.612964 2.611355 -9.819345 -9.147026 -5.960669 -8.928833 5.497173 4.535566 -0.523370 -3.965958 -12.900453 68.222253 0.581792 0.367745 0.107286 0.514424 0.147623 -0.068659 -0.660810 -0.697884 -0.393469 0.613377 1.088538 0.023261 -0.846921 0.009638 0.536202 0.049347 0.420092 0.361878 0.059982 -0.197846 -0.645909 -0.415406 0.095223 0.326799 0.287992 -0.570935
<VARIANCE> 39
12.086917 22.266182 38.200788 29.201102 37.039719 47.515271 51.209260 57.117846 62.681100 60.579508 62.118279 41.209157 26.338954 0.299203 1.167712 0.890296 0.954429 1.061178 1.805449 2.270184 2.191962 1.572060 1.689879 2.068425 1.614200 0.804406 0.089322 0.162922 0.183182 0.200774 0.281335 0.273094 0.283772 0.302527 0.291312 0.295245 0.308639 0.226125 0.117616
<MIXTURE> 2 0.502837
<MEAN> 39
-2.192539 -16.282784 -1.076976 -15.715688 -12.489760 -11.226096 0.581560 -0.094181 -9.030528 -10.216699 -14.150616 -4.833737 66.622354 0.474630 0.168825 0.067418 0.386977 0.243648 -0.379077 -0.632523 -0.072100 0.280897 0.256731 -0.313678 -0.485088 -0.627246 0.071186 0.573369 0.107023 0.606971 0.175783 -0.174905 -0.726076 -0.409787 0.192216 0.235905 0.228920 -0.057654 -0.578277
<VARIANCE> 39
9.832833 22.486444 27.441447 33.287058 42.586747 40.202433 46.452567 46.625947 52.465746 38.735390 29.577751 29.760863 21.074715 0.334733 1.417408 0.767852 1.018530 1.844412 2.713544 2.751360 1.357174 1.759338 1.769164 1.061969 1.293650 0.946326 0.090601 0.175571 0.163161 0.356331 0.422301 0.366838 0.317381 0.356174 0.317592 0.308569 0.260559 0.274383 0.129500
<STATE> 3
<NUMMIXES> 2
<MIXTURE> 1 0.528551
<MEAN> 39
4.179033 -10.438192 3.233168 -3.890320 -6.597091 -7.087436 -11.684665 -0.277005 -0.275415 0.481656 2.167016 -9.831113 60.647000 -0.590002 3.000516 0.413234 2.398939 1.861434 0.828909 -0.109505 -2.334986 -1.662889 0.015876 0.849719 1.260202 -3.146496 -0.755385 0.148159 -0.024917 0.011311 0.222435 0.415675 0.734715 0.243513 0.085511 -0.366166 -0.558222 0.086796 -0.019484
<VARIANCE> 39
9.440757 31.704695 32.437841 37.974831 33.799828 46.070325 40.410344 63.413004 48.444629 54.589698 65.211353 38.163405 36.283838 2.608704 2.459656 2.442715 2.299955 2.797538 3.611246 4.179908 3.505923 4.113663 3.091153 4.204383 2.592276 1.405971 0.373651 0.537764 0.282064 0.449660 0.511429 0.557793 0.473961 0.716616 0.562893 0.434737 0.551299 0.402661 0.423349
<MIXTURE> 2 0.471449
<MEAN> 39
0.933964 -10.768908 1.134655 -8.998809 -10.963542 -14.637948 -8.152601 -4.258579 -7.436513 -5.990618 -12.946123 -8.438224 58.406047 -0.291816 3.322722 1.235910 3.421605 1.630848 0.214713 -2.446926 -2.421268 -0.182637 0.343371 1.039830 -0.640872 -3.500992 -0.706405 0.115989 0.004382 0.213086 0.365711 0.733807 0.522566 0.025296 -0.258299 -0.396989 0.280542 0.277858 0.020648
<VARIANCE> 39
8.535117 34.870628 29.150537 44.187718 47.625292 38.082683 58.256959 48.445628 39.059027 48.235610 43.234533 33.675748 37.598712 1.966610 2.487238 2.098550 2.846224 3.160508 3.315612 4.047009 3.322893 3.288027 3.609557 2.570750 3.093125 1.316995 0.287387 0.685725 0.334107 0.950153 0.837885 0.559609 0.767529 0.801784 0.578244 0.536435 0.526663 0.439900 0.618945
<STATE> 4
<NUMMIXES> 2
<MIXTURE> 1 0.554454
<MEAN> 39
-7.284539 -2.490445 3.277989 2.134021 -1.466464 -3.055436 -3.014544 -2.132774 -3.105380 -2.968993 -1.680465 -3.949918 47.221037 -1.743442 0.386269 -0.105795 0.488336 0.777518 1.112761 0.996771 0.457562 0.421969 0.205111 0.376725 0.756871 -1.194683 0.179217 -0.596725 -0.232541 -0.574902 -0.441252 -0.205811 -0.051783 0.370484 0.252171 0.111423 -0.019421 -0.146790 0.560492
<VARIANCE> 39
60.952005 30.928098 27.647103 27.856818 30.346375 30.239697 43.291859 44.333416 40.768182 36.413622 37.725380 25.993741 55.582994 6.762113 4.357054 2.558921 3.404532 3.579037 3.678586 3.910581 3.806168 4.118986 3.759019 4.555415 2.656455 2.834878 0.809489 0.928363 0.560308 0.717975 0.664946 0.625010 0.778716 0.859871 0.787846 0.613049 0.621375 0.485015 0.622100
<MIXTURE> 2 0.445546
<MEAN> 39
-3.891451 -3.810623 2.634070 -0.745235 -4.695383 -7.272060 -9.124378 -7.017932 -6.398250 -4.734834 -5.028977 -7.492354 50.623365 0.085363 -0.375319 -0.295720 -0.795072 -0.810885 -0.288421 0.154270 0.531899 0.052736 -0.375329 -0.135992 0.165557 0.530008 0.340483 -0.767614 -0.200053 -0.924811 -0.526439 -0.252218 0.290531 0.708282 0.257295 -0.061315 -0.341046 0.049515 0.882419
<VARIANCE> 39
54.172674 30.736888 22.501865 25.620461 30.030486 48.880282 57.374578 54.751953 43.963864 54.094925 67.855565 35.500066 47.393851 3.554923 4.454994 2.225863 5.014801 3.251212 2.993025 3.233189 4.481605 3.460860 2.965674 2.833449 2.199174 4.015505 0.646514 1.056704 0.596758 1.114355 0.747237 0.675970 1.064301 1.119267 0.881018 0.834270 0.706476 0.693346 0.867430
<TRANSP> 5
0.000000 1.000000 0.000000 0.000000 0.000000
0.000000 0.746792 0.253208 0.000000 -0.000000
0.000000 0.000000 0.643771 0.356229 -0.000000
0.000000 0.000000 0.000000 0.763885 0.236115
0.000000 0.000000 0.000000 0.000000 0.000000
<ENDHMM>
~h "w"
<BEGINHMM>
<NUMSTATES> 5
<STATE> 2
<NUMMIXES> 2
<MIXTURE> 1 0.525503
<MEAN> 39
6.338780 5.839562 2.265821 -9.122650 -12.799674 -3.299328 -3.862804 -3.651142 -6.423007 -3.536416 -1.571624 -7.048094 49.254607 0.980096 -0.300421 0.260139 -1.313497 -1.451070 -0.098654 0.028631 0.568822 0.413472 0.205628 0.211117 -0.527150 1.244568 -0.282883 -0.464282 -0.153109 -0.133699 0.214083 0.320640 -0.018472 0.180025 0.074800 -0.070405 0.087569 0.049954 0.196508
<VARIANCE> 39
32.123670 32.217725 26.139478 52.690291 54.573671 33.844611 41.673079 46.009424 42.235003 39.674700 43.654350 31.254749 50.340103 3.358601 3.161170 1.672893 4.031323 4.150930 2.758744 2.962468 3.142689 2.969834 2.793388 2.496231 2.360074 3.305804 0.533517 0.445299 0.335036 0.613902 0.821903 0.534669 0.519682 0.552060 0.575198 0.597981 0.490990 0.458294 0.357648
<MIXTURE> 2 0.474497
<MEAN> 39
5.042713 4.800071 -2.856925 -12.139179 -10.983930 -7.527235 -8.425358 -9.660236 -11.464123 -6.229373 -9.397708 -7.822235 47.386747 1.372425 0.181772 -0.337454 -1.666556 -1.316650 -0.193217 -0.039794 0.164798 -0.350869 -0.442357 -0.684474 -0.729783 1.091146 -0.277755 -0.503022 -0.059240 -0.169922 0.280768 0.241331 0.078680 0.344561 0.090702 0.206197 0.195441 0.117620 0.265424
<VARIANCE> 39
30.288381 30.231308 25.031037 67.880184 36.473442 32.423210 36.954872 44.567166 36.377380 31.814055 42.581208 28.403102 41.519743 4.375111 3.704091 2.518389 7.695842 3.943894 3.325646 4.245925 5.433184 4.618996 3.807194 3.879598 2.765626 4.013012 0.531572 0.514490 0.443608 1.054358 0.769703 0.685614 0.636769 0.773662 0.719253 0.624537 0.570330 0.487475 0.330739
<STATE> 3
<NUMMIXES> 2
<MIXTURE> 1 0.556710
<MEAN> 39
8.114840 -2.615535 1.706895 -16.534434 -16.461805 3.978536 -2.897870 2.515791 -3.589458 -7.221420 1.221716 -7.961473 59.834838 -0.237607 -1.431536 -0.856640 -0.983342 1.127614 1.872968 0.077286 0.340085 -0.069834 -1.096229 0.217011 0.586006 1.208022 -0.103089 -0.072406 -0.095185 0.315300 0.531992 0.046581 -0.247626 -0.439367 -0.155338 0.137797 0.080924 0.124559 -0.056509
<VARIANCE> 39
8.141020 31.433504 28.877838 51.464499 45.545341 56.871097 63.254021 68.020549 59.152030 52.302858 48.882874 42.840570 21.831034 0.280174 1.341366 0.997997 1.886311 2.897396 2.421135 2.334447 3.446952 2.583217 2.391608 2.176020 2.167705 0.582843 0.051592 0.145955 0.172666 0.284793 0.333948 0.476116 0.424423 0.415655 0.416665 0.628404 0.356417 0.407106 0.067149
<MIXTURE> 2 0.443290
<MEAN> 39
7.003108 -2.369975 -5.857913 -22.992810 -10.702620 -1.371382 -5.810644 -3.979953 -13.317988 -7.696248 -8.783322 -9.463523 56.731941 -0.411664 -2.154679 -1.153835 -1.176150 2.541597 2.027704 -0.199789 0.315194 -1.159448 -0.820106 0.722994 -0.138724 1.590677 -0.240021 -0.213617 0.137636 0.766532 0.658172 -0.119385 -0.547750 -0.518930 0.193007 0.114726 0.196713 -0.053229 -0.062362
<VARIANCE> 39
7.359372 27.609131 28.699656 45.528425 49.793043 51.142119 50.793192 55.456224 57.443740 53.354085 62.760500 29.813406 20.923059 0.406455 1.809759 1.057842 2.804635 3.578489 2.430919 3.256815 3.838937 3.167610 2.804266 2.725904 2.424996 0.697719 0.082713 0.208302 0.224416 0.482877 0.518634 0.679946 0.500296 0.524188 0.770006 0.616868 0.527485 0.455025 0.089702
<STATE> 4
<NUMMIXES> 2
<MIXTURE> 1 0.547362
<MEAN> 39
5.261413 -11.421355 -3.460698 -15.681681 -3.153589 10.442129 -8.777460 -2.737295 -4.613965 -7.415692 2.863347 -6.838626 65.394197 -0.436970 -1.016525 0.004163 1.599326 1.302881 -0.703293 -1.666378 -0.587505 1.130903 1.104455 -0.313031 -0.896381 0.454044 0.019824 0.235537 0.275706 0.251364 -0.475741 -0.628266 0.036415 0.407812 0.266804 0.068143 -0.426154 -0.275399 -0.182258
<VARIANCE> 39
9.065875 23.312901 22.812988 57.009086 46.018411 56.198758 84.043924 64.893354 80.310359 52.555443 67.108861 56.985337 24.410561 0.191488 0.602486 0.667439 1.012478 2.094316 2.266960 1.650710 2.376096 1.974131 1.900760 2.755209 1.877269 0.239935 0.031257 0.100402 0.103177 0.183054 0.215380 0.325936 0.294402 0.305544 0.436930 0.401097 0.319638 0.431285 0.036987
<MIXTURE> 2 0.452638
<MEAN> 39
3.430264 -12.711456 -8.966004 -19.783157 4.423144 1.249044 -14.215795 -7.172886 -12.838626 -8.045037 -6.106584 -12.575139 62.630494 -0.830184 -1.590629 0.410560 1.894135 1.169778 -1.223720 -1.804466 0.282704 1.862448 -0.307118 -0.957781 -0.635180 0.831099 -0.003054 0.338992 0.361665 0.216781 -0.917029 -0.616361 0.404963 0.533001 0.150800 -0.352127 -0.510261 0.369342 -0.198391
<VARIANCE> 39
8.468383 25.237901 25.889480 48.755834 52.369844 45.630627 55.872397 50.301857 78.993438 56.838481 57.495045 37.046110 19.909387 0.290448 0.980163 0.799833 1.068935 3.710903 2.440798 2.486587 2.799241 2.478558 2.218095 3.543197 2.276101 0.350366 0.034190 0.118471 0.145238 0.279332 0.358965 0.439264 0.533757 0.377928 0.790477 0.363753 0.471206 0.442565 0.036771
<TRANSP> 5
0.000000 1.000000 0.000000 0.000000 0.000000
0.000000 0.813196 0.186804 0.000000 0.000000
0.000000 0.000000 0.813202 0.186798 0.000000
0.000000 0.000000 0.000000 0.813691 0.186309
0.000000 0.000000 0.000000 0.000000 0.000000
<ENDHMM>
~h "z"
<BEGINHMM>
<NUMSTATES> 5
<STATE> 2
<NUMMIXES> 2
<MIXTURE> 1 0.548504
<MEAN> 39
-9.132013 5.095937 7.365917 0.371523 -0.347419 -8.748226 -7.509663 -2.617277 -3.485504 -3.134464 -3.561021 -3.748520 48.915808 -1.900305 2.123547 0.163107 -0.270366 1.445836 -0.622218 0.078513 -0.032681 0.205799 0.136812 -0.205593 0.320656 1.397591 -0.300331 -0.003340 -0.226868 0.013903 0.001397 0.238653 0.087994 0.128463 0.042118 0.063845 0.197244 0.043515 -0.020121
<VARIANCE> 39
51.027603 46.969500 54.180642 40.519439 52.458681 52.978868 68.581721 42.233179 33.363096 34.960348 28.408438 29.869239 106.346453 6.695502 4.455590 3.992484 3.456272 4.469012 4.191558 4.402300 3.585854 3.368769 2.910559 2.861849 2.504994 4.124699 0.601274 0.597230 0.565825 0.530283 0.674091 0.787185 0.682399 0.604290 0.532096 0.533308 0.487789 0.456849 0.496510
<MIXTURE> 2 0.451496
<MEAN> 39
-7.215199 5.601002 2.133174 0.750762 -9.903279 -13.634300 -8.679183 -8.819306 -8.982156 -9.339280 -7.603482 -4.076529 47.911187 -1.086326 2.518443 -0.831754 1.654430 0.062054 -0.179360 -0.360750 -1.050385 -0.492449 -1.669917 -0.024694 -1.318492 1.124205 -0.508613 -0.067617 -0.194755 0.000752 0.306029 0.483545 0.248998 0.348742 0.164900 0.401902 0.182545 -0.082568 -0.004994
<VARIANCE> 39
37.493730 40.562191 36.715930 38.409933 55.856278 64.396003 42.305363 47.151309 42.822874 41.930572 37.065829 36.837535 84.485776 7.861252 5.309729 4.371394 4.504675 5.113267 5.338475 4.737288 4.195770 4.658048 4.130042 4.582808 3.106855 5.034024 0.568615 0.733954 0.669528 0.518626 0.685067 0.771068 0.601785 0.725864 0.790002 0.694377 0.612378 0.659796 0.498388
<STATE> 3
<NUMMIXES> 2
<MIXTURE> 1 0.506476
<MEAN> 39
-15.932483 12.985004 8.120982 -0.087504 4.914331 -10.501686 -8.916926 -3.271289 -3.036333 -2.206598 -3.583124 -2.692323 57.438042 -2.281398 1.030841 -0.250673 0.079236 1.155060 0.705500 0.715184 0.648751 0.207415 0.130573 0.107645 0.314190 0.106182 0.540339 -0.760686 0.159468 0.005634 -0.491956 0.181250 0.033307 0.011373 -0.173380 -0.064316 0.062066 -0.125914 -0.037798
<VARIANCE> 39
26.463575 26.057313 41.435754 41.631247 42.779969 46.961201 44.639088 32.074054 27.239630 28.377299 21.130091 20.300731 25.507193 2.642210 2.589173 1.835631 1.847199 2.218990 2.701919 2.554902 1.997901 1.845095 1.857581 1.831781 1.538526 1.044426 0.265874 0.349678 0.316105 0.339755 0.383654 0.489989 0.357537 0.399855 0.373301 0.375224 0.334774 0.266434 0.159704
<MIXTURE> 2 0.493524
<MEAN> 39
-15.684885 13.880484 -1.267606 6.830592 -8.377344 -10.479164 -8.814712 -11.446875 -11.152992 -12.623989 -7.369268 -10.006817 52.514419 -2.082543 0.315080 -0.428948 0.965909 0.992869 1.576272 0.666195 0.247230 -0.002074 0.217350 0.435496 -0.418358 -0.040717 0.459485 -0.844440 0.204387 -0.702661 -0.350290 -0.209858 0.111658 0.061395 0.185450 0.463081 0.043366 0.450331 0.137242
<VARIANCE> 39
21.636899 26.729751 22.172010 25.723642 43.563458 43.370603 28.705458 23.630495 26.228408 25.081403 24.625352 23.978024 17.449807 2.418411 3.403630 2.295731 2.691762 2.806894 3.676740 2.490606 2.367881 2.311074 2.509778 2.122290 1.992394 1.143589 0.263916 0.541936 0.371608 0.393308 0.632115 0.596046 0.444260 0.525955 0.513685 0.538279 0.472469 0.368894 0.190424
<STATE> 4
<NUMMIXES> 2
<MIXTURE> 1 0.543509
<MEAN> 39
-22.755821 10.712655 6.345441 -1.231148 5.379928 -5.438376 -5.041295 -0.217026 -3.155461 -2.128786 -2.072106 -2.239929 56.512594 0.348751 -1.105795 0.025574 -0.201065 -0.971787 -0.243987 0.003147 0.180121 0.123241 0.226900 0.304467 0.127592 0.867552 1.198550 -0.627600 0.291812 0.018976 -0.840664 -0.507793 -0.493396 -0.343458 0.000360 -0.101453 0.018428 -0.098765 0.255484
<VARIANCE> 39
30.748062 27.820102 74.599965 41.171375 48.134514 54.419634 59.115947 31.611902 25.172656 21.240798 18.197793 18.568699 36.295461 3.506328 2.132015 2.634637 1.768363 2.583345 2.843669 2.553110 2.108931 2.179705 2.261430 1.674994 1.373643 0.808199 0.391896 0.506830 0.452579 0.414175 0.464343 0.513393 0.481442 0.396496 0.375529 0.378651 0.322181 0.279823 0.127177
<MIXTURE> 2 0.456491
<MEAN> 39
-23.598345 7.869499 -5.233769 5.077301 -4.961455 -3.170415 -1.714981 -5.925768 -5.831753 -5.757784 -1.925759 -6.011173 52.028281 0.580552 -0.809919 0.432534 -1.555070 -1.372838 -0.972713 0.247945 -0.516902 0.305434 0.515710 0.668874 0.502251 1.136283 1.374365 -0.186912 0.978584 -0.727137 -0.891604 -1.184145 -0.645787 -0.605661 -0.426232 -0.149421 -0.355502 0.049145 0.401984
<VARIANCE> 39
25.508745 41.819630 46.253179 27.459232 39.829243 40.414294 36.576326 38.396530 42.215590 42.398975 33.524508 30.017613 23.755922 3.483279 2.631055 3.787464 2.208699 2.850629 3.951016 2.829733 3.850258 3.060242 3.292438 2.493162 2.260994 0.886621 0.433336 0.787250 0.505010 0.546462 0.674211 0.636190 0.689710 0.698248 0.690132 0.775962 0.599945 0.538622 0.173774
<TRANSP> 5
0.000000 1.000000 0.000000 0.000000 0.000000
0.000000 0.675433 0.324567 0.000000 0.000000
0.000000 0.000000 0.717173 0.282827 0.000000
0.000000 0.000000 0.000000 0.682331 0.317669
0.000000 0.000000 0.000000 0.000000 0.000000
<ENDHMM>
~h "ah"
<BEGINHMM>
<NUMSTATES> 5
<STATE> 2
<NUMMIXES> 2
<MIXTURE> 1 0.486887
<MEAN> 39
3.849461 -11.724320 1.740555 -6.425861 -5.294705 -1.114006 -13.429759 0.242901 0.666117 -1.945463 -1.302440 -10.641581 63.377467 -0.145667 -0.251835 0.886499 0.210847 -0.555134 -0.910922 -0.219272 1.405482 0.331722 -0.359693 -1.270496 -0.185883 0.390797 -0.000330 0.517349 0.300759 0.276073 -0.010776 -0.053149 0.432672 -0.509262 -0.684533 0.070967 0.095308 0.236039 -0.502115
<VARIANCE> 39
10.221284 23.286477 30.288989 31.834000 33.401337 55.415568 51.048655 50.660917 59.843730 62.736307 64.520748 34.961935 29.520820 0.500453 1.433889 1.190494 2.761471 1.883671 3.158315 2.233293 2.608467 2.928220 2.566034 2.726405 2.478574 1.271174 0.109192 0.282954 0.222401 0.436764 0.373407 0.395972 0.503708 0.768108 0.675126 0.490554 0.509123 0.358760 0.239286
<MIXTURE> 2 0.513113
<MEAN> 39
0.066064 -14.977898 -2.154512 -11.833535 -3.593714 -10.133428 -13.093853 -1.023208 -8.676529 -13.089279 -12.752600 -8.299921 62.811038 -0.374842 -0.317479 0.820839 -0.247199 -1.554515 -1.059247 1.332831 1.419174 -0.907946 -1.248655 -0.227654 1.330204 0.605220 0.084397 0.538334 0.173431 0.010271 -0.107655 0.193046 0.182180 -0.416278 -0.491854 0.303590 0.345631 0.058294 -0.395472
<VARIANCE> 39
9.321120 26.567472 33.824116 32.193396 78.411557 55.310066 57.139472 56.575378 52.590247 54.738461 38.985403 37.745193 23.034507 0.502056 1.408034 1.282209 3.806646 2.101493 2.304985 2.069760 2.195877 2.464276 2.351908 2.388877 1.939934 1.201927 0.101123 0.233769 0.153546 0.504841 0.410122 0.312812 0.506442 0.503521 0.443245 0.424631 0.421289 0.387882 0.185787
<STATE> 3
<NUMMIXES> 2
<MIXTURE> 1 0.459499
<MEAN> 39
3.367175 -10.890769 4.462817 -5.118060 -5.893489 -3.261807 -13.568634 2.304614 -0.902303 -4.012862 -3.916922 -10.277417 62.879176 0.200078 1.928597 1.813975 2.377061 -0.843393 -1.401655 1.610687 -2.271929 -2.154557 0.878734 -0.500709 0.352491 -1.967503 0.077009 0.516414 0.067630 0.381607 -0.122416 0.139939 0.741458 -1.171186 -0.627708 0.349391 0.177980 0.222124 -0.479052
<VARIANCE> 39
9.757889 26.907092 34.082164 38.925830 42.705676 54.258187 62.876199 65.377881 76.158275 73.641087 50.192614 40.721152 28.785961 0.558326 1.235931 2.041932 2.399912 2.752557 4.209450 3.838420 5.607285 4.626023 3.550945 3.479374 3.084018 0.632517 0.084948 0.245119 0.362372 0.486130 0.500751 0.661471 0.627730 0.788078 0.928387 0.671098 0.628359 0.504129 0.126477
<MIXTURE> 2 0.540501
<MEAN> 39
-0.695818 -12.136266 1.831780 -13.043444 -9.297359 -13.390246 -8.509453 0.726888 -15.142136 -13.860286 -11.745476 -4.267184 62.053702 0.652733 1.953792 1.414637 0.808480 -1.590095 -0.539680 0.600336 -1.908573 -1.097309 0.948457 0.077408 0.860787 -1.587228 0.297565 0.543384 0.089010 0.550790 -0.062433 0.297803 -0.193726 -1.386229 0.453196 0.583807 -0.143648 -0.154624 -0.617895
<VARIANCE> 39
9.826773 27.066158 31.495941 35.783050 44.080209 47.120334 47.686512 49.816337 60.154489 42.848769 37.662871 32.669065 20.060956 0.615911 1.280220 1.595934 2.172107 3.097307 4.139954 3.021059 6.360932 3.404014 3.074928 2.998446 2.988180 0.978729 0.097067 0.236355 0.322655 0.458421 0.492628 0.763966 0.623043 0.730943 0.628358 0.596579 0.549806 0.541853 0.141695
<STATE> 4
<NUMMIXES> 2
<MIXTURE> 1 0.491001
<MEAN> 39
4.118019 -5.144825 9.044584 2.757041 -8.341764 -5.484863 -6.493819 -7.805123 -7.516942 0.344171 -4.084098 -9.434186 57.208869 0.093067 1.980730 1.373923 1.987125 -0.949989 -0.693635 2.277376 -2.868107 -2.292869 0.957745 -0.323043 0.507438 -1.799653 -0.080915 -0.231156 -0.485346 -0.591683 0.243022 0.377391 -0.289942 0.581391 0.485094 -0.279151 0.101658 0.047155 0.311312
<VARIANCE> 39
7.669110 24.986416 24.856886 37.735242 37.114377 48.984400 50.985188 55.194403 61.864293 55.115005 56.180787 43.394378 23.776117 0.479181 1.328114 2.422173 2.733329 2.634051 4.099673 3.913384 4.988163 5.790260 3.394965 3.398864 2.633910 0.587768 0.069592 0.195274 0.252875 0.313146 0.336608 0.444754 0.457955 0.659433 0.599668 0.443050 0.420243 0.347953 0.103737
<MIXTURE> 2 0.508999
<MEAN> 39
2.755996 -3.980704 6.309226 -6.878671 -14.813096 -14.372858 -6.368326 -12.908547 -14.979128 -8.355774 -14.275051 -1.491396 54.631131 0.674046 2.188311 0.945629 1.183588 -1.479190 0.684815 0.762751 -4.135291 0.236381 1.278441 -0.351738 0.530982 -1.829288 -0.210508 -0.393080 -0.402549 -0.309358 0.451815 0.363917 -0.250737 0.647546 0.206410 -0.354958 0.221557 -0.430976 0.344513
<VARIANCE> 39
5.289962 22.750677 21.448103 35.175996 36.378373 51.967765 53.416533 74.816953 68.160813 59.651493 57.086622 42.143931 16.023312 0.484836 1.352698 2.144504 2.181510 2.679576 5.058148 4.248304 5.074639 4.499142 3.751183 3.390805 3.725798 0.636792 0.058650 0.189212 0.241317 0.259247 0.389987 0.538262 0.448425 0.862977 0.538748 0.466154 0.459423 0.415077 0.087212
<TRANSP> 5
0.000000 1.000000 0.000000 0.000000 0.000000
0.000000 0.702838 0.297162 0.000000 0.000000
0.000000 0.000000 0.583375 0.416625 0.000000
0.000000 0.000000 0.000000 0.520208 0.479792
0.000000 0.000000 0.000000 0.000000 0.000000
<ENDHMM>
~h "ao"
<BEGINHMM>
<NUMSTATES> 5
<STATE> 2
<NUMMIXES> 2
<MIXTURE> 1 0.530819
<MEAN> 39
9.669667 1.406713 0.131559 -19.388192 -20.838426 2.474939 -4.973267 0.201283 -4.989215 -7.198493 2.391309 -6.412894 58.286227 1.407202 0.336693 0.344815 -2.033927 -2.292624 0.276030 -0.248533 0.488738 0.283343 -0.463803 0.564836 -0.554170 0.704982 -1.455088 -0.559050 -0.267120 1.271816 1.301238 -0.344658 0.148373 -0.084036 0.227680 0.480997 -0.150711 0.351523 -0.369142
<VARIANCE> 39
9.660797 23.534893 33.576609 39.413059 43.388647 52.547851 49.174105 68.228261 55.816440 52.767028 55.940118 35.441417 19.298462 3.426611 1.516117 1.447709 4.148471 5.559205 2.729545 2.489994 2.680748 2.721176 2.926969 2.467657 1.926248 0.963963 0.365563 0.375028 0.327513 0.409691 0.436014 0.504828 0.461649 0.500777 0.562442 0.490769 0.520477 0.379876 0.163742
<MIXTURE> 2 0.469181
<MEAN> 39
7.303027 -1.136846 -7.717546 -26.828170 -12.731893 -1.999144 -8.353275 -3.411538 -15.665891 -1.889936 -7.655128 -5.337158 57.095651 1.828176 0.606474 -0.483549 -3.643589 -1.459073 0.416611 -0.153685 1.051768 -1.238974 0.345764 -0.777770 -0.495669 0.846894 -1.541973 -0.460079 0.360846 1.841590 0.614536 -0.001777 0.302971 0.192548 1.023337 0.070904 0.578248 0.081487 -0.430667
<VARIANCE> 39
7.237552 25.057554 25.610900 41.577054 32.764714 47.369731 40.656984 48.078984 35.715228 42.872996 63.374082 31.666520 17.590821 4.214397 1.936696 1.803219 8.676997 3.872405 2.983277 2.680234 2.839911 4.437243 3.845088 4.014197 2.463801 1.237573 0.393837 0.423128 0.276181 0.572087 0.405519 0.528610 0.446960 0.644832 0.497546 0.544344 0.566274 0.393147 0.180413
<STATE> 3
<NUMMIXES> 2
<MIXTURE> 1 0.514402
<MEAN> 39
9.447269 1.061770 0.043199 -19.771337 -21.646833 0.616017 -3.292100 1.560444 -4.636453 -6.507523 3.344824 -7.410574 59.020361 0.065724 -0.596793 -0.822875 0.437528 0.788693 -0.227745 0.228917 0.479778 -0.521014 -0.438616 0.559829 0.722639 0.243454 -0.026608 -0.229599 -0.311999 0.267036 0.492606 0.025323 -0.180430 0.022239 -0.122233 -0.095713 0.135878 0.290419 0.070038
<VARIANCE> 39
11.545152 23.285358 37.733538 36.290497 48.551473 65.565225 63.643549 78.769846 70.484157 59.453603 58.899608 48.253254 22.232925 0.134980 1.042812 1.310771 0.981059 1.504810 1.102169 1.411056 1.251724 1.792467 1.764286 1.778434 1.707512 0.337428 0.033633 0.089646 0.134136 0.150102 0.210662 0.197888 0.308927 0.204035 0.270057 0.256849 0.239834 0.234982 0.039221
<MIXTURE> 2 0.485598
<MEAN> 39
7.422663 0.333096 -6.824273 -28.052115 -14.487236 -1.018327 -7.038362 -1.744464 -12.974381 -3.241255 -7.534765 -6.706168 56.675258 0.025688 -0.221747 -0.267418 0.458953 -0.028148 0.020901 0.326501 -0.119366 -0.277763 0.242752 0.214612 -0.354007 0.036302 -0.043466 -0.264328 -0.151126 0.376862 0.208632 -0.092717 -0.016751 -0.145325 -0.134842 0.135241 0.169701 -0.073105 0.059613
<VARIANCE> 39
7.787296 27.546722 33.259514 30.297779 40.606397 44.771240 43.818769 49.035479 61.696796 51.198303 56.200843 36.643679 21.055704 0.135342 1.392948 0.823313 0.989136 0.996397 1.205277 1.061872 1.413222 1.784212 1.779645 1.274086 1.103730 0.393275 0.030503 0.106943 0.099540 0.190263 0.148528 0.212723 0.182408 0.221977 0.254273 0.281183 0.221203 0.242343 0.044741
<STATE> 4
<NUMMIXES> 2
<MIXTURE> 1 0.544564
<MEAN> 39
10.078323 -4.935465 -10.648629 -14.033381 -7.351270 -1.157654 -10.286920 4.941988 -5.713557 -9.517171 7.102173 -0.151318 61.393301 0.020733 -1.047788 -1.604030 1.458164 2.998717 -0.231694 -2.496499 -0.312007 0.901729 0.811982 0.051649 0.381734 0.259380 -0.069262 0.147510 0.372026 0.110483 -0.089946 -0.153216 -0.211144 -0.150890 0.394366 0.473435 -0.445468 -0.490961 -0.153489
<VARIANCE> 39
10.420657 28.955713 46.006998 41.707497 113.610337 58.996123 114.046346 84.757380 91.204716 85.022530 63.923206 43.515510 26.879668 0.253009 1.042555 1.808107 1.792130 2.181416 2.625070 3.251590 3.453417 3.385941 4.667290 3.479113 4.176418 0.405838 0.040642 0.124116 0.250176 0.235996 0.445704 0.389480 0.736701 0.506676 0.603181 0.673260 0.542316 0.501234 0.040288
<MIXTURE> 2 0.455436
<MEAN> 39
7.279515 -9.334997 -14.836308 -16.825480 -5.390579 -5.321293 -8.313363 -2.616905 -17.165190 2.696122 -3.989401 -10.229151 59.921384 -0.156827 -1.520256 -0.600589 2.404170 1.518657 -2.013340 -1.208795 1.022484 0.591110 0.523064 -0.336827 -0.955193 0.348159 -0.025649 0.181110 0.382506 -0.009113 -0.220506 -0.377454 -0.091507 0.451039 0.419268 -0.581323 -0.429423 0.245073 -0.157915
<VARIANCE> 39
9.028916 31.385951 29.531830 50.803735 71.663749 68.549941 69.266239 66.345630 92.843259 56.129863 72.170351 47.490915 19.974164 0.194655 1.112824 1.203184 1.262652 1.844763 2.552109 2.731780 3.104340 3.702758 4.158720 3.357425 3.051996 0.343703 0.032429 0.121690 0.183964 0.232592 0.344557 0.388173 0.450617 0.436545 0.485530 0.606958 0.448652 0.531574 0.029808
<TRANSP> 5
0.000000 1.000000 0.000000 0.000000 0.000000
0.000000 0.654496 0.345504 0.000000 0.000000
0.000000 0.000000 0.856008 0.143992 0.000000
0.000000 0.000000 0.000000 0.815334 0.184666
0.000000 0.000000 0.000000 0.000000 0.000000
<ENDHMM>
~h "ay"
<BEGINHMM>
<NUMSTATES> 5
<STATE> 2
<NUMMIXES> 2
<MIXTURE> 1 0.544687
<MEAN> 39
2.996551 -16.651357 -3.773088 -11.183558 -1.691214 3.591424 -5.881581 -1.746132 -0.616306 -4.671038 -4.307174 -10.659035 67.436232 -0.248376 -0.490065 -0.352764 0.157065 0.906831 0.499614 0.279710 -0.507420 0.265138 -0.428814 -0.300389 0.269022 0.272016 -0.027385 0.363797 0.291245 0.315025 -0.175223 -0.310383 -0.057789 -0.075910 -0.116621 0.101197 0.106683 0.120039 -0.362943
<VARIANCE> 39
12.540782 26.204114 43.541497 54.597882 39.047117 73.893256 83.383807 77.688316 68.942668 53.387476 75.479995 47.940588 19.125470 0.348517 0.604103 1.090697 1.390570 1.297856 1.696164 1.732428 1.755709 1.347201 1.419183 1.892478 1.322059 0.300733 0.099899 0.181513 0.167341 0.278229 0.240596 0.251817 0.341938 0.521077 0.370905 0.265223 0.313593 0.252423 0.143938
<MIXTURE> 2 0.455313
<MEAN> 39
-0.468589 -19.327342 -5.740632 -10.912434 0.262684 -4.228390 -11.307816 -3.302861 -8.566480 -11.778569 -10.760528 -7.594500 66.186955 -0.065731 -0.544703 -0.518667 0.679156 1.129581 0.481873 -1.011779 -0.476818 0.750449 -0.246865 0.418685 -0.494626 0.094034 0.076754 0.396216 0.319528 0.003420 -0.387681 -0.223389 0.087674 -0.040083 -0.026913 0.164341 0.039092 0.030641 -0.295428
<VARIANCE> 39
12.145697 24.489368 40.285351 41.521148 49.273132 67.046810 68.173681 68.456809 59.026669 58.806469 43.986437 44.289627 16.785190 0.368097 0.584913 1.066571 1.127390 1.903483 1.445292 1.835244 1.589239 1.778324 1.651494 1.362746 1.664123 0.222167 0.097603 0.166030 0.141417 0.269903 0.258343 0.250380 0.337430 0.413664 0.335956 0.313019 0.299648 0.278474 0.108111
<STATE> 3
<NUMMIXES> 2
<MIXTURE> 1 0.572731
<MEAN> 39
2.312861 -18.374822 -2.738933 -9.950801 -0.850699 3.119198 -6.937714 -1.201238 -0.283089 -6.787667 -5.058518 -10.038333 67.415874 -0.061646 -0.054771 0.323813 0.445835 -0.220599 -0.499090 0.007400 0.541646 0.150983 -0.175038 -0.194030 0.169659 -0.049810 0.003634 0.075023 0.114149 0.040605 -0.176056 -0.126364 0.035257 0.158856 -0.036925 0.023835 0.051132 0.045010 -0.029528
<VARIANCE> 39
12.033412 25.154896 35.114856 45.981786 40.702616 76.532204 81.992400 74.837747 65.444276 57.627179 67.867462 53.400475 23.203419 0.112139 0.260821 0.385202 0.497864 0.795231 0.981653 0.734970 1.000648 0.614440 0.570861 0.745963 0.586716 0.092741 0.018478 0.037550 0.050594 0.062448 0.084417 0.097979 0.115317 0.113467 0.097045 0.094496 0.105544 0.093004 0.011940
<MIXTURE> 2 0.427269
<MEAN> 39
-0.512087 -19.847648 -6.214568 -8.990383 0.971831 -2.531363 -10.876954 -5.030986 -6.420385 -11.511005 -10.041820 -8.196761 65.743677 -0.107024 -0.084283 0.277990 0.144643 -0.365401 -0.296555 0.236128 0.181867 -0.218454 -0.344984 0.004050 0.175455 -0.023142 -0.018515 0.048615 0.092378 -0.089585 -0.237573 -0.110174 0.185971 0.071737 -0.153725 -0.019851 -0.047843 0.022257 -0.010191
<VARIANCE> 39
11.570006 25.280987 32.593607 40.347469 50.082391 56.352843 82.229596 71.984035 55.155419 53.010126 39.153572 38.641375 24.209995 0.120268 0.226972 0.342199 0.448465 0.805315 0.606837 1.002225 0.719359 0.818554 0.677728 0.553733 0.667770 0.073677 0.019096 0.037919 0.048724 0.071163 0.095254 0.088153 0.128262 0.114054 0.135740 0.113675 0.100062 0.105723 0.010269
<STATE> 4
<NUMMIXES> 2
<MIXTURE> 1 0.526776
<MEAN> 39
1.363095 -16.259629 4.195635 -5.725048 -8.698973 -3.548300 -5.472559 5.725147 -1.132521 -9.053711 -4.425458 -7.531317 66.252602 -0.077541 0.894310 1.467934 0.152023 -1.512805 -0.914576 0.230852 0.593818 -0.875721 0.338257 0.868600 0.244489 -0.556391 0.106465 0.262857 -0.007386 0.027482 0.200732 0.061979 -0.092599 -0.482249 -0.168468 0.304938 0.145699 -0.080831 -0.238865
<VARIANCE> 39
11.311379 33.892853 60.504529 37.881313 57.894573 48.329046 69.204814 58.072802 73.334886 52.036500 53.570698 43.667132 30.223907 0.285745 0.628934 0.953704 1.225089 1.712141 1.828458 2.383010 2.683845 1.942609 1.822577 1.723039 1.520525 0.298173 0.047548 0.102594 0.199570 0.287086 0.327714 0.209784 0.329990 0.399022 0.282240 0.275741 0.342246 0.222484 0.053779
<MIXTURE> 2 0.473224
<MEAN> 39
-2.605855 -18.975439 0.504423 -12.138337 -7.789368 -6.267966 -4.885539 -2.583951 -14.458471 -13.243455 -10.192840 -5.689635 65.560326 -0.129478 1.154834 1.404530 -1.212601 -2.136211 -0.335520 1.567300 -0.259021 -1.037847 0.989214 -0.247803 -0.345699 -0.453849 0.168224 0.347738 -0.000585 -0.002159 0.019203 -0.072219 -0.334093 -0.286365 0.262609 0.338246 -0.128507 -0.162873 -0.269818
<VARIANCE> 39
10.909646 28.015969 51.384287 39.150775 61.249112 38.084494 64.379283 52.306273 53.261336 40.767859 37.987950 31.479855 21.538042 0.320002 0.809386 0.693600 1.289526 1.545361 2.114373 2.237726 2.706990 2.271863 2.649097 1.727070 1.697045 0.277839 0.050682 0.086743 0.131037 0.349996 0.297051 0.251735 0.406140 0.312384 0.339862 0.334381 0.278485 0.283553 0.040116
<TRANSP> 5
0.000000 1.000000 0.000000 0.000000 0.000000
0.000000 0.718134 0.281866 0.000000 -0.000000
0.000000 0.000000 0.894065 0.105935 0.000000
0.000000 0.000000 0.000000 0.784866 0.215134
0.000000 0.000000 0.000000 0.000000 0.000000
<ENDHMM>
~h "eh"
<BEGINHMM>
<NUMSTATES> 5
<STATE> 2
<NUMMIXES> 2
<MIXTURE> 1 0.517662
<MEAN> 39
-22.923242 1.987594 0.507837 -6.411948 1.711180 -8.715369 -0.258023 1.547197 -0.083002 0.079299 -2.360136 -1.271434 56.542460 7.715566 -2.012506 2.470505 0.416106 -2.302573 -1.042080 -3.192885 -0.809669 0.690939 0.766919 -0.888872 -2.260188 2.014232 1.083002 -1.039457 0.070478 -0.357568 -0.663521 0.225438 -0.958898 0.237748 0.428715 0.147255 0.164811 -0.630441 0.914028
<VARIANCE> 39
37.807604 14.345619 30.622710 26.135144 25.694812 27.521470 26.717982 27.990902 23.581160 20.483672 20.105927 17.441750 17.963274 2.078030 2.208823 2.578066 2.372792 2.308127 2.900970 3.756600 3.524721 2.957053 3.086557 3.196539 2.274231 1.415419 0.884492 0.286515 0.548526 0.448285 0.463016 0.576734 0.604823 0.623630 0.644246 0.513707 0.547879 0.446865 0.147752
<MIXTURE> 2 0.482338
<MEAN> 39
-20.852533 1.259741 -6.329757 0.809101 -8.272980 -1.277157 -0.654413 -1.531396 -1.402266 -2.336256 2.720585 -1.275180 54.175147 6.229167 -1.226858 2.631691 -3.336378 -3.051038 -4.695054 -1.872669 -1.002701 -1.283495 -2.103191 -2.986236 0.061487 2.347883 0.893012 -1.131164 0.133342 -1.065413 -0.470667 -0.941386 -0.096614 0.169400 -0.306130 -0.227216 -1.153395 -0.046231 0.659268
<VARIANCE> 39
23.303849 16.722101 22.635638 19.470346 20.689659 23.634688 19.156651 18.663973 21.173875 22.013117 15.597958 14.541048 15.139184 1.489507 3.135669 2.031882 3.118639 2.523365 2.988160 2.390242 2.307211 2.034414 2.288803 2.934516 1.805261 1.301942 0.581151 0.353041 0.444107 0.449449 0.579316 0.733353 0.572686 0.532683 0.477683 0.504519 0.430149 0.355374 0.186206
<STATE> 3
<NUMMIXES> 2
<MIXTURE> 1 0.511662
<MEAN> 39
-2.517476 -3.730669 5.020510 -6.203674 -5.134738 -11.448590 -11.194328 -1.758364 1.702477 2.090174 -4.083687 -8.122053 63.429796 6.875336 -4.064841 1.303657 -0.808455 -3.207746 -0.212247 -3.660879 0.278913 1.728218 0.738764 -0.140478 -2.719034 3.486945 -1.772853 -0.348391 -0.774688 -0.464343 0.221108 0.647250 0.828858 0.769599 0.272119 -0.277285 0.246556 0.239495 0.005972
<VARIANCE> 39
24.957174 37.894198 24.570658 21.975356 32.264575 26.904024 39.845799 36.239799 29.342847 32.430424 31.216575 24.229373 27.428590 3.089022 1.945950 4.425330 3.290591 3.352222 3.984481 5.372400 6.532128 5.394511 4.649020 4.292538 3.097826 0.820671 0.479602 0.412048 0.260088 0.312467 0.374819 0.341439 0.595977 0.400639 0.420093 0.342333 0.366987 0.346445 0.249902
<MIXTURE> 2 0.488338
<MEAN> 39
-3.631461 -2.050588 -0.924275 -7.867181 -18.078170 -15.702961 -7.560698 -5.377501 -5.263971 -7.859926 -7.213334 -1.270091 59.994869 5.344962 -3.739491 1.844739 -4.796243 -2.465473 -4.424070 -0.605535 0.042948 -1.445091 -1.708880 -4.316370 -0.079656 3.265713 -1.517516 -0.749353 -0.687129 0.134496 1.051152 1.423181 1.066682 0.749731 0.063689 0.374660 0.184627 -0.187319 -0.049575
<VARIANCE> 39
21.908541 30.235893 15.404315 32.431873 25.483388 30.217337 20.846843 18.992276 19.679142 18.656502 27.608549 18.473573 21.346055 2.283360 2.748264 2.978498 3.823328 3.938814 4.620023 4.469285 3.961366 3.126082 3.446238 2.863923 2.255708 1.117051 0.356244 0.389459 0.255849 0.472652 0.384300 0.600343 0.383841 0.345012 0.334920 0.308684 0.466152 0.276716 0.176219
<STATE> 4
<NUMMIXES> 2
<MIXTURE> 1 0.536831
<MEAN> 39
0.565949 -12.622644 4.833184 -9.899503 -10.214824 -8.754231 -13.527276 3.589694 5.661098 2.278185 -3.463513 -10.943916 69.045308 1.044677 -2.663197 -0.422944 -1.085823 -1.136594 1.172020 0.129151 1.693922 1.273563 -0.359607 -0.199290 -1.291670 1.636611 -1.621833 0.903801 -0.491055 0.228952 0.909709 0.234042 1.197745 -0.089697 -0.430518 -0.333621 0.011682 0.531507 -0.869781
<VARIANCE> 39
10.355554 19.041542 35.492643 24.480726 34.061970 34.221455 47.539037 59.982529 56.968279 58.416278 49.147124 36.214812 17.912436 2.249936 2.205861 1.467893 1.595962 2.625961 1.674622 4.147188 2.451122 2.552545 2.195382 1.920016 1.861801 1.374924 0.482649 0.192864 0.388806 0.320492 0.327045 0.337405 0.611911 0.681460 0.525886 0.431985 0.460017 0.378834 0.092638
<MIXTURE> 2 0.463169
<MEAN> 39
-2.380088 -12.482617 0.076233 -16.506025 -16.548781 -16.790815 -2.476255 -0.893203 -6.572938 -8.097110 -12.710672 -1.761916 65.970005 0.517483 -3.341581 0.091611 -2.488311 0.802826 0.690967 1.921308 1.417158 -1.053458 -0.831735 -2.003313 -0.713551 1.926117 -1.428011 0.754609 -0.553548 1.276152 0.934566 1.543117 0.356762 0.033534 0.141136 0.236713 1.012165 -0.140643 -0.794393
<VARIANCE> 39
8.666776 19.351500 23.772296 33.069182 37.126483 36.194491 40.765492 37.265323 36.878017 36.734470 29.270461 21.623615 12.935804 2.147560 2.083892 1.469367 3.246959 2.916130 4.164619 2.963158 2.459637 2.287659 1.802060 2.275019 1.565177 1.131003 0.374320 0.279376 0.293785 0.384051 0.525647 0.706341 0.631508 0.463938 0.372185 0.428686 0.359842 0.304617 0.095024
<TRANSP> 5
0.000000 1.000000 0.000000 0.000000 0.000000
0.000000 0.410442 0.589558 0.000000 0.000000
0.000000 0.000000 0.368663 0.631337 -0.000000
0.000000 0.000000 0.000000 0.553119 0.446881
0.000000 0.000000 0.000000 0.000000 0.000000
<ENDHMM>
~h "ey"
<BEGINHMM>
<NUMSTATES> 5
<STATE> 2
<NUMMIXES> 2
<MIXTURE> 1 0.633330
<MEAN> 39
-1.517437 -11.886240 17.189696 -7.796673 -20.040641 -7.531572 -7.586610 4.776822 -5.107516 -1.420628 3.240672 -4.645420 65.215245 -0.165635 0.276186 1.086636 -0.027516 -0.568942 0.167675 -0.261175 -0.732702 -0.672543 0.051902 0.496017 0.113573 0.199953 -0.063533 0.192149 -0.039896 0.102200 0.195190 0.013631 -0.034434 -0.199844 -0.096570 0.011038 -0.078976 -0.035607 -0.321774
<VARIANCE> 39
9.450393 23.948463 62.750563 35.565343 49.399923 39.827594 43.363671 56.749573 52.454782 42.510902 63.785505 26.815345 27.478968 0.441599 1.155578 1.154628 0.858051 1.482167 1.057928 1.712772 2.086347 1.496719 1.292135 1.529980 0.998734 1.491913 0.111090 0.167511 0.171681 0.175353 0.216506 0.197707 0.254881 0.299590 0.213668 0.216405 0.253520 0.164128 0.176422
<MIXTURE> 2 0.366670
<MEAN> 39
-5.669688 -11.269699 9.324088 -13.163257 -15.901506 -7.325928 0.071661 -0.686467 -7.170343 -1.480885 -4.666223 -5.633502 60.091916 0.822737 -1.042901 1.237006 -1.755953 -1.309290 -0.191801 -0.304179 -0.440030 -1.137169 -0.291033 -0.788682 -0.999941 3.120612 -0.156183 0.377545 -0.131534 0.271178 0.196537 0.008250 -0.291866 -0.076470 0.239749 0.108407 0.136439 0.075560 -0.557020
<VARIANCE> 39
22.313767 44.057751 73.899310 83.175349 63.927234 53.773601 67.085162 58.637102 61.158190 52.536713 76.555145 26.126161 113.216255 2.471637 3.984977 2.873023 4.837027 4.378303 3.025590 3.326762 3.456439 3.544977 2.810355 3.875385 1.949043 12.171647 0.410984 0.508724 0.395262 0.689200 0.646286 0.477434 0.504758 0.503687 0.578827 0.442676 0.529879 0.344643 1.518847
<STATE> 3
<NUMMIXES> 2
<MIXTURE> 1 0.502479
<MEAN> 39
-5.540719 -5.349879 18.561881 -19.811743 -18.682546 -8.507648 -10.178957 -10.659152 -9.150894 1.148398 -8.227178 -3.844804 62.125702 -0.032515 0.975315 0.938989 0.575516 0.305945 0.045465 -0.723482 -0.862677 -0.153091 0.378662 0.024508 0.723932 -1.095290 0.084632 0.098231 -0.273680 0.501813 0.078579 -0.026312 0.336910 0.213998 0.086495 -0.027048 0.141443 -0.007428 -0.434410
<VARIANCE> 39
11.149276 37.951111 51.786565 89.405982 25.804138 38.586943 61.768156 66.066186 51.523056 51.928402 82.028221 38.959744 27.759482 0.391131 0.879787 0.951512 1.263050 1.020823 1.290368 1.935930 1.496784 1.851662 1.755178 1.586035 1.849395 0.747218 0.097628 0.186518 0.280798 0.330547 0.229668 0.268114 0.383896 0.282047 0.313322 0.340292 0.333393 0.315819 0.228537
<MIXTURE> 2 0.497521
<MEAN> 39
-5.360851 -9.211564 12.110517 -24.520216 -18.387420 -8.634199 -4.070305 -8.650000 -8.346610 -0.127911 -12.960449 -6.728673 64.306560 -0.185748 0.820444 0.809559 -0.295221 -0.218952 -0.347434 -1.314346 -1.127139 0.150771 0.236903 -0.236143 0.420683 -0.400817 -0.034230 0.075011 0.040020 0.212386 0.111415 0.005407 -0.055077 -0.044126 -0.021693 0.005759 0.088475 0.194235 -0.236189
<VARIANCE> 39
9.709839 42.101864 38.170978 34.392779 24.814480 34.102931 66.736746 43.646781 41.838368 51.184260 31.524479 30.932976 20.246900 0.314008 0.600500 0.868037 0.916796 1.003754 1.073903 1.671964 1.252051 1.516322 1.733346 1.345413 1.449328 0.499529 0.064474 0.133811 0.129672 0.207088 0.174495 0.185322 0.267323 0.205737 0.273176 0.281324 0.253248 0.243083 0.176090
<STATE> 4
<NUMMIXES> 2
<MIXTURE> 1 0.502929
<MEAN> 39
-3.681463 -3.136938 24.154262 -5.861082 -18.281698 -8.569564 -10.621907 -7.540045 -14.125017 -1.350518 0.312059 -5.139798 54.856465 -0.153485 2.441076 -2.483931 3.268539 2.336601 -0.497933 1.443328 0.057927 0.724339 -0.905278 -0.313615 0.095185 -4.515113 -0.378469 0.303336 -1.313546 0.234203 0.847578 0.297176 0.349240 0.325776 0.866759 -0.046126 -0.095907 0.182681 -0.667716
<VARIANCE> 39
11.189170 35.016996 38.556781 81.333861 31.875617 41.038927 40.857410 63.312537 45.627072 61.757821 65.486422 37.600732 42.762558 1.611986 3.278592 5.701813 4.209034 4.595554 3.156827 4.012634 3.992278 4.739080 4.264049 4.864001 2.969746 3.219165 0.300071 0.645808 0.463432 0.881030 0.489785 0.642224 0.605552 0.740382 0.654943 0.745748 0.569297 0.477137 0.583956
<MIXTURE> 2 0.497071
<MEAN> 39
-5.429301 -0.427789 20.803453 -12.404688 -18.806720 -9.488874 -10.411595 -14.767587 -9.687790 3.012291 -7.292336 0.031544 53.370809 0.141327 1.642165 -2.111574 3.857864 1.036169 -0.217971 0.982458 0.653378 -0.052265 -1.037582 1.168826 -0.354747 -4.044638 -0.259974 0.070259 -1.242608 0.398741 0.830770 0.082549 0.203125 0.715265 0.352239 -0.528865 0.279240 -0.315313 -0.567827
<VARIANCE> 39
12.194231 35.344426 32.378142 102.255863 33.739671 42.022637 48.033587 66.459163 56.867977 67.949911 70.910359 52.447864 43.556309 1.713220 2.424622 5.411296 4.184581 4.499146 3.089633 4.359227 4.926917 3.975686 5.261715 4.566194 3.409436 3.203671 0.362638 0.484969 0.510787 0.952516 0.632055 0.667192 0.744096 0.745379 0.769852 0.899983 0.642426 0.680382 0.595022
<TRANSP> 5
0.000000 1.000000 0.000000 0.000000 0.000000
0.000000 0.881134 0.118866 0.000000 -0.000000
0.000000 0.000000 0.861846 0.138154 0.000000
0.000000 0.000000 0.000000 0.679371 0.320629
0.000000 0.000000 0.000000 0.000000 0.000000
<ENDHMM>
~h "ih"
<BEGINHMM>
<NUMSTATES> 5
<STATE> 2
<NUMMIXES> 2
<MIXTURE> 1 0.514828
<MEAN> 39
-14.923056 5.691078 8.104004 -3.071914 -0.266702 -12.473014 -6.596582 -1.780920 -3.063193 -1.487996 -3.216460 -2.750043 60.496649 5.784337 -3.263148 2.494579 0.389050 -3.563737 -1.516304 -3.011683 -0.547298 0.035091 -0.434277 0.269815 -0.832045 1.942254 0.257582 -0.954721 0.075209 -0.002159 -0.600912 0.356861 -0.384596 0.406431 0.091790 -0.243323 0.527604 0.004496 0.096503
<VARIANCE> 39
43.901725 24.469892 38.362534 25.045820 32.617258 40.337299 53.948236 33.055908 25.817594 20.931075 17.502731 19.729766 21.053474 5.338757 3.155837 4.521780 3.081440 2.740050 3.574904 4.876502 4.091957 3.498055 2.773024 2.621882 2.391131 1.037516 0.789483 0.325570 0.609464 0.390771 0.453179 0.551837 0.705220 0.568009 0.576149 0.482980 0.459914 0.343205 0.208114
<MIXTURE> 2 0.485172
<MEAN> 39
-15.794647 5.986319 -1.418752 -0.419176 -13.741094 -10.252352 -4.611186 -10.590854 -6.919289 -7.321145 -1.388930 -4.976643 56.242948 5.190339 -2.151793 3.777140 -3.764122 -3.727957 -4.867684 -1.844655 -1.889918 -1.724368 0.088767 -1.975040 0.559878 2.362716 0.170768 -1.035271 0.470752 -0.711905 0.067962 -0.042145 0.034945 0.573600 -0.231406 0.868903 -0.476728 0.188143 0.117322
<VARIANCE> 39
39.898120 23.491894 27.864497 21.719382 40.423036 56.348710 33.083240 36.012978 29.055289 23.738588 22.801210 21.134363 17.972659 2.940547 4.622586 3.025027 3.227575 2.877173 3.717159 4.458385 3.647579 3.654773 4.824126 3.751728 2.727226 1.071679 0.753907 0.325601 0.533101 0.433761 0.722958 1.019172 0.774350 0.582375 0.602259 0.491743 0.553073 0.381234 0.184176
<STATE> 3
<NUMMIXES> 2
<MIXTURE> 1 0.508291
<MEAN> 39
-2.097583 -7.137500 13.045961 -3.099343 -10.672881 -12.712059 -15.242493 -0.861735 -1.282265 -3.243980 0.041478 -4.458723 65.411525 3.282215 -3.845021 1.539720 0.221053 -3.490676 0.030664 -2.042449 1.110031 0.148006 -1.003649 1.659856 -0.280478 1.287786 -1.354364 0.627462 -0.614300 0.030300 0.695590 0.199871 0.803204 0.460420 -0.240449 -0.093136 0.219534 0.306083 -0.525842
<VARIANCE> 39
14.361168 27.666159 45.713635 25.148159 38.062040 30.232484 37.927878 43.129493 50.883789 36.960138 29.315342 28.289896 16.605170 4.375408 2.035779 3.861663 2.880793 2.863648 3.949257 5.151904 4.303055 4.990824 4.009915 3.267182 2.503013 1.354833 0.701663 0.419374 0.478230 0.299687 0.515148 0.475513 0.771399 0.580827 0.567816 0.423427 0.450547 0.368443 0.167326
<MIXTURE> 2 0.491709
<MEAN> 39
-4.913535 -4.424196 7.293342 -11.213180 -20.098068 -19.865953 -7.748162 -10.172429 -10.262187 -2.810961 -7.000700 -2.088750 62.044057 2.577028 -3.607954 3.059498 -3.878347 -1.496832 -1.896096 -0.316253 0.626506 -1.470963 2.214616 -1.715742 0.253532 1.661347 -1.332125 0.319888 -0.662979 0.714617 0.978776 1.315154 0.723177 0.558991 0.177695 0.304569 0.457423 -0.377581 -0.580520
<VARIANCE> 39
10.349471 27.953097 37.654769 40.699567 29.554674 27.920174 33.287434 44.331018 28.500347 30.882937 24.723457 22.705069 14.334387 3.600696 2.513154 2.772957 3.631430 4.400177 6.561372 5.460596 4.156738 3.604568 4.052568 3.647931 2.605989 1.247507 0.387297 0.517239 0.428207 0.646840 0.419825 0.606230 0.646964 0.559794 0.485628 0.654882 0.513802 0.378816 0.163393
<STATE> 4
<NUMMIXES> 2
<MIXTURE> 1 0.442712
<MEAN> 39
-1.282592 -11.479168 13.366944 -5.277821 -16.552413 -15.033093 -11.426626 2.584597 -5.507439 -3.283223 2.295509 -4.867407 65.265942 0.249648 0.193965 0.363542 1.360811 -0.144647 -0.460753 0.517486 0.796950 -1.450043 -0.424591 1.079975 0.171700 -1.384500 -0.421868 0.934573 -0.535354 0.481813 0.932367 0.110813 0.177386 -0.172584 0.142410 0.009534 -0.190136 0.200675 -0.997520
<VARIANCE> 39
13.368255 21.389563 52.143169 52.630942 41.961047 49.162240 77.719819 94.327195 93.784330 67.109871 75.577112 35.347388 25.884081 1.040157 3.477486 1.826921 3.094664 2.416189 2.003589 2.516043 2.883665 4.398907 3.000170 2.466174 1.911177 3.723363 0.346869 0.514490 0.492054 0.437800 0.523131 0.682068 0.768159 0.757499 1.077204 0.673158 0.840860 0.408538 0.621788
<MIXTURE> 2 0.557288
<MEAN> 39
-4.456193 -9.259714 11.969622 -16.682301 -20.173785 -17.560586 -4.489630 -8.201800 -12.313296 2.693980 -8.581949 -4.395551 62.861717 0.336494 -0.557179 0.398842 0.313447 -0.031246 -0.258983 0.836355 0.171055 -0.822095 0.738582 -0.034653 -0.726437 -0.464263 -0.046347 0.527718 -0.591390 0.963287 0.298013 -0.079769 -0.055082 0.052065 0.140795 -0.477464 0.341551 -0.026002 -0.574237
<VARIANCE> 39
11.721508 25.372776 42.101547 38.775630 26.478995 39.402726 63.034488 65.530977 48.291885 43.561682 39.628569 25.466474 18.649198 0.657070 1.873062 1.873556 3.267086 1.102727 2.250672 1.817116 3.611476 1.839293 2.172014 2.046232 1.432564 1.329489 0.196080 0.412066 0.416444 0.504170 0.401518 0.583030 0.490305 0.471379 0.401941 0.559495 0.433287 0.311317 0.385870
<TRANSP> 5
0.000000 1.000000 0.000000 0.000000 0.000000
0.000000 0.455393 0.544607 0.000000 -0.000000
0.000000 0.000000 0.571199 0.428801 0.000000
0.000000 0.000000 0.000000 0.773278 0.226722
0.000000 0.000000 0.000000 0.000000 0.000000
<ENDHMM>
~h "iy"
<BEGINHMM>
<NUMSTATES> 5
<STATE> 2
<NUMMIXES> 2
<MIXTURE> 1 0.564500
<MEAN> 39
-1.477491 -8.826236 23.706266 -2.312908 -19.504971 -8.600306 -13.723419 -0.971585 -10.843999 -7.918182 5.899441 -3.948239 63.412801 -0.702670 1.109925 1.048688 -0.654407 -0.239321 0.991839 0.487367 -0.824569 -0.773183 0.558538 -0.178311 -0.539343 -0.368910 0.164915 0.027725 -0.473537 0.200487 0.362238 -0.149947 -0.117563 0.099873 0.276472 0.052122 -0.189521 0.084857 -0.124372
<VARIANCE> 39
16.506700 28.794414 39.050361 50.209553 32.754213 48.508733 36.895103 44.454715 44.398319 61.350035 37.774054 33.756703 20.103477 0.549418 0.796717 1.607062 1.201012 1.293710 1.699084 1.654343 1.636277 1.647885 1.331111 1.092808 1.063474 0.243668 0.067017 0.132481 0.204528 0.175250 0.268385 0.274690 0.383033 0.253800 0.292912 0.210170 0.231212 0.172981 0.037493
<MIXTURE> 2 0.435500
<MEAN> 39
-2.938475 -9.905480 15.765370 -15.029008 -21.049415 -17.286116 -5.844266 -7.864400 -18.881071 5.095721 -7.865061 -8.301281 61.169065 -1.112023 1.675896 1.685419 -1.978474 -0.207847 2.252768 -0.784327 -2.619178 1.108179 0.750051 -1.560065 0.370572 -0.212236 0.231155 0.096003 -0.567820 0.347534 0.619557 -0.305779 -0.544896 0.422078 0.389993 -0.651954 -0.012111 0.267104 -0.191285
<VARIANCE> 39
14.184105 28.791931 33.787068 44.484694 22.331162 45.831823 51.040509 60.817458 46.822616 42.349783 55.349553 25.236369 15.451345 0.426661 0.646455 1.454353 1.788389 1.633837 2.565068 2.050274 2.453720 2.087746 2.641502 1.768003 1.332922 0.216738 0.046566 0.117711 0.195564 0.204123 0.377650 0.301042 0.513843 0.348142 0.496593 0.380489 0.340112 0.199287 0.025461
<STATE> 3
<NUMMIXES> 2
<MIXTURE> 1 0.394677
<MEAN> 39
-3.875165 -1.169684 22.546469 -9.060028 -17.438480 -7.242115 -10.573568 -8.364821 -12.865125 -1.940396 -2.774534 -5.213052 57.228246 -0.286260 1.172518 -0.931338 1.018326 0.843899 0.355758 1.344925 -0.180340 0.569761 0.089458 0.028285 -0.025433 -1.131840 -0.192172 -0.031749 -0.743133 0.524712 0.540113 -0.090125 0.453141 0.380898 0.410589 -0.054326 0.156195 0.136289 -0.257632
<VARIANCE> 39
11.748392 42.686789 35.737828 96.212026 36.433613 75.276838 49.993259 87.205464 51.785646 66.909044 97.555178 40.112002 37.241052 1.134822 2.288755 2.131797 3.485373 2.507798 4.308910 3.657322 3.048312 2.941322 3.930323 3.265463 2.200057 0.999911 0.298866 0.352531 0.451682 0.577853 0.539564 0.683288 0.573893 0.638645 0.567555 0.572717 0.586343 0.444563 0.238698
<MIXTURE> 2 0.605323
<MEAN> 39
-6.114253 0.417778 18.088184 -20.573409 -17.204775 -10.203818 -12.788050 -16.513313 -11.268115 0.564591 -13.770816 -3.092856 57.211619 -0.076544 0.874405 -0.142791 0.279368 0.355369 0.624860 -0.429099 -0.558507 0.450622 -0.926043 -0.177443 0.260086 -0.712105 0.078322 -0.160011 -0.293274 0.506859 -0.025385 -0.148446 0.323792 0.239539 -0.116789 -0.064509 0.319172 -0.163395 -0.092078
<VARIANCE> 39
10.639005 36.293038 20.407950 37.587813 28.849920 46.389314 35.059252 38.740786 52.202698 50.502548 44.960806 33.160181 26.109612 0.468443 1.185240 1.045675 2.241297 1.570156 1.618600 1.890686 1.578468 1.795826 1.920853 1.811465 1.461784 0.423046 0.106200 0.149399 0.212177 0.404808 0.284359 0.330413 0.294659 0.353747 0.315578 0.363752 0.366417 0.237928 0.065013
<STATE> 4
<NUMMIXES> 2
<MIXTURE> 1 0.534033
<MEAN> 39
-7.213172 1.368761 14.155937 -0.969303 -10.929916 -5.365789 -4.118752 -7.017695 -9.337489 -3.894318 -1.350365 -4.360408 49.888253 -1.776199 0.486640 -2.831103 1.821045 2.551468 0.585527 2.011205 1.611720 1.987846 0.537251 0.679627 0.605586 -1.826944 -0.332634 -0.327929 -0.328605 -0.363779 0.162382 0.200666 -0.104110 0.365014 0.329476 0.237408 -0.030389 0.125140 0.001593
<VARIANCE> 39
30.203870 34.388375 68.020814 59.836178 69.314696 89.560755 68.510897 91.311382 51.651419 50.392307 59.259170 34.198233 83.253723 4.083206 4.919048 3.413768 5.850185 5.098854 6.780351 5.452847 7.213963 5.698903 5.460612 7.253401 3.718925 2.702079 0.505528 0.598370 0.708622 0.722761 0.873526 0.944133 0.810074 1.005063 0.876384 0.833070 0.702051 0.574134 0.349173
<MIXTURE> 2 0.465967
<MEAN> 39
-7.930708 -1.557067 9.077233 -5.592423 -9.725439 -4.695201 -3.515868 -5.622204 -4.968773 -0.659901 -3.953183 -3.619823 47.477570 -0.468844 -0.303492 -2.687336 0.928206 1.485069 0.824867 0.805112 1.032387 0.951189 -0.341979 0.227203 -0.108214 -1.353936 0.096253 -0.038421 0.131186 -0.274194 -0.137941 -0.019975 -0.148571 -0.124331 -0.333918 -0.080747 -0.042097 -0.012752 0.250101
<VARIANCE> 39
44.413972 45.543668 66.206234 102.183879 84.229947 122.151271 91.694686 114.662697 90.214056 76.747584 83.018074 39.278573 87.079529 3.929797 4.910567 4.380985 6.506225 5.544282 6.739283 5.597715 7.541053 6.917300 6.260452 5.931682 3.361537 4.969244 0.465570 0.701013 0.821101 0.943740 1.225501 1.232940 1.110216 1.377498 1.223794 1.078244 1.070857 0.638954 0.994041
<TRANSP> 5
0.000000 1.000000 0.000000 0.000000 0.000000
0.000000 0.822749 0.177251 0.000000 -0.000000
0.000000 0.000000 0.799827 0.200173 -0.000000
0.000000 0.000000 0.000000 0.756652 0.243348
0.000000 0.000000 0.000000 0.000000 0.000000
<ENDHMM>
~h "ow"
<BEGINHMM>
<NUMSTATES> 5
<STATE> 2
<NUMMIXES> 2
<MIXTURE> 1 0.565219
<MEAN> 39
2.445462 -11.500811 -4.275704 -12.956284 -6.018069 -1.960662 -8.123845 -0.609119 -3.436300 1.284201 -2.458226 -10.328703 60.859322 0.394712 -0.340704 0.177758 -1.151714 -0.277094 1.098630 0.237880 -0.243061 -0.088837 0.124763 0.359511 -0.723393 1.328620 -0.243962 0.351891 0.122879 0.265379 0.007091 -0.012961 -0.020691 -0.072606 0.050270 -0.034750 0.122061 0.369296 -0.519104
<VARIANCE> 39
27.104900 40.045487 41.693221 61.103833 54.796427 112.718026 74.982816 70.157439 74.048299 80.798747 141.500199 54.142912 59.266836 2.031066 1.890580 1.891867 2.124685 2.702293 2.598461 3.254258 3.135840 3.045833 2.928617 3.558036 2.632886 3.924876 0.397376 0.334741 0.317024 0.411274 0.445923 0.424843 0.489161 0.508664 0.576081 0.546796 0.628476 0.438190 0.783743
<MIXTURE> 2 0.434781
<MEAN> 39
-6.210270 -9.563268 -4.609267 -10.290942 -1.644345 -4.017961 -2.346666 -0.468279 -1.061264 -0.652894 -7.709906 -4.163329 50.182342 2.086119 -1.996585 -0.677281 -2.184209 0.101976 0.028709 -0.822243 -1.085863 -1.463456 -1.116544 -1.958639 -1.383580 4.509490 0.190270 0.112139 0.002483 -0.185167 -0.260105 0.016566 -0.222369 -0.106148 -0.026892 0.049672 0.116831 -0.167396 0.236423
<VARIANCE> 39
52.548087 67.911617 31.047908 74.672723 47.750602 73.304633 53.110740 53.660563 61.641015 69.580334 97.251916 47.532627 200.623517 4.990994 4.919325 3.182701 6.574245 4.296472 4.552611 4.647420 4.943672 4.975836 5.028532 6.681378 4.453663 14.215663 1.081297 1.141550 0.522202 1.281316 0.653351 0.680535 0.733597 0.874511 1.030904 0.834107 1.165912 0.674095 3.578503
<STATE> 3
<NUMMIXES> 2
<MIXTURE> 1 0.529826
<MEAN> 39
5.579066 -8.780873 -1.860617 -16.787060 -10.330949 3.375211 -9.076498 -3.618195 -5.024957 0.016477 1.983582 -7.869923 63.578743 0.158820 0.720187 0.224701 -0.227580 -0.304603 0.245056 0.114028 -0.343070 -0.417438 -0.061336 0.121238 0.440972 -0.430840 -0.011883 0.087585 0.006730 0.153843 0.090473 -0.102538 -0.007994 0.044873 0.029442 -0.015837 -0.078078 0.058275 -0.126763
<VARIANCE> 39
13.702077 45.478015 36.773605 61.934698 66.363214 94.541303 72.698690 63.555246 72.896994 75.391014 146.492007 50.170886 29.467467 0.245008 0.632214 0.598135 0.993702 1.034507 1.189988 1.280200 1.219021 1.397178 1.454199 1.571684 1.355052 0.434002 0.039099 0.085703 0.093340 0.135534 0.149217 0.153087 0.189202 0.169872 0.188925 0.208093 0.218144 0.192823 0.039007
<MIXTURE> 2 0.470174
<MEAN> 39
2.746893 -11.448086 -6.947124 -18.227242 -5.068569 -6.014352 -9.238713 -3.924419 -7.532169 -2.049528 -12.306059 -9.006345 62.761706 0.159260 0.792545 0.034254 -0.428692 -0.237522 0.227292 -0.484468 -0.676262 -0.069956 0.223264 0.104200 0.129191 -0.467114 0.000426 0.090971 0.061036 0.089305 -0.030212 -0.091584 -0.037243 -0.021018 -0.028229 -0.066185 0.073026 0.082284 -0.124541
<VARIANCE> 39
15.572845 58.594705 32.076776 57.791374 50.067657 90.991030 67.827442 70.031676 60.372721 75.671118 102.151976 44.208232 30.971345 0.261875 0.593872 0.591901 0.896185 0.992733 1.531439 1.344683 1.634312 1.694712 1.787309 1.576539 1.478215 0.314678 0.036050 0.078157 0.080737 0.141359 0.147612 0.168499 0.196653 0.210263 0.233145 0.268275 0.207567 0.207080 0.032113
<STATE> 4
<NUMMIXES> 2
<MIXTURE> 1 0.506634
<MEAN> 39
1.972959 -0.211982 -0.163567 -7.274654 -5.291104 0.158863 -6.031356 -5.041973 -6.913737 -2.754855 -1.193525 -4.362084 51.475034 -2.181292 0.603480 0.610446 2.641684 1.627685 -0.071143 1.353395 0.573149 1.030413 0.108272 -0.052778 0.462594 -1.602631 -0.479930 -0.213244 -0.123520 -0.032193 0.123806 0.053425 0.141266 0.253156 0.239281 0.214308 0.142092 0.071079 -0.007230
<VARIANCE> 39
41.839663 39.788174 33.332766 93.309922 75.993299 85.215459 93.812508 61.779322 55.429002 65.548953 83.906082 38.429493 72.786556 4.202643 4.559543 3.015473 6.102644 4.655232 5.029716 5.101281 4.966238 5.098728 6.141942 6.947940 3.417869 1.991602 0.608584 0.638829 0.489386 1.119983 0.849001 0.725765 0.872678 0.788784 0.778786 0.893637 0.807262 0.583084 0.346063
<MIXTURE> 2 0.493366
<MEAN> 39
2.152430 -3.012926 -4.070627 -12.857715 -5.217076 -2.474312 -8.558522 -6.435782 -7.726421 -0.849409 -5.028526 -5.071290 52.170589 -0.837171 0.538745 0.567831 1.508192 0.036142 -0.439488 0.248999 -0.003468 0.498189 -0.470936 -0.022282 0.115704 -1.183446 -0.230705 -0.005273 0.150513 0.331445 0.002956 -0.057633 0.220714 0.145277 0.082135 -0.153898 0.000830 -0.061882 0.036296
<VARIANCE> 39
37.627391 51.747800 39.732594 119.489449 67.994305 99.450566 99.244192 71.784600 87.558798 95.940954 108.293589 50.932703 84.051089 1.772140 3.498244 2.484848 4.408149 3.452086 3.541897 4.122844 4.775886 5.603988 5.511981 4.381727 3.827376 2.132853 0.363450 0.488376 0.413707 0.922124 0.636074 0.682024 0.814484 0.791662 1.080779 1.007777 0.910165 0.719470 0.433822
<TRANSP> 5
0.000000 1.000000 0.000000 0.000000 0.000000
0.000000 0.731341 0.268659 0.000000 -0.000000
0.000000 0.000000 0.909599 0.090401 -0.000000
0.000000 0.017110 0.000000 0.843230 0.139659
0.000000 0.000000 0.000000 0.000000 0.000000
<ENDHMM>
~h "sp"
<BEGINHMM>
<NUMSTATES> 3
<STATE> 2
<NUMMIXES> 2
<MIXTURE> 1 0.442414
<MEAN> 39
-13.416454 1.378297 -0.476150 1.185388 -0.021438 -0.244951 1.087881 1.498980 1.652141 0.843455 0.966559 0.082321 31.293106 -0.274480 0.212979 0.227635 0.189178 0.197264 0.249151 0.293812 0.319235 0.485840 0.536850 0.435738 0.231490 -0.285430 0.111334 -0.091252 -0.009461 -0.029013 -0.026307 -0.033800 -0.059485 -0.057162 -0.114734 -0.094747 -0.064110 -0.038426 0.188825
<VARIANCE> 39
14.116855 10.345575 11.190057 12.600962 15.408994 17.421852 16.436843 16.652304 19.786980 22.011515 19.315107 13.644619 8.931617 0.485986 0.773937 0.934277 0.880588 1.175375 1.360333 1.450766 1.616016 1.760515 1.806501 1.641679 1.328882 0.381194 0.124946 0.156333 0.181175 0.202912 0.251779 0.289694 0.303542 0.335090 0.362835 0.362342 0.339406 0.277499 0.131445
<MIXTURE> 2 0.557586
<MEAN> 39
-12.896828 -0.520677 -1.744014 0.637044 -0.788421 -1.285422 0.089755 1.187138 0.681105 -0.739504 0.261846 0.212646 32.354515 -0.078200 -0.025243 -0.127511 -0.202514 -0.328301 -0.315939 -0.269329 -0.282847 -0.235030 -0.187897 -0.215103 -0.182404 -0.051619 0.059499 -0.022067 0.059269 -0.041371 -0.060418 -0.056304 -0.043329 -0.070262 -0.098675 -0.050574 -0.064714 -0.073165 0.163902
<VARIANCE> 39
11.442046 17.169066 12.948396 10.534508 16.566266 18.438314 19.624034 20.303085 27.102661 31.868870 25.249627 15.563628 11.688363 0.486810 0.976928 0.910573 0.921788 1.215845 1.391134 1.435539 1.534202 1.801020 1.823647 1.642790 1.337974 0.498734 0.125350 0.199586 0.201565 0.219836 0.272811 0.296539 0.312357 0.360545 0.405401 0.408275 0.370778 0.298402 0.176936
<TRANSP> 3
0.000000 0.075754 0.924246
0.000000 0.934601 0.065399
0.000000 0.000000 0.000000
<ENDHMM>
~h "th"
<BEGINHMM>
<NUMSTATES> 5
<STATE> 2
<NUMMIXES> 2
<MIXTURE> 1 0.473934
<MEAN> 39
-15.504980 0.384123 0.217117 2.337910 -2.203904 -1.153483 -0.304108 -0.536544 0.115322 -0.624649 1.078667 -0.677308 44.779756 -0.910736 -0.084526 0.002470 -0.226917 0.317149 0.858654 0.781974 0.687621 0.891557 0.739055 0.605275 0.506443 0.017906 0.421307 -0.247453 0.217521 -0.212379 -0.229494 -0.206398 -0.128230 -0.075730 -0.211458 -0.023763 -0.128728 -0.154348 0.334609
<VARIANCE> 39
25.287165 32.950858 25.002804 26.068593 27.264672 26.541058 27.165817 23.469914 23.910644 22.157954 19.902387 15.646358 79.758376 3.862274 3.010876 3.257007 3.139785 2.847820 3.299295 3.186884 3.406737 3.181078 2.794861 3.016147 2.195270 9.667288 0.555181 0.778176 0.825765 0.777494 0.655004 0.671331 0.759429 0.666133 0.636518 0.572699 0.603125 0.443664 1.406988
<MIXTURE> 2 0.526066
<MEAN> 39
-16.806638 -1.209585 -1.292805 1.391951 -2.703835 -0.506232 -0.573013 0.189617 0.703300 0.097169 1.892849 -0.409081 41.378279 -0.324246 -1.063445 -0.832881 -1.080530 -0.901738 -0.368275 -0.293117 -0.302752 -0.091960 -0.284603 0.026309 -0.010793 2.354707 0.525276 0.043314 0.390515 -0.176966 -0.213323 -0.378152 -0.136814 -0.278206 -0.268990 -0.145062 -0.260093 -0.188021 0.886971
<VARIANCE> 39
21.262574 27.673892 18.780090 19.476802 22.043975 21.949704 22.378851 18.884864 20.255219 18.809936 16.220939 13.352641 70.993015 2.241750 2.422939 2.201151 2.262963 2.206248 2.379154 2.565116 2.757179 2.510422 2.269637 2.082124 1.750536 9.954042 0.527127 0.538814 0.636856 0.508111 0.526043 0.602915 0.596764 0.595425 0.542685 0.529286 0.489362 0.394490 1.465352
<STATE> 3
<NUMMIXES> 2
<MIXTURE> 1 0.576643
<MEAN> 39
-13.975647 -4.938854 4.834197 -0.827701 -4.599084 -2.549362 1.232710 0.966951 0.963641 1.217142 1.690347 -1.440314 56.327507 2.461055 -0.784972 1.789211 1.322308 0.261669 -0.656112 -0.717992 0.264309 -0.248502 -0.132339 -0.154736 -0.382329 0.641179 0.871987 0.115249 -0.488932 0.433349 0.340099 -0.305555 -1.053369 -0.389321 -0.137057 -0.321729 -0.214955 -0.002260 -0.780017
<VARIANCE> 39
31.747528 25.515461 47.473864 43.113071 25.159551 33.624254 37.115874 28.475767 26.991611 23.765189 20.997457 18.168329 18.901938 5.323064 3.344682 6.658362 5.327204 4.000574 3.903381 7.885119 4.585556 3.099886 3.141737 2.308865 2.191354 4.536760 0.665071 0.653578 1.665157 1.560250 0.779662 1.024408 1.274731 1.023761 0.839723 0.650585 0.573816 0.545854 0.944187
<MIXTURE> 2 0.423357
<MEAN> 39
-11.872875 -4.114750 5.025240 -0.082346 -5.794763 -4.467840 -0.529570 -1.192051 -1.043948 -2.792125 -0.720106 -2.007427 54.957091 3.892749 -0.741001 0.654775 -0.051385 -0.994062 -3.464503 -3.159388 -1.416210 -1.723055 -1.073255 -1.738879 -1.353762 1.217409 0.905019 -0.240703 -0.757860 -0.111295 0.170530 -0.670303 -1.176200 -0.084320 -0.293876 0.103220 -0.008228 -0.147373 -0.533827
<VARIANCE> 39
37.533670 29.131160 53.159996 45.346434 33.423837 38.491196 39.842913 41.308217 33.076585 27.290551 26.208024 21.021058 26.822795 4.581743 3.289339 7.660536 5.407439 4.627392 6.113030 7.025039 4.255743 4.171671 3.165542 3.457338 2.840504 7.645130 0.668813 0.786118 1.759319 1.406358 0.911571 1.211731 1.145655 1.135761 1.018822 0.726798 0.759623 0.637862 1.375927
<STATE> 4
<NUMMIXES> 2
<MIXTURE> 1 0.566343
<MEAN> 39
9.033092 -7.282861 -4.573560 1.216836 1.784171 -6.906498 -21.578625 -8.447834 0.668994 -1.349067 -0.313283 -1.892467 57.444389 2.306803 -1.046822 -1.336120 -0.089492 0.527592 -0.846555 -3.583023 0.104846 0.842381 -0.888262 -0.240197 0.447397 0.784863 -1.186973 -0.254560 0.955878 0.172821 -0.780741 -0.363854 1.000841 1.049374 -0.081023 -0.290958 0.130916 0.049406 0.165196
<VARIANCE> 39
20.097338 17.745476 51.548427 33.276442 38.749171 50.527522 68.392860 52.620010 35.131456 27.692017 27.829244 22.255661 18.460643 5.899742 2.080416 6.066287 3.715400 4.910860 5.163449 8.453400 8.599928 3.264404 3.737288 2.428169 2.140392 1.104460 0.465247 0.323251 0.998753 0.753781 0.697873 0.853930 1.344976 0.771002 0.795634 0.531114 0.482076 0.422031 0.150058
<MIXTURE> 2 0.433657
<MEAN> 39
2.927260 -7.582395 0.671582 -2.189388 -7.417285 -17.582226 -14.275605 -5.113854 -7.403655 -4.299843 -4.686869 -6.804808 55.838562 3.647494 -1.768305 -1.926577 -0.557476 0.464554 -3.423519 -3.524424 0.362612 -1.667489 -0.028411 -0.581473 -0.640937 0.474896 -0.909541 -0.111789 -0.087198 -0.051786 0.217416 0.582137 0.838358 0.681982 0.169381 0.266620 0.400476 0.431251 -0.024343
<VARIANCE> 39
24.659413 21.861920 52.146230 40.510560 56.531252 53.017869 39.626639 36.728452 33.082835 33.229478 29.957503 22.935467 22.616274 4.398782 3.528736 6.698161 4.539644 4.838850 8.195066 7.263787 6.735589 5.094203 3.718848 3.765142 3.047951 1.809810 0.474140 0.463480 1.961655 0.793730 1.294671 1.131112 1.178193 0.812938 0.791345 0.703134 0.749209 0.533270 0.608227
<TRANSP> 5
0.000000 1.000000 0.000000 0.000000 0.000000
0.000000 0.850684 0.149316 0.000000 -0.000000
0.000000 0.000000 0.763121 0.236879 0.000000
0.000000 0.000000 0.000000 0.741001 0.258999
0.000000 0.000000 0.000000 0.000000 0.000000
<ENDHMM>
~h "uw"
<BEGINHMM>
<NUMSTATES> 5
<STATE> 2
<NUMMIXES> 2
<MIXTURE> 1 0.505717
<MEAN> 39
-6.257175 -4.847981 13.854481 2.710385 -9.638525 -8.892343 -7.713474 3.506264 -4.799691 -6.525859 1.874221 -2.323297 60.054762 4.374331 -1.241810 1.413126 1.268108 -2.334483 -0.666408 -4.045798 -1.119819 -0.676337 -1.623774 0.637953 -1.194609 1.698197 -0.557710 -0.228601 -0.393423 -0.601769 -0.103556 0.186749 -0.376561 -0.100754 0.048553 0.076641 0.393125 0.075155 0.288980
<VARIANCE> 39
60.684970 20.165187 25.796337 30.681612 43.465897 25.502467 75.500948 36.228127 40.638209 39.812079 29.011747 23.550914 37.640921 3.224227 2.144858 2.865619 3.531891 3.328901 3.294196 4.236833 3.864121 3.605473 4.600349 3.524440 2.400278 1.785129 1.209455 0.362609 0.351697 0.324876 0.762200 0.450004 1.542109 0.663792 0.478117 0.620864 0.467830 0.402648 0.578732
<MIXTURE> 2 0.494283
<MEAN> 39
-9.775181 -1.910779 10.930589 -8.218391 -14.043874 -11.125110 -2.111450 -8.811588 -12.163806 -1.198177 -4.460726 -3.508574 57.699769 4.338424 -1.219521 1.489465 -1.795441 -3.153360 -3.577831 -3.692263 -1.705444 -2.966899 -0.754098 -3.253358 -0.660612 0.949355 -0.570891 -0.234906 -0.466569 -0.423516 0.335444 -0.016210 -0.025230 0.596195 0.302400 0.666906 0.120418 0.055958 0.404433
<VARIANCE> 39
56.044365 20.961866 19.843255 39.987092 43.141420 58.289121 67.569831 50.790121 55.760915 34.343763 46.150478 20.550567 20.202185 2.780557 2.717488 2.833506 3.242415 3.132397 3.506283 4.245698 4.582402 4.526056 5.243036 3.228638 2.371792 1.310476 1.097866 0.333516 0.304797 0.652007 0.785721 1.174179 1.460629 0.722305 0.878148 0.642243 1.056586 0.415469 0.248520
<STATE> 3
<NUMMIXES> 2
<MIXTURE> 1 0.491178
<MEAN> 39
-0.285357 -9.116715 15.691570 -0.707167 -16.461066 -12.613819 -17.147514 -1.123096 -8.064659 -7.755294 1.923029 -4.504009 63.976741 0.256112 -0.169450 -0.144058 -0.022206 0.223438 -0.081038 -0.715016 0.029879 -0.022680 0.279515 -0.029566 -0.201419 -0.129195 -0.346811 0.336419 -0.232799 0.109291 0.495993 0.287557 0.501352 -0.007076 0.183641 0.189089 0.006566 0.027150 -0.339672
<VARIANCE> 39
13.009353 21.907346 31.151479 93.267184 37.319206 46.237821 58.589407 59.206773 78.831335 89.787380 75.280253 29.430391 24.273606 0.421433 1.086697 1.010903 1.077150 1.369154 1.287159 1.603138 1.399557 1.349816 1.788736 1.323268 1.109088 0.651763 0.302221 0.187383 0.189322 0.277323 0.334690 0.329496 0.460365 0.294763 0.336863 0.323957 0.400819 0.194847 0.148606
<MIXTURE> 2 0.508822
<MEAN> 39
-3.101479 -7.190627 12.864744 -12.804382 -18.380964 -20.265559 -8.995719 -7.047080 -17.823840 1.842053 -10.308262 -2.945345 60.447072 0.306765 0.118458 -0.362549 0.444226 0.578794 -0.252202 -0.526793 0.162968 0.111140 -0.292367 -0.408661 0.137670 -0.434378 -0.014876 0.200295 -0.160886 0.156356 0.166511 0.175358 -0.036352 -0.164165 0.230532 -0.169569 0.038181 -0.042101 -0.136233
<VARIANCE> 39
10.154332 22.170672 28.026920 33.680714 29.860054 35.203429 51.218188 55.212348 51.479895 44.863501 42.174012 28.760846 17.247741 0.249551 0.509261 0.857869 0.704360 1.054102 0.931056 1.316797 1.105952 1.639669 1.451924 1.272873 1.067311 0.200544 0.079799 0.105718 0.111679 0.176556 0.184042 0.219086 0.214875 0.240568 0.262524 0.295435 0.263562 0.197898 0.039687
<STATE> 4
<NUMMIXES> 2
<MIXTURE> 1 0.517931
<MEAN> 39
1.500124 -1.476660 5.606801 0.379311 -6.592404 -4.200321 -13.905442 -6.699366 -8.050993 -4.699893 1.464479 -6.030419 53.392560 -1.014813 0.572531 -0.532959 0.447095 0.966676 0.770416 1.643890 0.162037 0.602364 0.386947 0.056589 0.431750 -1.092614 -0.342107 -0.073435 0.014464 -0.033617 0.065137 -0.028129 0.298008 0.288068 0.143650 0.131274 -0.055977 0.138286 -0.018232
<VARIANCE> 39
31.631659 39.187954 55.585385 59.557704 60.823507 85.603565 111.344101 62.429986 57.958218 72.833991 89.046118 45.268055 79.277390 2.827902 2.715790 2.129192 3.730607 3.274701 4.349013 4.307759 4.573074 4.981262 4.236857 4.599000 2.880601 1.202129 0.390781 0.464830 0.346753 0.485929 0.536494 0.599473 0.704041 0.652852 0.625018 0.637309 0.549523 0.453619 0.215911
<MIXTURE> 2 0.482069
<MEAN> 39
2.070313 -2.713540 3.662270 -5.680855 -7.160003 -9.432511 -16.319488 -8.527957 -9.400726 -1.471295 -5.332682 -5.735182 55.055106 0.013482 0.654557 -1.046065 -0.040594 0.675374 1.166002 0.426221 -0.716654 0.211142 -0.042309 0.307094 -0.289943 -0.942593 -0.170130 0.022723 0.078928 0.060691 -0.169229 0.075930 0.348468 0.114966 -0.066068 -0.107012 0.199032 0.065355 -0.036526
<VARIANCE> 39
18.892161 37.393611 47.777730 82.370645 55.665018 126.518729 100.295566 71.511763 73.481638 93.278411 148.401433 51.731448 61.568158 1.300361 1.830768 1.826815 2.828518 2.851630 3.097004 3.849335 4.034569 4.203373 4.636960 3.090620 2.401627 0.758652 0.146858 0.252602 0.245092 0.423779 0.421149 0.580062 0.583112 0.650458 0.685865 0.673780 0.594745 0.453279 0.112458
<TRANSP> 5
0.000000 1.000000 0.000000 0.000000 0.000000
0.000000 0.726966 0.273034 0.000000 -0.000000
0.000000 0.000000 0.880994 0.119006 -0.000000
0.000000 0.000000 0.000000 0.878486 0.121514
0.000000 0.000000 0.000000 0.000000 0.000000
<ENDHMM>
~h "sil"
<BEGINHMM>
<NUMSTATES> 5
<STATE> 2
<NUMMIXES> 2
<MIXTURE> 1 0.499066
<MEAN> 39
-8.953139 1.179519 0.787030 2.509080 0.053889 -0.437064 0.576622 -0.614487 -2.066021 -1.992311 -1.247314 -1.106376 35.388759 -0.244861 0.561834 0.211417 0.217662 0.322293 0.334402 0.318133 0.368260 0.541897 0.465213 0.368984 0.178821 -0.496905 0.006541 -0.002869 0.075750 0.032380 0.035714 0.023893 0.025962 0.045759 0.055348 0.049001 0.033798 -0.006239 0.053947
<VARIANCE> 39
15.705982 32.877752 24.960121 19.799993 21.288027 22.073723 22.229131 24.126876 24.958036 25.878382 20.966838 17.949440 13.343206 0.442404 0.908760 0.977684 1.046600 1.255285 1.466658 1.611104 1.740532 1.827186 1.882946 1.659417 1.460668 0.300839 0.081523 0.165445 0.204980 0.233114 0.274891 0.322790 0.374427 0.400366 0.425547 0.423073 0.391165 0.344588 0.038844
<MIXTURE> 2 0.500934
<MEAN> 39
-10.106471 -3.448245 -0.822782 0.524458 -1.676804 -2.460737 -0.508856 0.089077 -2.622155 -3.166847 -0.890935 -1.010322 37.501168 -0.143046 0.263125 -0.223872 -0.142672 -0.104638 -0.078341 -0.202237 -0.254080 -0.083317 -0.121827 -0.145070 -0.058888 -0.416940 -0.033825 0.061325 0.043692 -0.025390 -0.014621 -0.016979 -0.026798 -0.053269 -0.005244 0.038745 0.004822 -0.022526 -0.007823
<VARIANCE> 39
13.017414 35.120657 21.082719 21.406999 26.627624 28.092513 27.241193 30.466771 29.496755 31.692547 24.750926 21.377808 22.789946 0.479789 0.890105 0.843555 1.033263 1.206398 1.388535 1.546652 1.631733 1.737819 1.821888 1.561512 1.419640 0.416559 0.076046 0.139238 0.178438 0.223497 0.283155 0.318902 0.371502 0.389505 0.415477 0.435277 0.387584 0.343414 0.042240
<STATE> 3
<NUMMIXES> 2
<MIXTURE> 1 0.498155
<MEAN> 39
-14.898306 2.024290 0.025324 1.129439 -0.054413 -0.146151 1.052311 1.717471 2.541895 1.753688 2.007486 0.484483 29.864414 -0.094251 0.106537 0.206576 0.226269 0.261186 0.282117 0.281688 0.321502 0.411814 0.425546 0.327358 0.187582 -0.080929 0.069961 -0.063938 -0.015500 0.000704 -0.014227 -0.014690 -0.010358 -0.036942 -0.083112 -0.064493 -0.038070 -0.015346 0.109421
<VARIANCE> 39
