~h "f"
<BEGINHMM>
<NUMSTATES> 5
<STATE> 2
<NUMMIXES> 2
<MIXTURE> 1 0.488047
<MEAN> 39
-17.191604 -6.194064 -0.566246 1.857114 -0.931770 -0.183458 -1.744700 0.533376 0.339477 0.530682 0.839017 -1.219986 45.900098 -0.607401 -0.341493 -0.189334 0.078522 0.170728 0.427043 0.338849 0.373769 0.472614 0.507300 0.431434 0.285243 0.009063 0.576822 0.158384 0.042057 -0.183006 -0.076127 -0.073225 -0.061099 -0.112909 -0.184679 -0.114181 -0.082930 -0.096692 0.235132
<VARIANCE> 39
28.974101 22.589505 18.007694 16.986889 19.679421 19.324540 19.628361 19.882908 19.722310 19.587826 17.784465 14.962294 53.783820 2.612733 1.703368 1.570745 1.605829 1.667561 1.818855 1.911521 2.197526 2.363823 2.027819 1.848358 1.656441 2.195989 0.562066 0.355708 0.367201 0.453475 0.414352 0.391755 0.421193 0.455207 0.490032 0.430626 0.410437 0.356392 0.378219
<MIXTURE> 2 0.511953
<MEAN> 39
-18.422710 -7.025301 -1.193856 0.894601 -2.291123 -1.424738 -2.670386 -0.244267 -0.235448 -0.099449 0.485433 -1.518236 46.267663 -0.678431 -0.697523 -0.681668 -0.461718 -0.391510 -0.161965 -0.255540 -0.181577 -0.053507 -0.001671 0.003067 0.001912 0.205468 0.646238 0.135612 0.008734 -0.215071 -0.124109 -0.158775 -0.184658 -0.246583 -0.307609 -0.196427 -0.205895 -0.163812 0.271611
<VARIANCE> 39
22.900039 20.942247 17.187083 16.601428 18.902288 19.686028 19.956241 20.405917 20.389355 19.635277 17.084758 14.424520 46.128163 2.582846 1.620733 1.575032 1.542464 1.617357 1.797875 1.913332 2.246551 2.363500 2.016663 1.800279 1.606437 2.150630 0.546873 0.328252 0.362263 0.456841 0.405948 0.395011 0.431109 0.487569 0.522743 0.441005 0.422763 0.356492 0.397567
<STATE> 3
<NUMMIXES> 2
<MIXTURE> 1 0.509145
<MEAN> 39
-15.166768 -7.377498 -1.935800 -0.280330 -1.838240 -0.712971 -2.512928 -0.883403 -0.428612 0.627007 0.859562 -1.643491 50.950840 4.780596 0.827616 0.047163 -2.197071 -0.993041 0.350145 -0.000683 -0.281894 -0.749337 -0.618730 -0.087425 -0.929012 2.120547 1.335273 0.146890 0.035686 -1.083309 -0.703329 0.273739 -0.057996 0.042634 -0.285389 -0.250466 0.046123 -0.447300 0.465885
<VARIANCE> 39
31.408724 15.955112 13.499796 14.353765 16.383427 17.193012 16.392196 15.938286 15.950513 14.663911 14.075202 11.785931 34.487165 5.694220 4.074563 2.368872 4.507917 4.075042 2.852761 2.425493 2.967838 2.775524 2.629367 3.137811 2.382211 4.542368 0.696815 0.821302 0.466322 0.637530 0.817907 0.623461 0.571637 0.673752 0.594812 0.555525 0.770647 0.434889 0.683475
<MIXTURE> 2 0.490855
<MEAN> 39
-16.060749 -8.114921 -2.359824 -1.097483 -3.272184 -2.363658 -3.853126 -1.774935 -1.349283 -0.980779 -0.076889 -1.918240 49.848082 4.960683 0.270430 -1.201260 -3.132871 -1.236601 -0.674200 -1.223267 -1.520216 -1.899714 -1.251710 -1.854753 -1.498567 2.742964 1.245828 0.067788 -0.322758 -1.272433 -0.393767 0.102277 -0.185185 -0.182201 -0.527073 -0.168574 -0.535064 -0.467476 0.418632
<VARIANCE> 39
29.304921 17.037509 12.951317 14.728891 16.729708 16.567540 16.578978 17.516225 16.857438 15.004478 14.921617 11.799601 35.909860 5.569190 4.578117 2.371985 5.939394 3.116120 2.670012 2.653264 2.930880 3.456846 2.580298 4.001607 2.727962 4.925144 0.723719 0.881581 0.415733 0.809795 0.742653 0.595009 0.565099 0.709353 0.634656 0.571072 0.796110 0.498111 0.713155
<STATE> 4
<NUMMIXES> 2
<MIXTURE> 1 0.525125
<MEAN> 39
3.982284 -10.896924 -4.940510 -14.061386 -5.853963 1.190995 -3.728036 -3.642114 -4.421454 -2.057384 -1.579073 -9.517487 62.633996 2.955845 -1.583496 -0.344911 -2.949756 -0.586172 1.373977 0.142740 -0.139283 -0.483952 -0.497094 -0.146321 -1.286923 2.794483 -1.574287 0.026052 0.247735 0.884346 0.355310 0.042283 0.161073 0.223319 0.379532 0.072549 0.052690 0.511750 -0.718724
<VARIANCE> 39
16.432331 68.881977 31.356251 49.721727 38.096068 53.245328 42.846727 49.945073 38.958542 42.948128 104.435947 43.372691 42.987682 10.640331 5.558604 2.704609 7.158159 7.581910 3.707275 3.593644 4.306287 4.131281 3.420154 5.866624 3.725417 2.957139 0.390085 0.640344 0.335137 0.812297 0.471781 0.516248 0.477209 0.510485 0.436339 0.485039 1.161369 0.553797 0.500225
<MIXTURE> 2 0.474875
<MEAN> 39
2.654978 -9.078976 -7.220963 -13.681156 -6.665923 -2.617672 -6.499005 -5.964351 -6.499334 -4.377019 -6.278164 -9.310770 60.059637 4.095670 -1.284465 -1.496381 -4.223021 -0.863476 0.448663 -0.752354 -0.920900 -1.721198 -1.010657 -1.824715 -1.914908 2.952418 -1.535838 -0.169118 0.302328 0.667015 0.301751 0.229461 0.228523 0.380265 0.338242 0.157396 0.370353 0.504484 -0.590240
<VARIANCE> 39
18.143424 66.195833 27.831453 49.841647 34.034320 43.643150 35.970914 43.871077 35.917971 35.893331 82.217920 38.625508 45.965775 8.536650 7.667594 3.332361 9.692304 7.982898 4.250119 4.301600 4.967675 5.708305 3.917352 8.137221 4.228013 3.383493 0.413067 0.535805 0.331547 0.889960 0.426932 0.484523 0.471876 0.529328 0.465717 0.522065 0.918471 0.527954 0.504613
<TRANSP> 5
0.000000 1.000000 0.000000 0.000000 0.000000
0.000000 0.867810 0.132190 0.000000 -0.000000
0.000000 0.000000 0.650335 0.349665 -0.000000
0.000000 0.000000 0.000000 0.561249 0.438751
0.000000 0.000000 0.000000 0.000000 0.000000
<ENDHMM>
~h "k"
<BEGINHMM>
<NUMSTATES> 5
<STATE> 2
<NUMMIXES> 2
<MIXTURE> 1 0.502244
<MEAN> 39
-5.152268 0.273934 9.548465 2.720261 -11.040640 -15.099152 -5.094215 -2.309242 -10.173434 -2.095150 1.375916 -3.218530 45.296828 -1.959893 2.597769 -2.175145 2.056437 3.538154 2.571219 0.309667 0.183540 2.346077 -0.003025 0.694379 1.443852 -5.640259 -0.447871 -1.001892 -0.727978 -0.831906 0.219136 0.569734 0.057148 0.317661 0.946500 0.364389 -0.181432 0.122742 0.898404
<VARIANCE> 39
23.094560 50.188048 40.315095 46.328585 58.823868 48.393220 57.366921 113.703901 61.731152 61.027014 68.434848 41.466411 101.341308 2.166074 7.852569 4.342753 6.547065 3.838564 5.268033 6.471519 9.913860 8.121418 6.735467 8.998927 3.733002 6.970674 0.523498 1.668266 0.691510 0.678399 1.066968 1.000768 0.976818 1.521918 1.341271 1.154358 1.167348 0.867299 2.767857
<MIXTURE> 2 0.497756
<MEAN> 39
-5.476286 0.905629 9.155913 2.661046 -10.911311 -15.445353 -5.415582 -3.879128 -10.725066 -2.321724 0.090819 -3.404867 44.034580 -1.954283 2.112155 -2.648736 1.699698 3.252401 2.472807 -0.380689 -0.033328 2.168100 -0.548265 0.410422 0.942693 -5.197037 -0.448879 -1.244671 -0.795452 -0.939195 0.073534 0.382787 -0.003746 0.389357 0.851162 0.280073 -0.153924 0.056764 1.349541
<VARIANCE> 39
22.067519 52.845773 36.724384 48.582631 64.786734 47.401909 55.713316 111.053342 61.480703 60.339315 68.669947 44.175648 87.178476 2.592322 9.298659 4.596678 7.680738 3.918025 4.752215 6.381325 9.825876 7.969580 8.518495 8.966275 4.156324 8.309721 0.557831 1.757720 0.692047 0.752578 1.134883 1.082238 1.099883 1.479415 1.356527 1.212133 1.293680 0.976523 2.951867
<STATE> 3
<NUMMIXES> 2
<MIXTURE> 1 0.498315
<MEAN> 39
-12.108832 -3.594499 -3.691632 2.051160 -1.162819 -5.023595 -3.603862 0.285557 0.956644 0.708885 1.405054 -0.300692 40.099686 -1.568925 -1.936481 -2.049177 -0.070162 0.891488 0.301154 0.489470 1.328638 1.509003 0.256914 0.004633 0.022071 3.310479 -0.334869 0.292128 0.735589 -0.049847 -0.677377 -0.727284 0.173538 0.023665 -0.554160 -0.204948 -0.061423 -0.127660 0.974863
<VARIANCE> 39
16.873958 66.813023 50.238435 20.643937 24.873424 32.831303 30.892700 25.942194 24.745008 23.087506 20.451228 18.189396 121.694026 5.180979 6.222403 5.138522 3.397252 3.971404 6.529454 4.092805 4.021508 4.123692 3.261185 3.161866 2.822946 11.850303 1.301166 2.388189 1.111820 0.564894 0.751627 0.999183 0.985968 0.949613 0.809502 0.669054 0.721407 0.622217 3.676435
<MIXTURE> 2 0.501685
<MEAN> 39
-12.079098 -4.812104 -4.072651 2.219286 -1.224804 -5.425810 -4.274900 0.193532 0.375656 0.005174 0.832013 -0.942808 41.173641 -1.308075 -2.484376 -2.572976 -0.405728 0.398149 -0.304576 -0.291755 0.657533 0.936662 -0.259217 -0.617776 -0.502216 4.188302 -0.448230 0.459808 0.788383 -0.103514 -0.701474 -0.829087 0.086159 0.015739 -0.598521 -0.302701 -0.033216 -0.113556 0.973250
<VARIANCE> 39
19.383274 71.537736 52.652851 21.489050 27.790286 34.926600 33.680115 27.059637 25.580602 23.033242 21.153436 18.117827 112.857677 5.916947 5.975551 4.922652 3.969541 4.205698 6.246825 4.228119 3.993823 4.252436 3.254368 3.151750 2.817916 9.200380 1.161274 2.381557 1.123650 0.563183 0.762609 1.019091 0.985419 0.910959 0.769170 0.658849 0.713900 0.634093 3.521176
<STATE> 4
<NUMMIXES> 2
<MIXTURE> 1 0.503416
<MEAN> 39
-22.902871 -4.822358 -3.476036 1.258516 -1.427611 -11.445857 -3.209320 4.623628 2.014153 -2.025182 0.075096 -0.734887 56.341032 -4.743783 2.578413 1.411282 -0.365023 -0.271226 -0.043651 1.921788 1.171725 0.121654 -0.511488 0.413347 0.916032 0.827349 0.380639 0.679195 0.272094 0.001881 0.069528 0.835711 0.199554 -0.326307 -0.394155 0.127838 0.195313 0.098498 -1.571656
<VARIANCE> 39
41.798300 19.815623 40.392888 35.597357 51.801913 37.207650 44.998825 29.689621 29.434989 21.499267 21.502475 17.922848 20.506230 3.186037 2.601063 2.819435 2.325729 3.252700 3.719687 2.571314 2.806503 3.109423 2.299637 2.421835 1.736739 2.623770 0.990506 0.667307 0.694943 0.451833 0.542187 0.553882 0.730948 0.563003 0.530445 0.488825 0.410898 0.456708 0.557776
<MIXTURE> 2 0.496584
<MEAN> 39
-24.243874 -5.190221 -3.466925 1.648435 -2.217000 -11.294182 -2.966609 4.662102 2.410615 -2.223757 -0.212095 -0.948870 55.412745 -4.396873 2.058416 0.964248 -0.641455 -0.816713 -0.098533 1.387812 0.707383 -0.479015 -0.913396 -0.006242 0.476263 0.554637 0.632894 0.468289 0.070534 -0.142601 0.027571 0.726543 0.000805 -0.508306 -0.546314 0.064772 0.112976 -0.000967 -1.333776
<VARIANCE> 39
38.978161 18.612088 36.644549 34.005818 53.700505 36.057836 46.180986 29.565438 27.682424 22.926519 24.248523 18.299822 18.920577 2.907808 2.621915 2.860048 2.135590 3.030571 3.734668 2.620679 2.845188 2.916717 2.287749 2.438418 1.713457 2.670817 0.885701 0.606212 0.643435 0.399198 0.572244 0.521210 0.683647 0.570285 0.540455 0.493810 0.447538 0.454304 0.559695
<TRANSP> 5
0.000000 1.000000 0.000000 0.000000 0.000000
0.000000 0.728633 0.271367 0.000000 -0.000000
0.000000 0.000000 0.767127 0.232873 0.000000
0.000000 0.000000 0.000000 0.550665 0.449335
0.000000 0.000000 0.000000 0.000000 0.000000
<ENDHMM>
~h "n"
<BEGINHMM>
<NUMSTATES> 5
<STATE> 2
<NUMMIXES> 2
<MIXTURE> 1 0.518360
<MEAN> 39
3.621394 -2.841248 9.378958 0.307935 -10.308083 -5.388870 -3.636255 -9.043151 -10.290222 -1.970869 -5.021611 -7.240062 54.904058 0.249823 1.243771 0.016042 0.938470 0.293688 -0.167523 0.628144 -0.940656 -0.375510 0.485568 -0.274563 0.141682 -1.034371 -0.207730 -0.114031 -0.185810 -0.089798 0.313618 0.081579 -0.097165 0.466729 0.269533 -0.190582 0.041686 0.100356 0.071239
<VARIANCE> 39
11.492031 39.522290 30.607286 83.378803 50.172020 50.751332 58.526492 94.950447 62.713206 63.018438 81.935853 47.063207 38.728918 1.023533 2.037558 1.917777 2.949917 2.380186 2.623948 2.909603 4.550680 3.582772 3.174650 2.537759 2.052974 1.617232 0.195120 0.316537 0.392943 0.660295 0.483567 0.547602 0.583682 0.882186 0.672988 0.565083 0.536339 0.406083 0.192754
<MIXTURE> 2 0.481640
<MEAN> 39
2.417681 -2.393173 7.082678 -6.204628 -13.932020 -8.559207 -5.901782 -14.587351 -14.080696 -5.889261 -10.876095 -6.015514 53.496826 0.370365 1.165107 -0.074590 0.785105 -0.084463 -0.235484 0.008532 -1.247668 -0.221734 0.156386 -0.410038 -0.134382 -0.959520 -0.196041 -0.200758 -0.187135 0.046620 0.309177 -0.021193 -0.107731 0.500700 0.078815 -0.250282 0.068803 -0.039072 0.096996
<VARIANCE> 39
12.265220 41.827240 29.223365 89.142143 44.715652 59.607090 56.260336 95.020491 68.670679 64.259867 75.655420 51.890648 39.784415 1.186204 2.179313 1.961217 3.210155 2.544140 3.227497 2.840148 4.641282 3.241295 3.428937 2.733445 2.301361 1.586247 0.205743 0.318139 0.411591 0.733064 0.490883 0.646835 0.548504 0.922094 0.645808 0.576513 0.528571 0.457806 0.176348
<STATE> 3
<NUMMIXES> 2
<MIXTURE> 1 0.512674
<MEAN> 39
3.593762 1.293498 8.833019 2.163293 -9.681775 -7.413897 -3.233098 -11.828064 -11.603804 -1.794441 -7.528630 -6.677510 51.187921 -1.204238 -0.094285 -0.190773 0.003202 1.559357 0.673378 -0.256087 1.713832 0.879116 -0.547152 0.522103 0.310428 -0.037576 -0.775312 -0.665161 -0.402714 -0.502650 0.406657 0.390695 -0.157496 1.021179 0.680435 -0.187062 0.335502 0.189271 0.324471
<VARIANCE> 39
12.807212 35.081790 23.722617 58.046169 53.136818 53.389077 60.617384 73.336285 63.424288 76.646096 68.583104 42.179578 35.013885 3.389804 5.420832 2.429981 5.101356 4.777515 4.293046 5.075934 6.727923 5.132158 4.212721 4.289973 3.329806 4.554350 0.517648 0.489462 0.450919 0.607564 0.793902 0.706877 0.867915 0.893512 0.922463 0.953753 0.734709 0.551986 0.335749
<MIXTURE> 2 0.487326
<MEAN> 39
2.604684 0.787511 7.180060 -2.204108 -12.869997 -10.281336 -5.768629 -15.731928 -13.994537 -5.724609 -11.156867 -4.933325 50.578856 -1.086284 -0.797444 -0.419068 -0.181117 1.290177 0.225698 -0.565775 2.033787 0.221012 -0.985665 0.337450 -0.327670 0.458230 -0.676982 -0.725315 -0.466843 -0.413508 0.439344 0.370090 -0.063648 1.044324 0.402636 -0.166574 0.321443 -0.018208 0.318617
<VARIANCE> 39
12.146743 35.900644 22.272123 60.322002 50.089409 59.404337 59.745175 74.433403 65.851632 73.995417 65.543437 49.270163 33.420296 3.404208 5.204235 2.410604 5.130129 4.786648 4.716544 4.717154 8.563598 5.001112 4.313878 4.283090 3.483301 4.733895 0.447917 0.461939 0.441733 0.606846 0.773951 0.759289 0.831455 1.035240 0.890335 0.918214 0.719912 0.649313 0.339692
<STATE> 4
<NUMMIXES> 2
<MIXTURE> 1 0.506975
<MEAN> 39
-4.856142 -3.225034 4.451193 0.324854 -3.284698 -3.250216 -3.186845 -0.611209 -4.915591 -4.797641 -4.192523 -4.069042 47.145227 -1.432456 -0.663189 -1.068371 -0.488366 0.966772 1.051353 0.391646 1.585506 1.610668 0.292262 0.840925 0.649719 -0.214174 0.118565 0.077762 0.014731 0.021131 -0.159266 -0.037402 0.143137 -0.355318 -0.053599 0.220759 0.026633 0.055275 0.102992
<VARIANCE> 39
42.824305 61.427826 40.119399 57.664773 49.919470 42.403166 63.974996 69.998301 72.251417 53.828278 43.657106 40.870447 127.814969 4.080864 4.221462 3.001056 4.186047 4.221043 3.902023 4.691238 6.040252 5.713553 5.246002 4.681762 3.048631 5.095950 0.391869 0.667031 0.523023 0.738845 0.659041 0.630110 0.852979 0.962547 0.894249 0.715911 0.641995 0.544177 0.736720
<MIXTURE> 2 0.493025
<MEAN> 39
-4.429829 -5.698913 3.589856 -3.120239 -5.188807 -5.260072 -4.626105 -1.433270 -7.666538 -7.026716 -6.240716 -4.192081 50.670139 -1.367566 -1.422744 -1.524569 -0.859895 0.762960 0.666413 -0.239092 1.506898 0.921327 -0.527796 0.324924 0.021144 0.510505 0.117630 0.132746 -0.095872 0.061665 -0.236125 -0.094268 0.002625 -0.603112 -0.017985 0.187188 -0.049509 -0.037424 -0.036458
<VARIANCE> 39
39.178639 69.981987 37.070388 83.812047 52.933695 51.111593 62.601068 70.947856 88.511064 64.060458 51.933150 40.810394 134.347388 4.361952 4.649240 3.167555 4.373516 5.012011 4.233799 4.382436 7.176649 5.810860 4.880661 4.757099 3.392458 5.918065 0.366901 0.696118 0.509986 0.858226 0.694611 0.731187 0.834851 1.091188 0.888870 0.747077 0.695176 0.553617 0.827894
<TRANSP> 5
0.000000 1.000000 0.000000 0.000000 0.000000
0.000000 0.748930 0.251070 0.000000 -0.000000
0.000000 0.000000 0.601052 0.398948 0.000000
0.000000 0.015718 0.000000 0.708992 0.275291
0.000000 0.000000 0.000000 0.000000 0.000000
<ENDHMM>
~h "r"
<BEGINHMM>
<NUMSTATES> 5
<STATE> 2
<NUMMIXES> 2
<MIXTURE> 1 0.518106
<MEAN> 39
5.712226 -12.102084 3.871178 -2.067232 -8.909413 -14.075451 -17.151705 2.174837 -5.001854 -5.051088 0.959250 -3.391427 61.971953 0.718145 -0.823468 -1.027329 1.372429 0.961621 -1.580585 -0.890016 1.703891 0.868065 -0.665032 -0.283047 0.430907 -0.137146 -0.356566 0.480169 0.054841 -0.160422 0.148571 0.346967 0.392381 -0.203942 0.048677 0.132363 -0.153906 0.104402 -0.134708
<VARIANCE> 39
21.755840 27.487590 176.945498 63.571064 112.322785 108.270226 109.112069 60.597833 120.206644 71.549417 63.916037 37.953228 24.865544 1.684140 1.096511 7.446981 1.845704 5.659746 2.926470 3.455925 4.215697 3.462697 3.580761 2.952380 1.831693 0.806293 0.284390 0.217449 1.036504 0.362300 1.062733 0.635924 1.401564 0.551043 0.862488 0.635279 0.583969 0.363545 0.071274
<MIXTURE> 2 0.481894
<MEAN> 39
4.144856 -13.364397 1.152836 -6.220843 -10.733166 -19.973884 -13.179610 1.078001 -12.388823 -2.468499 -4.067322 -7.197646 60.583926 0.741905 -1.074765 -1.207735 1.339182 0.962364 -2.201387 -0.840039 2.067134 0.410179 -1.234721 -0.488862 0.009840 -0.108862 -0.313540 0.455019 0.149046 -0.272170 0.002368 0.536534 0.231454 -0.374178 0.125615 -0.008194 -0.115211 0.146025 -0.127869
<VARIANCE> 39
18.680167 24.660419 150.261125 55.812556 97.938485 103.632132 101.470567 54.552125 107.662694 67.509316 66.326709 36.151795 21.695412 1.614033 1.136431 7.800654 2.152623 5.514106 3.024212 3.558462 3.450492 4.217162 3.450650 2.962466 1.971360 0.865178 0.295359 0.201622 1.068695 0.319643 1.095010 0.628478 1.419170 0.523741 0.843693 0.673320 0.606066 0.388902 0.079092
<STATE> 3
<NUMMIXES> 2
<MIXTURE> 1 0.532678
<MEAN> 39
8.781030 -11.879548 -4.194080 -1.154053 -2.823342 -12.913308 -21.652401 3.546281 0.121822 -3.877273 0.042415 -2.367299 61.322826 -0.047495 -0.036212 -0.269746 -0.164075 -0.101854 0.305387 0.602187 0.458830 -0.101685 0.219718 0.213696 -0.008892 0.042293 -0.287793 0.118253 0.522164 -0.193075 -0.386589 0.295646 0.598695 -0.193283 -0.324888 0.071190 0.222857 -0.099618 0.025282
<VARIANCE> 39
10.819670 28.941910 89.121454 48.701504 71.479407 100.881054 96.159244 88.500506 97.287739 53.826223 57.446538 39.151214 23.838274 1.107096 1.032882 6.823167 2.053067 5.243532 2.885999 4.497050 3.217946 3.787328 3.212681 2.525482 1.708216 0.715980 0.102175 0.225980 0.227966 0.261665 0.312198 0.501451 0.510718 0.676447 0.440529 0.437817 0.315817 0.287959 0.090035
<MIXTURE> 2 0.467322
<MEAN> 39
6.959729 -13.677423 -5.730610 -4.316297 -5.195050 -20.890197 -16.748548 4.162107 -8.303413 -4.363345 -4.920914 -6.691462 59.342921 -0.146252 -0.337234 -0.000012 -0.184798 -0.293604 0.009344 0.574307 0.520111 -0.331210 -0.210846 -0.182010 -0.235680 0.151233 -0.323033 0.167269 0.556674 -0.291013 -0.465829 0.460403 0.527312 -0.454657 -0.315599 0.197259 0.071067 -0.121825 0.025186
<VARIANCE> 39
9.347143 26.483323 76.860871 39.965956 62.393893 98.749980 82.072177 69.345808 100.114021 49.688754 60.459061 35.713891 22.300701 1.086851 1.056480 6.795832 1.627616 5.506819 3.051956 4.678430 3.074586 3.884676 3.176411 2.444041 1.701861 0.780479 0.092002 0.248797 0.233045 0.229166 0.351001 0.548367 0.441360 0.725392 0.411119 0.424770 0.347049 0.279853 0.097419
<STATE> 4
<NUMMIXES> 2
<MIXTURE> 1 0.510006
<MEAN> 39
2.174768 -8.836319 -0.434689 -0.103953 -4.228095 -10.131758 -10.470559 3.430302 -4.643345 -5.018792 -1.584832 -3.652519 55.540556 -2.210895 1.078491 2.622295 0.461317 -0.749271 1.268391 2.572158 -0.751936 -0.284729 0.469355 0.611785 0.082257 -1.038354 -0.259101 0.260959 -0.183435 -0.288784 0.228572 0.503816 -0.019293 -0.269294 0.156522 0.341396 0.117193 -0.006016 -0.121457
<VARIANCE> 39
45.927548 48.796410 99.357561 64.071197 114.372007 112.792969 107.070131 75.223356 101.459699 67.293238 71.439112 40.507022 95.164935 3.787548 3.783093 5.050163 6.203834 6.365553 4.828512 5.626185 5.446445 7.493094 4.857273 4.469912 3.670641 3.351208 0.610430 0.672232 0.720901 0.638170 0.855452 0.929572 1.047173 1.065902 0.865456 0.780902 0.755656 0.536100 0.439486
<MIXTURE> 2 0.489994
<MEAN> 39
1.450710 -11.771631 -0.298179 -2.250441 -7.368812 -15.322325 -8.438657 3.330600 -10.009762 -4.972032 -3.965358 -5.641333 55.843380 -1.755968 0.564230 2.292742 -0.585645 -1.541488 1.247069 1.910233 -1.447287 -0.783722 0.537501 0.116567 -0.353417 -0.501859 -0.107257 0.378889 -0.233819 -0.406778 0.254055 0.510989 -0.331631 -0.595852 0.316668 0.285340 -0.174504 -0.078717 -0.109622
<VARIANCE> 39
37.621641 49.207168 95.001117 72.555679 120.106948 153.491848 89.843202 69.008268 127.060996 72.881935 70.202075 39.974594 89.732423 2.665363 3.224503 5.159196 4.879654 5.676051 4.312408 4.992857 5.949209 5.890906 5.285564 3.799004 3.063482 3.275600 0.397451 0.599705 0.571386 0.529962 0.796163 0.979180 0.893845 1.055599 0.903381 0.693744 0.646820 0.459495 0.413623
<TRANSP> 5
0.000000 1.000000 0.000000 0.000000 0.000000
0.000000 0.440329 0.559671 0.000000 -0.000000
0.000000 0.000000 0.756670 0.243330 -0.000000
0.000000 0.000000 0.000000 0.611898 0.388102
0.000000 0.000000 0.000000 0.000000 0.000000
<ENDHMM>
~h "s"
<BEGINHMM>
<NUMSTATES> 5
<STATE> 2
<NUMMIXES> 2
<MIXTURE> 1 0.491285
<MEAN> 39
-20.487846 2.637711 0.886615 -0.305023 -1.293778 -6.071265 -1.497386 -0.327040 -2.553584 -3.227280 -0.301813 -2.017382 52.519286 -3.779583 0.798371 -1.461039 -0.092956 1.131384 1.253508 1.577353 1.268311 1.151351 0.826327 1.144190 0.770892 0.209724 0.587688 -0.369772 -0.246239 -0.192302 -0.233277 0.087184 -0.286785 -0.082043 -0.017561 0.236210 -0.028966 -0.007804 -0.112879
<VARIANCE> 39
72.701178 37.859756 71.306761 43.984098 59.822568 50.966001 50.763458 52.335504 43.204510 36.237108 31.265793 23.914710 58.948867 6.923043 4.159482 4.967735 5.107291 4.508095 5.018684 5.210523 4.669861 4.476800 3.861476 4.270502 2.570308 2.690293 1.081960 0.756705 0.920324 0.796225 0.870486 0.840218 0.874284 0.837688 0.737054 0.783061 0.689522 0.521036 0.330091
<MIXTURE> 2 0.508715
<MEAN> 39
-22.321432 2.148750 -0.514854 -0.888730 -1.271050 -5.786322 -0.815063 0.056758 -2.443599 -3.156410 -0.288730 -2.103208 52.062234 -3.308498 0.335781 -1.812179 -0.543988 0.384793 0.736261 0.729111 0.610386 0.533310 0.347152 0.665139 0.331021 0.170066 0.819013 -0.350015 -0.115962 -0.111927 -0.335043 -0.058400 -0.425479 -0.275980 -0.156492 0.145794 -0.132468 -0.081463 -0.151737
<VARIANCE> 39
56.790699 39.583672 61.480115 43.314557 60.532398 45.043875 45.766970 51.723562 39.732672 33.302312 31.080107 23.910726 56.142571 6.305293 3.720252 4.548150 4.677834 3.665704 4.413917 4.306851 4.320992 4.217028 3.561108 3.544191 2.577672 2.865682 0.964247 0.689192 0.814704 0.729457 0.858208 0.777614 0.816718 0.781892 0.720682 0.731052 0.688376 0.510975 0.322620
<STATE> 3
<NUMMIXES> 2
<MIXTURE> 1 0.494850
<MEAN> 39
-28.768178 1.949342 -6.414585 -1.566442 -1.379269 -3.581606 0.057918 1.468524 -0.324643 -0.489791 1.779461 -0.401515 53.497757 0.017202 0.069212 -0.088085 0.016923 0.125425 0.291484 0.183493 0.103589 0.187912 0.269359 0.127955 0.154416 0.128343 0.598135 -0.059874 0.376597 0.056605 -0.042764 -0.149648 -0.076863 -0.064122 -0.016932 -0.062421 -0.095723 -0.086219 0.055655
<VARIANCE> 39
14.621384 21.587470 40.251900 56.964370 48.632726 36.747680 26.364701 26.161350 19.754087 18.623858 18.563105 14.506992 25.504468 0.958799 1.031523 1.215079 1.230824 1.383600 1.611580 1.500242 1.600578 1.596052 1.556542 1.422100 1.345526 0.603078 0.368308 0.229046 0.272183 0.294986 0.304214 0.353790 0.352269 0.351405 0.351104 0.341797 0.314833 0.296878 0.131722
<MIXTURE> 2 0.505150
<MEAN> 39
-28.831627 1.539485 -6.700410 -1.135867 -2.067995 -3.257332 -0.141736 1.181476 -0.505464 -0.597498 1.689169 -0.833505 52.567771 -0.099137 -0.159527 -0.329713 -0.317885 -0.265555 -0.012787 -0.224427 -0.274872 -0.174781 -0.070195 -0.186383 -0.126961 0.053569 0.599745 -0.099819 0.300943 -0.061942 -0.156692 -0.296868 -0.182491 -0.192390 -0.132348 -0.155466 -0.186889 -0.117622 0.060362
<VARIANCE> 39
13.889952 21.382274 38.964297 53.240484 48.898362 35.294947 25.210325 26.029884 20.036681 18.850502 18.761206 14.584200 24.022091 0.921501 1.030121 1.208636 1.244379 1.373191 1.616287 1.524872 1.612875 1.613722 1.568207 1.430670 1.349735 0.627133 0.362796 0.219788 0.266507 0.286860 0.306419 0.372941 0.353730 0.371549 0.375505 0.350314 0.320393 0.295510 0.135998
<STATE> 4
<NUMMIXES> 2
<MIXTURE> 1 0.523482
<MEAN> 39
-21.166837 -0.476235 -2.100822 -2.498308 -0.943647 -5.720801 -0.724684 1.963906 0.254421 -0.344097 0.397898 -0.694184 49.563201 2.722426 -0.163261 1.211779 0.366291 -0.238710 0.050998 -0.260388 -0.180564 0.139637 0.381077 -0.161622 -0.226254 -0.778035 0.632430 -0.190861 0.247531 0.005530 -0.273298 -0.098615 -0.287534 -0.037314 -0.011083 0.000112 -0.040804 -0.151819 0.199176
<VARIANCE> 39
76.939207 31.460119 37.993084 43.743894 52.554496 53.082081 42.509544 35.893596 34.625769 32.547197 29.664611 26.285449 84.013643 6.574870 3.254769 3.306466 3.211302 4.442022 4.982706 4.075292 3.547638 3.396478 3.134330 2.930927 2.795008 4.910642 1.670690 0.644222 0.649433 0.637750 0.859101 1.029220 1.035041 0.746106 0.759656 0.669594 0.666385 0.595541 0.785433
<MIXTURE> 2 0.476518
<MEAN> 39
-21.835242 -0.544014 -4.163591 -1.213981 -3.185715 -4.348712 -0.520118 0.358621 -0.865668 -1.202840 0.376775 -1.498949 50.192430 3.171697 -0.339802 1.220156 -0.754928 -1.173275 -1.207849 -1.009131 -1.192405 -0.938589 -0.687103 -1.123254 -0.668148 0.237004 0.884293 -0.324437 0.291867 -0.337796 -0.574054 -0.586013 -0.426840 -0.204394 -0.205416 -0.119280 -0.370136 -0.108376 0.355620
<VARIANCE> 39
68.424814 31.556891 41.678558 39.708424 49.923650 51.900954 35.883070 33.420885 31.877461 29.116507 32.181903 24.037988 63.389725 5.591213 3.453882 3.125842 3.888727 4.226367 5.376840 3.946384 3.762526 3.395400 3.169578 3.266730 2.539264 5.215593 1.403516 0.632667 0.660003 0.736715 0.783995 1.202959 0.858651 0.736435 0.741957 0.665576 0.774925 0.535287 0.770306
<TRANSP> 5
0.000000 1.000000 0.000000 0.000000 0.000000
0.000000 0.639470 0.360530 0.000000 -0.000000
0.000000 0.000000 0.837144 0.162856 0.000000
0.000000 0.018332 0.000000 0.629124 0.352544
0.000000 0.000000 0.000000 0.000000 0.000000
<ENDHMM>
~h "t"
<BEGINHMM>
<NUMSTATES> 5
<STATE> 2
<NUMMIXES> 2
<MIXTURE> 1 0.502856
<MEAN> 39
-7.902913 4.736272 7.690323 3.257039 -4.546203 -6.091797 -5.961266 -5.510472 -5.316271 -3.593936 -1.911275 -2.887333 38.285498 -2.205494 0.340020 -2.289898 0.494738 2.447881 1.682420 1.791254 1.656976 2.208450 0.939899 1.011045 0.957400 -2.838961 -0.131570 -0.852554 0.093581 -0.925064 -0.402123 0.167552 0.041319 0.262244 0.070093 0.481248 0.202771 0.087993 1.244917
<VARIANCE> 39
36.015325 39.492914 47.170184 43.461155 50.403155 37.410367 36.519600 38.312384 41.058442 38.684266 34.260853 29.793253 58.644153 3.848891 7.768371 7.365547 6.641080 5.966161 4.156723 4.549528 5.719379 5.450848 5.454540 6.062806 3.431737 10.623816 0.625864 1.211075 1.247763 0.901785 1.157748 0.897458 0.809141 0.843535 0.938160 0.962416 0.961468 0.666675 1.859060
<MIXTURE> 2 0.497144
<MEAN> 39
-7.262201 5.151151 7.289276 2.110911 -6.063083 -7.262197 -6.645943 -7.085116 -6.734732 -4.471040 -3.351368 -3.628959 38.119691 -1.853445 -0.052609 -2.748570 0.496093 2.129712 1.098645 0.906064 1.085493 1.301784 0.018175 0.628466 0.234854 -2.228088 -0.297928 -0.980885 0.225352 -1.092544 -0.494032 0.091506 -0.015232 0.164307 0.029394 0.544476 0.127271 0.117444 1.478279
<VARIANCE> 39
31.678387 41.939793 42.237733 41.362024 52.336007 38.932409 38.405962 39.252805 42.812506 44.489193 38.986690 34.749036 47.061882 4.287322 7.843990 6.763491 7.709211 6.035117 4.291422 4.506175 5.703085 5.241364 6.137103 5.661847 3.777028 10.934420 0.638324 1.261072 1.118521 0.927026 1.145423 0.888988 0.885863 0.896987 0.985796 1.066865 1.012047 0.738969 1.676332
<STATE> 3
<NUMMIXES> 2
<MIXTURE> 1 0.501616
<MEAN> 39
-15.022387 -1.018561 1.909215 -1.109836 -0.732911 -0.886378 -0.614712 0.583289 0.798972 1.115115 2.091299 -0.162238 38.647879 -1.102803 -0.836219 -0.298086 -1.228623 -0.032763 0.140758 0.630359 0.783309 0.432956 0.669851 0.709342 0.295444 2.748328 0.190368 0.253593 0.431275 0.035789 -0.366050 -0.366945 -0.061487 -0.221170 -0.423808 -0.184961 -0.176577 -0.116087 0.672294
<VARIANCE> 39
16.562085 36.212416 21.232151 37.218209 23.934730 24.162394 25.659992 24.005568 26.108113 20.578535 17.214405 16.212074 144.565495 3.139148 4.265737 2.909391 4.030293 3.212188 3.471712 3.787718 3.708492 4.230405 3.279755 2.791594 2.395270 20.510648 0.528406 0.926250 0.637226 0.959942 0.700844 0.625385 0.728933 0.746127 0.722118 0.591374 0.553426 0.430368 3.430341
<MIXTURE> 2 0.498384
<MEAN> 39
-14.959749 -1.778816 1.216988 -2.243829 -1.526954 -1.885312 -1.544406 -0.375592 -0.026551 0.764275 1.365791 -0.731080 39.446629 -1.147569 -1.456916 -0.617066 -1.936418 -0.564696 -0.536769 0.004948 0.007146 -0.524037 0.029316 0.106540 -0.221932 4.265513 0.073665 0.330184 0.429795 -0.046049 -0.482834 -0.451875 -0.103390 -0.310257 -0.542500 -0.232040 -0.215316 -0.158366 0.861348
<VARIANCE> 39
19.578673 40.082997 22.228667 38.585792 25.354672 24.825371 24.969784 26.835969 28.759339 20.716272 17.392774 16.163060 138.858269 3.812426 4.280478 3.280189 4.047709 3.300482 3.492526 3.765715 3.732365 4.181991 3.241855 2.917573 2.377200 15.603457 0.588992 1.006209 0.648245 1.008579 0.658946 0.631585 0.769129 0.811655 0.736625 0.613582 0.574988 0.435959 3.354622
<STATE> 4
<NUMMIXES> 2
<MIXTURE> 1 0.501800
<MEAN> 39
-19.692577 -1.108260 3.651500 -5.956889 -4.237900 -5.158553 1.055850 1.221870 -2.999149 0.593383 2.941831 -0.343670 55.609401 -0.107292 0.529752 1.094126 1.035260 -0.365224 -0.173442 1.150368 0.818173 0.021905 0.013456 0.159446 0.279298 0.294605 0.930920 -0.046728 0.302806 0.626638 0.012894 0.160396 -0.247259 -0.126514 0.063953 -0.157570 -0.217725 -0.101168 -1.214445
<VARIANCE> 39
46.865719 26.963219 39.436300 35.041599 31.954890 30.149245 38.972665 41.837521 29.237788 32.457077 24.395946 22.320948 85.623183 5.233364 3.310973 3.220467 3.555193 2.995387 3.427941 3.070655 3.239334 2.867504 2.740303 2.334162 2.056949 6.536342 0.851292 0.665020 0.653668 0.887371 0.659859 0.652170 0.850925 0.714025 0.684476 0.594057 0.545187 0.477131 1.835408
<MIXTURE> 2 0.498200
<MEAN> 39
-18.838687 -1.937213 3.352230 -6.223603 -5.802266 -5.422998 1.985649 -0.383704 -3.803094 0.856472 2.006725 -1.117705 52.987460 0.680569 -0.362241 0.817243 0.336582 -1.145475 -0.512049 0.236700 -0.189754 -0.849694 -0.657610 -0.610890 -0.237717 0.099038 0.938812 -0.064726 0.205881 0.230004 -0.177897 -0.173021 -0.620865 -0.355150 -0.228636 -0.341579 -0.434042 -0.180652 -0.569248
<VARIANCE> 39
66.601159 31.221860 35.136231 37.749942 37.399696 30.282040 41.199781 45.957752 33.359293 35.610523 28.847251 23.428684 87.798716 5.260851 3.051366 3.677069 3.585181 3.201932 3.151024 3.146331 3.528727 3.287456 3.183411 2.906554 2.231446 6.131010 1.047683 0.697977 0.584668 0.804856 0.729967 0.780143 0.913197 0.743414 0.806404 0.683111 0.684014 0.466951 1.626602
<TRANSP> 5
0.000000 1.000000 0.000000 0.000000 0.000000
0.000000 0.631093 0.368907 0.000000 0.000000
0.000000 0.000000 0.732857 0.267143 0.000000
0.000000 0.006827 0.000000 0.697786 0.295388
0.000000 0.000000 0.000000 0.000000 0.000000
<ENDHMM>
~h "v"
<BEGINHMM>
<NUMSTATES> 5
<STATE> 2
<NUMMIXES> 2
<MIXTURE> 1 0.534628
<MEAN> 39
1.076131 -15.544127 1.885342 -11.081299 -9.600882 -7.229517 -6.138636 4.150662 1.463522 -2.664216 -6.375584 -10.509900 67.859043 0.578458 0.366153 0.160645 0.572630 0.233936 -0.093747 -0.619225 -0.438355 -0.161656 0.603279 0.829143 0.035165 -0.816880 0.013200 0.562739 0.077595 0.491008 0.335933 0.046182 -0.305794 -0.561223 -0.242443 0.151011 0.341842 0.222666 -0.579620
<VARIANCE> 39
13.931780 22.907488 37.686327 36.649799 39.672695 50.566890 69.270026 60.463843 92.723593 71.511410 72.986120 51.046423 25.302137 0.316672 1.318475 0.897854 1.036377 1.311674 2.038498 2.414741 2.081046 1.796007 1.706034 2.061448 1.492743 0.900659 0.099311 0.173488 0.188421 0.261165 0.335481 0.314712 0.331297 0.338456 0.389686 0.301593 0.297184 0.250102 0.126549
<MIXTURE> 2 0.465372
<MEAN> 39
-1.655214 -16.327128 -0.511951 -14.664620 -12.306576 -10.513665 -1.909628 0.963934 -6.391663 -8.529387 -12.336961 -6.861109 66.828439 0.466798 0.170868 -0.000834 0.396179 0.206940 -0.348386 -0.742520 -0.318277 0.099704 0.227035 -0.146819 -0.566067 -0.685301 0.037180 0.566293 0.086010 0.553192 0.213036 -0.139589 -0.621817 -0.495420 0.023159 0.168986 0.214182 -0.015827 -0.577116
<VARIANCE> 39
11.718172 21.749720 31.459214 37.413696 41.833100 46.615368 63.120613 53.350162 83.037433 55.532950 49.572965 44.628975 23.670116 0.334308 1.415361 0.785768 1.088211 1.538318 2.536019 2.916255 1.667129 1.749226 1.803258 1.506267 1.413512 1.032418 0.100465 0.178554 0.164905 0.333178 0.401455 0.368048 0.369038 0.355052 0.373446 0.320982 0.271148 0.285334 0.127317
<STATE> 3
<NUMMIXES> 2
<MIXTURE> 1 0.522988
<MEAN> 39
3.605124 -10.017992 3.015444 -4.662156 -7.404396 -8.804678 -10.164954 -0.951338 -1.510106 -0.860548 -1.265786 -9.063243 60.088072 -0.665492 3.158047 0.668881 2.726972 1.919382 0.876535 -0.530389 -2.180478 -1.220604 0.180745 1.010608 0.933263 -3.252920 -0.800836 0.129188 -0.014865 0.082592 0.317191 0.563425 0.706981 0.216264 0.032649 -0.324782 -0.294278 0.159096 -0.038948
<VARIANCE> 39
10.996999 33.538640 33.136413 43.194702 39.919051 52.020491 48.828501 62.527607 54.377028 60.249434 93.660652 36.060055 37.769555 2.679082 2.530716 2.658957 2.749470 2.964138 3.632295 4.972765 3.558790 4.435795 3.273759 3.957214 2.965035 1.447200 0.377107 0.589237 0.313606 0.565189 0.612673 0.596670 0.545514 0.738718 0.587996 0.474077 0.722279 0.419260 0.456215
<MIXTURE> 2 0.477012
<MEAN> 39
1.703904 -10.756679 1.602723 -7.437436 -9.655497 -12.302152 -10.340974 -3.572336 -5.771196 -4.076052 -8.367836 -9.494148 58.663181 -0.345103 3.187744 0.941921 3.072878 1.664907 0.312085 -1.812750 -2.630039 -0.771699 0.077577 0.898999 -0.173485 -3.402233 -0.672536 0.065110 -0.034601 0.050713 0.208480 0.546697 0.618917 0.123448 -0.172966 -0.446449 -0.050435 0.209153 0.106816
<VARIANCE> 39
10.210226 33.307362 28.723717 45.326241 47.057839 54.394202 52.222815 55.371848 48.693061 57.758490 102.549223 37.004150 39.196387 2.120472 2.497872 2.231729 2.861534 2.900441 3.288827 5.235528 3.182668 3.945626 3.455483 3.021096 3.889662 1.353575 0.285953 0.649288 0.302014 0.814791 0.730801 0.583554 0.646043 0.790329 0.604532 0.488804 0.673245 0.445055 0.570563
<STATE> 4
<NUMMIXES> 2
<MIXTURE> 1 0.522417
<MEAN> 39
-5.583160 -2.332320 3.444769 1.787750 -1.918870 -3.499533 -4.418192 -2.997382 -3.353714 -2.702011 -1.510104 -4.696725 48.148646 -1.467316 0.338417 0.005634 0.355866 0.532138 0.958403 0.957286 0.643903 0.532583 0.227245 0.391347 0.692146 -0.825758 0.186021 -0.669784 -0.174774 -0.632824 -0.439303 -0.161055 0.011927 0.508981 0.334487 0.146204 -0.036031 -0.107366 0.659537
<VARIANCE> 39
60.788195 30.162214 27.525846 29.410210 32.063576 34.332122 49.136712 49.275637 43.300977 41.404062 44.185558 28.810568 64.426721 6.461064 4.289479 2.367543 3.705584 3.837814 3.799620 3.914204 3.827098 4.079248 3.698629 4.356643 2.644541 3.706410 0.779604 0.913349 0.564559 0.768992 0.688377 0.633852 0.852025 0.902695 0.814686 0.675012 0.664355 0.535185 0.673450
<MIXTURE> 2 0.477583
<MEAN> 39
-5.600061 -3.537993 2.500162 -0.035216 -4.082472 -6.505523 -7.392896 -5.779072 -5.932792 -5.005203 -4.992471 -6.567960 48.695579 -0.433969 -0.280686 -0.381708 -0.573820 -0.470036 -0.007638 0.274614 0.344792 -0.010979 -0.315587 -0.072589 0.253419 0.113198 0.347409 -0.722467 -0.267560 -0.899936 -0.554378 -0.319040 0.188513 0.558366 0.189551 -0.064488 -0.300978 -0.021810 0.840037
<VARIANCE> 39
55.756776 31.245468 24.910006 27.661628 32.104992 47.047032 63.389606 60.036657 45.498737 48.287509 58.301109 35.634252 56.514127 5.126700 4.566120 2.417918 4.965733 3.708280 3.415055 3.448091 4.356877 3.646570 3.199549 3.324212 2.407079 4.341085 0.701538 1.067979 0.597740 1.047297 0.711474 0.655013 1.038166 1.125440 0.864209 0.775181 0.696904 0.650803 0.810271
<TRANSP> 5
0.000000 1.000000 0.000000 0.000000 0.000000
0.000000 0.750837 0.249163 0.000000 -0.000000
0.000000 0.000000 0.640220 0.359780 -0.000000
0.000000 0.000000 0.000000 0.754801 0.245199
0.000000 0.000000 0.000000 0.000000 0.000000
<ENDHMM>
~h "w"
<BEGINHMM>
<NUMSTATES> 5
<STATE> 2
<NUMMIXES> 2
<MIXTURE> 1 0.519190
<MEAN> 39
6.002582 5.762936 1.378620 -9.098438 -11.794118 -3.857641 -4.629810 -4.720635 -7.296212 -4.031663 -2.846239 -6.800134 48.726392 1.117932 -0.108236 0.201573 -1.323779 -1.404518 -0.034731 0.158500 0.539994 0.330564 0.185008 0.119770 -0.461502 1.162533 -0.318399 -0.480121 -0.065479 -0.090613 0.211726 0.308287 0.031619 0.268497 0.156783 0.064884 0.173608 0.101695 0.202753
<VARIANCE> 39
35.966291 33.502656 28.979452 56.386323 52.438418 36.172347 42.419389 50.750258 45.816393 39.670546 51.053230 30.526438 52.079977 3.811093 3.571283 1.927089 4.993887 4.343184 3.006255 3.462267 3.729953 3.503557 3.246169 3.003763 2.528419 3.751276 0.570325 0.489258 0.386056 0.746171 0.858406 0.606282 0.579434 0.643056 0.652069 0.679914 0.549132 0.502649 0.369923
<MIXTURE> 2 0.480810
<MEAN> 39
4.878660 4.762031 -2.002406 -11.567176 -11.291576 -6.808950 -7.691949 -8.729171 -10.638327 -5.686245 -8.051959 -7.773775 47.490449 1.287834 0.040985 -0.329541 -1.706885 -1.440353 -0.288079 -0.127562 0.121748 -0.345071 -0.440268 -0.648562 -0.805463 1.128686 -0.265802 -0.489179 -0.113157 -0.195893 0.252870 0.217523 0.009735 0.261581 0.031078 0.088369 0.105953 0.045824 0.247110
<VARIANCE> 39
34.147626 31.203940 27.869446 66.664364 42.159433 35.894983 41.131910 49.906886 42.232087 35.592445 52.005524 30.239797 44.611618 4.173146 3.600987 2.412319 6.956497 4.090865 3.231438 4.024413 5.089575 4.382534 3.861868 3.738933 2.705298 3.902342 0.568922 0.506141 0.421758 0.987799 0.799472 0.670283 0.632131 0.758211 0.703260 0.653851 0.580607 0.504349 0.357020
<STATE> 3
<NUMMIXES> 2
<MIXTURE> 1 0.535785
<MEAN> 39
8.227050 -2.199799 0.809401 -17.126300 -15.160931 3.042629 -2.829270 1.834078 -5.253476 -6.765626 -0.141000 -7.839170 59.226725 -0.228832 -1.554732 -0.810613 -0.965120 1.289754 1.876025 0.033190 0.343065 -0.191744 -0.893891 0.410097 0.547993 1.279064 -0.128872 -0.099523 -0.041795 0.382269 0.538032 0.032127 -0.291397 -0.422233 -0.044848 0.154442 0.117065 0.093802 -0.047477
<VARIANCE> 39
7.969178 33.568719 35.276575 57.757619 51.343692 60.068399 61.479551 68.591753 68.278564 51.895924 61.496471 40.605223 23.355497 0.312433 1.596430 1.063807 2.124223 3.534868 2.538493 2.534129 3.560790 2.781489 2.495784 2.365888 2.248230 0.671356 0.063438 0.169472 0.195032 0.370751 0.382462 0.527466 0.460418 0.454970 0.487501 0.625679 0.398228 0.427412 0.078985
<MIXTURE> 2 0.464215
<MEAN> 39
7.043136 -2.107657 -3.989989 -21.163865 -12.840288 -0.678865 -5.831804 -3.328357 -10.693185 -7.828030 -6.572782 -9.497026 56.961759 -0.357043 -1.842660 -1.102952 -1.250783 1.974695 1.847581 -0.074274 0.427712 -0.831960 -0.955488 0.461930 -0.120056 1.445109 -0.198648 -0.193784 0.026215 0.579814 0.632567 -0.036185 -0.421081 -0.467409 0.021461 0.045589 0.125796 -0.004542 -0.042710
<VARIANCE> 39
7.501586 28.638415 38.296186 54.197894 53.555302 57.641121 53.119945 64.918432 75.170351 52.764759 78.494754 32.508006 23.792256 0.376503 1.814740 1.051216 2.435705 3.974505 2.490897 2.879861 3.595882 3.322097 2.719096 2.521836 2.339684 0.678529 0.071354 0.190158 0.224105 0.481672 0.447894 0.614654 0.501685 0.513080 0.690291 0.620232 0.475029 0.432329 0.084092
<STATE> 4
<NUMMIXES> 2
<MIXTURE> 1 0.537938
<MEAN> 39
5.004031 -11.654488 -4.120681 -15.905796 -1.290980 8.442537 -9.616322 -2.980226 -5.623115 -6.870871 1.237762 -7.789607 65.178122 -0.500327 -1.073674 0.184672 1.706761 1.200442 -0.836202 -1.609628 -0.305265 1.368200 0.835823 -0.504289 -0.721167 0.506085 0.025859 0.274596 0.315197 0.234111 -0.556114 -0.581864 0.144398 0.442909 0.206617 -0.017236 -0.388615 -0.095753 -0.194412
<VARIANCE> 39
9.497379 23.957694 27.149350 58.970254 59.473367 70.073523 84.084265 63.523387 86.981027 52.076661 78.259500 57.849500 23.988867 0.235694 0.734608 0.780390 1.089805 2.575234 2.437682 1.887834 2.794094 2.211856 2.334093 3.034457 2.042661 0.287386 0.032932 0.109761 0.116113 0.206514 0.278075 0.360534 0.392428 0.334599 0.539569 0.425467 0.368488 0.529239 0.039606
<MIXTURE> 2 0.462062
<MEAN> 39
3.604952 -12.654932 -8.077074 -19.092073 2.332633 3.200361 -13.441945 -6.692151 -11.313054 -8.623130 -4.589281 -11.584195 62.993388 -0.740801 -1.454979 0.235164 1.730784 1.173653 -1.105561 -1.769077 0.042820 1.509415 -0.074544 -0.756818 -0.768408 0.731155 -0.005492 0.292764 0.310952 0.216682 -0.795787 -0.633936 0.282884 0.456507 0.173130 -0.244561 -0.500972 0.172480 -0.187238
<VARIANCE> 39
9.060697 25.096238 28.601834 52.973027 59.962145 62.509765 64.477277 54.968049 93.327396 56.344951 71.443456 44.889848 22.448546 0.285602 0.970435 0.770782 1.053067 3.433142 2.405154 2.304137 2.727160 2.487519 2.412060 3.415750 2.183260 0.353760 0.032130 0.111107 0.135208 0.259896 0.347857 0.408511 0.486251 0.359607 0.716577 0.390425 0.429046 0.500417 0.034607
<TRANSP> 5
0.000000 1.000000 0.000000 0.000000 0.000000
0.000000 0.803500 0.196500 0.000000 0.000000
0.000000 0.000000 0.822199 0.177801 0.000000
0.000000 0.000000 0.000000 0.821051 0.178949
0.000000 0.000000 0.000000 0.000000 0.000000
<ENDHMM>
~h "z"
<BEGINHMM>
<NUMSTATES> 5
<STATE> 2
<NUMMIXES> 2
<MIXTURE> 1 0.524631
<MEAN> 39
-8.218601 5.548476 6.648553 0.745760 -2.340089 -9.976490 -7.985767 -3.853684 -4.609982 -4.584117 -4.367633 -3.567482 49.457983 -1.902796 2.310237 -0.041165 0.228295 1.327083 -0.370454 0.158397 -0.018799 0.283800 -0.051593 -0.009251 0.148577 1.222931 -0.369486 -0.047583 -0.184232 0.014893 0.132882 0.375908 0.183810 0.236796 0.116301 0.212148 0.243859 0.034616 -0.051134
<VARIANCE> 39
45.947146 47.766868 54.932753 40.549622 66.704040 55.038393 61.706660 49.809420 42.017892 43.002898 33.909679 33.767731 99.495805 6.956201 4.642850 4.217966 4.261479 4.867718 4.640151 4.369026 3.788679 3.550490 3.572619 3.345302 3.023025 4.424223 0.595000 0.637913 0.578165 0.546094 0.721584 0.804067 0.668335 0.660076 0.608196 0.607919 0.534051 0.532620 0.498971
<MIXTURE> 2 0.475369
<MEAN> 39
-7.835473 4.960351 3.242545 0.405318 -7.601270 -12.304683 -8.553086 -7.134644 -7.912497 -8.060350 -6.829318 -4.089370 48.033803 -1.178878 2.205683 -0.637519 1.030520 0.262353 -0.382663 -0.364376 -0.971027 -0.468081 -1.257456 -0.203390 -1.015197 1.063426 -0.413523 -0.074559 -0.228319 -0.008579 0.137596 0.327311 0.165790 0.224931 0.073822 0.232590 0.120527 -0.075285 0.001350
<VARIANCE> 39
44.376725 44.344190 47.997359 38.584313 72.949492 67.355667 50.824783 55.541134 48.012348 49.148113 38.319498 36.395976 87.707499 7.234756 5.414429 4.131172 4.830172 5.130860 4.975215 4.559381 4.027989 4.208958 4.356067 4.055644 3.307440 4.721828 0.588960 0.684649 0.652849 0.510070 0.698374 0.787294 0.620809 0.715721 0.722474 0.684638 0.576672 0.604661 0.479549
<STATE> 3
<NUMMIXES> 2
<MIXTURE> 1 0.520420
<MEAN> 39
-15.772946 13.522139 6.069983 1.868113 2.138866 -10.389962 -8.494888 -4.952724 -4.645476 -4.362148 -4.097206 -3.991619 56.482650 -2.370110 0.870444 -0.313906 0.394040 1.229841 1.059730 0.803578 0.738139 0.307338 0.299701 0.324635 0.258130 0.032397 0.503785 -0.802923 0.186365 -0.159841 -0.418000 0.133045 0.085154 0.064999 -0.060340 0.099005 0.072481 0.041244 -0.011213
<VARIANCE> 39
25.087135 25.932713 51.264517 48.577827 68.186890 44.807257 40.185614 38.761266 35.822135 44.135654 23.348243 27.282653 27.311906 2.514738 3.050221 1.952306 2.277869 2.292427 3.222601 2.571439 2.089509 2.008309 2.110387 2.027767 1.706177 1.126390 0.260103 0.396400 0.327284 0.441630 0.439870 0.524311 0.390594 0.436229 0.459065 0.503476 0.366903 0.373521 0.171807
<MIXTURE> 2 0.479580
<MEAN> 39
-15.685333 13.414647 1.079197 4.564116 -5.219007 -10.967068 -9.265139 -9.586750 -9.240300 -10.084525 -6.754109 -8.456099 53.714959 -2.007597 0.554807 -0.347419 0.713116 0.946762 1.209653 0.545422 0.137390 -0.132061 -0.012165 0.185454 -0.401374 0.010161 0.475207 -0.807481 0.180107 -0.496090 -0.403029 -0.106572 0.050813 0.010969 0.045426 0.268058 0.018692 0.252483 0.094187
<VARIANCE> 39
22.331614 26.555840 44.782558 38.878357 79.780070 45.710480 32.468118 39.823532 39.106785 47.405025 26.019501 33.356053 23.286252 2.513364 3.068946 2.107801 2.573487 2.651594 3.438655 2.438848 2.107929 2.051990 2.104525 1.937816 1.806871 1.045130 0.248781 0.491757 0.360584 0.450084 0.549959 0.563146 0.402397 0.477133 0.468039 0.528279 0.428014 0.387880 0.176204
<STATE> 4
<NUMMIXES> 2
<MIXTURE> 1 0.516932
<MEAN> 39
-22.971969 10.205024 3.644962 0.644073 3.278425 -4.790451 -4.005232 -1.365749 -3.605182 -2.849047 -2.000093 -2.855610 55.542311 0.259076 -1.070653 0.071454 -0.414037 -0.913628 -0.185646 0.232125 0.276776 0.344388 0.462170 0.559741 0.376876 0.903451 1.233412 -0.495826 0.462755 -0.149757 -0.825658 -0.647388 -0.507259 -0.373333 -0.064361 -0.106801 -0.018699 -0.044664 0.308300
<VARIANCE> 39
30.042378 32.049239 91.181118 48.453753 62.561725 51.197990 55.376965 36.969745 29.399730 27.354681 21.072116 22.918373 35.995297 3.579509 2.331436 2.899466 2.092558 2.632511 3.154901 2.730928 2.518068 2.524713 2.702908 1.976812 1.692787 0.881517 0.389635 0.629446 0.549214 0.545935 0.508508 0.594684 0.533024 0.476154 0.471449 0.465431 0.397649 0.361383 0.147847
<MIXTURE> 2 0.483068
<MEAN> 39
-22.940347 8.906759 -1.478024 3.127897 -2.257748 -4.325180 -3.506701 -4.801437 -5.686293 -5.207000 -2.442303 -5.497447 53.498484 0.529981 -1.005491 0.236729 -1.211859 -1.360108 -0.820345 0.083406 -0.466560 0.149296 0.303153 0.448796 0.232767 1.029579 1.309883 -0.375921 0.712308 -0.531844 -0.933663 -0.981276 -0.583337 -0.536949 -0.278637 -0.135537 -0.243741 0.012594 0.342094
<VARIANCE> 39
27.543581 39.287927 81.965227 39.807927 62.311516 47.364945 47.898557 44.239585 40.390489 41.524028 29.926682 30.793572 32.901193 3.345614 2.378899 3.290232 2.286260 2.737375 3.479714 2.567956 3.086490 2.540075 2.744083 2.122467 1.913617 0.800507 0.431376 0.732459 0.587620 0.625336 0.600090 0.731704 0.623138 0.621873 0.635984 0.659660 0.548627 0.463235 0.160859
<TRANSP> 5
0.000000 1.000000 0.000000 0.000000 0.000000
0.000000 0.674160 0.325840 0.000000 -0.000000
0.000000 0.000000 0.708418 0.291582 -0.000000
0.000000 0.000000 0.000000 0.687693 0.312307
0.000000 0.000000 0.000000 0.000000 0.000000
<ENDHMM>
~h "ah"
<BEGINHMM>
<NUMSTATES> 5
<STATE> 2
<NUMMIXES> 2
<MIXTURE> 1 0.513707
<MEAN> 39
2.982608 -12.341553 1.405136 -7.562477 -4.578505 -3.569734 -12.738549 0.501955 -1.371948 -4.406033 -3.989646 -9.342219 63.333505 -0.166023 -0.178990 0.955045 0.109525 -0.758986 -0.843865 0.291916 1.403770 -0.037268 -0.510550 -0.843670 0.314381 0.390240 0.037206 0.536649 0.275572 0.248062 -0.010958 0.043081 0.359263 -0.529064 -0.627639 0.184227 0.199879 0.178939 -0.502612
<VARIANCE> 39
12.604413 26.209170 31.883209 37.652877 44.930704 70.681058 52.635153 50.111132 71.472893 81.173091 79.408196 37.609234 27.243745 0.507436 1.476568 1.228468 3.059806 2.165941 2.880651 2.767577 2.541233 2.957221 2.587006 2.970463 2.923796 1.309588 0.114297 0.275666 0.209975 0.487806 0.382257 0.407312 0.536355 0.702512 0.643933 0.501917 0.513891 0.366703 0.233459
<MIXTURE> 2 0.486293
<MEAN> 39
0.649142 -14.245107 -1.535462 -10.807147 -5.039130 -8.676316 -13.444287 -1.302143 -7.321854 -11.249790 -10.693971 -9.315200 62.614177 -0.318156 -0.371567 0.737127 -0.289630 -1.391856 -1.065122 0.938917 1.360526 -0.725405 -1.103089 -0.548978 0.897264 0.621519 0.053926 0.543040 0.195133 0.069140 -0.077272 0.107480 0.226646 -0.451708 -0.525977 0.222352 0.237878 0.103613 -0.421745
<VARIANCE> 39
11.686988 27.464948 34.466323 35.771581 66.514051 67.261060 55.182048 56.317422 68.060082 75.537198 64.441840 37.544060 24.787796 0.555447 1.537789 1.325113 3.709127 2.179560 2.613572 2.510516 2.445295 2.949882 2.619968 2.679569 2.466979 1.310120 0.108595 0.261350 0.178304 0.520640 0.411478 0.351829 0.544718 0.600463 0.528222 0.466284 0.467275 0.401955 0.216685
<STATE> 3
<NUMMIXES> 2
<MIXTURE> 1 0.516023
<MEAN> 39
2.330111 -10.931026 4.227978 -7.138313 -6.322879 -6.038954 -11.515983 2.145313 -4.939418 -6.509585 -5.819041 -8.086435 62.603534 0.366106 1.981188 1.749090 2.020700 -1.026885 -1.048274 1.382362 -2.239050 -1.797835 1.025381 -0.192906 0.621596 -1.904227 0.155966 0.514671 0.057961 0.444480 -0.109794 0.214638 0.444514 -1.234378 -0.260887 0.451122 0.118351 0.119635 -0.512021
<VARIANCE> 39
12.615906 26.940382 33.564673 50.444536 43.847745 70.997206 66.380884 59.449722 109.839660 82.717778 55.649775 47.463775 25.619835 0.648507 1.237436 1.909018 2.724352 2.978129 4.508543 3.858083 6.021510 4.697133 3.552001 3.447829 3.080880 0.729218 0.099697 0.233333 0.345968 0.483227 0.494936 0.706584 0.794835 0.772623 1.087561 0.658194 0.618152 0.536971 0.133471
<MIXTURE> 2 0.483977
<MEAN> 39
0.006625 -12.084572 1.902869 -11.643555 -9.140021 -11.771119 -10.141704 0.715714 -12.725641 -12.309945 -10.709512 -5.765959 62.066903 0.572713 1.998022 1.477503 1.101466 -1.554945 -0.824121 0.773613 -2.110878 -1.342695 0.883371 -0.181264 0.669433 -1.715454 0.234864 0.512894 0.073504 0.464034 -0.086519 0.270229 0.013368 -1.343792 0.232890 0.494996 -0.118916 -0.109938 -0.556737
<VARIANCE> 39
11.887739 27.750160 33.393066 44.993942 45.227473 62.044451 54.435536 55.060159 93.922716 61.806109 49.466070 41.109602 22.785324 0.619886 1.244284 1.729341 2.454893 3.079074 4.310581 3.433031 6.164990 3.918658 3.032079 3.212765 3.171486 0.880115 0.100996 0.234293 0.337480 0.460489 0.494848 0.726154 0.758994 0.743750 0.858797 0.617608 0.570355 0.567571 0.133944
<STATE> 4
<NUMMIXES> 2
<MIXTURE> 1 0.518986
<MEAN> 39
4.027257 -4.607863 8.799007 0.806700 -9.509969 -7.112215 -5.794489 -8.718863 -9.034833 -1.074780 -6.099480 -7.229627 56.616241 0.249045 2.026580 1.237203 1.802983 -1.041968 -0.330091 2.003070 -3.106780 -1.681206 1.068533 -0.238501 0.645353 -1.789088 -0.107283 -0.260020 -0.455413 -0.503541 0.316851 0.367192 -0.298786 0.620555 0.455230 -0.270800 0.160319 -0.057308 0.317877
<VARIANCE> 39
7.167264 24.703047 24.250252 52.436836 42.858412 61.625204 53.738217 62.569337 71.547668 66.576859 70.424906 53.438637 22.039802 0.542592 1.378054 2.352397 2.731334 2.655042 4.716771 4.280741 5.376547 6.699976 3.590970 3.400418 2.782833 0.615147 0.067925 0.191353 0.245050 0.317782 0.352215 0.471764 0.469752 0.685247 0.596469 0.443839 0.441390 0.386141 0.094719
<MIXTURE> 2 0.481014
<MEAN> 39
2.837615 -4.358469 6.545335 -4.986396 -13.909617 -12.856418 -6.912754 -12.347631 -13.646501 -7.057737 -12.471432 -3.549031 55.071524 0.516707 2.082563 1.009265 1.271991 -1.372855 0.379096 0.976426 -3.828651 -0.281742 1.125084 -0.438253 0.377012 -1.780884 -0.188684 -0.380269 -0.431358 -0.398463 0.393025 0.357841 -0.265061 0.651888 0.233334 -0.375779 0.160159 -0.343398 0.346481
<VARIANCE> 39
5.893039 23.006798 22.751424 48.815769 41.229216 62.014701 50.069191 71.408091 75.862321 67.600618 74.083433 56.184730 19.573957 0.523129 1.336456 2.228628 2.356065 2.670117 4.961849 4.325874 5.290544 5.507626 3.542553 3.292287 3.468126 0.639176 0.061416 0.190940 0.246248 0.277236 0.379128 0.504606 0.430021 0.785944 0.550916 0.457406 0.440680 0.436782 0.090840
<TRANSP> 5
0.000000 1.000000 0.000000 0.000000 0.000000
0.000000 0.703697 0.296303 0.000000 0.000000
0.000000 0.000000 0.573076 0.426924 -0.000000
0.000000 0.000000 0.000000 0.519759 0.480241
0.000000 0.000000 0.000000 0.000000 0.000000
<ENDHMM>
~h "ao"
<BEGINHMM>
<NUMSTATES> 5
<STATE> 2
<NUMMIXES> 2
<MIXTURE> 1 0.518852
<MEAN> 39
9.210223 0.803001 -1.951442 -21.457248 -17.962489 0.988596 -5.584342 -0.669652 -8.088261 -5.203543 -0.812724 -5.507270 57.941078 1.626771 0.455856 0.160969 -2.558993 -2.002229 0.422179 -0.154600 0.763060 -0.132261 -0.120763 0.251537 -0.332120 0.823087 -1.512961 -0.546140 -0.083192 1.480805 1.112391 -0.173887 0.212118 0.032137 0.503277 0.374785 0.136841 0.277710 -0.388226
<VARIANCE> 39
9.827814 25.364141 44.513827 52.303885 53.336035 54.817481 49.389163 65.735659 72.627322 55.302349 79.499579 31.758804 18.045619 3.924795 1.788978 1.752567 5.778072 5.444854 2.897362 2.617894 2.909311 3.492509 3.523022 3.194669 2.081388 1.071179 0.325414 0.397512 0.401279 0.552253 0.526289 0.530441 0.475222 0.564197 0.668653 0.525593 0.681339 0.387481 0.166794
<MIXTURE> 2 0.481148
<MEAN> 39
7.841359 -0.423822 -5.339102 -24.138474 -15.753368 -0.395800 -7.506691 -2.476633 -12.165904 -4.252547 -4.022071 -6.163337 57.338395 1.881235 0.544291 -0.274743 -3.347914 -2.054960 0.319604 -0.312436 0.733531 -0.839006 -0.136166 -0.379366 -0.796261 0.826019 -1.559822 -0.515747 0.149906 1.593113 0.826366 -0.177775 0.223799 0.084245 0.747758 0.234054 0.269959 0.160187 -0.409662
<VARIANCE> 39
8.965823 25.055376 38.808553 52.566529 49.258353 53.594920 44.297584 55.466771 66.192639 52.621338 82.636188 34.309055 19.689035 4.347173 1.853711 1.945643 8.033155 5.029652 3.095400 2.683276 2.977684 4.788206 3.824405 4.326756 2.363154 1.221890 0.365349 0.397735 0.374458 0.581817 0.499548 0.568296 0.444666 0.621549 0.646208 0.575583 0.651137 0.412436 0.192211
<STATE> 3
<NUMMIXES> 2
<MIXTURE> 1 0.535564
<MEAN> 39
9.257132 0.886971 -1.336322 -21.682422 -19.418785 0.403542 -3.781279 1.115646 -6.687979 -5.242270 0.629053 -6.510006 58.595003 0.082539 -0.504681 -0.671479 0.497366 0.663862 -0.089815 0.284492 0.378124 -0.397998 -0.165260 0.576666 0.555644 0.202562 -0.025104 -0.221259 -0.242427 0.321112 0.434861 0.008585 -0.135918 -0.007712 -0.080190 -0.006278 0.172510 0.211819 0.058900
<VARIANCE> 39
10.969232 25.016039 44.832282 47.513534 57.179395 59.859728 61.055247 73.604580 78.825629 59.480849 79.365401 43.353432 21.984707 0.139303 1.211640 1.283462 1.044666 1.554822 1.184752 1.361044 1.344897 1.793276 1.958465 1.664646 1.750485 0.373483 0.035309 0.097998 0.132136 0.174542 0.212885 0.206742 0.287092 0.213111 0.267293 0.280611 0.236567 0.248948 0.042251
<MIXTURE> 2 0.464436
<MEAN> 39
7.590779 0.364629 -5.705468 -26.005426 -16.597036 -0.820347 -6.637014 -1.296808 -11.069052 -4.649934 -4.687512 -7.663112 57.125818 0.000862 -0.335263 -0.453048 0.419492 0.133256 -0.138873 0.227829 -0.035648 -0.411347 -0.021845 0.205356 -0.223454 0.089824 -0.054482 -0.264526 -0.213166 0.336122 0.280056 -0.099014 -0.072959 -0.114715 -0.162120 0.053460 0.113688 -0.003983 0.059092
<VARIANCE> 39
9.062930 26.583184 40.819551 43.926308 55.374281 51.083793 49.361514 58.949620 80.003588 57.799797 81.141357 42.012073 23.057390 0.132700 1.319731 1.022756 1.005630 1.275860 1.201047 1.169945 1.447478 1.891031 1.873105 1.446672 1.434058 0.374668 0.034030 0.104621 0.117161 0.183527 0.189387 0.217922 0.230556 0.236142 0.270141 0.293894 0.235471 0.280656 0.045825
<STATE> 4
<NUMMIXES> 2
<MIXTURE> 1 0.537488
<MEAN> 39
9.764624 -5.913176 -11.247712 -13.992328 -6.083011 -1.691402 -10.191572 3.555116 -7.313620 -6.108508 5.093469 -1.980332 61.289140 -0.000666 -1.064581 -1.258994 1.716898 2.640118 -0.590333 -2.110254 0.041598 0.907478 0.815200 -0.006644 0.131827 0.240972 -0.058742 0.164533 0.394932 0.101296 -0.114077 -0.178551 -0.125977 0.014163 0.404184 0.196135 -0.422458 -0.270950 -0.156189
<VARIANCE> 39
11.060021 31.904201 45.407817 47.127720 110.916699 61.047459 111.548454 88.123641 110.985001 99.580146 80.200094 58.812009 25.883404 0.250867 1.148074 1.993638 1.868581 2.460362 2.911590 3.515352 3.553059 3.311417 4.359450 3.542833 4.034865 0.432540 0.041109 0.122356 0.235029 0.235711 0.422109 0.386518 0.721036 0.552019 0.577354 0.820195 0.509274 0.608846 0.039122
<MIXTURE> 2 0.462512
<MEAN> 39
7.712192 -8.441545 -14.566251 -15.903247 -5.604663 -4.767227 -9.668459 -0.594297 -14.211863 -1.292188 -1.235311 -7.863183 60.264339 -0.141049 -1.348450 -0.858693 2.047499 1.854073 -1.585250 -1.706796 0.556159 0.724087 0.580250 -0.486419 -0.726017 0.266406 -0.050701 0.172550 0.400918 -0.004317 -0.259985 -0.328291 -0.079657 0.243422 0.353548 -0.280691 -0.457833 -0.006745 -0.167620
<VARIANCE> 39
10.207094 33.040151 33.313518 49.311284 81.602971 71.138174 82.979118 82.707280 122.684855 102.763710 94.563504 65.108489 22.495116 0.223692 1.239343 1.576000 1.640314 2.508474 3.220682 3.214512 3.733313 3.608910 4.504724 3.253643 3.644554 0.399084 0.035412 0.123696 0.205320 0.233568 0.362216 0.410820 0.554065 0.542225 0.548088 0.891681 0.484940 0.650270 0.033641
<TRANSP> 5
0.000000 1.000000 0.000000 0.000000 0.000000
0.000000 0.653187 0.346813 0.000000 -0.000000
0.000000 0.000000 0.860829 0.139171 0.000000
0.000000 0.000000 0.000000 0.817905 0.182095
0.000000 0.000000 0.000000 0.000000 0.000000
<ENDHMM>
~h "ay"
<BEGINHMM>
<NUMSTATES> 5
<STATE> 2
<NUMMIXES> 2
<MIXTURE> 1 0.541486
<MEAN> 39
2.446135 -17.142659 -3.777103 -11.173485 -0.762945 2.206087 -6.973743 -1.717377 -2.202873 -5.982702 -5.475338 -9.561684 67.311217 -0.157649 -0.421073 -0.315462 0.330855 0.944462 0.497420 -0.004004 -0.397178 0.427369 -0.275390 -0.038191 0.170720 0.200986 0.018489 0.342057 0.305137 0.227626 -0.219437 -0.256834 -0.012385 -0.014899 -0.056917 0.137260 0.113480 0.098660 -0.310617
<VARIANCE> 39
14.604340 27.116912 41.115976 51.157083 41.363972 82.660147 84.929036 72.965701 75.251019 63.247377 74.804588 47.399938 18.378078 0.342677 0.580015 1.055449 1.337070 1.479939 1.649311 1.840980 1.710642 1.467779 1.440424 1.822778 1.377371 0.271315 0.086789 0.171121 0.150507 0.261986 0.239336 0.245615 0.326816 0.449153 0.334681 0.263042 0.292626 0.241061 0.124513
<MIXTURE> 2 0.458514
<MEAN> 39
0.511259 -18.756720 -5.783770 -11.368517 -0.561149 -1.651376 -9.565862 -3.536299 -6.193137 -9.709215 -8.613234 -9.288162 66.390358 -0.163074 -0.559162 -0.420815 0.493599 0.942794 0.334878 -0.695573 -0.528137 0.517611 -0.395216 0.047471 -0.385592 0.124568 0.023570 0.353048 0.267070 0.066854 -0.338281 -0.284379 0.009848 -0.024154 -0.084825 0.086087 0.007694 0.047032 -0.290432
<VARIANCE> 39
14.365042 25.965697 39.978124 46.279650 47.992566 85.303114 81.401290 72.580933 73.118073 66.624160 65.035415 49.719576 18.470571 0.367690 0.553793 0.991653 1.142224 1.632902 1.472821 2.095835 1.564757 1.614642 1.483803 1.609454 1.571480 0.243267 0.099974 0.162530 0.146416 0.283675 0.257249 0.239423 0.324972 0.396523 0.318277 0.285967 0.282339 0.260984 0.115360
<STATE> 3
<NUMMIXES> 2
<MIXTURE> 1 0.561375
<MEAN> 39
1.862212 -18.501618 -3.008153 -9.427301 -0.419180 1.767786 -7.661838 -1.372221 -1.271814 -7.611644 -6.042292 -9.119021 67.201699 -0.059565 -0.014500 0.379997 0.413101 -0.267715 -0.426691 0.130937 0.533889 0.105050 -0.152864 -0.069767 0.259421 -0.041990 0.001385 0.080916 0.129197 0.024223 -0.170797 -0.095325 0.088330 0.146026 -0.045478 0.041975 0.062085 0.061236 -0.021707
<VARIANCE> 39
13.026315 25.740327 37.524617 44.245927 43.293849 76.606241 84.368143 76.322464 70.481459 59.833771 65.677962 50.674229 23.477320 0.112451 0.247151 0.396689 0.486025 0.832917 0.925084 0.844404 0.956334 0.665280 0.591423 0.723738 0.611081 0.086518 0.018366 0.037517 0.050541 0.064722 0.086359 0.096184 0.127593 0.114992 0.106344 0.099292 0.105913 0.095843 0.011449
<MIXTURE> 2 0.438625
<MEAN> 39
-0.009289 -19.688986 -5.668965 -9.385139 0.191315 -1.117870 -9.965668 -4.511467 -5.133789 -10.640567 -8.946289 -9.216518 65.998224 -0.110874 -0.102453 0.250394 0.184809 -0.391828 -0.417728 0.126110 0.243653 -0.189106 -0.373641 -0.127940 0.086366 -0.042485 -0.015325 0.048641 0.077128 -0.076229 -0.240744 -0.136267 0.123440 0.076722 -0.144865 -0.030886 -0.047856 -0.001680 -0.022043
<VARIANCE> 39
12.556408 25.236184 33.426542 42.179604 48.881949 68.094806 83.713436 74.028929 63.442736 56.946316 50.100531 44.647090 24.878301 0.116787 0.238645 0.348646 0.493277 0.819033 0.709496 0.945628 0.842598 0.808217 0.655131 0.599236 0.639925 0.078755 0.018488 0.038003 0.047697 0.071455 0.090855 0.088149 0.123979 0.115137 0.127863 0.107365 0.101992 0.102122 0.010699
<STATE> 4
<NUMMIXES> 2
<MIXTURE> 1 0.537958
<MEAN> 39
0.612824 -16.558803 4.195299 -7.072980 -8.466279 -4.077518 -4.802139 4.365817 -3.860741 -9.394155 -5.223352 -6.776610 66.278699 -0.059751 1.023877 1.537737 -0.127912 -1.591279 -0.714988 0.555817 0.376620 -0.852659 0.616918 0.738659 0.153761 -0.558929 0.137140 0.299083 -0.016290 0.050790 0.204239 0.060068 -0.154461 -0.448312 -0.037985 0.340965 0.099607 -0.076335 -0.256481
<VARIANCE> 39
13.483088 34.166218 59.633937 45.374161 55.942964 46.777022 69.861765 67.350428 96.259309 50.453596 55.761195 41.625864 26.947013 0.299320 0.692699 0.913870 1.513272 1.736568 2.085996 2.716130 2.915060 2.019790 2.204901 1.866984 1.624491 0.295754 0.050019 0.103392 0.191575 0.311323 0.325801 0.226855 0.357394 0.394011 0.347210 0.298580 0.348766 0.239322 0.051275
<MIXTURE> 2 0.462042
<MEAN> 39
-2.013687 -18.478032 0.857932 -11.033914 -8.644293 -5.936755 -5.271694 -1.290429 -12.286684 -12.887632 -9.434013 -6.461344 65.452837 -0.117256 1.102894 1.342331 -0.990451 -2.061975 -0.558455 1.198098 -0.151207 -1.080098 0.806298 -0.127426 -0.317372 -0.512034 0.150772 0.319197 -0.018553 0.020251 0.057264 -0.085069 -0.313429 -0.361850 0.143755 0.301778 -0.104338 -0.164606 -0.277920
<VARIANCE> 39
12.972479 30.089688 54.097552 45.950517 64.013757 41.037889 62.963491 60.999812 80.543451 44.768838 45.053045 34.057223 24.553242 0.330613 0.774566 0.748961 1.553429 1.707623 2.105328 2.636731 2.794651 2.278300 2.466952 1.897378 1.680471 0.306173 0.051326 0.092955 0.152668 0.370874 0.317364 0.244326 0.413481 0.344535 0.360190 0.329876 0.302332 0.280544 0.045612
<TRANSP> 5
0.000000 1.000000 0.000000 0.000000 0.000000
0.000000 0.726723 0.273277 0.000000 -0.000000
0.000000 0.000000 0.893896 0.106104 -0.000000
0.000000 0.000000 0.000000 0.779213 0.220787
0.000000 0.000000 0.000000 0.000000 0.000000
<ENDHMM>
~h "eh"
<BEGINHMM>
<NUMSTATES> 5
<STATE> 2
<NUMMIXES> 2
<MIXTURE> 1 0.500861
<MEAN> 39
-22.066483 1.769183 -0.787335 -4.663640 -0.125577 -7.090789 0.155977 1.103976 -0.125033 -0.094698 -1.019894 -1.103126 56.019640 7.535974 -1.885532 2.710507 -0.224409 -2.278551 -1.564735 -2.903125 -0.646739 0.480653 0.391026 -1.133541 -1.702245 2.153393 0.996363 -1.051584 0.123579 -0.544922 -0.586312 -0.013486 -0.809951 0.266604 0.293230 0.113355 -0.108394 -0.489174 0.896993
<VARIANCE> 39
32.729259 13.995211 37.054273 34.334575 38.365694 35.663872 24.322119 27.085880 23.927051 21.254648 22.340825 16.106166 17.699863 2.149154 2.381962 2.452306 4.539185 2.178726 4.604574 3.891701 2.986941 3.262330 3.959047 3.699089 3.133658 1.261313 0.743398 0.287890 0.518492 0.509553 0.482271 0.824703 0.692856 0.585590 0.683522 0.534566 0.781126 0.494237 0.150658
<MIXTURE> 2 0.499139
<MEAN> 39
-21.686136 1.453416 -4.917327 -0.803132 -6.278533 -2.917636 -0.859850 -1.039988 -1.262328 -2.180190 1.404726 -1.403875 54.674004 6.601795 -1.483122 2.441106 -2.721741 -3.141967 -4.189162 -2.312482 -1.206275 -1.066071 -1.730955 -2.771558 -0.560838 2.314756 0.935962 -1.143089 0.053443 -0.894834 -0.553621 -0.687804 -0.254965 0.157529 -0.156578 -0.192338 -0.870639 -0.194487 0.703799
<VARIANCE> 39
27.627132 16.599577 31.677550 28.340135 38.525911 32.759050 21.038347 21.691254 21.059164 22.250241 23.202748 16.112182 17.147533 1.847752 2.908119 2.178352 4.897384 2.538356 4.512098 2.810721 2.742154 2.508798 3.369326 3.369186 3.050203 1.279331 0.645986 0.343137 0.471417 0.553295 0.577365 0.886484 0.677920 0.559234 0.603981 0.503594 0.770101 0.429424 0.190679
<STATE> 3
<NUMMIXES> 2
<MIXTURE> 1 0.518376
<MEAN> 39
-3.000350 -2.871816 3.875171 -6.267132 -7.608208 -12.400482 -9.693192 -2.404151 -0.076480 -0.001688 -4.828594 -5.991460 62.150486 6.716502 -3.907754 1.692568 -1.587838 -2.939306 -1.141888 -2.936615 0.371248 1.049232 0.437995 -1.055555 -1.939976 3.468353 -1.655068 -0.493554 -0.727014 -0.357244 0.368731 0.843727 0.822510 0.796277 0.275471 -0.069686 0.247473 0.117730 0.052020
<VARIANCE> 39
25.922807 35.248169 27.091767 24.847211 60.669742 31.047776 36.842538 32.565954 34.168779 43.893904 29.898394 30.410200 27.375798 3.334524 2.184407 4.168604 6.129095 3.550687 6.627670 7.340723 5.719215 6.471048 5.139081 6.687506 4.425182 0.871849 0.488966 0.398931 0.259596 0.413722 0.519974 0.528238 0.577592 0.374711 0.396762 0.421991 0.386682 0.354142 0.229929
<MIXTURE> 2 0.481624
<MEAN> 39
-3.927997 -1.874863 0.042046 -7.360923 -15.230741 -14.853295 -8.515411 -4.983574 -3.812570 -6.025854 -6.489103 -3.128553 60.580357 5.761411 -3.843283 1.630777 -4.017414 -2.794784 -3.730955 -1.440434 -0.149222 -0.859595 -1.413721 -3.511809 -0.854578 3.282835 -1.516343 -0.721599 -0.713826 -0.023816 0.830455 1.208369 0.997505 0.738127 0.091746 0.197608 0.163023 -0.099825 -0.023720
<VARIANCE> 39
24.727706 32.654973 20.446906 28.840241 54.116288 30.484407 26.197904 23.069257 27.882085 34.967877 30.462791 28.439272 25.014581 2.669410 2.636259 3.304480 6.383154 4.045302 7.432446 6.165448 4.684841 5.202859 4.325926 6.244284 4.013071 1.079837 0.411077 0.431746 0.259961 0.476995 0.491589 0.630697 0.435848 0.359758 0.367075 0.381526 0.448092 0.316775 0.185243
<STATE> 4
<NUMMIXES> 2
<MIXTURE> 1 0.518160
<MEAN> 39
0.073522 -12.318616 3.768845 -11.680222 -11.715233 -10.791415 -10.453458 2.519195 2.115700 -0.415896 -5.933345 -8.189440 68.196344 1.017758 -2.881551 -0.192196 -1.421747 -0.606203 1.126742 0.556637 1.719224 0.699811 -0.281029 -0.631505 -0.994528 1.755448 -1.610859 0.855849 -0.502137 0.524842 0.934359 0.615423 0.993785 -0.017887 -0.220443 -0.165191 0.314968 0.378467 -0.822646
<VARIANCE> 39
10.957309 19.440542 38.104617 35.422495 44.275506 46.007831 74.850316 55.076146 78.671748 75.502068 62.375940 48.585948 17.479237 2.726534 2.223217 1.653164 2.275166 3.779637 2.322381 4.978400 2.500978 3.526203 2.207050 2.518431 1.881402 1.313905 0.440775 0.230011 0.369734 0.599007 0.396170 0.754034 0.762384 0.617166 0.555119 0.526803 0.668447 0.445751 0.095636
<MIXTURE> 2 0.481840
<MEAN> 39
-1.693608 -12.469433 1.480263 -14.267656 -14.711652 -14.503714 -6.421519 0.049626 -2.560780 -4.739948 -9.570250 -4.860247 66.818280 0.895817 -3.298940 -0.095593 -2.213553 -0.035003 0.655117 1.154497 1.395759 -0.288670 -0.846076 -1.501986 -1.126508 1.993795 -1.568836 0.759384 -0.590912 0.887953 0.927823 1.152144 0.681086 0.039015 -0.072085 0.016344 0.653355 0.048785 -0.831378
<VARIANCE> 39
10.806995 18.914561 31.548972 40.535649 44.166952 48.289508 67.273914 49.411662 76.687152 64.549728 53.145360 46.317823 17.008556 2.742264 2.156976 1.580529 3.242689 3.925197 3.718627 4.485277 2.628171 3.934706 2.018851 3.200175 1.898957 1.315058 0.415983 0.272199 0.313718 0.622262 0.452173 0.953432 0.786164 0.555259 0.489503 0.490747 0.601459 0.432822 0.098012
<TRANSP> 5
0.000000 1.000000 0.000000 0.000000 0.000000
0.000000 0.364313 0.635687 0.000000 -0.000000
0.000000 0.000000 0.348331 0.651669 -0.000000
0.000000 0.000000 0.000000 0.554482 0.445518
0.000000 0.000000 0.000000 0.000000 0.000000
<ENDHMM>
~h "ey"
<BEGINHMM>
<NUMSTATES> 5
<STATE> 2
<NUMMIXES> 2
<MIXTURE> 1 0.537366
<MEAN> 39
-1.937716 -11.455808 15.628525 -8.497825 -18.822134 -7.432147 -6.064449 4.269305 -5.124365 -1.182054 1.308669 -4.705877 64.097393 0.057140 0.078698 1.162723 -0.219400 -0.686289 0.158210 -0.223048 -0.496809 -0.525333 0.104570 0.425443 0.075172 0.695137 -0.088950 0.229167 -0.034668 0.151063 0.209756 0.039612 -0.058420 -0.170672 -0.012224 0.069474 0.023670 0.030052 -0.363574
<VARIANCE> 39
13.228024 27.750096 73.145543 45.088057 52.913026 41.315477 54.459721 61.039266 54.034085 43.731049 74.019912 26.319487 44.769128 0.981559 1.759761 1.504166 1.421612 2.075567 1.369583 1.947761 2.401503 1.839338 1.514009 1.882844 1.220971 4.324322 0.176361 0.229210 0.216844 0.237763 0.304234 0.251416 0.305282 0.338933 0.297006 0.260429 0.316214 0.197569 0.380737
<MIXTURE> 2 0.462634
<MEAN> 39
-3.926997 -11.955079 12.912257 -11.847799 -18.784241 -7.200271 -3.621764 0.471224 -8.038501 -1.938459 -1.748327 -6.113460 63.543181 0.106887 -0.102175 1.000690 -0.791149 -0.747260 0.006085 -0.394268 -0.835128 -0.894058 -0.102738 -0.258448 -0.562470 1.072727 -0.072209 0.218532 -0.062085 0.087691 0.137741 -0.070322 -0.169419 -0.142783 0.026505 0.015473 -0.086774 -0.012512 -0.345845
<VARIANCE> 39
16.500290 33.384104 93.351134 62.756745 59.641660 46.359346 74.797176 57.280226 56.719403 51.297161 99.095082 27.355080 67.582195 1.198140 2.628009 1.636372 3.087992 2.563776 1.680826 2.194467 2.350703 2.432145 1.911469 2.549434 1.472250 7.389381 0.192076 0.264570 0.232310 0.317112 0.333629 0.269575 0.341279 0.341906 0.345384 0.284702 0.307422 0.218666 0.636204
<STATE> 3
<NUMMIXES> 2
<MIXTURE> 1 0.519730
<MEAN> 39
-5.484314 -6.371462 16.701009 -21.672505 -18.049391 -8.526547 -7.971835 -10.433339 -8.313667 0.867151 -9.838613 -4.317662 62.815781 0.009613 0.946303 0.974496 0.372783 0.208170 -0.023916 -0.824588 -0.783940 0.064136 0.459287 0.069913 0.797424 -0.832406 0.044225 0.149724 -0.199445 0.514402 0.128999 0.023364 0.237676 0.196937 0.127027 0.032204 0.212026 0.105846 -0.470683
<VARIANCE> 39
10.684780 43.330045 54.326733 80.543882 24.899531 37.643582 71.703896 56.923916 49.758271 50.790637 67.822452 38.209169 27.081029 0.468341 1.022959 1.051182 1.760987 1.208151 1.337836 2.003062 1.500017 1.887486 1.829491 1.673670 1.896505 1.587193 0.117672 0.224968 0.297150 0.366082 0.258334 0.265304 0.404860 0.284992 0.345677 0.348768 0.337359 0.336490 0.363036
<MIXTURE> 2 0.480270
<MEAN> 39
-5.958443 -7.453579 13.959787 -24.064380 -18.459634 -9.051313 -6.546271 -10.479717 -8.251693 0.311443 -12.088217 -5.595618 63.094719 -0.132509 0.720957 0.761203 -0.197546 -0.195889 -0.387461 -1.281351 -1.176236 -0.183222 0.030957 -0.420744 0.341928 -0.420337 -0.031980 0.092066 -0.123408 0.356937 0.101056 0.002984 0.059854 0.030129 -0.006539 -0.057190 0.092954 0.083243 -0.379794
<VARIANCE> 39
10.218054 45.525241 46.542602 50.782047 26.702563 35.948622 76.197896 47.952012 46.514736 53.382624 45.758774 36.566414 26.634798 0.499228 1.007606 1.040809 1.907455 1.337066 1.343559 1.973481 1.432696 1.809552 2.014762 1.778520 1.881371 2.120471 0.106684 0.220269 0.237252 0.349198 0.246300 0.236504 0.378555 0.271936 0.355499 0.346526 0.326074 0.319528 0.410879
<STATE> 4
<NUMMIXES> 2
<MIXTURE> 1 0.501411
<MEAN> 39
-4.170925 -1.943809 23.088725 -7.902793 -18.011130 -8.805508 -10.303041 -10.092031 -12.369051 0.181232 -2.548215 -3.085691 54.465147 -0.019384 2.275837 -2.335773 3.670616 2.053301 -0.255940 1.486146 0.484993 0.692191 -0.830436 0.333340 0.031936 -4.409194 -0.345154 0.231465 -1.264922 0.303822 0.868610 0.279493 0.330687 0.538036 0.740326 -0.166600 0.103621 0.018222 -0.646948
<VARIANCE> 39
12.212220 36.540462 39.790510 98.343362 32.343953 40.682319 44.901011 76.643606 52.483681 66.985512 77.229702 48.668756 44.617746 1.687888 3.131141 5.550776 4.343249 4.909875 3.133003 4.097748 4.393745 4.596319 4.465397 5.449131 3.120595 3.255207 0.315471 0.626066 0.473934 0.913382 0.526006 0.645281 0.656475 0.780788 0.721593 0.834872 0.631108 0.600071 0.614289
<MIXTURE> 2 0.498589
<MEAN> 39
-4.863567 -1.415306 21.794546 -9.783906 -18.998660 -9.305306 -10.570745 -12.202726 -11.652661 1.461289 -4.392673 -2.081753 53.205130 -0.036241 1.904232 -2.499092 3.579476 1.485414 -0.485803 1.006140 0.310204 0.087823 -1.225122 0.548069 -0.329160 -4.314150 -0.334384 0.117034 -1.313432 0.259053 0.844715 0.137895 0.208276 0.515997 0.518033 -0.399203 0.076368 -0.135626 -0.549849
<VARIANCE> 39
12.160637 37.592592 37.857474 101.489697 33.038223 42.152536 44.637955 75.575655 57.975401 71.936044 83.945710 54.268239 42.282438 1.722931 2.838197 5.429491 4.221295 4.891925 3.165156 4.324521 4.799741 4.313980 5.072911 5.271686 3.311218 3.193026 0.354616 0.553239 0.512145 0.959561 0.576223 0.683885 0.711004 0.797627 0.797248 0.933323 0.652085 0.685753 0.594385
<TRANSP> 5
0.000000 1.000000 0.000000 0.000000 0.000000
0.000000 0.887851 0.112149 0.000000 0.000000
0.000000 0.000000 0.853060 0.146940 -0.000000
0.000000 0.000000 0.000000 0.668482 0.331518
0.000000 0.000000 0.000000 0.000000 0.000000
<ENDHMM>
~h "ih"
<BEGINHMM>
<NUMSTATES> 5
<STATE> 2
<NUMMIXES> 2
<MIXTURE> 1 0.516231
<MEAN> 39
-14.967064 6.020007 5.632129 -1.872374 -3.605922 -11.719299 -5.631408 -3.865223 -3.711264 -2.911171 -2.358194 -3.066287 59.341623 5.634362 -2.984887 3.000593 -0.616049 -3.427991 -2.298365 -2.632070 -0.716813 -0.291612 -0.168248 -0.181692 -0.283470 2.097589 0.228678 -0.984086 0.221322 -0.225527 -0.406900 0.253492 -0.288084 0.471123 0.000898 0.082303 0.271481 0.097375 0.127596
<VARIANCE> 39
42.213038 24.454964 52.690226 25.046371 66.906811 46.218288 50.026479 47.016506 28.698147 28.055948 18.802548 20.076739 22.916512 4.730470 3.850451 4.471903 6.419089 2.734571 5.385473 5.130978 4.019487 3.922539 3.356153 3.530801 2.992037 1.026267 0.766819 0.322770 0.633246 0.489770 0.596926 0.717692 0.726477 0.577475 0.601572 0.735695 0.617388 0.363220 0.199257
<MIXTURE> 2 0.483769
<MEAN> 39
-16.058302 5.804349 0.343936 -1.359610 -11.099924 -10.610922 -5.150407 -8.962970 -6.430878 -6.253274 -2.064354 -4.845028 56.956699 5.308426 -2.296651 3.361993 -2.985723 -3.887924 -4.313553 -2.217275 -1.844999 -1.533011 -0.171068 -1.663407 0.079907 2.251646 0.225976 -1.017624 0.359253 -0.537418 -0.119981 -0.001915 -0.064886 0.499858 -0.180912 0.603425 -0.289729 0.107273 0.095525
<VARIANCE> 39
41.840022 23.190590 46.692858 25.169128 66.335214 56.979408 38.641786 46.914415 30.246993 27.681604 24.294181 21.364101 22.203777 3.511172 4.578464 3.677019 5.527200 2.854273 5.162101 4.830780 4.021104 3.993275 4.517530 4.216621 3.022985 1.139106 0.809677 0.336515 0.611352 0.548838 0.771784 0.984878 0.816942 0.618750 0.632361 0.700753 0.742958 0.375663 0.188123
<STATE> 3
<NUMMIXES> 2
<MIXTURE> 1 0.510926
<MEAN> 39
-2.666632 -6.137933 11.851934 -5.225545 -12.901496 -14.520078 -12.812402 -3.150302 -3.602677 -2.766400 -1.837753 -3.110327 64.514251 3.058684 -3.741066 2.030798 -0.886149 -2.875445 -0.368459 -1.496385 1.031218 -0.185162 0.000386 0.762052 0.079410 1.385815 -1.344346 0.534582 -0.625185 0.233342 0.771740 0.541949 0.775302 0.496180 -0.085932 0.031262 0.319507 0.111597 -0.523652
<VARIANCE> 39
14.593881 29.677053 47.801857 42.675874 55.102902 39.400392 48.380773 57.655180 58.759063 35.013864 36.269431 26.885962 17.362852 4.285165 2.197306 3.998166 6.236567 4.106907 5.036364 5.735335 4.170511 4.811941 6.247689 5.001682 2.465427 1.325703 0.609083 0.466370 0.473921 0.480258 0.525635 0.785854 0.720732 0.557347 0.586265 0.509877 0.476116 0.438971 0.156973
<MIXTURE> 2 0.489074
<MEAN> 39
-4.441434 -5.119912 8.568015 -8.709554 -17.408282 -17.943183 -10.378534 -7.683932 -7.707977 -3.310233 -4.951165 -3.510147 62.990487 2.924864 -3.773124 2.573421 -2.667427 -2.258913 -1.466731 -0.999537 0.704019 -1.088823 1.089275 -0.720548 -0.143589 1.586709 -1.332188 0.374043 -0.630439 0.468140 0.868913 0.948371 0.758795 0.534432 -0.001699 0.159931 0.347760 -0.172558 -0.572773
<VARIANCE> 39
12.724925 29.294039 45.798717 47.090444 50.777843 36.800763 45.141990 62.192797 53.351525 32.044126 36.393760 26.709613 18.143445 4.056526 2.398257 3.620062 7.114223 4.827688 6.742390 6.179785 4.409305 4.754043 6.379579 6.503679 2.800550 1.333504 0.514084 0.497038 0.445212 0.616935 0.477378 0.791872 0.706733 0.578302 0.559898 0.639854 0.502947 0.492826 0.165529
<STATE> 4
<NUMMIXES> 2
<MIXTURE> 1 0.514204
<MEAN> 39
-2.159928 -10.334977 13.227275 -9.028160 -17.308855 -15.669768 -8.694536 -1.067627 -7.582101 -0.894595 -1.559124 -4.157880 64.572017 0.324930 -0.019621 0.440363 1.032402 -0.019883 -0.276210 0.699234 0.641998 -1.028736 0.129351 0.759512 0.034228 -1.098803 -0.310277 0.789779 -0.558769 0.673566 0.725574 0.090704 0.109040 -0.041259 0.184189 -0.136830 0.060290 0.139954 -0.860782
<VARIANCE> 39
14.149732 24.174044 48.921030 75.447338 38.709820 47.415855 85.259690 110.728088 84.777641 65.345270 87.498124 31.586793 23.515799 0.928192 3.262846 1.806645 3.630991 2.026427 2.087112 2.387462 3.070268 3.553042 3.160174 2.401169 1.771638 3.365518 0.325586 0.517971 0.460746 0.544088 0.556407 0.683542 0.661152 0.676582 0.844991 0.652330 0.802667 0.382638 0.591593
<MIXTURE> 2 0.485796
<MEAN> 39
-4.079835 -10.079162 11.888211 -14.477412 -19.944183 -17.481019 -6.060166 -6.121430 -11.409499 1.276254 -6.323644 -5.065901 63.105434 0.274554 -0.368813 0.322504 0.566367 -0.085579 -0.395867 0.694902 0.214320 -1.142641 0.326441 0.137899 -0.720532 -0.746577 -0.129498 0.622676 -0.596794 0.842236 0.441980 -0.035507 -0.037747 -0.034447 0.140741 -0.413585 0.181644 0.011526 -0.675182
<VARIANCE> 39
13.485344 25.365051 43.168110 61.937644 30.709703 42.545850 73.354743 90.855939 66.920438 57.418086 69.556036 28.151478 22.379462 0.785516 2.667148 1.965914 3.712875 1.461239 2.317413 2.032754 3.693222 2.584655 2.715209 2.612274 1.663748 2.424528 0.261034 0.466093 0.443347 0.514505 0.514188 0.643191 0.596078 0.569700 0.588296 0.661941 0.579490 0.355377 0.457677
<TRANSP> 5
0.000000 1.000000 0.000000 0.000000 0.000000
0.000000 0.443772 0.556228 0.000000 0.000000
0.000000 0.000000 0.568367 0.431633 0.000000
0.000000 0.000000 0.000000 0.777417 0.222583
0.000000 0.000000 0.000000 0.000000 0.000000
<ENDHMM>
~h "iy"
<BEGINHMM>
<NUMSTATES> 5
<STATE> 2
<NUMMIXES> 2
<MIXTURE> 1 0.539999
<MEAN> 39
-1.664246 -8.607520 22.071754 -5.528645 -19.295562 -10.451733 -11.376424 -2.750413 -12.386244 -4.333136 2.350511 -4.466594 62.886874 -0.774082 1.278426 1.187187 -0.921969 -0.128402 1.322000 0.202037 -1.154852 -0.167962 0.634116 -0.438722 -0.175526 -0.320771 0.181641 0.047562 -0.487816 0.262123 0.417129 -0.186894 -0.182622 0.213136 0.314076 -0.108542 -0.095524 0.156826 -0.136306
<VARIANCE> 39
15.434973 29.332803 47.038641 83.774102 29.319828 58.642835 52.989277 58.982412 54.800836 84.146395 79.495119 33.015308 19.567601 0.529076 0.816373 1.599682 1.576080 1.328669 2.147092 1.995445 2.199608 2.572103 1.639290 1.408916 1.360115 0.237966 0.062725 0.127004 0.203356 0.184852 0.303803 0.281552 0.435258 0.287503 0.351167 0.318475 0.258994 0.192251 0.034732
<MIXTURE> 2 0.460001
<MEAN> 39
-3.370200 -9.137074 17.896382 -12.741378 -21.065613 -14.525851 -9.259058 -6.838622 -16.679884 0.984225 -4.815844 -7.583008 61.551292 -0.891829 1.378194 1.291067 -1.425907 -0.229420 1.650068 -0.481668 -1.964714 0.356713 0.491329 -1.151578 -0.032330 -0.309802 0.197404 0.035505 -0.488522 0.269492 0.450622 -0.251859 -0.360488 0.255947 0.268897 -0.390255 -0.096912 0.142769 -0.158333
<VARIANCE> 39
16.255122 32.168981 45.514739 79.023617 25.312706 60.538685 58.063828 65.637561 55.617726 82.742693 92.115930 30.551697 18.044410 0.526377 0.757178 1.623241 2.002989 1.473581 2.538799 2.039590 2.916200 2.342001 2.294270 1.861246 1.346639 0.225831 0.051014 0.118071 0.201542 0.192468 0.356721 0.276731 0.501473 0.327585 0.422496 0.417123 0.298527 0.189271 0.029963
<STATE> 3
<NUMMIXES> 2
<MIXTURE> 1 0.493121
<MEAN> 39
-4.370271 0.077045 21.386352 -12.562010 -16.543952 -7.928718 -10.881386 -10.993560 -11.321409 -0.936615 -6.031580 -3.541887 57.127287 -0.232780 1.146923 -0.565851 0.796140 0.767574 0.548622 0.870349 -0.187429 0.739198 -0.114091 0.129871 0.207136 -0.968488 -0.113567 -0.079483 -0.556090 0.527390 0.351660 -0.062367 0.461207 0.386144 0.256750 -0.003354 0.258745 0.041061 -0.187797
<VARIANCE> 39
12.029749 42.966504 34.030021 106.364454 32.583333 67.105909 44.987147 84.210994 54.009940 60.481015 101.146047 36.843901 32.726118 0.927061 1.929302 1.897295 3.347639 2.234016 3.412159 3.804867 2.493062 2.558489 3.318535 2.806830 1.956426 0.857047 0.247784 0.277974 0.413264 0.520193 0.522767 0.565583 0.468319 0.546434 0.526020 0.507247 0.522381 0.380701 0.183822
<MIXTURE> 2 0.506879
<MEAN> 39
-5.927741 0.210824 18.302010 -18.709043 -17.643321 -9.656720 -12.816735 -16.073409 -12.189787 -0.380894 -12.750081 -3.970978 56.568784 -0.084720 0.842131 -0.530563 0.634516 0.384328 0.496770 -0.136177 -0.580689 0.314285 -1.006015 -0.181816 0.024313 -0.895915 0.012625 -0.147112 -0.449695 0.552717 0.102467 -0.169333 0.322819 0.277814 -0.026804 -0.123382 0.310922 -0.130930 -0.145702
<VARIANCE> 39
11.368793 38.337759 25.820792 60.786598 32.113532 56.800557 38.398821 55.945009 52.525012 61.519780 67.770471 37.661129 30.334295 0.751526 1.657147 1.658339 3.207153 2.044690 2.437630 2.714833 2.244137 2.235204 2.649266 2.403444 1.831626 0.642659 0.184310 0.224880 0.327781 0.485222 0.435889 0.447505 0.386697 0.486547 0.446847 0.458942 0.452644 0.325160 0.119079
<STATE> 4
<NUMMIXES> 2
<MIXTURE> 1 0.509344
<MEAN> 39
-7.492926 0.652524 12.421981 -1.379863 -9.880089 -4.572931 -3.227656 -5.363096 -7.289052 -2.570769 -1.019924 -3.670624 48.468758 -1.363840 0.367065 -2.488722 1.541297 2.317541 0.753367 1.836399 1.556801 1.765841 0.542420 0.619876 0.537033 -1.615273 -0.167934 -0.205104 -0.130734 -0.286669 0.099733 0.146445 -0.081933 0.198296 0.138617 0.138902 -0.043885 0.090306 0.103127
<VARIANCE> 39
35.434787 37.593026 78.998388 66.509644 74.965545 96.056765 76.633164 94.542206 68.816329 60.677648 62.395048 36.190886 95.851835 4.098406 4.738826 3.723018 5.893664 5.331434 6.859079 5.634447 7.311778 6.169634 5.410150 6.821203 3.651722 3.545391 0.549926 0.645603 0.807463 0.769839 0.974188 1.034224 0.898092 1.134825 1.081358 0.906375 0.824702 0.618719 0.606904
<MIXTURE> 2 0.490656
<MEAN> 39
-7.902757 -0.792654 10.388492 -4.143801 -10.236805 -4.990058 -3.652627 -6.441532 -6.745039 -2.153843 -3.514872 -4.184736 47.962755 -0.899957 -0.215373 -2.877355 1.051238 1.714192 0.569147 0.940507 1.047970 1.105793 -0.243663 0.216263 0.008621 -1.400425 -0.044988 -0.170664 -0.053340 -0.393306 -0.104844 0.012315 -0.205361 -0.006465 -0.131299 0.045135 -0.082347 0.023500 0.186284
<VARIANCE> 39
38.359286 44.310119 71.698864 90.599327 79.714548 111.951725 83.485281 104.675638 80.176731 67.580259 71.859065 37.555468 87.449222 4.567265 5.150726 4.214670 6.419895 5.692826 6.624621 5.851308 7.540175 6.961674 6.142041 6.398258 3.524859 5.116459 0.513168 0.688584 0.775153 0.845101 1.111071 1.124110 0.981873 1.273618 1.167603 1.004858 0.908785 0.601584 0.803445
<TRANSP> 5
0.000000 1.000000 0.000000 0.000000 0.000000
0.000000 0.833793 0.166207 0.000000 0.000000
0.000000 0.000000 0.784677 0.215323 -0.000000
0.000000 0.000000 0.000000 0.759522 0.240478
0.000000 0.000000 0.000000 0.000000 0.000000
<ENDHMM>
~h "ow"
<BEGINHMM>
<NUMSTATES> 5
<STATE> 2
<NUMMIXES> 2
<MIXTURE> 1 0.517377
<MEAN> 39
0.931210 -10.427269 -3.988825 -12.224723 -4.993891 -1.560981 -7.019635 -0.811145 -2.123872 1.707960 -2.251229 -8.635454 58.108498 0.843385 -0.599808 0.102091 -1.275914 -0.123851 1.029323 0.236260 -0.189184 -0.168873 0.093327 0.202735 -0.772152 1.923000 -0.186796 0.299704 0.160091 0.236296 -0.025702 0.055332 -0.005908 -0.018353 0.049953 0.002964 0.186753 0.294056 -0.374301
<VARIANCE> 39
44.668349 46.162311 38.982108 64.991467 52.754903 101.622323 74.860987 68.056942 69.551992 82.120333 133.601516 60.668275 108.078627 3.589976 2.699567 2.232922 3.320126 3.184670 3.084466 3.649723 3.642931 3.994154 3.610206 4.793071 3.136596 7.723897 0.596932 0.492742 0.368462 0.611259 0.521678 0.512103 0.546516 0.621990 0.717230 0.661234 0.772672 0.539195 1.357024
<MIXTURE> 2 0.482623
<MEAN> 39
-2.103283 -11.881810 -5.381637 -12.649201 -3.279282 -5.120013 -5.460386 -0.639485 -3.394102 -0.714647 -8.052753 -6.888997 56.388853 1.264758 -1.407986 -0.610107 -1.830130 -0.058748 0.272183 -0.635977 -0.914603 -0.946478 -0.827644 -1.470421 -1.264730 3.218897 -0.040237 0.259622 0.007246 0.009550 -0.171566 -0.025191 -0.155193 -0.122130 0.010485 -0.006830 0.087746 0.009506 -0.190821
<VARIANCE> 39
49.965470 56.148134 33.033857 65.981854 56.745311 98.205386 69.450647 59.112228 71.671345 79.755471 116.530743 59.620785 152.629157 4.157179 4.247474 2.432593 4.921452 3.321311 3.882911 4.085533 4.378327 4.346066 4.300498 6.184252 3.527049 12.680206 0.688538 0.723883 0.379439 0.866237 0.530964 0.494410 0.584105 0.674006 0.745040 0.686915 0.840517 0.573933 2.254033
<STATE> 3
<NUMMIXES> 2
<MIXTURE> 1 0.533918
<MEAN> 39
5.147614 -9.669449 -2.859724 -16.747453 -8.582718 0.958156 -8.878291 -3.337549 -5.211120 0.041457 -1.240688 -7.882731 63.626653 0.181297 0.742625 0.206349 -0.234874 -0.212624 0.336572 0.054111 -0.370210 -0.258559 0.130889 0.231529 0.430905 -0.412070 0.003026 0.102102 0.041704 0.154774 0.073676 -0.063521 0.009171 0.053737 0.038664 -0.005117 0.002505 0.103499 -0.118944
<VARIANCE> 39
15.229734 49.630288 39.830851 60.084636 65.396388 110.644817 71.748351 66.203561 72.191009 76.890827 174.198209 48.915207 28.841240 0.250850 0.618607 0.602048 0.972850 1.026272 1.305548 1.335155 1.337721 1.521848 1.550473 1.567256 1.387837 0.397557 0.038076 0.082087 0.091458 0.136867 0.149444 0.156337 0.193484 0.180515 0.198868 0.218520 0.222308 0.195555 0.035738
<MIXTURE> 2 0.466082
<MEAN> 39
3.450997 -10.529045 -6.000065 -18.148916 -7.007838 -3.623967 -9.680790 -4.040541 -7.298811 -2.079704 -8.565933 -8.955064 62.718953 0.123790 0.750341 0.061520 -0.418422 -0.346369 0.144342 -0.386197 -0.637971 -0.258061 -0.000962 -0.010859 0.130709 -0.480939 -0.016931 0.071661 0.026783 0.087395 -0.015628 -0.131578 -0.056189 -0.039020 -0.041678 -0.085589 -0.023837 0.029394 -0.128893
<VARIANCE> 39
15.816918 57.679901 36.391169 60.799669 63.787897 113.159580 68.215167 68.807250 64.385679 74.094659 150.235847 46.366255 29.978332 0.255447 0.627339 0.595941 0.925010 0.997815 1.427138 1.400399 1.539389 1.637489 1.722246 1.568280 1.444888 0.356603 0.035897 0.080506 0.084519 0.140075 0.150589 0.162852 0.190211 0.198581 0.222457 0.251227 0.213782 0.202208 0.033649
<STATE> 4
<NUMMIXES> 2
<MIXTURE> 1 0.509176
<MEAN> 39
2.131201 -0.986406 -0.876867 -8.309282 -5.071506 0.081457 -5.960379 -4.514227 -6.568496 -1.712466 -1.335867 -4.188334 51.524054 -1.659331 0.648438 0.689246 2.287688 1.273396 -0.076757 1.167296 0.536433 0.936839 0.032062 -0.018375 0.476567 -1.365491 -0.402499 -0.106301 0.007300 0.115598 0.142392 0.066561 0.194199 0.230724 0.214692 0.127662 0.137595 0.060150 0.009730
<VARIANCE> 39
43.220664 44.748792 36.602559 101.053771 73.546220 86.767158 95.649899 65.049163 63.987220 71.118535 89.952867 41.457484 83.936010 3.606732 3.990616 2.786743 5.864291 4.738537 4.535625 4.899512 4.796700 5.189804 5.891351 6.165935 3.452205 2.330012 0.569960 0.600089 0.465391 1.031519 0.761411 0.709109 0.849440 0.796936 0.887054 0.919988 0.845586 0.618468 0.428707
<MIXTURE> 2 0.490824
<MEAN> 39
1.296885 -2.325681 -3.406663 -11.040558 -5.104280 -2.119035 -7.867633 -6.345033 -7.576085 -2.229182 -4.789427 -5.066690 51.047043 -1.236956 0.407465 0.505525 1.720413 0.303133 -0.462989 0.350093 -0.028396 0.442328 -0.454013 -0.123887 0.071908 -1.244847 -0.254041 -0.102994 0.022736 0.147209 -0.024251 -0.071638 0.137133 0.123675 0.078303 -0.059799 0.004785 -0.054779 0.061319
<VARIANCE> 39
43.060224 49.323739 39.165839 121.301765 71.767768 95.657803 99.368928 67.969657 78.251614 84.292448 99.754948 46.889631 85.872108 3.040724 4.044186 2.663255 5.357796 4.187009 3.906033 4.466536 4.789015 5.596672 5.585587 4.926654 3.674803 2.611429 0.455756 0.568820 0.464608 1.080010 0.703272 0.684181 0.848900 0.785479 0.957052 0.977126 0.871810 0.672839 0.467324
<TRANSP> 5
0.000000 1.000000 0.000000 0.000000 0.000000
0.000000 0.730662 0.269338 0.000000 0.000000
0.000000 0.000000 0.913677 0.086323 0.000000
0.000000 0.010866 0.000000 0.852662 0.136472
0.000000 0.000000 0.000000 0.000000 0.000000
<ENDHMM>
~h "sp"
<BEGINHMM>
<NUMSTATES> 3
<STATE> 2
<NUMMIXES> 2
<MIXTURE> 1 0.462310
<MEAN> 39
-13.801645 1.430662 -0.642290 1.070707 -0.113793 -0.355845 1.073840 1.671079 1.981119 1.144847 1.378899 0.418639 30.876664 -0.139199 0.154048 0.204113 0.159464 0.137329 0.178802 0.225116 0.249446 0.358312 0.411284 0.338551 0.191559 -0.139063 0.114095 -0.047649 0.027879 -0.000479 0.002828 0.007574 -0.016948 -0.024632 -0.076216 -0.053250 -0.034319 -0.020648 0.174542
<VARIANCE> 39
10.584121 9.261630 10.083069 10.624103 13.665408 15.861120 14.831852 15.507736 19.107774 21.616533 18.415202 12.769735 6.093220 0.414139 0.652659 0.822783 0.815594 1.069931 1.268993 1.334815 1.491165 1.669984 1.745530 1.566865 1.259546 0.305943 0.106824 0.144914 0.169535 0.183964 0.228974 0.266038 0.279735 0.316738 0.344649 0.351495 0.327314 0.266390 0.117765
<MIXTURE> 2 0.537690
<MEAN> 39
-13.925982 0.581959 -1.456526 0.476896 -0.836047 -1.192059 0.178746 1.161554 1.324350 0.262073 0.823285 0.260686 30.974205 -0.182164 -0.029931 -0.097293 -0.197476 -0.267690 -0.255700 -0.233170 -0.241509 -0.148776 -0.102009 -0.154373 -0.163211 -0.126564 0.068799 -0.072373 0.001150 -0.058950 -0.083689 -0.083499 -0.074041 -0.092923 -0.142013 -0.119064 -0.103475 -0.077071 0.157777
<VARIANCE> 39
8.412944 10.406299 10.366289 9.251858 13.456853 15.673088 15.390350 16.542187 21.823555 24.879098 20.565444 13.318206 6.339760 0.415605 0.702708 0.800209 0.816602 1.052077 1.264724 1.302718 1.441914 1.693754 1.726956 1.565452 1.248498 0.324450 0.099290 0.160300 0.175340 0.193244 0.232673 0.267463 0.278940 0.328224 0.366900 0.364794 0.337004 0.271619 0.119507
<TRANSP> 3
0.000000 0.075754 0.924246
0.000000 0.927148 0.072852
0.000000 0.000000 0.000000
<ENDHMM>
~h "th"
<BEGINHMM>
<NUMSTATES> 5
<STATE> 2
<NUMMIXES> 2
<MIXTURE> 1 0.490905
<MEAN> 39
-15.851838 -0.021284 -0.057108 2.305054 -1.996004 -0.597938 0.011890 -0.042894 0.522439 -0.117629 1.451147 -0.314718 44.243388 -0.567135 -0.236361 -0.075014 -0.403429 0.063566 0.589610 0.666290 0.515008 0.785732 0.584980 0.561225 0.466617 0.765092 0.483211 -0.122180 0.341171 -0.142658 -0.166325 -0.207807 -0.068086 -0.092976 -0.199418 -0.041617 -0.142362 -0.154893 0.475426
<VARIANCE> 39
25.232548 31.590339 23.310037 23.867829 25.338638 25.282941 24.787673 21.789325 22.412348 21.974369 19.598855 14.894903 80.284891 3.422054 2.949367 3.011857 3.012293 2.869556 3.257011 3.102593 3.231890 3.044438 2.768973 2.758127 2.062377 10.998849 0.521890 0.699727 0.777163 0.681033 0.589946 0.626150 0.699152 0.622450 0.589071 0.563389 0.544287 0.412110 1.466889
<MIXTURE> 2 0.509095
<MEAN> 39
-16.336902 -1.131996 -1.081426 1.463504 -2.824396 -1.224454 -1.027331 -0.448108 0.134699 -0.606584 1.225399 -0.643835 42.322402 -0.655841 -0.949434 -0.786733 -0.949987 -0.661412 -0.122351 -0.116060 -0.068024 0.086477 -0.094752 0.124695 0.101656 1.503790 0.510601 -0.073462 0.290504 -0.240542 -0.286587 -0.398484 -0.206516 -0.276293 -0.310419 -0.144357 -0.262197 -0.210463 0.769419
<VARIANCE> 39
24.100005 31.133409 22.460599 21.926187 23.773303 24.278558 25.108592 21.127673 22.889342 21.373593 19.230638 14.322701 73.375442 2.951363 2.628432 2.644833 2.591039 2.601243 2.898644 2.926801 3.228468 2.861870 2.646881 2.430820 1.906829 11.367054 0.527765 0.636545 0.696206 0.606646 0.564622 0.636591 0.635769 0.631033 0.567111 0.567126 0.561857 0.414749 1.510876
<STATE> 3
<NUMMIXES> 2
<MIXTURE> 1 0.525580
<MEAN> 39
-13.314857 -4.630277 5.020077 -0.211029 -4.441017 -2.713832 1.095210 0.768204 0.864424 0.779110 1.441856 -1.419354 56.252097 2.882175 -0.583362 1.677148 1.243342 0.313053 -0.831987 -1.008424 0.087361 -0.273216 -0.130296 -0.218270 -0.408269 0.851088 0.859886 0.085590 -0.508071 0.347083 0.370461 -0.263771 -1.048340 -0.320579 -0.095308 -0.212222 -0.132606 0.022423 -0.733746
<VARIANCE> 39
32.562336 26.294348 49.819809 43.747942 26.190169 35.457298 37.944755 30.996218 28.189934 25.843987 22.718565 19.065511 20.636872 5.508102 3.243111 7.195716 5.542042 4.074204 4.500256 8.741882 4.926557 3.260242 3.193964 2.617368 2.347030 5.156245 0.656497 0.682727 1.719840 1.608153 0.798360 1.058033 1.276629 1.077621 0.861091 0.695592 0.616361 0.557206 1.037018
<MIXTURE> 2 0.474420
<MEAN> 39
-12.776046 -4.575198 4.766715 -0.940964 -5.997248 -4.230367 -0.295582 -0.861524 -0.832484 -1.994914 -0.262776 -2.002822 55.206707 3.301108 -0.983967 0.904259 0.176819 -0.955358 -3.021921 -2.617155 -1.062509 -1.557201 -0.988829 -1.545980 -1.248825 0.957900 0.921351 -0.162538 -0.712736 0.047299 0.173101 -0.668470 -1.167378 -0.189585 -0.314169 -0.049715 -0.116498 -0.161218 -0.622785
<VARIANCE> 39
37.678014 28.301483 50.578967 44.761097 31.892408 39.248150 40.443328 38.681832 32.903272 29.112644 26.363999 20.520210 24.625849 5.320772 3.362893 7.261572 5.633496 4.480227 6.821544 7.733139 4.598536 4.180056 3.179846 3.421003 2.734462 7.017997 0.675751 0.774687 1.721619 1.476981 0.882189 1.160165 1.166291 1.115071 0.977719 0.751908 0.739007 0.627362 1.260539
<STATE> 4
<NUMMIXES> 2
<MIXTURE> 1 0.534807
<MEAN> 39
7.758197 -7.110760 -2.913908 0.998521 -0.000549 -8.704394 -19.621170 -7.446253 -0.748236 -1.566626 -0.703528 -2.754973 57.216498 2.743009 -1.088633 -1.523737 -0.068685 0.692372 -1.157184 -3.629712 0.059926 0.467036 -0.580633 -0.084046 0.369637 0.717259 -1.121882 -0.200759 0.665225 0.104077 -0.513153 -0.085717 0.939545 0.950957 0.045648 -0.152618 0.187968 0.183468 0.114093
<VARIANCE> 39
27.441885 18.432430 54.527523 34.661656 52.785158 69.965923 72.798741 50.192737 41.586376 28.735235 29.953084 26.525391 19.645905 6.032146 2.489274 5.838825 3.891813 4.844548 6.069898 7.959288 7.900902 4.187786 3.900748 2.565851 2.361770 1.299122 0.486176 0.370944 1.385112 0.783639 0.991079 1.105838 1.337229 0.822898 0.780242 0.615299 0.525963 0.498209 0.244741
<MIXTURE> 2 0.465193
<MEAN> 39
4.875617 -7.553665 -1.745750 -1.599175 -4.470834 -14.725468 -16.808451 -6.589535 -5.337721 -3.778991 -3.820199 -5.487633 55.957790 3.146725 -1.576707 -1.890151 -0.620142 0.432851 -2.814424 -3.584194 0.241566 -1.072066 -0.386980 -0.717061 -0.464749 0.554533 -1.017238 -0.204103 0.323829 0.020902 -0.174325 0.172683 0.898229 0.835957 0.019891 0.082278 0.283927 0.240765 0.084187
<VARIANCE> 39
29.071123 19.652769 62.149696 40.131165 69.230065 74.490588 57.417554 45.761180 46.530116 33.181629 32.006998 26.303309 21.457746 5.049401 3.166742 6.448775 4.161826 4.823016 9.116880 7.917980 7.468034 5.968320 3.820111 3.314083 2.959349 1.581228 0.474763 0.405671 1.929999 0.778668 1.340587 1.281820 1.202624 0.829957 0.821701 0.722018 0.708379 0.517705 0.456227
<TRANSP> 5
0.000000 1.000000 0.000000 0.000000 0.000000
0.000000 0.847709 0.152291 0.000000 -0.000000
0.000000 0.000000 0.762351 0.237649 -0.000000
0.000000 0.000000 0.000000 0.736103 0.263897
0.000000 0.000000 0.000000 0.000000 0.000000
<ENDHMM>
~h "uw"
<BEGINHMM>
<NUMSTATES> 5
<STATE> 2
<NUMMIXES> 2
<MIXTURE> 1 0.508603
<MEAN> 39
-7.780788 -3.894345 13.121744 0.032747 -9.886408 -9.059583 -5.470930 1.290655 -6.033202 -4.694342 0.509166 -2.138198 59.077166 4.588017 -1.040933 1.665105 0.869062 -2.288733 -1.220247 -3.736572 -1.076386 -1.004466 -1.203777 -0.158900 -0.923002 1.443241 -0.422326 -0.250844 -0.369374 -0.530294 -0.077325 0.136358 -0.432989 0.008564 0.082153 0.173502 0.382416 0.067464 0.394577
<VARIANCE> 39
64.811013 20.549169 25.794382 51.520407 43.818698 34.765062 76.044700 65.007125 48.215579 40.125564 37.888618 23.232858 32.846700 2.682137 2.238908 2.812981 5.065105 3.194983 4.548111 4.457620 3.770110 4.027384 4.691573 5.090444 2.514144 1.974043 1.323919 0.346376 0.347161 0.390890 0.749415 0.662792 1.554117 0.800052 0.588877 0.676347 0.594152 0.409383 0.462761
<MIXTURE> 2 0.491397
<MEAN> 39
-10.324948 -2.357660 11.031653 -5.076036 -12.425680 -9.639801 -2.451913 -5.713910 -9.769778 -2.423950 -1.998806 -3.238844 58.038606 4.476857 -1.226298 1.464878 -1.073043 -3.245204 -3.038517 -3.945725 -2.027261 -2.757887 -1.477495 -2.600763 -0.986847 0.942562 -0.399582 -0.258399 -0.451992 -0.606704 0.109612 -0.169545 -0.292585 0.325522 0.101864 0.475103 -0.035907 -0.020484 0.418748
<VARIANCE> 39
67.501338 21.164641 22.222960 53.301300 44.750939 48.941138 79.942414 68.398436 61.774445 45.542876 46.315924 21.597480 24.423882 2.276068 2.554096 2.758580 4.616598 3.083300 4.570117 4.259896 3.927884 5.040053 4.814208 5.867582 2.282897 1.736699 1.291107 0.350458 0.321705 0.495688 0.825135 1.002081 1.509918 0.868356 0.844693 0.771606 0.962987 0.433428 0.296952
<STATE> 3
<NUMMIXES> 2
<MIXTURE> 1 0.539575
<MEAN> 39
-1.381162 -8.061802 15.369601 -6.124939 -17.146357 -16.149282 -12.734656 -3.230621 -12.291909 -2.883986 -3.150253 -3.084806 62.979615 0.320227 -0.154406 -0.072639 0.214000 0.223399 -0.223757 -0.636218 0.281813 0.094833 0.127121 0.007425 0.141840 -0.129132 -0.305975 0.321968 -0.232227 0.189859 0.457289 0.314825 0.372299 0.012114 0.287685 0.076495 0.075676 0.034963 -0.310255
<VARIANCE> 39
11.417696 23.835803 31.091491 91.869344 34.307320 48.739621 64.134153 69.491444 81.964053 84.135301 89.864401 26.963482 23.771968 0.436397 1.100991 1.000780 1.219911 1.507961 1.267357 1.789267 1.307041 1.578975 1.952708 1.428251 1.094978 0.663948 0.313260 0.173380 0.177545 0.270556 0.321766 0.327874 0.489386 0.305081 0.333928 0.349468 0.413879 0.198353 0.129147
<MIXTURE> 2 0.460425
<MEAN> 39
-3.180058 -7.974981 13.110551 -11.588303 -18.785989 -19.184279 -10.322089 -6.464100 -16.987534 0.112514 -8.750604 -3.785908 60.967465 0.293650 -0.097477 -0.371113 0.205557 0.363672 -0.386493 -0.743421 0.085619 -0.083342 -0.324830 -0.503113 -0.069175 -0.288682 -0.143641 0.249177 -0.222322 0.163618 0.275782 0.225786 0.100295 -0.143523 0.244980 -0.120409 0.036086 -0.041466 -0.208697
<VARIANCE> 39
10.935461 21.198610 29.027199 57.079305 29.226700 41.421407 56.669243 60.893992 67.368904 63.724850 66.643283 28.250125 19.620832 0.354273 0.923308 0.990023 1.064046 1.431394 1.223575 1.633597 1.283151 1.850234 1.782453 1.582971 1.187728 0.455976 0.216434 0.146518 0.147526 0.221250 0.293382 0.286798 0.375889 0.312550 0.323250 0.375407 0.345727 0.225352 0.081501
<STATE> 4
<NUMMIXES> 2
<MIXTURE> 1 0.513584
<MEAN> 39
2.084795 -2.661112 6.229372 -0.205697 -7.257245 -5.361916 -15.511481 -5.779239 -7.331208 -4.366279 1.137183 -5.679640 55.065548 -0.482250 0.638061 -0.567440 0.258837 0.908038 0.902856 1.160839 -0.104112 0.455449 0.452724 0.203049 0.220164 -0.920923 -0.260276 -0.012491 0.064108 0.027095 0.051785 0.032292 0.354697 0.223791 0.098647 0.098293 0.021822 0.126993 -0.020303
<VARIANCE> 39
26.319705 40.953676 59.100512 73.080691 58.880161 88.894123 105.531955 65.693947 60.889268 87.594708 102.107729 46.472953 80.053844 2.030821 1.942857 1.793294 2.986592 2.643642 3.454320 4.002449 3.945759 4.205865 3.699855 3.684339 2.542531 0.927814 0.281705 0.333411 0.265717 0.386099 0.432426 0.512198 0.588717 0.588061 0.569083 0.584177 0.515704 0.405715 0.156515
<MIXTURE> 2 0.486416
<MEAN> 39
1.277161 -3.047971 4.516882 -3.505152 -8.063954 -8.256887 -16.349549 -7.681068 -8.507144 -3.876584 -2.944719 -5.932161 54.827391 -0.242736 0.510299 -0.898317 0.026210 0.644112 0.879940 0.504643 -0.539402 0.225477 0.022303 0.085190 -0.230335 -0.955821 -0.189799 -0.019317 0.020007 -0.022147 -0.103181 0.007322 0.270357 0.095483 -0.047699 -0.014493 0.066392 0.038030 -0.040974
<VARIANCE> 39
23.262234 41.210701 57.696823 87.968709 60.517947 114.004692 105.857757 74.151009 69.084227 97.349285 139.831147 50.195631 79.622238 1.915023 1.879641 1.813001 2.832335 2.723210 3.279187 4.016437 3.852560 3.994487 4.128155 3.152424 2.482851 0.895147 0.196636 0.295500 0.252584 0.401025 0.428122 0.530950 0.577610 0.600061 0.611662 0.629093 0.543351 0.428463 0.137202
<TRANSP> 5
0.000000 1.000000 0.000000 0.000000 0.000000
0.000000 0.726174 0.273826 0.000000 0.000000
0.000000 0.000000 0.868485 0.131515 0.000000
0.000000 0.000000 0.000000 0.893588 0.106412
0.000000 0.000000 0.000000 0.000000 0.000000
<ENDHMM>
~h "sil"
<BEGINHMM>
<NUMSTATES> 5
<STATE> 2
<NUMMIXES> 2
<MIXTURE> 1 0.498950
<MEAN> 39
-8.757259 0.273305 0.830521 2.353029 -0.166164 -0.766534 0.537394 -0.313919 -2.147580 -2.162964 -1.150680 -1.040344 36.321405 -0.160571 0.530376 0.149228 0.214616 0.306152 0.331961 0.291694 0.333448 0.503762 0.415372 0.346656 0.219929 -0.450366 0.020534 0.051401 0.097759 0.057872 0.066972 0.059964 0.063134 0.060359 0.082108 0.091141 0.061395 0.018823 0.040317
<VARIANCE> 39
15.729647 39.350540 24.390230 20.944243 23.240348 24.112168 23.929323 25.934542 26.049940 28.094281 21.967063 19.293216 17.722278 0.391757 0.799147 0.857167 0.976954 1.167947 1.393109 1.559086 1.669985 1.780902 1.819105 1.615652 1.428180 0.276346 0.068325 0.134502 0.173882 0.206719 0.251881 0.299790 0.356328 0.373432 0.406076 0.411700 0.380620 0.334697 0.030436
<MIXTURE> 2 0.501050
<MEAN> 39
-9.824212 -2.628044 -0.655252 0.904702 -1.437181 -2.135511 -0.523938 -0.416931 -2.880967 -3.314433 -1.286008 -1.261171 37.037981 -0.238658 0.282883 -0.203171 -0.144529 -0.081371 -0.057395 -0.166467 -0.188419 -0.000692 -0.061820 -0.095606 -0.057636 -0.467492 -0.041508 0.012020 0.014137 -0.056932 -0.052641 -0.056660 -0.059398 -0.062054 -0.033755 0.004145 -0.015068 -0.039485 -0.001616
<VARIANCE> 39
13.354320 37.243979 22.259795 21.507990 25.516871 26.595384 25.728021 28.684192 28.249029 30.126927 23.911102 20.794961 20.447898 0.415813 0.795875 0.809777 0.966044 1.142294 1.343140 1.511728 1.620340 1.736866 1.804035 1.558568 1.392517 0.318285 0.064264 0.123134 0.165147 0.202374 0.256377 0.293906 0.347842 0.365725 0.398607 0.413226 0.372671 0.333695 0.030553
<STATE> 3
<NUMMIXES> 2
<MIXTURE> 1 0.509920
<MEAN> 39
-14.693070 2.088679 -0.001641 1.147908 -0.039074 -0.108483 1.100894 1.732118 2.612651 1.896584 2.173344 0.626595 29.998338 -0.068757 0.111390 0.189529 0.181147 0.198373 0.218753 0.217461 0.258705 0.347021 0.370637 0.296767 0.181372 -0.060891 0.073064 -0.041308 0.014011 0.027819 0.012891 0.012896 0.019015 -0.002431 -0.051553 -0.038222 -0.020745 -0.003562 0.108130
