~h "f"
<BEGINHMM>
<NUMSTATES> 5
<STATE> 2
<NUMMIXES> 2
<MIXTURE> 1 0.432822
<MEAN> 39
-16.432063 -5.340050 0.190300 2.395749 -0.473751 -0.061575 -1.754879 0.279230 0.136706 0.119249 0.388194 -1.655249 45.116063 -1.065673 -0.464552 -0.138086 0.241082 0.283431 0.621088 0.539017 0.617137 0.680175 0.654543 0.489229 0.286082 -0.244482 0.473749 0.022685 -0.112548 -0.335002 -0.245893 -0.208917 -0.179958 -0.170339 -0.244351 -0.133093 -0.092630 -0.071074 0.246240
<VARIANCE> 39
29.924836 23.709256 20.203669 17.527691 20.303320 20.360240 20.119447 20.410483 20.282719 20.547407 18.524566 15.654757 56.967412 3.236992 2.331318 1.988333 1.636033 1.743784 1.838305 1.956642 2.320437 2.552502 2.225013 2.091009 1.886655 2.408080 0.625381 0.424630 0.443529 0.516787 0.445155 0.422378 0.472567 0.498595 0.544939 0.472728 0.457830 0.388776 0.430135
<MIXTURE> 2 0.567178
<MEAN> 39
-19.288400 -7.805242 -1.688577 0.331409 -2.785629 -1.549629 -2.564344 0.066279 0.182286 0.572862 1.156108 -1.017894 46.652684 -0.190928 -0.653639 -0.660327 -0.597025 -0.475865 -0.345985 -0.447323 -0.392992 -0.271830 -0.170375 -0.071973 -0.027960 0.720131 0.733116 0.257012 0.114350 -0.095866 0.029561 -0.028050 -0.078714 -0.196088 -0.243738 -0.179384 -0.201969 -0.190975 0.275350
<VARIANCE> 39
15.467919 17.958005 13.665024 15.020363 15.562844 18.008312 17.980343 18.041345 18.093699 16.963156 14.660788 12.619904 43.558060 1.717057 1.462348 1.323854 1.399490 1.488220 1.507583 1.591637 1.726954 1.797508 1.656280 1.488577 1.374751 2.426274 0.581012 0.304675 0.310827 0.403253 0.343613 0.362255 0.404143 0.441024 0.470035 0.396771 0.386335 0.331654 0.433196
<STATE> 3
<NUMMIXES> 2
<MIXTURE> 1 0.542680
<MEAN> 39
-14.705611 -7.907293 -2.439926 -0.614237 -1.729544 -0.705236 -2.774720 -1.317539 -0.973832 0.516294 0.639028 -1.887760 51.983038 4.966788 1.363377 0.357233 -2.090474 -1.131547 0.511013 0.158514 -0.109971 -0.732497 -0.817449 0.019636 -0.902735 1.506122 1.337275 0.299638 0.085524 -1.173389 -0.946556 0.233397 -0.119272 0.081674 -0.283234 -0.355507 0.119397 -0.429542 0.344272
<VARIANCE> 39
34.007887 15.363558 12.985456 14.027456 17.156972 17.950343 17.011114 15.686034 15.627664 14.348988 14.099340 11.627344 24.158060 4.786542 3.255848 1.994874 4.508273 5.022844 2.744465 2.225088 2.801645 2.694790 2.855044 2.749816 2.129794 3.322413 0.726987 0.777274 0.437492 0.567312 0.717146 0.664515 0.560932 0.658659 0.609460 0.553864 0.743766 0.409484 0.591676
<MIXTURE> 2 0.457320
<MEAN> 39
-15.623284 -7.452562 -1.827303 -0.925093 -3.336513 -2.426941 -3.733077 -1.559877 -1.043117 -1.193717 -0.178455 -1.944220 49.535894 5.380565 -0.144250 -1.568702 -3.565327 -1.167264 -0.742878 -1.418938 -1.772172 -2.085560 -1.131924 -2.154891 -1.689750 3.409397 1.139490 -0.163374 -0.417275 -1.276860 -0.180672 0.149330 -0.124555 -0.196459 -0.523821 -0.028827 -0.604698 -0.459371 0.496579
<VARIANCE> 39
28.206199 18.277313 13.313558 15.322903 16.170994 16.201951 16.524777 18.184141 18.156469 15.233082 15.145809 12.454542 39.923351 4.913521 4.703774 1.984708 5.801554 2.690959 2.744410 2.709644 2.850624 3.607114 2.735912 4.234875 3.016194 5.050494 0.736991 0.868864 0.377894 0.853550 0.609827 0.581881 0.590395 0.727489 0.646833 0.538196 0.762144 0.555032 0.770942
<STATE> 4
<NUMMIXES> 2
<MIXTURE> 1 0.513953
<MEAN> 39
4.428206 -15.085163 -6.061978 -16.205258 -5.365864 2.236549 -4.425686 -4.001167 -4.611067 -2.225836 -1.941507 -11.790643 65.665815 1.315674 -2.531618 -0.500429 -2.044364 0.383367 1.466936 0.197072 -0.268523 -0.210977 -0.525364 -0.238581 -1.268303 2.684114 -1.776917 0.361038 0.344152 1.271590 0.475236 -0.121945 0.192239 0.148341 0.397930 -0.007466 -0.003699 0.738972 -1.034554
<VARIANCE> 39
13.009426 34.238383 35.046255 43.359793 44.372244 62.390979 52.477239 61.591491 45.287747 51.957491 146.034402 46.058483 19.496683 5.771820 2.048801 1.770977 5.356460 4.278041 2.863354 3.031998 3.334380 3.197139 2.408359 4.650714 3.393922 2.367479 0.291471 0.429233 0.349294 0.492188 0.423078 0.512743 0.503063 0.539352 0.469131 0.543717 1.522812 0.561059 0.265560
<MIXTURE> 2 0.486047
<MEAN> 39
2.635923 -4.076094 -5.804438 -11.685006 -7.993245 -3.537917 -5.797632 -5.272745 -6.398893 -4.491246 -5.409004 -6.920566 56.752748 5.947576 -0.217435 -1.300562 -5.328701 -2.098407 0.368399 -0.858157 -0.733058 -2.000436 -1.026790 -1.592514 -2.028743 3.097289 -1.384630 -0.577897 0.179775 0.280998 0.237903 0.398422 0.206048 0.443488 0.340329 0.284528 0.414788 0.262556 -0.249523
<VARIANCE> 39
20.738452 47.394999 25.904386 40.006789 28.787901 25.337143 27.579775 33.945968 28.092893 26.927909 45.554155 22.560577 32.170306 2.797001 9.002118 4.709515 6.448286 8.871970 5.150455 4.716600 6.307199 5.967500 5.061509 10.270027 4.407048 3.886862 0.389009 0.333587 0.301243 0.671372 0.405856 0.368705 0.430170 0.449747 0.419012 0.422099 0.502335 0.398778 0.438199
<TRANSP> 5
0.000000 1.000000 0.000000 0.000000 0.000000
0.000000 0.869734 0.130266 0.000000 0.000000
0.000000 0.000000 0.628772 0.371228 -0.000000
0.000000 0.000000 0.000000 0.556496 0.443504
0.000000 0.000000 0.000000 0.000000 0.000000
<ENDHMM>
~h "k"
<BEGINHMM>
<NUMSTATES> 5
<STATE> 2
<NUMMIXES> 2
<MIXTURE> 1 0.546573
<MEAN> 39
-3.094617 -4.660001 12.124386 0.260877 -14.845729 -18.818782 -4.174009 -0.840976 -13.679999 -0.622915 0.812028 -4.431699 53.265037 -1.198345 4.082589 -1.254878 3.096308 2.925899 1.634285 0.279928 -0.844549 0.913990 -0.456709 0.365114 0.917735 -6.661838 -0.689989 -0.152380 -1.022529 -0.568628 0.741098 1.051706 -0.273045 0.050715 1.490006 -0.001324 -0.130304 0.312479 -0.360925
<VARIANCE> 39
12.973456 30.996924 36.742392 75.659865 59.631242 43.564811 73.820513 156.973316 69.105986 84.855887 97.405253 40.990252 52.621477 2.318122 3.299611 3.854695 4.939829 3.530632 4.820547 6.988844 7.098622 7.362851 7.401260 8.753446 4.465433 3.225121 0.269287 1.048432 0.543217 0.902803 0.775117 0.660700 0.833163 1.694602 1.058566 1.315963 1.259518 0.739917 1.270706
<MIXTURE> 2 0.453427
<MEAN> 39
-6.799504 5.180506 7.711845 3.613857 -8.737485 -12.839210 -5.840778 -6.901307 -8.878144 -3.219645 -1.153329 -3.177779 38.472493 -2.459745 0.948447 -3.311950 1.151950 3.702067 3.172745 -0.446749 0.830243 3.286899 -0.321268 0.898626 1.265359 -4.404409 -0.331804 -1.912601 -0.629705 -1.052685 -0.264524 0.017721 0.224599 0.797925 0.491430 0.537377 0.012995 0.027792 2.219773
<VARIANCE> 39
19.726857 30.580889 26.197497 37.806657 52.155104 32.600756 40.095990 64.872795 36.876364 41.118349 50.428024 39.956326 32.094914 2.185657 8.060156 3.519332 7.980513 4.355221 4.304328 5.844224 10.722602 6.148430 8.038438 9.225317 3.827200 8.692362 0.610081 1.129725 0.661519 0.697974 0.902574 0.815781 1.125447 0.998015 0.900992 1.120318 1.273591 0.938331 1.430973
<STATE> 3
<NUMMIXES> 2
<MIXTURE> 1 0.522949
<MEAN> 39
-13.464481 1.885337 0.825882 1.887047 -2.392218 -4.926910 -2.689006 -0.669977 0.497541 1.180379 2.682503 1.142654 32.618676 -1.133375 -2.184475 -2.783456 -0.122210 1.615798 1.740474 0.605943 1.252632 2.046800 0.490127 -0.011062 0.197093 1.019335 0.456104 -0.898387 0.129122 -0.177606 -0.813544 -0.974014 -0.102471 -0.061220 -0.745331 -0.223505 -0.397067 -0.551559 2.446944
<VARIANCE> 39
10.372403 27.045716 15.934189 14.990059 18.778835 25.299261 24.273395 22.622363 20.014794 20.281220 18.947255 17.279552 28.717491 3.396480 6.826663 4.434108 2.711975 3.471387 4.484296 3.698648 5.031381 4.571236 3.276587 3.976013 3.217381 10.708230 0.493414 1.295057 0.662907 0.623828 0.783736 0.816544 1.045939 1.055644 0.648717 0.707081 0.743279 0.525654 1.343429
<MIXTURE> 2 0.477051
<MEAN> 39
-10.522639 -9.184765 -7.473515 2.463075 -0.485462 -5.455366 -5.214617 0.764015 0.357961 -0.447066 -0.112210 -1.964574 46.575306 -1.496440 -2.382079 -2.260047 -0.318225 0.072115 -1.253350 -0.524767 0.704515 0.701821 -0.360972 -0.553020 -0.610496 5.823934 -1.106379 1.315978 1.274170 -0.048998 -0.596205 -0.660348 0.330524 0.132219 -0.391272 -0.254430 0.212078 0.201891 -0.041786
<VARIANCE> 39
21.123612 54.618480 51.591022 25.825676 32.139834 40.970325 37.136597 31.629925 30.353327 24.532970 20.392257 16.501989 87.178612 6.555633 5.036082 4.657773 4.788263 4.099463 4.817822 4.521575 3.831287 3.702077 3.210683 2.844514 2.548388 4.165913 0.749864 1.283797 0.953103 0.553630 0.733047 1.018460 0.850973 0.836706 0.847432 0.653237 0.594351 0.508909 2.198816
<STATE> 4
<NUMMIXES> 2
<MIXTURE> 1 0.501499
<MEAN> 39
-17.897503 -6.539676 -6.150746 1.149970 -0.459284 -11.227168 -5.423972 2.484003 2.005624 -0.973313 -0.097278 -2.043008 56.096684 -5.279304 2.256148 1.502286 -0.387902 -0.506212 -1.098995 1.645341 1.350650 0.438490 -0.660279 0.167167 0.727900 2.058028 -0.380914 1.237275 0.815515 -0.008166 -0.172211 0.701510 0.534011 -0.140894 -0.456767 -0.084950 0.200314 0.295880 -1.866715
<VARIANCE> 39
39.688032 22.581333 43.794649 33.974022 44.634182 36.232059 37.827505 29.184336 29.866338 23.273321 18.205496 16.256323 20.850714 2.246085 3.311416 3.191793 2.915612 3.924395 3.679680 2.700188 2.716453 2.904020 2.465557 2.581832 1.843990 3.591376 0.843349 0.617577 0.649263 0.524939 0.491146 0.671819 0.693328 0.626810 0.624797 0.580180 0.424835 0.423733 0.495613
<MIXTURE> 2 0.498501
<MEAN> 39
-26.678833 -4.300579 -2.524116 2.301125 -3.482983 -11.098808 -1.136710 5.758151 2.410390 -3.057160 0.037569 0.064163 55.364135 -4.036378 2.098608 0.745701 -0.543429 -0.656640 0.631789 1.653925 0.677585 -0.612396 -0.716214 0.270298 0.656511 -0.006239 1.031078 0.169113 -0.217787 -0.164596 0.212862 0.774383 -0.204211 -0.609977 -0.500686 0.210507 0.114832 -0.125714 -1.130691
<VARIANCE> 39
21.889627 18.049412 31.532443 32.782729 54.745656 36.062116 42.125091 26.140065 26.835250 20.244027 26.811518 17.367621 19.150222 2.197027 2.347482 2.553733 1.828129 2.658566 2.800730 2.464663 2.650872 2.786286 2.208886 2.288801 1.643490 1.871207 0.463475 0.412066 0.425869 0.329669 0.569083 0.450808 0.523486 0.466369 0.515103 0.425055 0.457987 0.411625 0.405747
<TRANSP> 5
0.000000 1.000000 0.000000 0.000000 0.000000
0.000000 0.728503 0.271497 0.000000 -0.000000
0.000000 0.000000 0.768348 0.231652 0.000000
0.000000 0.000000 0.000000 0.594205 0.405795
0.000000 0.000000 0.000000 0.000000 0.000000
<ENDHMM>
~h "n"
<BEGINHMM>
<NUMSTATES> 5
<STATE> 2
<NUMMIXES> 2
<MIXTURE> 1 0.511042
<MEAN> 39
3.851720 -3.690023 9.814475 2.280256 -9.859850 -4.637440 -4.076191 -7.237811 -9.804960 -1.867055 -2.710231 -8.470611 55.428612 0.071327 1.134310 -0.035093 0.806476 0.392251 -0.196360 0.726519 -0.818810 -0.606778 0.465083 -0.367906 0.018185 -1.042860 -0.174469 -0.075317 -0.205947 -0.164453 0.253800 0.092076 -0.113767 0.366337 0.317385 -0.195200 -0.114167 0.125999 0.048438
<VARIANCE> 39
9.119711 33.767176 29.490779 58.022484 48.175850 43.094276 54.956955 85.027315 53.209264 60.932884 66.730629 44.923429 36.157079 0.580900 1.769493 1.657289 2.600020 1.979851 2.116041 2.654157 4.120382 3.275203 2.933920 2.235857 1.846074 1.105512 0.135294 0.277835 0.360590 0.556290 0.423748 0.438847 0.557968 0.782309 0.635540 0.499448 0.467677 0.356978 0.173225
<MIXTURE> 2 0.488958
<MEAN> 39
2.103493 -1.586007 6.604043 -8.401201 -14.440605 -9.265114 -5.457603 -16.322671 -14.663269 -6.100525 -13.123487 -4.809269 53.016110 0.556268 1.247743 0.021974 0.875146 -0.217759 -0.187116 -0.131184 -1.334823 0.000930 0.143388 -0.258601 0.009018 -0.909576 -0.221777 -0.246859 -0.170187 0.139893 0.376251 -0.031646 -0.101828 0.607905 0.045462 -0.237899 0.224729 -0.064153 0.120168
<VARIANCE> 39
14.391815 46.833800 27.413475 76.144307 42.037668 61.568055 60.692036 81.686027 74.610433 65.292442 53.918256 46.501407 42.205484 1.662683 2.419010 2.178508 3.498031 2.838384 3.647640 2.795343 4.969325 3.341574 3.659539 3.040269 2.507713 2.113074 0.256013 0.351417 0.440062 0.788368 0.536566 0.739377 0.567598 1.021009 0.663433 0.638801 0.538496 0.495156 0.203811
<STATE> 3
<NUMMIXES> 2
<MIXTURE> 1 0.539860
<MEAN> 39
3.197656 1.347406 9.238604 4.933299 -7.407370 -6.418677 -2.280847 -9.488656 -11.538178 -0.578935 -5.389205 -8.138003 50.749840 -1.346709 0.013966 -0.337460 -0.228111 1.426357 0.657754 -0.252596 1.375255 1.096531 -0.641545 0.177327 0.431041 -0.236740 -0.757084 -0.690192 -0.424102 -0.714735 0.197698 0.349429 -0.278470 0.846250 0.813925 -0.267986 0.186027 0.252693 0.330252
<VARIANCE> 39
14.986647 33.323431 23.493868 39.628561 47.452674 45.575869 51.898105 55.361681 59.515995 69.630201 59.646750 35.611132 37.864203 4.121588 5.215574 2.647809 4.670999 4.899253 3.987988 5.195289 5.656769 5.291241 4.217168 4.319613 3.251217 5.012756 0.529171 0.512263 0.487621 0.533455 0.807363 0.687690 0.801093 0.750203 0.861501 0.929794 0.712996 0.490112 0.350089
<MIXTURE> 2 0.460140
<MEAN> 39
2.934920 1.031555 6.766913 -4.551887 -14.944076 -11.146753 -6.580388 -18.098448 -13.959541 -6.955664 -13.210486 -3.363710 50.730772 -0.971927 -0.862104 -0.253139 0.115890 1.443071 0.171937 -0.475434 2.343708 -0.010246 -0.803108 0.680732 -0.456726 0.635664 -0.755986 -0.728409 -0.463434 -0.242525 0.659333 0.420581 0.078517 1.270883 0.301158 -0.057038 0.496575 -0.075000 0.317238
<VARIANCE> 39
10.578171 36.195671 20.404808 41.148637 36.642693 59.186277 61.158462 65.118403 67.681915 67.605757 50.577073 47.187821 28.705249 3.210617 5.088205 2.346670 5.484170 4.955762 5.169201 4.739217 9.109841 4.563514 4.529031 4.335633 3.477182 4.368639 0.448908 0.443848 0.406198 0.550065 0.695964 0.776853 0.860156 1.038898 0.855959 0.946480 0.705405 0.696828 0.344820
<STATE> 4
<NUMMIXES> 2
<MIXTURE> 1 0.589440
<MEAN> 39
-7.076909 0.020010 4.314817 3.129470 -2.095744 -3.025546 -1.108672 -2.883647 -5.974134 -4.788596 -3.963378 -3.564320 42.974918 -2.169022 -0.488449 -1.241351 -0.315135 0.704098 0.735769 0.516977 1.367142 1.605511 0.622965 1.139902 0.751087 -0.926213 0.162693 -0.147154 -0.010412 -0.292268 -0.381912 -0.196831 -0.112911 -0.208957 -0.069357 0.172092 -0.030378 0.017373 0.373309
<VARIANCE> 39
32.087122 34.947264 33.827836 36.987380 41.703631 34.598487 43.849924 65.327124 61.483954 53.161619 40.650249 36.079780 51.986746 5.171582 3.675164 2.942314 3.488343 4.077707 3.577286 4.011466 5.461743 5.161805 4.748638 4.422450 3.017497 3.231989 0.474353 0.682496 0.538087 0.597770 0.645859 0.591824 0.741622 0.730421 0.833091 0.772095 0.669686 0.580111 0.668681
<MIXTURE> 2 0.410560
<MEAN> 39
-0.082442 -10.912432 5.111832 -8.091286 -7.889687 -6.665930 -9.034021 0.801491 -7.962267 -7.979312 -7.960732 -5.662806 60.062649 -0.869285 -2.141800 -1.826384 -1.300883 1.393385 1.269674 -0.529631 2.529927 1.251234 -1.194080 0.110657 -0.046703 1.480592 0.098255 0.493602 -0.154964 0.567349 0.015919 0.125148 0.375819 -1.013005 -0.011967 0.297724 0.035708 0.008760 -0.487379
<VARIANCE> 39
22.082102 47.412578 39.745835 61.563738 47.787289 61.833921 59.698055 76.639911 107.388561 62.028005 50.637535 43.958422 59.066026 1.588120 4.529690 2.640588 5.053206 4.892363 4.938507 5.612473 7.804766 6.694178 4.718729 4.765682 3.679178 4.387742 0.202126 0.439327 0.481098 0.677427 0.647048 0.794496 0.945346 1.120111 0.967101 0.673841 0.656757 0.526245 0.365932
<TRANSP> 5
0.000000 1.000000 0.000000 0.000000 0.000000
0.000000 0.752230 0.247770 0.000000 -0.000000
0.000000 0.000000 0.583053 0.416947 -0.000000
0.000000 0.026108 0.000000 0.670444 0.303448
0.000000 0.000000 0.000000 0.000000 0.000000
<ENDHMM>
~h "r"
<BEGINHMM>
<NUMSTATES> 5
<STATE> 2
<NUMMIXES> 2
<MIXTURE> 1 0.519960
<MEAN> 39
6.577287 -12.364027 3.969279 0.548839 -8.331617 -10.975928 -20.926324 2.423640 -0.131846 -8.467365 3.646380 -1.477874 62.527146 0.682788 -0.667497 -1.148084 0.931922 1.117839 -1.063453 -1.378755 0.903089 1.177124 -0.157481 -0.602310 0.247705 -0.153000 -0.347590 0.475455 0.119516 -0.262313 0.039257 0.258602 0.558204 -0.263045 -0.245491 0.317870 -0.170594 -0.100431 -0.128320
<VARIANCE> 39
19.312478 27.954565 172.065169 58.744760 96.255706 71.556886 72.284442 62.449225 67.724425 64.645379 50.013905 32.556325 26.207623 1.625874 1.154968 7.848479 1.940153 6.385723 3.250305 3.572600 4.965878 3.519549 4.363584 2.979259 1.971990 0.823385 0.248269 0.189658 0.921973 0.357950 0.944167 0.533905 1.116246 0.565278 0.749686 0.624009 0.556132 0.339562 0.068647
<MIXTURE> 2 0.480040
<MEAN> 39
3.119004 -13.464251 2.586794 -8.698002 -12.431005 -24.250820 -8.634777 1.707610 -17.549168 0.303754 -6.057937 -8.228658 60.406633 1.042574 -0.918743 -2.111997 1.522944 1.646368 -2.210167 -0.796725 2.415727 0.408391 -1.249846 -0.244683 0.061467 -0.223652 -0.233067 0.437769 0.006889 -0.274227 0.131505 0.708613 -0.133319 -0.426567 0.448523 -0.046016 -0.177137 0.216885 -0.093018
<VARIANCE> 39
14.709490 23.019904 126.592600 33.012538 82.962410 68.715182 69.174646 52.981626 42.238496 42.961609 39.529304 27.149128 18.527140 1.121269 0.961623 5.821627 2.011084 4.116113 2.839647 3.543352 2.347981 4.021722 2.606946 2.487031 1.738938 0.668931 0.265192 0.170714 0.879945 0.274794 0.893687 0.590748 1.110848 0.460069 0.540976 0.563230 0.474846 0.326152 0.065647
<STATE> 3
<NUMMIXES> 2
<MIXTURE> 1 0.538490
<MEAN> 39
9.474231 -11.181981 -5.463128 -1.419779 -1.666069 -8.766548 -23.799224 1.753397 3.761986 -4.103054 2.091671 -1.583641 61.553460 -0.066561 -0.015586 -0.289953 -0.265413 -0.085947 0.270510 0.524496 0.356599 -0.123493 0.289187 0.212729 -0.231499 0.012629 -0.265468 0.050076 0.523774 -0.116891 -0.409423 0.079575 0.611871 0.012822 -0.402304 -0.078687 0.198990 -0.098749 0.025217
<VARIANCE> 39
9.455364 30.281755 85.403234 54.277601 73.907017 62.953363 82.624115 94.364866 59.224582 55.489151 47.802778 34.973635 24.796038 0.843452 1.046040 5.345013 2.244814 4.084501 2.937601 3.618486 3.235555 3.055738 3.280456 2.709798 1.731836 0.655879 0.087447 0.201298 0.188434 0.268170 0.298724 0.378378 0.526754 0.548359 0.439973 0.394679 0.307777 0.286000 0.089137
<MIXTURE> 2 0.461510
<MEAN> 39
6.618956 -13.918409 -7.373044 -5.902182 -4.838882 -24.408820 -13.890647 5.609981 -12.642431 -3.073136 -7.833624 -8.401414 58.771511 -0.174996 -0.416744 0.105652 -0.020959 -0.339435 -0.001697 0.626679 0.701546 -0.252555 -0.316605 -0.309979 -0.035620 0.218144 -0.330007 0.159224 0.638604 -0.251473 -0.529354 0.549136 0.568717 -0.524301 -0.238677 0.214890 0.112286 -0.051745 0.029926
<VARIANCE> 39
7.307533 25.747720 62.990960 28.782879 59.926349 61.756469 61.127548 60.671135 42.716821 45.724665 42.324303 26.153696 18.161485 0.887184 1.038310 5.664421 1.351463 4.859705 3.192532 4.297100 2.762734 3.730390 2.836434 2.117282 1.690744 0.771211 0.089911 0.240027 0.242044 0.203710 0.348995 0.545315 0.401240 0.667168 0.375139 0.401110 0.357102 0.272034 0.101275
<STATE> 4
<NUMMIXES> 2
<MIXTURE> 1 0.476921
<MEAN> 39
1.187053 -6.350450 -3.961110 0.612866 -0.003400 -7.234070 -9.936066 1.562464 -3.156890 -4.886855 -4.175760 -4.444493 52.075824 -2.765085 1.158287 2.361508 1.503017 -0.060075 0.948184 2.321910 -0.568321 0.560168 0.073062 0.158359 0.505854 -1.897058 -0.404431 0.100834 -0.195000 -0.355376 0.001763 0.323900 0.215000 0.034296 -0.055523 0.228247 0.355476 0.076543 -0.072772
<VARIANCE> 39
50.276819 40.176469 71.800799 68.082984 102.544265 87.902264 106.712811 79.544937 91.801648 63.909826 56.747890 41.558369 81.936511 4.492783 5.513057 5.339728 5.398143 5.699842 6.223527 6.731235 6.525183 6.794086 5.602517 5.211553 3.630981 3.210450 0.819171 0.915979 1.022829 0.882420 1.056290 1.047403 1.329448 1.079271 0.974984 0.959332 0.727602 0.631846 0.637263
<MIXTURE> 2 0.523079
<MEAN> 39
3.965281 -14.642237 3.241800 -3.197158 -11.711110 -18.818803 -11.114577 5.603613 -11.225394 -5.487102 -0.697429 -4.978446 61.662462 -1.390667 0.466457 2.828629 -1.395596 -2.365765 1.427979 2.485142 -1.436441 -1.782986 0.889378 0.604665 -0.766215 0.263361 -0.036302 0.571091 -0.178590 -0.359026 0.455592 0.759195 -0.450161 -0.947994 0.482632 0.432116 -0.369669 -0.141286 -0.234880
<VARIANCE> 39
17.499620 28.858450 106.084550 65.351643 70.298383 115.033428 93.431905 59.589371 114.726186 74.765016 87.424060 43.272392 32.551068 0.805690 1.369160 4.079453 2.006744 4.109139 3.104107 3.601773 4.588056 4.213041 4.233450 3.207687 2.403008 0.665229 0.107119 0.219948 0.309083 0.303685 0.453064 0.683275 0.576818 0.644383 0.653599 0.500989 0.440419 0.347967 0.068678
<TRANSP> 5
0.000000 1.000000 0.000000 0.000000 0.000000
0.000000 0.479407 0.520593 0.000000 -0.000000
0.000000 0.000000 0.756967 0.243033 -0.000000
0.000000 0.000000 0.000000 0.638303 0.361697
0.000000 0.000000 0.000000 0.000000 0.000000
<ENDHMM>
~h "s"
<BEGINHMM>
<NUMSTATES> 5
<STATE> 2
<NUMMIXES> 2
<MIXTURE> 1 0.325534
<MEAN> 39
-17.864948 5.236785 3.922551 1.190783 -1.579289 -7.229261 -2.999772 -3.775234 -5.447523 -5.686375 -2.548457 -4.040733 54.915062 -5.504127 0.683312 -2.225397 0.206485 1.851616 1.879969 2.421324 2.119123 1.857599 0.965140 1.704245 0.911475 -0.161090 0.496060 -0.801761 -0.576156 -0.636939 -0.574001 0.063953 -0.338592 0.103259 0.093188 0.527313 0.100278 0.154718 -0.061968
<VARIANCE> 39
51.604739 36.623095 72.719528 36.355299 63.756187 60.302480 49.835528 59.707789 47.906053 38.962068 30.884696 24.494378 38.668472 5.420969 5.090183 6.353078 7.316137 4.838449 6.074581 5.673057 4.946807 4.704491 4.954313 5.494056 3.155454 2.152185 1.031629 0.808944 1.077043 0.764715 0.983754 1.061906 1.084712 1.017582 0.886040 0.910668 0.821747 0.630334 0.248738
<MIXTURE> 2 0.674466
<MEAN> 39
-24.963491 0.937173 -2.531917 -2.139069 -1.142342 -4.922804 0.538567 1.984948 -0.504771 -1.296710 1.439684 -0.761999 51.417933 -2.481069 0.403355 -1.454112 -0.667282 0.071448 0.475946 0.355134 0.232371 0.235839 0.404753 0.493033 0.306575 0.595885 0.900761 -0.062354 0.086711 0.163544 -0.120784 -0.038109 -0.397915 -0.358901 -0.197921 -0.018294 -0.235660 -0.159152 -0.213450
<VARIANCE> 39
39.126189 32.187699 49.738288 46.083878 57.494597 38.309569 37.306883 34.915349 26.837420 25.078931 25.028739 19.074558 48.432076 2.943683 3.032618 3.343313 3.354399 2.560769 3.308075 2.745676 3.099153 3.177988 2.800911 2.365151 2.063182 3.487992 0.844205 0.540820 0.640131 0.548207 0.688561 0.646305 0.646442 0.599002 0.584730 0.557040 0.541615 0.408058 0.318579
<STATE> 3
<NUMMIXES> 2
<MIXTURE> 1 0.507192
<MEAN> 39
-29.744340 1.795844 -4.649528 -4.193814 0.454283 -5.421856 -0.712409 2.089768 -0.872452 -1.004292 0.822838 -0.283196 54.426395 -0.027465 0.101952 -0.151380 -0.009169 0.121745 0.215077 0.148840 -0.002041 0.076824 0.208240 0.033056 0.028316 0.035413 0.516852 -0.111454 0.286188 0.129719 -0.032840 -0.049650 -0.039856 -0.013191 0.041698 0.003601 -0.057078 -0.103856 -0.023300
<VARIANCE> 39
14.519019 21.055104 40.489517 51.621882 46.955887 34.952723 29.600994 28.982609 20.877447 19.291143 18.713918 14.950863 22.874907 0.792780 1.000781 1.069962 1.129928 1.330952 1.592573 1.423125 1.578633 1.539102 1.490208 1.382631 1.319908 0.471945 0.322152 0.209324 0.243427 0.251573 0.273038 0.286240 0.319478 0.322014 0.306133 0.312414 0.285987 0.286490 0.099534
<MIXTURE> 2 0.492808
<MEAN> 39
-27.903407 1.653635 -8.749227 1.780460 -4.085853 -1.279720 0.584603 0.489994 0.039403 -0.065235 2.638564 -0.990615 51.478974 0.058407 -0.203028 -0.152479 -0.281951 -0.254873 0.036206 -0.209406 -0.186312 -0.099560 -0.045562 -0.136620 -0.027199 0.150368 0.624063 -0.043770 0.378666 -0.159854 -0.161519 -0.397304 -0.195087 -0.222119 -0.175776 -0.220801 -0.206163 -0.090619 0.159981
<VARIANCE> 39
12.491675 22.122048 28.832250 40.199153 40.027464 28.732115 20.633193 21.201871 18.295732 17.530284 16.814489 13.829957 23.742357 0.723685 0.927811 1.113392 1.227162 1.352366 1.570832 1.557180 1.589594 1.622889 1.587619 1.454721 1.383216 0.654361 0.369323 0.225025 0.271440 0.272997 0.320790 0.377831 0.365562 0.367041 0.390898 0.351661 0.330666 0.302574 0.137680
<STATE> 4
<NUMMIXES> 2
<MIXTURE> 1 0.556101
<MEAN> 39
-18.786482 -2.094982 -0.692105 -2.958356 -0.550019 -6.985124 -2.392696 2.211571 -0.159281 -1.057366 -0.684853 -1.396581 47.573075 2.095249 -0.340510 0.543924 0.473779 -0.052630 0.465909 -0.214487 -0.184542 0.128843 0.421855 -0.096906 -0.188528 -1.477860 0.101756 0.017711 -0.041389 0.138748 -0.087426 0.194897 0.046654 -0.023730 0.033214 0.021911 0.073096 -0.058721 -0.020842
<VARIANCE> 39
73.745043 34.099907 31.833595 39.171417 53.570967 51.991157 50.297875 41.917813 40.630768 37.646328 31.406123 32.092688 82.195246 5.606613 3.207546 3.035302 2.998159 4.219046 4.567138 4.130624 3.883594 3.642085 3.297812 2.961650 2.925658 3.981352 1.364814 0.627281 0.550088 0.562825 0.795917 0.805708 0.905319 0.787709 0.756957 0.688536 0.595030 0.614625 0.741260
<MIXTURE> 2 0.443899
<MEAN> 39
-25.206750 1.332997 -6.325743 -0.151155 -3.685490 -2.485900 0.975874 -0.170858 -0.508692 -0.949808 1.978950 -0.881994 52.590595 3.649723 0.057760 1.923104 -0.862259 -1.433963 -1.820112 -1.073750 -1.253465 -0.939541 -0.847952 -1.174433 -0.615881 0.927494 1.490262 -0.528015 0.671807 -0.507378 -0.794296 -1.013985 -0.760849 -0.233669 -0.278969 -0.115585 -0.567380 -0.166615 0.543200
<VARIANCE> 39
41.164225 21.699931 33.947353 37.993252 40.095052 38.525695 22.531135 24.736684 21.141262 20.325626 21.684153 16.352990 39.996819 4.769225 2.746276 2.535478 3.250883 3.638344 4.078893 3.485093 3.075263 2.840388 2.517401 2.639946 2.159877 2.168543 0.649300 0.467046 0.503275 0.631210 0.583765 0.734596 0.599629 0.633129 0.624960 0.577917 0.637769 0.473270 0.456197
<TRANSP> 5
0.000000 1.000000 0.000000 0.000000 0.000000
0.000000 0.659688 0.340312 0.000000 -0.000000
0.000000 0.000000 0.824218 0.175782 -0.000000
0.000000 0.024190 0.000000 0.636077 0.339734
0.000000 0.000000 0.000000 0.000000 0.000000
<ENDHMM>
~h "t"
<BEGINHMM>
<NUMSTATES> 5
<STATE> 2
<NUMMIXES> 2
<MIXTURE> 1 0.513053
<MEAN> 39
-10.060832 3.705652 6.857904 2.895712 -3.628800 -5.154297 -5.286058 -4.431788 -3.945021 -2.649715 -0.839840 -1.860368 37.377640 -2.309117 -0.047795 -2.250351 0.078116 2.110710 1.696210 1.743723 1.664782 2.265987 1.290047 1.049698 1.042155 -2.616029 0.055590 -0.777926 0.045428 -0.870898 -0.475610 0.024359 -0.026077 0.148708 -0.085608 0.295358 0.054250 -0.082893 1.332921
<VARIANCE> 39
32.619447 37.137311 46.964383 39.679034 46.545521 34.888816 33.304231 33.994409 34.178721 32.113340 28.138447 24.864636 57.278371 4.353668 6.927069 6.666141 5.612727 5.624852 3.928536 4.313477 5.415572 5.118620 4.396024 5.268335 2.988360 9.948550 0.535064 1.135273 1.329269 0.835267 1.189268 0.887252 0.731306 0.795313 0.817910 0.818575 0.871898 0.580798 1.912454
<MIXTURE> 2 0.486947
<MEAN> 39
-5.067152 6.361671 8.233653 2.741362 -7.280113 -8.635689 -7.194098 -8.416608 -8.579607 -5.763907 -4.905397 -4.920475 38.925254 -1.521268 0.554719 -2.930335 1.083771 2.553902 1.042513 0.688515 0.965619 1.180635 -0.449625 0.549744 0.054350 -2.632928 -0.613235 -1.104744 0.181366 -1.174879 -0.302581 0.358789 0.128236 0.374457 0.318096 0.801463 0.366734 0.360807 1.291258
<VARIANCE> 39
20.964210 40.162096 40.492740 42.260926 51.934473 35.295155 39.329654 40.266000 40.091679 47.048884 38.100428 36.536739 35.657640 3.893354 7.956782 6.803746 8.264054 6.037699 4.289873 4.482437 5.809622 5.199893 6.332136 5.933423 3.864209 11.344556 0.502590 1.139477 0.936589 0.902007 1.110327 0.804354 0.955594 0.918353 0.998895 1.068379 0.992118 0.741538 1.498019
<STATE> 3
<NUMMIXES> 2
<MIXTURE> 1 0.544204
<MEAN> 39
-14.932171 1.849323 1.176976 1.299738 -0.438678 -0.806582 -0.176190 0.588479 1.669191 1.668004 2.045160 0.232439 31.789407 -1.029777 -1.243441 -0.864930 -0.882177 0.353638 0.623323 0.892584 1.013424 0.977080 0.786173 0.633605 0.260231 0.971440 0.355752 -0.202534 0.527362 -0.439243 -0.602998 -0.560591 -0.407817 -0.556831 -0.749188 -0.365786 -0.355782 -0.316222 1.735059
<VARIANCE> 39
8.366320 13.558868 11.949582 13.969087 16.408358 16.814993 17.042133 16.578647 17.452017 16.121487 14.533846 13.851253 30.174296 2.624136 3.656148 2.635239 3.135447 2.779190 2.825105 3.224950 3.472144 3.395057 3.114163 2.815795 2.351266 10.714805 0.486736 0.626926 0.599726 0.563527 0.613367 0.503843 0.545259 0.647543 0.631708 0.535287 0.541299 0.408598 1.675443
<MIXTURE> 2 0.455796
<MEAN> 39
-14.673815 -4.242156 2.115945 -4.167220 -1.556678 -1.665366 -2.377934 -0.758260 -0.767144 0.441092 1.248616 -1.204037 44.036084 -1.355346 -1.561322 -0.250776 -2.639895 -0.868426 -0.921233 -0.285958 -0.102610 -0.965584 -0.051226 0.297554 -0.176987 6.518965 -0.160110 0.763063 0.435289 0.292822 -0.374166 -0.392071 0.215699 0.000854 -0.321076 -0.064012 -0.032964 0.011755 0.261003
<VARIANCE> 39
26.137575 46.729339 28.305161 44.917678 33.390676 31.038525 28.613508 31.749074 32.060773 22.275091 19.279342 16.979425 146.970513 3.952594 4.356858 3.636193 3.406607 3.487221 3.508093 4.132357 3.822898 3.625394 3.434247 2.964934 2.636550 10.273660 0.507963 0.945651 0.674799 1.036737 0.708625 0.659607 0.754357 0.761123 0.685674 0.636769 0.545740 0.416837 3.077993
<STATE> 4
<NUMMIXES> 2
<MIXTURE> 1 0.478152
<MEAN> 39
-21.614583 -1.129244 1.962923 -8.164844 -3.706728 -5.501956 -0.196571 0.220303 -3.174520 0.973000 3.228850 -0.761561 58.519909 -1.274477 0.819424 1.005408 0.455377 -0.756335 -0.646641 1.329273 0.763010 -0.307722 0.110063 0.389874 0.320517 1.378097 0.993506 0.085346 0.444202 1.019014 0.004528 0.246969 0.015359 -0.025382 0.119435 -0.179432 -0.299065 -0.052200 -1.960635
<VARIANCE> 39
27.987976 27.640105 40.060578 25.874056 25.011035 25.992373 34.892755 34.699244 24.825435 28.494666 21.100215 19.516885 37.645246 3.792642 3.221982 2.994616 3.815148 2.676817 3.446440 2.867590 3.209435 3.062701 2.695065 2.196388 1.939895 9.830307 0.708024 0.839741 0.682048 0.690569 0.602356 0.557893 0.731587 0.639482 0.623371 0.548783 0.522830 0.447564 1.050855
<MIXTURE> 2 0.521848
<MEAN> 39
-17.701546 -2.211980 5.319063 -4.251039 -5.887133 -4.729660 3.048092 0.446081 -3.292499 0.923418 2.121447 -0.684329 51.691657 2.079280 -0.537969 1.114895 0.817025 -1.037875 -0.420828 -0.234957 -0.450468 -0.812778 -0.831516 -0.928438 -0.329048 -0.403613 0.922594 -0.066996 0.068379 -0.120188 -0.261613 -0.343709 -0.943133 -0.497296 -0.353419 -0.327483 -0.412187 -0.241524 0.064385
<VARIANCE> 39
61.003059 27.563640 30.573060 34.759435 36.543260 32.310130 39.921675 50.304375 36.790947 34.781245 28.790455 23.643619 98.547731 4.047024 2.338113 3.599428 3.762771 3.479325 3.186012 3.484285 3.855351 3.577647 3.195559 2.828942 2.212836 3.833993 1.030236 0.615717 0.513384 0.571953 0.758575 0.853034 0.846222 0.738109 0.777899 0.690532 0.759917 0.476830 0.847419
<TRANSP> 5
0.000000 1.000000 0.000000 0.000000 0.000000
0.000000 0.588602 0.411398 0.000000 0.000000
0.000000 0.000000 0.682031 0.317969 -0.000000
0.000000 0.032820 0.000000 0.707796 0.259384
0.000000 0.000000 0.000000 0.000000 0.000000
<ENDHMM>
~h "v"
<BEGINHMM>
<NUMSTATES> 5
<STATE> 2
<NUMMIXES> 2
<MIXTURE> 1 0.491949
<MEAN> 39
1.785260 -15.731975 2.690290 -9.747592 -9.079998 -5.761465 -9.397612 5.695446 5.098500 -0.275933 -3.631543 -13.244716 68.512715 0.578299 0.325800 0.071052 0.485085 0.181714 -0.018437 -0.623689 -0.748296 -0.461077 0.596546 1.117795 0.004483 -0.823260 0.020943 0.532772 0.050626 0.403748 0.345306 0.053093 -0.193987 -0.654057 -0.433001 0.107009 0.329305 0.292885 -0.565085
<VARIANCE> 39
12.212573 21.799667 37.833073 28.306484 35.967373 46.682831 47.009263 56.702181 56.162450 59.502836 59.310935 39.318338 25.582768 0.298811 1.110225 0.855939 0.926145 0.970930 1.729875 2.285482 2.226112 1.475398 1.695782 2.120939 1.634948 0.795956 0.082950 0.158051 0.177951 0.189973 0.271079 0.269050 0.278747 0.295462 0.276280 0.294626 0.312249 0.222387 0.115767
<MIXTURE> 2 0.508051
<MEAN> 39
-2.190774 -16.291521 -1.122186 -15.762892 -12.418510 -11.095169 0.897354 -0.137935 -9.555457 -10.342819 -14.302920 -4.603067 66.481685 0.480026 0.193671 0.102655 0.343949 0.157979 -0.435150 -0.611904 -0.044941 0.310673 0.297041 -0.308282 -0.457877 -0.615052 0.089227 0.558723 0.102439 0.599906 0.167662 -0.202099 -0.735741 -0.400931 0.220942 0.237996 0.215827 -0.054468 -0.573088
<VARIANCE> 39
9.906727 22.711216 27.435665 33.130354 43.596067 38.906306 43.742575 45.541525 45.387600 37.201479 28.040432 27.423589 20.421946 0.321483 1.372402 0.784308 0.944569 2.020170 2.700710 2.498358 1.293947 1.757827 1.741479 1.029804 1.256201 0.828714 0.081832 0.169664 0.161511 0.344231 0.408254 0.343348 0.309490 0.350686 0.299871 0.300366 0.252242 0.273240 0.125885
<STATE> 3
<NUMMIXES> 2
<MIXTURE> 1 0.516068
<MEAN> 39
4.309981 -10.642166 3.233976 -3.762426 -6.178869 -6.583631 -12.502412 -0.304810 -0.089217 1.029712 3.100728 -10.222343 60.881322 -0.447310 2.922316 0.334601 2.301434 1.805124 0.758665 -0.018421 -2.417986 -1.772559 -0.010042 0.799544 1.279535 -3.097343 -0.687050 0.155031 -0.012970 -0.021883 0.148906 0.336842 0.729762 0.274344 0.110765 -0.401494 -0.663107 0.072842 0.021201
<VARIANCE> 39
8.966934 30.249779 30.943063 37.767813 31.140344 43.751000 34.875220 65.974892 44.782172 51.207942 54.132136 39.121969 35.053765 2.283820 2.363823 2.250291 2.100356 2.587616 3.476155 3.935909 3.325917 3.818956 3.058594 4.139876 2.528952 1.364575 0.344675 0.518290 0.256898 0.453142 0.514772 0.540045 0.458798 0.740129 0.564364 0.418504 0.426572 0.405522 0.460664
<MIXTURE> 2 0.483932
<MEAN> 39
0.787449 -10.736739 1.023112 -9.434452 -11.563078 -15.031653 -6.866036 -4.239918 -7.780731 -6.747211 -13.775705 -7.851199 58.397321 -0.370047 3.340939 1.294072 3.433786 1.605488 0.185881 -2.536371 -2.218614 -0.018562 0.403438 1.005595 -0.649219 -3.499100 -0.752067 0.141204 0.013058 0.299498 0.467660 0.799605 0.448532 -0.033623 -0.261833 -0.337880 0.392181 0.260847 -0.055682
<VARIANCE> 39
8.608275 36.493918 30.894029 43.907733 46.611539 33.526507 57.767258 44.922899 37.667054 42.921299 29.903112 30.499850 37.127290 2.241789 2.513485 2.140991 2.919166 3.478046 3.568673 3.849352 3.537475 3.220855 3.587385 2.587577 3.020430 1.328062 0.314642 0.709577 0.359313 0.929829 0.795506 0.515075 0.831943 0.771607 0.573755 0.552637 0.444615 0.443934 0.592263
<STATE> 4
<NUMMIXES> 2
<MIXTURE> 1 0.556431
<MEAN> 39
-8.807574 -2.502601 3.500914 2.405645 -1.281325 -3.106975 -2.051637 -1.553138 -3.148576 -3.473366 -2.304867 -3.479973 46.666719 -1.843157 0.300902 -0.163562 0.427839 0.799394 1.136947 1.033319 0.407269 0.392427 0.247372 0.454876 0.812595 -1.238844 0.261974 -0.521059 -0.268835 -0.551091 -0.439294 -0.246827 -0.070375 0.264254 0.168537 0.098205 -0.003911 -0.131438 0.497682
<VARIANCE> 39
54.927757 31.923341 27.072264 26.722436 29.313208 29.417810 38.540464 42.734435 40.699327 34.651259 32.967158 25.255748 45.664943 7.236614 4.585745 2.792976 3.744085 3.673959 3.768999 3.990277 3.977958 4.179158 3.800723 4.631154 2.676600 2.729384 0.907900 1.011560 0.575260 0.767874 0.661174 0.622813 0.793552 0.872738 0.773062 0.623255 0.616916 0.476356 0.626198
<MIXTURE> 2 0.443569
<MEAN> 39
-1.581428 -3.698609 2.866112 -1.191750 -5.016169 -7.844847 -10.880935 -8.213865 -6.926106 -4.369332 -4.740148 -8.381113 52.385250 0.155119 -0.328861 -0.224378 -0.762094 -0.865293 -0.295331 0.168359 0.669077 0.103533 -0.425858 -0.191423 0.152794 0.602898 0.247408 -0.907708 -0.182350 -0.999617 -0.556308 -0.209636 0.337622 0.872919 0.367170 -0.051748 -0.360908 0.050265 0.969726
<VARIANCE> 39
39.612193 28.291087 20.661508 26.343680 29.244348 48.218796 41.648844 43.743195 40.002193 58.298358 78.815279 30.975191 37.893701 2.815081 4.411448 1.929012 4.929854 3.018509 2.794036 3.060446 4.291542 3.343202 2.879606 2.642709 2.097226 3.758952 0.566574 0.877599 0.565097 1.013513 0.732191 0.673288 1.034413 0.941178 0.862448 0.838797 0.676674 0.712740 0.785511
<TRANSP> 5
0.000000 1.000000 0.000000 0.000000 0.000000
0.000000 0.740903 0.259097 0.000000 0.000000
0.000000 0.000000 0.653714 0.346286 -0.000000
0.000000 0.000000 0.000000 0.756668 0.243332
0.000000 0.000000 0.000000 0.000000 0.000000
<ENDHMM>
~h "w"
<BEGINHMM>
<NUMSTATES> 5
<STATE> 2
<NUMMIXES> 2
<MIXTURE> 1 0.531903
<MEAN> 39
6.631462 5.623238 2.674240 -9.456480 -13.318538 -3.209113 -3.653686 -3.094993 -6.131698 -3.182724 -1.032778 -7.239923 49.957486 0.853234 -0.395876 0.238409 -1.311470 -1.358358 -0.078687 -0.014966 0.618484 0.433106 0.212846 0.250339 -0.553593 1.235096 -0.249664 -0.433863 -0.197221 -0.154501 0.240272 0.353549 -0.022919 0.137090 0.016885 -0.150818 0.041291 0.040925 0.191935
<VARIANCE> 39
28.980572 32.029176 24.614787 51.768440 56.187933 33.101959 42.068320 45.265383 40.816617 39.738188 41.229815 31.394540 47.628966 2.976973 2.877025 1.590734 3.627512 3.969314 2.652609 2.720373 2.986221 2.731067 2.645936 2.253528 2.276070 2.945725 0.481271 0.407600 0.296685 0.558745 0.785236 0.500231 0.488777 0.510370 0.528826 0.554508 0.461966 0.427264 0.326980
<MIXTURE> 2 0.468097
<MEAN> 39
5.239604 4.762732 -3.118212 -12.309001 -11.048358 -7.707685 -8.637826 -10.005615 -11.708593 -6.572148 -9.731590 -7.983170 47.425455 1.368489 0.210238 -0.319352 -1.646842 -1.303915 -0.144366 0.024152 0.203061 -0.299842 -0.394882 -0.644594 -0.671366 1.066449 -0.314397 -0.518293 -0.041793 -0.150376 0.299366 0.244683 0.096716 0.367122 0.114846 0.247211 0.222568 0.151882 0.254821
<VARIANCE> 39
27.124254 31.709662 24.302434 65.621122 35.125659 31.936078 35.364599 42.176441 32.951597 30.048750 39.114273 27.624243 38.478642 4.473041 3.702320 2.551492 7.950446 3.984819 3.360783 4.264748 5.451829 4.644395 3.720925 3.956563 2.784966 4.055399 0.503306 0.531590 0.441456 1.026848 0.755878 0.692861 0.636210 0.769243 0.726449 0.616834 0.569164 0.477913 0.324036
<STATE> 3
<NUMMIXES> 2
<MIXTURE> 1 0.555000
<MEAN> 39
7.985401 -2.604464 1.669193 -16.728324 -16.894101 3.794097 -3.100088 2.344130 -3.119865 -7.384823 0.967531 -8.188318 59.841533 -0.242272 -1.411770 -0.927833 -1.064705 1.131908 1.928185 0.185238 0.445264 -0.070775 -1.254214 0.136125 0.561319 1.207198 -0.093989 -0.079143 -0.117277 0.305969 0.571726 0.083395 -0.227753 -0.460557 -0.238710 0.098795 0.096779 0.169340 -0.056129
<VARIANCE> 39
8.331867 29.498472 27.542276 49.646456 42.406669 57.232173 64.413460 71.711548 57.279948 52.405519 50.517698 42.467910 21.423910 0.274642 1.222380 0.949950 1.774095 2.604330 2.344228 2.236664 3.297718 2.557652 2.292027 2.082107 2.153540 0.545472 0.044756 0.133639 0.162618 0.255099 0.313731 0.440175 0.407641 0.407195 0.388424 0.611730 0.342825 0.377082 0.058301
<MIXTURE> 2 0.445000
<MEAN> 39
7.049324 -2.980014 -6.473488 -23.656672 -9.612650 -0.670885 -5.499866 -3.530904 -14.235330 -7.844703 -8.853619 -9.210573 57.186024 -0.468188 -2.346899 -1.145907 -0.999343 2.887905 2.114595 -0.432272 0.038368 -1.285602 -0.721402 0.855457 -0.050782 1.660005 -0.260046 -0.181846 0.210675 0.878864 0.601938 -0.238613 -0.635420 -0.550163 0.338814 0.204441 0.201663 -0.113121 -0.097467
<VARIANCE> 39
7.433908 28.029348 26.457215 42.946317 49.203383 52.141817 52.040387 53.315328 51.460073 53.073107 62.013466 31.076714 21.033432 0.404668 1.723129 1.085122 3.082761 3.060339 2.383734 3.423955 3.970266 3.064854 2.826870 2.819793 2.561674 0.697475 0.096261 0.228877 0.211682 0.442861 0.585246 0.699403 0.475749 0.516802 0.754993 0.608642 0.558255 0.480773 0.095268
<STATE> 4
<NUMMIXES> 2
<MIXTURE> 1 0.555760
<MEAN> 39
5.335343 -11.128450 -3.630635 -16.262810 -3.449297 10.674032 -8.486660 -2.822536 -5.386405 -7.995606 2.891918 -6.580942 65.039280 -0.430991 -1.051955 -0.087996 1.517684 1.452334 -0.537270 -1.698031 -0.734191 1.021655 1.119462 -0.107566 -0.864467 0.479576 0.011723 0.211460 0.257881 0.278572 -0.450050 -0.649395 -0.011602 0.386697 0.333084 0.124798 -0.449543 -0.338691 -0.165333
<VARIANCE> 39
8.989181 23.281654 23.461354 55.519046 44.082322 53.775653 82.768457 66.666693 83.761718 52.818109 65.314970 55.816181 25.207965 0.181145 0.582481 0.596167 0.948252 1.917063 2.143168 1.581695 2.129872 1.918469 1.792665 2.616445 1.846529 0.230022 0.029205 0.091786 0.096862 0.172738 0.195762 0.312200 0.265523 0.295239 0.396880 0.382476 0.303695 0.380436 0.032269
<MIXTURE> 2 0.444240
<MEAN> 39
3.325221 -12.992395 -8.881384 -19.418381 4.907970 0.864478 -14.533333 -7.098715 -12.234304 -7.662825 -6.250071 -12.835886 62.949436 -0.854446 -1.575206 0.527486 1.997819 0.971785 -1.408978 -1.752265 0.440193 2.030193 -0.385197 -1.211215 -0.582788 0.822347 0.005996 0.369413 0.380874 0.175600 -0.978157 -0.587779 0.491152 0.574211 0.062218 -0.416146 -0.486089 0.453219 -0.212805
<VARIANCE> 39
8.393456 24.841490 26.784374 47.933094 50.163948 43.810093 55.997218 50.494045 78.250188 56.273936 60.232955 36.221557 19.880651 0.290251 0.940923 0.789507 1.064491 3.651463 2.323830 2.592259 2.798584 2.272861 2.375651 3.249216 2.428426 0.339970 0.036042 0.123018 0.148195 0.274109 0.357389 0.449341 0.517727 0.375411 0.796586 0.341003 0.507935 0.411080 0.039112
<TRANSP> 5
0.000000 1.000000 0.000000 0.000000 0.000000
0.000000 0.821055 0.178945 0.000000 0.000000
0.000000 0.000000 0.803654 0.196346 0.000000
0.000000 0.000000 0.000000 0.809330 0.190670
0.000000 0.000000 0.000000 0.000000 0.000000
<ENDHMM>
~h "z"
<BEGINHMM>
<NUMSTATES> 5
<STATE> 2
<NUMMIXES> 2
<MIXTURE> 1 0.570122
<MEAN> 39
-9.843372 5.015697 7.300818 0.397715 0.405208 -7.871361 -6.925245 -2.099349 -2.982125 -2.367951 -3.074600 -3.795963 48.120924 -1.612261 2.025172 0.322762 -0.393881 1.305310 -0.749095 -0.119622 -0.182431 0.025666 0.049288 -0.325408 0.255998 1.560827 -0.228370 0.027962 -0.215055 -0.001584 -0.056132 0.127289 0.013701 0.066193 0.011845 -0.002251 0.157214 0.063582 0.047962
<VARIANCE> 39
57.791236 44.556333 54.325691 39.979992 45.628323 51.635962 70.088611 38.829737 30.395874 31.245172 26.878757 28.696792 109.405905 7.127816 4.259011 3.818167 3.176000 4.519466 4.121154 4.489083 3.580518 3.364490 2.838907 2.751401 2.532143 4.225809 0.654254 0.597456 0.566598 0.531497 0.654232 0.790670 0.693628 0.599883 0.539105 0.527061 0.504588 0.439666 0.533370
<MIXTURE> 2 0.429878
<MEAN> 39
-6.387659 6.085439 2.133742 0.402980 -11.223763 -15.190142 -9.598277 -10.212601 -9.924431 -10.318217 -8.389613 -4.204554 49.502665 -1.518003 2.774578 -1.067989 1.937499 0.258886 0.054722 -0.142051 -0.855684 -0.289511 -1.690913 0.237004 -1.360370 0.890134 -0.597923 -0.125970 -0.215544 0.026928 0.380288 0.656755 0.335424 0.432673 0.203596 0.497164 0.211584 -0.112961 -0.087173
<VARIANCE> 39
30.911363 39.511472 34.281484 41.229954 47.300587 54.926207 36.475870 36.691049 37.624577 33.818951 33.283779 37.670865 72.430956 7.658011 5.138260 4.118706 4.482870 5.399439 5.352188 4.720075 4.572656 4.895062 4.337740 4.664137 3.136962 4.795899 0.490818 0.731698 0.676488 0.533122 0.688440 0.670420 0.591507 0.701926 0.796702 0.646922 0.598240 0.689957 0.435817
<STATE> 3
<NUMMIXES> 2
<MIXTURE> 1 0.491147
<MEAN> 39
-15.977759 12.913336 8.329287 -0.265325 5.351738 -10.490801 -8.956002 -3.067893 -2.726045 -1.912773 -3.622843 -2.453673 57.598125 -2.197290 1.036791 -0.180548 0.037059 1.118232 0.629092 0.659320 0.582886 0.153923 0.067805 0.038078 0.304982 0.124243 0.546753 -0.744422 0.162311 0.019582 -0.499025 0.175575 0.030334 0.002380 -0.186570 -0.081554 0.069454 -0.153902 -0.035673
<VARIANCE> 39
27.519836 26.678152 40.252944 41.291832 37.343855 48.433328 46.197321 31.545684 26.042993 25.786790 21.067576 19.555938 23.752256 2.718226 2.400651 1.671654 1.737446 2.181309 2.576515 2.512513 2.000687 1.714819 1.768251 1.660311 1.480378 0.997974 0.272074 0.348106 0.314119 0.328987 0.373780 0.485247 0.357936 0.393834 0.359099 0.355675 0.330242 0.254077 0.160082
<MIXTURE> 2 0.508853
<MEAN> 39
-15.808796 13.974708 -1.440176 7.047149 -8.508613 -10.212519 -8.799542 -11.512104 -11.413457 -12.826032 -7.362404 -10.164185 52.335125 -2.117527 0.227260 -0.495410 0.928027 0.969726 1.616353 0.724399 0.328210 0.095123 0.326841 0.527341 -0.359520 -0.014027 0.478963 -0.859441 0.201314 -0.733467 -0.385485 -0.246209 0.123873 0.056457 0.208446 0.482992 0.050767 0.479949 0.144257
<VARIANCE> 39
21.837864 26.155099 19.998619 24.176332 39.381332 41.839675 28.655294 21.835642 24.644568 21.701088 24.152722 22.157275 16.910003 2.548792 3.470410 2.396666 2.788623 2.924908 3.757078 2.536300 2.450025 2.472490 2.637334 2.236110 2.097129 1.200774 0.287637 0.543142 0.365233 0.393604 0.662535 0.628046 0.451802 0.530295 0.522216 0.529708 0.478459 0.357551 0.203038
<STATE> 4
<NUMMIXES> 2
<MIXTURE> 1 0.521157
<MEAN> 39
-22.411882 11.300399 7.935186 -1.902866 6.487241 -5.890519 -5.560416 -0.011500 -3.087958 -2.141497 -2.262000 -2.118356 57.423885 0.597846 -1.094288 0.182651 -0.199170 -1.086228 -0.440185 -0.180816 0.025422 -0.048967 0.088121 0.151183 0.008247 0.932429 1.225656 -0.715886 0.254152 0.055564 -0.885709 -0.503091 -0.513784 -0.314879 0.029068 -0.058052 0.034389 -0.083630 0.258518
<VARIANCE> 39
31.526742 25.679507 52.830133 37.391245 39.989701 56.942232 59.311676 32.973169 26.022296 21.152509 18.056676 18.300860 29.092222 3.354833 2.001570 2.443617 1.780944 2.568460 2.781491 2.409654 1.935130 1.788912 1.864730 1.423184 1.122804 0.735101 0.409672 0.457586 0.436921 0.374637 0.448017 0.516736 0.493134 0.402132 0.355318 0.378367 0.308321 0.255210 0.116463
<MIXTURE> 2 0.478843
<MEAN> 39
-24.108218 7.238483 -6.453316 5.320793 -5.568806 -2.694768 -1.045956 -5.637823 -5.462288 -5.316347 -1.425836 -5.716014 51.414587 0.515905 -0.792617 0.395564 -1.550387 -1.352963 -0.925329 0.326965 -0.458070 0.386342 0.587843 0.744419 0.571766 1.092625 1.357007 -0.114479 1.028322 -0.734965 -0.836092 -1.170284 -0.656329 -0.636463 -0.479866 -0.195895 -0.401993 0.012043 0.395430
<VARIANCE> 39
24.062839 38.230665 35.929303 23.579202 31.401528 35.658289 33.482281 35.389389 38.746278 39.988979 33.221117 29.087905 22.085774 4.000094 2.757557 4.326110 2.258933 3.016060 4.559881 3.066031 4.505889 3.578594 3.701184 2.731923 2.471142 1.023167 0.424216 0.727021 0.456737 0.507834 0.674200 0.606679 0.680381 0.667586 0.645310 0.755294 0.590099 0.544873 0.173871
<TRANSP> 5
0.000000 1.000000 0.000000 0.000000 0.000000
0.000000 0.674289 0.325711 0.000000 0.000000
0.000000 0.000000 0.721299 0.278701 0.000000
0.000000 0.000000 0.000000 0.676705 0.323295
0.000000 0.000000 0.000000 0.000000 0.000000
<ENDHMM>
~h "ah"
<BEGINHMM>
<NUMSTATES> 5
<STATE> 2
<NUMMIXES> 2
<MIXTURE> 1 0.484790
<MEAN> 39
4.030349 -11.715551 1.523547 -6.259483 -5.337330 -0.356138 -13.687702 -0.182113 1.199814 -1.458469 -0.681209 -11.024172 63.559365 -0.144931 -0.332214 0.847087 0.250371 -0.536376 -0.940616 -0.380442 1.464929 0.522304 -0.325137 -1.406314 -0.313333 0.448120 -0.004811 0.500560 0.311486 0.258211 -0.023594 -0.075826 0.446591 -0.444988 -0.679253 0.026320 0.069319 0.265246 -0.483240
<VARIANCE> 39
10.056978 22.579788 31.465497 31.050798 31.060373 54.379012 49.901669 51.639517 55.695698 56.893401 59.754909 34.011794 29.974027 0.520533 1.412605 1.179561 2.821514 1.863465 3.226390 2.117605 2.589024 2.855494 2.593040 2.557716 2.371008 1.241342 0.107120 0.278740 0.221502 0.422396 0.374904 0.387067 0.483785 0.786161 0.666678 0.480503 0.487065 0.356856 0.239702
<MIXTURE> 2 0.515210
<MEAN> 39
0.063700 -15.156034 -2.153402 -11.883221 -3.203259 -10.086013 -13.040466 -0.625687 -8.568464 -13.309428 -12.882674 -7.983572 62.907165 -0.393485 -0.242703 0.867334 -0.191696 -1.562263 -1.074157 1.405700 1.394452 -0.971051 -1.238735 -0.151036 1.384022 0.536103 0.090848 0.539272 0.161916 0.002363 -0.105074 0.204105 0.165219 -0.441514 -0.498226 0.335979 0.365695 0.019131 -0.397428
<VARIANCE> 39
8.966745 26.154170 33.292599 31.438723 78.801752 54.398396 56.967243 56.002913 50.729207 52.471311 37.217100 37.661588 22.392900 0.450656 1.280169 1.221899 3.602503 2.096186 2.178625 1.928958 2.072148 2.297341 2.258223 2.237030 1.843191 1.132075 0.095923 0.220005 0.145399 0.485717 0.384787 0.306032 0.476926 0.472899 0.419364 0.400133 0.410106 0.366797 0.169987
<STATE> 3
<NUMMIXES> 2
<MIXTURE> 1 0.445246
<MEAN> 39
3.531418 -11.053616 4.265160 -4.833178 -5.922451 -2.651867 -14.118596 2.161194 0.127861 -3.620856 -3.579967 -10.763205 63.143257 0.168512 1.886810 1.823814 2.407113 -0.803884 -1.480742 1.626719 -2.165949 -2.188501 0.811603 -0.551887 0.305772 -1.944226 0.068047 0.527314 0.091686 0.365260 -0.105217 0.129471 0.790876 -1.151868 -0.724248 0.338551 0.207719 0.242946 -0.486078
<VARIANCE> 39
9.539903 26.712933 34.751141 36.799689 43.429096 51.266324 58.581040 65.960439 64.006331 70.994761 49.426160 36.820730 29.179716 0.520198 1.242406 2.054938 2.353389 2.721313 4.123742 3.764582 5.555508 4.524661 3.480076 3.461009 3.108322 0.636530 0.083239 0.249318 0.362828 0.488864 0.509123 0.649784 0.586809 0.791356 0.853612 0.683688 0.621856 0.493982 0.126834
<MIXTURE> 2 0.554754
<MEAN> 39
-0.718425 -12.089342 2.015267 -13.128320 -9.253187 -13.341257 -8.224545 0.911063 -15.322705 -13.811901 -11.607118 -4.209421 62.000611 0.627348 1.903020 1.371742 0.755110 -1.529367 -0.497180 0.588194 -1.838990 -1.109840 0.926612 0.100009 0.835262 -1.530275 0.296772 0.558154 0.088007 0.585009 -0.065369 0.274974 -0.203033 -1.385753 0.463862 0.577388 -0.156273 -0.142505 -0.634284
<VARIANCE> 39
9.675186 27.048369 31.247266 35.252365 43.806477 46.519247 47.193016 49.557905 56.344177 42.802342 37.643278 32.033081 19.506755 0.638663 1.326331 1.586179 2.242211 3.084925 4.063420 2.951772 6.347284 3.348120 3.158939 2.968518 2.940243 1.046326 0.097073 0.244486 0.319287 0.454298 0.486455 0.770567 0.615671 0.739898 0.603977 0.593011 0.551055 0.529915 0.146801
<STATE> 4
<NUMMIXES> 2
<MIXTURE> 1 0.463998
<MEAN> 39
4.110760 -5.256163 8.998819 3.173135 -8.158147 -5.183376 -6.835470 -7.853927 -7.109049 0.596806 -3.652330 -9.959647 57.415920 0.065416 1.975985 1.450465 2.038070 -0.949248 -0.722945 2.309628 -2.865507 -2.418200 0.942658 -0.317626 0.495257 -1.814575 -0.072182 -0.227216 -0.488844 -0.617100 0.224056 0.383725 -0.270936 0.581867 0.482692 -0.281324 0.096854 0.074925 0.313152
<VARIANCE> 39
8.026923 24.631104 25.843154 34.990965 36.367380 45.979111 48.640795 54.967557 57.891035 52.611681 52.365918 40.322030 24.373615 0.474825 1.308435 2.438708 2.701011 2.697721 4.108536 3.899441 4.902416 5.588591 3.324848 3.458340 2.672106 0.569629 0.071092 0.198810 0.260299 0.313618 0.337574 0.441546 0.450683 0.664984 0.583108 0.440401 0.416927 0.345607 0.109771
<MIXTURE> 2 0.536002
<MEAN> 39
2.785511 -4.067176 6.325406 -7.127154 -14.682197 -14.581015 -6.137051 -12.516560 -15.209696 -8.418579 -14.472799 -1.198357 54.647495 0.690065 2.216433 0.930165 1.199696 -1.469865 0.640562 0.785617 -4.144540 0.220473 1.309850 -0.335862 0.547634 -1.842858 -0.209098 -0.375885 -0.394508 -0.283475 0.443739 0.374502 -0.259335 0.603397 0.215306 -0.340989 0.226821 -0.443736 0.328722
<VARIANCE> 39
5.219555 23.017651 21.593696 32.093858 36.837241 50.062046 55.921994 78.426281 66.300721 59.550521 55.772955 39.316985 15.172019 0.479902 1.359742 2.131919 2.198797 2.683204 5.122404 4.326285 5.127886 4.488838 3.802049 3.381848 3.704607 0.648735 0.059105 0.191590 0.241242 0.259543 0.392468 0.535907 0.460522 0.897980 0.537887 0.473393 0.463360 0.399902 0.088337
<TRANSP> 5
0.000000 1.000000 0.000000 0.000000 0.000000
0.000000 0.697333 0.302667 0.000000 0.000000
0.000000 0.000000 0.592792 0.407208 -0.000000
0.000000 0.000000 0.000000 0.517935 0.482065
0.000000 0.000000 0.000000 0.000000 0.000000
<ENDHMM>
~h "ao"
<BEGINHMM>
<NUMSTATES> 5
<STATE> 2
<NUMMIXES> 2
<MIXTURE> 1 0.547090
<MEAN> 39
9.568356 1.480640 0.517260 -18.920787 -21.498710 2.996209 -5.065565 0.377035 -4.578454 -7.550805 3.282886 -6.891631 58.585099 1.429691 0.382196 0.391249 -2.025507 -2.387011 0.262346 -0.313351 0.478637 0.321339 -0.539894 0.607428 -0.680467 0.685669 -1.422617 -0.535427 -0.281434 1.195394 1.305361 -0.388681 0.151904 -0.091953 0.209807 0.495417 -0.214778 0.376288 -0.362852
<VARIANCE> 39
10.477316 22.392152 31.331001 34.967439 39.301471 52.093571 49.964172 68.691251 51.512553 52.220227 48.222934 38.593916 20.322744 3.553066 1.473104 1.433525 4.156862 5.574196 2.893278 2.510989 2.695368 2.740352 2.913536 2.536858 2.086634 1.011021 0.414523 0.367509 0.317187 0.367019 0.410647 0.485008 0.443734 0.488859 0.568040 0.481018 0.461126 0.381215 0.166127
<MIXTURE> 2 0.452910
<MEAN> 39
7.299560 -1.474601 -8.343321 -27.812990 -11.795592 -2.720582 -8.412643 -4.020016 -16.398847 -1.016603 -9.178707 -4.804291 56.805138 1.682614 0.501481 -0.576187 -3.583691 -1.119540 0.391767 -0.024060 1.030813 -1.313431 0.576529 -0.966635 -0.264625 0.849275 -1.519808 -0.436266 0.398476 1.938703 0.573770 0.055722 0.311949 0.243009 1.042474 -0.004330 0.680352 0.047393 -0.440800
<VARIANCE> 39
6.722014 26.248024 20.667945 33.775674 28.231942 42.294709 40.500099 45.925834 29.084539 37.332997 43.209749 27.758161 15.372922 3.911384 1.856973 1.686918 9.143578 3.020593 2.679576 2.537124 2.781134 4.270299 3.320953 3.366182 2.092611 1.232583 0.387561 0.437200 0.253803 0.506200 0.408417 0.504309 0.467782 0.667283 0.468980 0.527726 0.476202 0.372973 0.171872
<STATE> 3
<NUMMIXES> 2
<MIXTURE> 1 0.521301
<MEAN> 39
9.283447 1.209404 0.407797 -19.498659 -22.324705 0.825341 -3.445854 1.485118 -4.131648 -6.836885 3.993733 -7.888304 59.253924 0.059188 -0.578315 -0.807047 0.419104 0.755239 -0.276638 0.228703 0.497558 -0.514659 -0.480843 0.537173 0.719822 0.235722 -0.020680 -0.234186 -0.321290 0.251428 0.489223 0.033783 -0.174731 0.036131 -0.136713 -0.119477 0.130955 0.308470 0.075234
<VARIANCE> 39
12.162740 23.174634 34.512038 33.342916 44.848345 67.487005 64.178034 79.863682 66.667243 57.616477 53.635423 49.044908 23.073313 0.132783 1.010632 1.334868 0.949529 1.476658 1.058274 1.374423 1.237810 1.807986 1.705230 1.781511 1.720858 0.329021 0.031365 0.086672 0.133244 0.139794 0.202071 0.190150 0.313840 0.203429 0.274011 0.246972 0.240576 0.227602 0.037432
<MIXTURE> 2 0.478699
<MEAN> 39
7.472919 0.243010 -7.188990 -28.719942 -13.797290 -1.270977 -6.937051 -1.794305 -13.761803 -2.726159 -8.595941 -6.271567 56.387550 0.035650 -0.250028 -0.280855 0.492615 -0.025222 0.087699 0.363495 -0.138992 -0.306779 0.273374 0.241141 -0.341239 0.047323 -0.041973 -0.271275 -0.146673 0.386089 0.199821 -0.089782 -0.024599 -0.165524 -0.125961 0.158208 0.187249 -0.095996 0.063706
<VARIANCE> 39
7.184012 27.147748 29.793967 24.695023 31.808000 41.433376 43.552265 46.449162 51.018491 49.056660 41.693271 33.017111 18.792473 0.138018 1.444919 0.793406 0.989970 0.978917 1.208120 1.063587 1.434168 1.763267 1.817303 1.269804 1.087950 0.406238 0.029412 0.106502 0.094314 0.193248 0.143903 0.213222 0.175569 0.210628 0.248379 0.276450 0.215897 0.238116 0.043159
<STATE> 4
<NUMMIXES> 2
<MIXTURE> 1 0.548050
<MEAN> 39
10.078186 -4.641473 -10.464471 -14.258936 -8.088090 -1.204614 -9.631643 5.253099 -5.953406 -10.343788 7.341996 0.160980 61.338917 0.022865 -1.103651 -1.705999 1.440289 3.108647 -0.183377 -2.577219 -0.341749 0.919054 0.782543 0.084293 0.494080 0.306575 -0.064818 0.141374 0.363405 0.102427 -0.071677 -0.141080 -0.273799 -0.192254 0.427633 0.548845 -0.461762 -0.544246 -0.147652
<VARIANCE> 39
10.600752 28.371901 45.738242 39.566343 103.509997 59.644198 107.239758 84.341832 90.959205 79.172907 64.963237 42.715450 27.534746 0.247044 0.951391 1.647181 1.764643 1.972541 2.642265 3.104897 3.497904 3.424385 4.773388 3.379846 4.109539 0.368414 0.039413 0.124642 0.247729 0.229579 0.438319 0.393734 0.664548 0.490288 0.580716 0.611534 0.546993 0.470058 0.038717
<MIXTURE> 2 0.451950
<MEAN> 39
7.231043 -9.482199 -14.423602 -17.451709 -6.298294 -5.058707 -7.472743 -3.284459 -18.314084 3.494115 -4.645951 -10.771277 59.746079 -0.152666 -1.617909 -0.640118 2.501724 1.498598 -2.093108 -1.075877 1.108107 0.460727 0.468975 -0.153545 -0.993422 0.403530 -0.019054 0.184982 0.354735 -0.009043 -0.171157 -0.406875 -0.143209 0.493973 0.460767 -0.622938 -0.433887 0.284894 -0.155190
<VARIANCE> 39
8.744442 31.516968 28.030942 48.693298 61.960384 66.930507 63.259917 59.763461 73.672001 46.864738 63.607247 43.412656 18.668886 0.184805 1.009385 1.199559 1.112915 1.781367 2.397143 2.615058 2.875902 3.697811 4.100781 3.370890 3.051937 0.302206 0.031210 0.119839 0.183631 0.234619 0.346325 0.374096 0.436238 0.402615 0.462293 0.580313 0.441861 0.516807 0.029145
<TRANSP> 5
0.000000 1.000000 0.000000 0.000000 0.000000
0.000000 0.662276 0.337724 0.000000 -0.000000
0.000000 0.000000 0.852129 0.147871 0.000000
0.000000 0.000000 0.000000 0.805973 0.194027
0.000000 0.000000 0.000000 0.000000 0.000000
<ENDHMM>
~h "ay"
<BEGINHMM>
<NUMSTATES> 5
<STATE> 2
<NUMMIXES> 2
<MIXTURE> 1 0.546920
<MEAN> 39
3.196425 -16.564872 -4.133459 -11.059321 -2.085766 3.974619 -5.252947 -2.218501 0.103249 -4.377513 -3.832839 -11.244367 67.507434 -0.301992 -0.535170 -0.348589 0.107760 0.908731 0.491283 0.376717 -0.553329 0.214520 -0.490735 -0.402540 0.288335 0.312646 -0.060201 0.380073 0.304140 0.350813 -0.157674 -0.321971 -0.084469 -0.064963 -0.136361 0.095150 0.105649 0.148975 -0.390861
<VARIANCE> 39
12.363415 25.204639 45.556480 55.377344 37.548074 70.231593 81.186728 81.370511 65.751144 49.980970 74.187166 47.568647 19.634173 0.362101 0.597424 1.079320 1.356418 1.251526 1.667676 1.726775 1.762411 1.319946 1.397577 1.828017 1.329385 0.307879 0.118416 0.185107 0.179908 0.291733 0.250719 0.255332 0.347320 0.527762 0.387232 0.270379 0.326670 0.264578 0.154312
<MIXTURE> 2 0.453080
<MEAN> 39
-0.860947 -19.617146 -5.371734 -10.930299 0.550341 -5.201657 -12.197543 -2.831229 -9.744162 -12.585533 -11.709742 -6.621802 66.000308 -0.001256 -0.520503 -0.591190 0.741174 1.196136 0.567689 -1.144004 -0.463879 0.829616 -0.166002 0.557818 -0.535255 0.065978 0.111003 0.405949 0.329313 -0.030708 -0.405682 -0.207581 0.120269 -0.070967 -0.013485 0.192070 0.041605 -0.000463 -0.294124
<VARIANCE> 39
10.480850 23.918840 38.712940 38.480612 49.515744 56.410256 57.214458 64.886475 48.084410 53.248664 35.341006 37.947753 15.536950 0.334162 0.604953 1.077842 1.146307 1.957407 1.435738 1.654180 1.635786 1.814294 1.704684 1.269211 1.676145 0.200856 0.078794 0.165276 0.134189 0.243274 0.252673 0.255376 0.332044 0.416525 0.340079 0.312478 0.300740 0.276154 0.099517
<STATE> 3
<NUMMIXES> 2
<MIXTURE> 1 0.549513
<MEAN> 39
2.590092 -18.183173 -2.528187 -10.301268 -0.893596 4.191122 -6.178365 -1.168550 0.580374 -6.035041 -4.272970 -10.505180 67.740891 -0.065254 -0.088142 0.267706 0.454029 -0.166633 -0.532378 -0.074568 0.510296 0.182450 -0.197032 -0.274049 0.098068 -0.048004 0.007227 0.070240 0.098978 0.052477 -0.180610 -0.154203 -0.004494 0.169192 -0.027930 0.009777 0.035005 0.026128 -0.036041
<VARIANCE> 39
11.221095 24.642643 32.841264 48.062967 39.171460 72.588887 78.852858 73.732756 58.827329 54.724143 64.992027 53.777859 23.130949 0.114189 0.265949 0.363073 0.507688 0.750988 0.974993 0.645345 1.021924 0.589996 0.560022 0.714289 0.548586 0.097721 0.018821 0.037548 0.049519 0.061684 0.082387 0.095433 0.100623 0.110350 0.091260 0.091470 0.103908 0.089701 0.012285
<MIXTURE> 2 0.450487
<MEAN> 39
-0.692033 -19.991683 -6.430506 -8.822675 1.067129 -3.341109 -11.601586 -5.062123 -7.266632 -12.046652 -10.642450 -7.823965 65.489496 -0.102172 -0.060517 0.329425 0.143701 -0.372463 -0.242738 0.317346 0.202011 -0.225098 -0.302969 0.076693 0.252237 -0.017184 -0.020992 0.053666 0.109860 -0.091308 -0.231299 -0.085348 0.225507 0.070681 -0.152274 -0.004216 -0.031769 0.046456 -0.003147
<VARIANCE> 39
11.141133 25.224367 33.171955 38.312882 50.831338 49.602831 79.188704 71.617130 48.842102 50.443165 35.614108 36.653535 22.902074 0.121799 0.223306 0.358309 0.436069 0.818993 0.591012 1.031670 0.697794 0.825371 0.693133 0.557002 0.693018 0.071953 0.019256 0.038215 0.050390 0.070557 0.098708 0.090328 0.130974 0.116330 0.139500 0.118359 0.102715 0.108878 0.010028
<STATE> 4
<NUMMIXES> 2
<MIXTURE> 1 0.540970
<MEAN> 39
1.521840 -16.222762 3.665689 -5.396888 -8.354836 -3.345962 -5.605062 5.662960 -0.294204 -9.067531 -4.515894 -7.782168 66.191590 -0.085247 0.831634 1.408389 0.243617 -1.501528 -0.974392 0.179277 0.703372 -0.821595 0.224176 0.839801 0.292027 -0.531341 0.093219 0.251444 0.014321 0.008741 0.176184 0.054560 -0.069902 -0.451843 -0.200388 0.292896 0.173974 -0.074031 -0.224761
<VARIANCE> 39
11.024377 33.785999 60.735027 36.415243 58.761289 49.961165 69.438117 58.919708 66.668450 53.152172 52.508087 44.692410 31.579195 0.285926 0.612544 0.948061 1.127299 1.676655 1.707975 2.276875 2.498636 1.926281 1.693722 1.708581 1.452517 0.299595 0.047966 0.102105 0.191208 0.270271 0.328480 0.202220 0.317088 0.393769 0.261646 0.264446 0.324516 0.216587 0.055609
<MIXTURE> 2 0.459030
<MEAN> 39
-2.639736 -19.070464 0.745672 -12.225148 -7.698022 -6.276795 -4.849835 -2.483147 -14.765735 -13.151309 -10.046923 -5.503891 65.638799 -0.144470 1.161901 1.439909 -1.272708 -2.145417 -0.271084 1.642469 -0.303588 -1.072354 1.027699 -0.229799 -0.370332 -0.441708 0.169881 0.351915 -0.005133 -0.022882 0.015265 -0.058448 -0.341529 -0.284712 0.285435 0.343948 -0.145816 -0.175084 -0.266425
<VARIANCE> 39
10.436230 27.697902 52.361486 36.777749 59.622564 37.748408 64.235627 52.712536 48.897134 40.103038 38.284465 31.394062 20.601265 0.307541 0.789797 0.704589 1.221188 1.515468 2.112365 2.139493 2.678233 2.207138 2.678896 1.760628 1.699250 0.255881 0.048486 0.084327 0.126436 0.326255 0.289255 0.253567 0.391236 0.307944 0.326567 0.333870 0.273023 0.278045 0.036727
<TRANSP> 5
0.000000 1.000000 0.000000 0.000000 0.000000
0.000000 0.708190 0.291810 0.000000 -0.000000
0.000000 0.000000 0.894266 0.105734 0.000000
0.000000 0.000000 0.000000 0.787516 0.212484
0.000000 0.000000 0.000000 0.000000 0.000000
<ENDHMM>
~h "eh"
<BEGINHMM>
<NUMSTATES> 5
<STATE> 2
<NUMMIXES> 2
<MIXTURE> 1 0.544609
<MEAN> 39
-22.835153 2.058780 0.658669 -6.599634 1.792485 -8.834443 -0.466802 1.621723 -0.139251 0.115120 -2.543972 -1.376606 56.605370 7.666728 -2.000839 2.439443 0.431133 -2.289480 -1.036700 -3.149356 -0.803588 0.682765 0.783197 -0.897133 -2.263127 1.980523 1.074814 -1.035606 0.057400 -0.331755 -0.664080 0.244535 -0.936723 0.227463 0.430669 0.153590 0.184189 -0.623954 0.898306
<VARIANCE> 39
40.809737 14.656747 29.689607 26.242442 24.732120 27.680846 26.882907 28.612497 23.772466 20.404565 20.174240 17.262384 18.388071 2.171863 2.318308 2.583207 2.345492 2.385388 2.903827 3.941262 3.571504 2.985983 3.081634 3.169972 2.289169 1.578260 0.958279 0.289430 0.545875 0.456484 0.458479 0.564130 0.606093 0.643807 0.655629 0.509094 0.524962 0.435616 0.153175
<MIXTURE> 2 0.455391
<MEAN> 39
-20.555679 1.249455 -6.290699 0.754191 -8.504837 -1.275275 -0.782752 -1.700556 -1.456548 -2.402853 2.747479 -1.344008 54.202435 6.275052 -1.283800 2.667237 -3.444292 -3.086171 -4.793613 -1.848297 -0.990090 -1.313051 -2.126409 -3.044986 0.108709 2.397435 0.842677 -1.148900 0.122755 -1.070985 -0.426122 -0.915370 -0.052318 0.193929 -0.307531 -0.217252 -1.162451 -0.028106 0.653020
<VARIANCE> 39
22.415389 16.662111 22.351120 18.510995 19.422186 22.615531 19.484227 18.621976 21.233114 21.944286 15.341457 14.630856 14.625902 1.403750 3.190676 2.029078 3.013423 2.538464 2.861743 2.398690 2.327959 2.046820 2.282707 2.917964 1.737910 1.289961 0.563717 0.346681 0.440303 0.441654 0.558861 0.724374 0.562368 0.531024 0.472445 0.506344 0.407952 0.349949 0.187288
<STATE> 3
<NUMMIXES> 2
<MIXTURE> 1 0.509047
<MEAN> 39
-2.201639 -4.202336 5.108907 -6.377482 -5.290396 -11.429068 -11.571440 -1.628248 1.791286 2.353826 -4.083881 -8.220704 63.844612 6.741096 -4.088565 1.218831 -0.841670 -3.197910 -0.175639 -3.608477 0.328043 1.746701 0.751808 -0.120495 -2.703738 3.478655 -1.825506 -0.291117 -0.784717 -0.449723 0.250988 0.648307 0.876397 0.753570 0.256560 -0.305225 0.252025 0.260724 -0.040474
<VARIANCE> 39
22.708482 37.189565 24.936854 22.820752 30.317893 27.968942 39.601386 38.327857 29.442663 33.224457 32.561181 23.948409 26.527097 3.219279 1.929798 4.399270 3.235934 3.320325 4.010026 5.331773 6.508125 5.271714 4.607432 4.179010 3.009545 0.822281 0.448269 0.411478 0.254087 0.320365 0.360301 0.338986 0.581546 0.406599 0.413104 0.328368 0.378709 0.341142 0.253103
<MIXTURE> 2 0.490953
<MEAN> 39
-3.471402 -2.294382 -0.878069 -7.987143 -18.257342 -15.711670 -7.554545 -5.201355 -5.314344 -7.861152 -7.269283 -1.179257 60.051139 5.285380 -3.746889 1.813693 -4.795649 -2.431797 -4.349966 -0.590088 0.099554 -1.448051 -1.688206 -4.292164 -0.081619 3.265044 -1.537295 -0.719972 -0.693849 0.157538 1.071311 1.439754 1.072140 0.737091 0.061928 0.375397 0.196745 -0.196789 -0.062551
<VARIANCE> 39
21.307839 30.726793 15.837244 33.185166 24.504766 29.658494 21.677453 19.745916 20.163315 18.737109 27.119388 18.372616 21.661408 2.332963 2.722809 2.993361 3.741277 3.904659 4.696766 4.464231 4.021862 3.141824 3.481100 2.866327 2.174049 1.111368 0.353994 0.398801 0.258822 0.477959 0.374513 0.598898 0.385149 0.346312 0.334633 0.305546 0.457493 0.270563 0.183106
<STATE> 4
<NUMMIXES> 2
<MIXTURE> 1 0.531759
<MEAN> 39
0.583608 -12.764671 4.842141 -9.849101 -10.111260 -8.687023 -13.500900 3.606596 6.176907 2.304322 -3.232495 -11.240198 69.192081 0.945171 -2.560524 -0.469355 -1.030862 -1.093017 1.168072 0.245027 1.653310 1.303804 -0.428181 -0.181539 -1.260931 1.549373 -1.570243 0.916550 -0.467259 0.228482 0.911664 0.203502 1.171238 -0.110113 -0.467963 -0.323193 -0.015213 0.536144 -0.873365
<VARIANCE> 39
10.460778 19.228627 35.605057 24.039515 31.529886 35.465865 46.698538 61.176565 53.329965 57.302574 46.897947 35.004594 18.014416 1.937057 2.220207 1.384499 1.559773 2.499272 1.614492 3.881901 2.373386 2.423204 2.047773 1.846834 1.876682 1.335783 0.511074 0.186001 0.389769 0.298423 0.320303 0.329672 0.616547 0.686775 0.515691 0.430487 0.427013 0.369966 0.092506
<MIXTURE> 2 0.468241
<MEAN> 39
-2.427509 -12.620740 0.041428 -16.652294 -16.520675 -16.608006 -2.268777 -0.744634 -6.881364 -8.257106 -12.891841 -1.757030 65.940875 0.401684 -3.244311 0.078053 -2.379235 0.902010 0.810010 1.951254 1.409475 -1.091709 -0.828799 -1.949145 -0.720374 1.845014 -1.371029 0.772206 -0.537369 1.287856 0.893452 1.497704 0.308977 -0.000682 0.159022 0.235896 1.021632 -0.133486 -0.794661
<VARIANCE> 39
8.625369 19.259705 22.751820 31.700878 36.704346 36.359964 40.356482 37.212035 32.412480 35.713816 28.446922 20.795876 12.339858 1.919287 2.110801 1.395453 3.203106 2.606544 3.974142 2.771527 2.410425 2.039261 1.753554 2.233725 1.529160 1.093138 0.387899 0.271558 0.287241 0.359945 0.538374 0.723380 0.634460 0.460790 0.355236 0.426861 0.344999 0.298298 0.095353
<TRANSP> 5
0.000000 1.000000 0.000000 0.000000 0.000000
0.000000 0.416399 0.583601 0.000000 0.000000
0.000000 0.000000 0.379265 0.620735 -0.000000
0.000000 0.000000 0.000000 0.558627 0.441373
0.000000 0.000000 0.000000 0.000000 0.000000
<ENDHMM>
~h "ey"
<BEGINHMM>
<NUMSTATES> 5
<STATE> 2
<NUMMIXES> 2
<MIXTURE> 1 0.599696
<MEAN> 39
-1.650014 -11.891109 17.648965 -7.828126 -20.417387 -7.409364 -7.729651 4.442328 -5.406591 -1.412428 3.678709 -4.703028 65.674996 -0.223741 0.374198 1.046267 0.017780 -0.484679 0.187429 -0.270467 -0.890351 -0.757822 0.034244 0.421549 0.056047 0.051190 -0.030309 0.170023 -0.026556 0.081822 0.188868 -0.009309 -0.051040 -0.173395 -0.101052 -0.009599 -0.120543 -0.057746 -0.288639
<VARIANCE> 39
9.227604 22.933519 63.087248 34.677678 48.783687 40.302627 42.359089 57.062381 52.955001 43.766465 60.562235 27.171877 24.593926 0.310557 0.947328 1.029628 0.785417 1.328981 0.975790 1.560147 1.773026 1.364849 1.197033 1.439467 0.961183 0.980039 0.070817 0.137478 0.147466 0.151627 0.183464 0.175435 0.231030 0.269864 0.186459 0.196686 0.217108 0.145879 0.113488
<MIXTURE> 2 0.400304
<MEAN> 39
-6.523856 -10.243923 7.878428 -12.541787 -14.149246 -7.331105 0.764525 0.383141 -5.067140 -0.638448 -5.165556 -4.657709 56.147020 1.227131 -1.663137 1.497625 -2.143118 -1.763601 -0.294692 -0.214993 -0.211828 -1.286859 -0.506057 -0.939250 -1.013834 4.202802 -0.161759 0.375074 -0.145589 0.252243 0.186946 0.077597 -0.305258 -0.112108 0.207658 0.136069 0.235710 0.079315 -0.449753
<VARIANCE> 39
29.771990 48.230184 54.547382 103.416238 61.643215 56.114448 57.241432 61.263898 65.764207 46.023184 66.562771 28.310639 145.126668 2.939965 4.014296 3.518558 5.332586 4.903102 3.717853 4.438977 4.349958 4.773760 3.478106 5.171700 2.619744 10.540313 0.654023 0.740923 0.511522 0.997096 0.904144 0.663195 0.657456 0.665112 0.835124 0.584772 0.726409 0.483927 2.332391
<STATE> 3
<NUMMIXES> 2
<MIXTURE> 1 0.419079
<MEAN> 39
-5.790393 -3.891352 20.570087 -18.204207 -18.819612 -8.743961 -12.338358 -11.192798 -9.216755 1.572361 -6.351033 -2.891703 61.563737 -0.071362 0.949387 0.890262 0.708308 0.401412 0.079494 -0.615705 -0.948266 -0.484112 0.113973 -0.227776 0.503895 -1.283550 0.111068 0.053938 -0.350894 0.551101 0.062436 -0.017679 0.470951 0.243439 0.055912 -0.087533 0.076021 -0.098710 -0.463476
<VARIANCE> 39
11.894530 32.086520 38.735359 97.890153 27.565909 41.677145 50.290215 69.900485 53.844406 54.934481 89.798412 37.667296 30.011166 0.440421 1.010758 1.024799 1.188691 1.076428 1.401400 2.057819 1.620592 1.803600 1.872610 1.774641 1.980280 0.595932 0.103977 0.197677 0.250714 0.308640 0.247119 0.302146 0.366789 0.294842 0.337254 0.383230 0.368859 0.311194 0.193386
<MIXTURE> 2 0.580921
<MEAN> 39
-4.993436 -10.275497 10.741016 -23.883557 -18.359010 -8.066687 -2.651121 -7.727950 -8.759152 -0.991404 -13.053858 -7.367299 64.724589 -0.149994 0.857896 0.865514 -0.344117 -0.228488 -0.299108 -1.248344 -0.998044 0.346739 0.478592 -0.012588 0.500574 -0.347796 -0.028083 0.081846 0.098406 0.125142 0.103005 -0.044044 -0.119592 -0.054810 0.008643 0.063202 0.092208 0.221240 -0.167841
<VARIANCE> 39
9.489817 39.339123 37.902017 34.067095 26.173591 34.042121 57.526814 44.834113 40.730383 51.361856 29.167752 26.118175 18.176561 0.267762 0.509294 0.784460 0.701967 0.876226 0.943412 1.549676 1.233415 1.334175 1.476040 1.124871 1.445652 0.272752 0.051195 0.091371 0.098146 0.129080 0.146073 0.156943 0.199286 0.179555 0.228946 0.222745 0.198577 0.190363 0.072444
<STATE> 4
<NUMMIXES> 2
<MIXTURE> 1 0.505475
<MEAN> 39
-3.233057 -3.718100 24.863449 -3.748817 -18.634192 -8.279027 -10.383285 -5.510441 -14.927849 -2.366466 2.779241 -6.386665 55.064048 -0.233666 2.493872 -2.506777 2.898978 2.531406 -0.681263 1.365856 -0.227095 0.664131 -0.957192 -0.774350 0.118023 -4.439281 -0.374077 0.318903 -1.289360 0.160793 0.850780 0.296998 0.338592 0.175817 0.905802 0.033527 -0.256035 0.280458 -0.625072
<VARIANCE> 39
10.276651 33.071987 36.203437 57.261171 33.907671 42.835098 38.202470 45.406467 41.197298 56.531101 42.217110 31.190624 43.586634 1.550923 3.290039 5.747866 3.938078 4.238603 3.133737 4.071626 3.670825 4.874402 4.156418 3.710556 2.830181 3.205654 0.296274 0.634570 0.464326 0.849657 0.501289 0.654069 0.580724 0.648313 0.647217 0.681132 0.454946 0.421182 0.570740
<MIXTURE> 2 0.494525
<MEAN> 39
-5.990079 -0.181518 20.064952 -15.352496 -18.418274 -9.932509 -10.822309 -16.941407 -8.563000 4.048478 -10.015535 1.453228 53.797516 0.251305 1.503426 -1.852162 4.115480 0.702742 -0.000955 1.011223 0.864043 -0.076127 -0.831517 1.615878 -0.302237 -3.965517 -0.227330 0.085257 -1.247331 0.542503 0.774731 0.066045 0.226318 0.856455 0.269855 -0.611903 0.459315 -0.428624 -0.653414
<VARIANCE> 39
11.024422 34.509464 26.281281 88.514462 31.321321 39.610235 49.441320 46.965005 51.102480 61.508427 45.695101 41.391383 43.913595 1.664325 2.295395 5.663941 3.890328 3.952898 2.901354 4.312876 4.658056 3.699073 5.345096 3.764946 3.602616 3.303261 0.359057 0.472963 0.504583 0.926380 0.651596 0.627022 0.750045 0.658002 0.702656 0.833923 0.582184 0.588359 0.606702
<TRANSP> 5
0.000000 1.000000 0.000000 0.000000 0.000000
0.000000 0.884775 0.115225 0.000000 0.000000
0.000000 0.000000 0.868143 0.131857 0.000000
0.000000 0.000000 0.000000 0.689431 0.310569
0.000000 0.000000 0.000000 0.000000 0.000000
<ENDHMM>
~h "ih"
<BEGINHMM>
<NUMSTATES> 5
<STATE> 2
<NUMMIXES> 2
<MIXTURE> 1 0.538462
<MEAN> 39
-14.945882 5.306506 8.352985 -3.390647 0.053238 -12.597967 -6.760956 -1.414900 -3.043757 -1.136698 -3.392658 -2.694690 60.627049 5.815842 -3.291142 2.465656 0.509932 -3.575292 -1.392135 -3.030456 -0.521968 0.066224 -0.487668 0.351549 -0.894313 1.891146 0.261764 -0.920200 0.056249 0.036716 -0.610018 0.378771 -0.385725 0.386587 0.120060 -0.294144 0.571768 -0.003892 0.097166
<VARIANCE> 39
46.638738 24.570815 35.522462 25.445538 28.610564 40.590433 53.346957 31.748473 25.742565 20.520173 17.155888 20.094971 21.328613 5.332471 3.113239 4.477037 2.762907 2.760220 3.507231 4.722293 4.156200 3.488762 2.729009 2.541229 2.299418 1.062030 0.850498 0.340174 0.604281 0.391759 0.443873 0.552243 0.726288 0.577007 0.569946 0.466637 0.440312 0.348857 0.223066
<MIXTURE> 2 0.461538
<MEAN> 39
-15.058281 6.253461 -0.944632 -0.451593 -14.178988 -10.894356 -5.066175 -11.050101 -7.194779 -7.653822 -1.636722 -5.068748 56.499526 5.160730 -2.333419 3.766426 -3.874496 -3.713699 -4.848031 -1.787955 -1.778180 -1.668348 0.224440 -1.952766 0.635068 2.379788 0.085874 -1.043642 0.437396 -0.704677 0.134830 0.046096 0.086715 0.619186 -0.222583 0.900295 -0.455954 0.186531 0.090919
<VARIANCE> 39
35.471445 23.530774 24.517852 21.158603 37.444328 51.850233 30.689258 32.962835 27.359856 22.456169 21.600741 21.221753 17.774805 3.082800 4.471522 3.139746 3.008807 2.976914 3.867458 4.598240 3.704011 3.710650 4.782607 3.870592 2.650088 1.079300 0.671989 0.324118 0.505472 0.413950 0.664969 0.926869 0.732487 0.542069 0.586952 0.465702 0.529556 0.381897 0.176414
<STATE> 3
<NUMMIXES> 2
<MIXTURE> 1 0.499003
<MEAN> 39
-1.996188 -7.351772 13.200406 -2.888787 -10.696135 -12.523379 -15.509556 -0.729443 -1.096868 -3.364471 0.269433 -4.643719 65.493527 3.290265 -3.822888 1.479967 0.278137 -3.498536 0.016701 -2.068283 1.114575 0.173568 -1.051794 1.720979 -0.321453 1.285899 -1.351300 0.639462 -0.631171 0.004506 0.721027 0.164101 0.800489 0.465822 -0.240207 -0.078644 0.200709 0.332156 -0.520876
<VARIANCE> 39
13.833671 26.259511 45.570841 23.735390 34.315634 30.008346 36.190831 41.614369 48.699051 37.301891 28.615549 28.105435 16.433166 4.264433 2.007191 3.918354 2.692155 2.783215 3.928778 5.088773 4.280635 4.986774 3.811849 3.156533 2.527313 1.385076 0.702948 0.402931 0.459909 0.272842 0.498310 0.462008 0.768120 0.569640 0.543824 0.413480 0.447774 0.354601 0.166573
<MIXTURE> 2 0.500997
<MEAN> 39
-4.887170 -4.574361 7.260744 -11.574843 -20.328470 -19.913143 -7.498479 -10.257136 -10.425162 -2.707262 -7.198303 -1.931974 61.992281 2.451079 -3.532139 3.050659 -3.914243 -1.388765 -1.839318 -0.207382 0.593366 -1.476952 2.289942 -1.788147 0.288951 1.616261 -1.323306 0.350400 -0.667295 0.761161 0.985163 1.335675 0.700223 0.535017 0.200355 0.295402 0.472497 -0.395292 -0.596862
<VARIANCE> 39
10.606011 28.873811 36.503668 39.228711 27.318534 27.670080 33.399490 43.597048 27.227770 31.312415 24.623654 22.034253 13.751601 3.614199 2.577456 2.682851 3.297528 4.281001 6.502016 5.279752 4.112289 3.507098 3.783837 3.304012 2.486952 1.238258 0.375147 0.547835 0.425059 0.657828 0.412183 0.585495 0.641991 0.580273 0.488080 0.667931 0.524953 0.365435 0.176594
<STATE> 4
<NUMMIXES> 2
<MIXTURE> 1 0.427710
<MEAN> 39
-1.061512 -11.833326 13.356622 -4.295837 -16.513386 -14.804996 -12.353728 3.573597 -4.955454 -3.909415 3.444190 -5.119705 65.629358 0.245097 0.152705 0.344279 1.346808 -0.192923 -0.556568 0.473412 0.870586 -1.593291 -0.561303 1.129437 0.181807 -1.316834 -0.429154 0.965758 -0.512171 0.435198 0.980177 0.085019 0.214661 -0.224550 0.107914 0.047424 -0.281162 0.215617 -1.003408
<VARIANCE> 39
13.615325 20.172723 53.222053 43.402093 42.340318 49.707530 70.619314 82.508093 95.233964 66.931769 66.139650 35.811551 25.731748 1.030652 3.128204 1.879647 2.671986 2.386685 1.904632 2.433730 2.903423 4.465893 2.822517 2.444851 1.970050 3.250498 0.367068 0.503387 0.499007 0.383045 0.508017 0.649941 0.785190 0.727125 1.092136 0.683841 0.763714 0.403966 0.616413
<MIXTURE> 2 0.572290
<MEAN> 39
-4.456892 -9.140364 12.074457 -16.926435 -19.970313 -17.338405 -4.418825 -8.278646 -12.039374 2.590088 -8.739744 -4.173397 62.866337 0.328207 -0.592660 0.442621 0.247502 -0.067607 -0.197403 0.834316 0.157018 -0.763251 0.806748 -0.044154 -0.686755 -0.408220 -0.040060 0.515099 -0.583367 0.977794 0.254580 -0.108667 -0.033569 0.050654 0.108614 -0.452354 0.358628 -0.041018 -0.561385
<VARIANCE> 39
11.511099 25.688613 43.772968 36.670161 27.285000 38.748801 63.690132 64.662342 45.872427 42.347009 36.664210 24.733108 17.699830 0.638229 1.696186 1.692123 2.912382 1.060213 2.139213 1.799121 3.391324 1.785125 1.989541 1.861130 1.425669 1.049820 0.185391 0.413910 0.415857 0.510647 0.368000 0.552337 0.469291 0.462472 0.366142 0.536239 0.418378 0.298723 0.380150
<TRANSP> 5
0.000000 1.000000 0.000000 0.000000 0.000000
0.000000 0.449999 0.550001 0.000000 -0.000000
0.000000 0.000000 0.574977 0.425023 0.000000
0.000000 0.000000 0.000000 0.765834 0.234166
0.000000 0.000000 0.000000 0.000000 0.000000
<ENDHMM>
~h "iy"
<BEGINHMM>
<NUMSTATES> 5
<STATE> 2
<NUMMIXES> 2
<MIXTURE> 1 0.590480
<MEAN> 39
-1.618575 -8.578150 24.189057 -1.673899 -19.645899 -8.151945 -14.133282 -0.948283 -10.756914 -8.484862 6.319984 -3.926605 63.398786 -0.657180 1.070764 0.942310 -0.579238 -0.200176 0.915643 0.494433 -0.727499 -0.785077 0.530384 -0.177794 -0.560845 -0.390403 0.163763 0.008586 -0.465042 0.199906 0.340973 -0.160764 -0.083405 0.112172 0.256522 0.061780 -0.175475 0.085965 -0.116673
<VARIANCE> 39
17.139023 28.584310 35.793283 38.640807 33.552663 46.446733 31.596615 39.962190 42.212625 56.444642 31.990872 35.785163 20.188736 0.549259 0.832954 1.546495 1.156021 1.215189 1.660832 1.502439 1.511579 1.494562 1.221050 1.050001 0.981752 0.251820 0.069986 0.132667 0.205003 0.171190 0.253763 0.260629 0.361424 0.242904 0.274640 0.199144 0.219533 0.168524 0.038794
<MIXTURE> 2 0.409520
<MEAN> 39
-2.484432 -10.448743 15.628734 -14.611152 -21.136639 -18.054354 -4.963877 -7.564326 -19.478398 5.810572 -7.827495 -8.266628 61.229712 -1.251494 1.809927 1.887952 -2.277005 -0.257856 2.554326 -0.834047 -2.924173 1.309044 0.898183 -1.747652 0.424243 -0.167687 0.246021 0.137080 -0.653264 0.370357 0.732178 -0.340218 -0.666769 0.482476 0.479240 -0.787176 -0.016023 0.323514 -0.212569
<VARIANCE> 39
12.778535 27.588848 32.513058 39.211728 22.122982 44.500287 47.998527 61.781226 44.505879 38.057465 51.804116 24.776373 14.860977 0.369509 0.606101 1.296961 1.564560 1.732047 2.426799 2.186411 2.233665 2.067708 2.725650 1.717351 1.340225 0.215860 0.049997 0.118258 0.183755 0.226023 0.357136 0.330690 0.499397 0.361298 0.516900 0.331855 0.366275 0.199850 0.025403
<STATE> 3
<NUMMIXES> 2
<MIXTURE> 1 0.396267
<MEAN> 39
-3.904721 -1.600959 22.253735 -9.031389 -18.039785 -7.421922 -10.564369 -8.481980 -13.811870 -1.893880 -3.266921 -5.843311 57.312058 -0.243046 1.221432 -1.181182 1.301731 0.920926 0.254821 1.434002 -0.228720 0.493974 -0.051554 -0.005775 -0.091030 -1.229928 -0.217377 0.008240 -0.832122 0.607308 0.637262 -0.106273 0.436276 0.396532 0.467103 -0.096021 0.182221 0.159620 -0.297249
<VARIANCE> 39
11.745531 41.070106 36.244876 93.746874 37.658745 77.663132 51.674580 93.833614 48.466546 70.451428 111.385068 39.373616 38.237427 1.357900 2.451659 2.360365 3.784508 2.863420 4.794595 3.720654 3.483131 3.152578 4.550480 3.590590 2.381375 1.071645 0.333007 0.377680 0.432473 0.630651 0.542024 0.738822 0.640426 0.695682 0.599172 0.620247 0.669606 0.479640 0.266752
<MIXTURE> 2 0.603733
<MEAN> 39
-6.041064 -0.347522 18.217893 -20.743243 -17.357987 -10.543887 -12.337091 -15.714545 -11.225081 1.054861 -12.938608 -3.329362 57.845324 -0.127338 0.926806 0.052372 0.015530 0.359817 0.644932 -0.564555 -0.589396 0.525193 -0.746187 -0.247055 0.368254 -0.642063 0.104605 -0.161804 -0.234001 0.432100 -0.067604 -0.146139 0.295436 0.206672 -0.140189 -0.033793 0.257084 -0.152380 -0.080011
<VARIANCE> 39
10.468505 38.347673 20.531738 33.613217 27.865261 41.151647 37.423343 37.958167 54.121099 46.507029 46.808082 31.897486 24.812981 0.345072 0.939076 0.756165 1.499555 1.280494 1.247770 1.601434 1.326551 1.528576 1.677912 1.542299 1.232913 0.352910 0.073505 0.114311 0.157529 0.317843 0.212115 0.273590 0.248225 0.272833 0.261872 0.295829 0.303892 0.204978 0.048158
<STATE> 4
<NUMMIXES> 2
<MIXTURE> 1 0.539382
<MEAN> 39
-6.629014 2.391580 15.230316 -1.160090 -11.456258 -5.862248 -4.499314 -8.974803 -10.372418 -4.672407 -2.791978 -4.854321 50.542081 -1.931540 0.487076 -3.050710 2.170390 2.728783 0.603810 1.991013 1.602815 2.049286 0.265962 0.768562 0.535859 -1.926880 -0.438840 -0.461222 -0.431783 -0.440285 0.166177 0.233427 -0.120657 0.535118 0.424514 0.366460 0.092621 0.173435 -0.002465
<VARIANCE> 39
24.302765 30.993388 50.853133 61.151165 61.873513 93.218704 65.361184 93.737139 40.770347 42.175541 62.738441 31.908902 68.350497 4.018581 5.310665 3.245762 6.102678 4.931307 6.734713 5.452209 7.163060 5.803264 5.807334 7.699883 3.858745 2.878568 0.433845 0.515566 0.563157 0.677666 0.806688 0.927522 0.767624 0.922083 0.721315 0.777597 0.647183 0.522267 0.262339
<MIXTURE> 2 0.460618
<MEAN> 39
-8.473038 -2.394390 7.580750 -5.920675 -8.908499 -4.343923 -3.418972 -4.271161 -3.284328 0.501647 -3.057931 -2.748728 46.667886 -0.351462 -0.369578 -2.528361 0.512159 1.313043 0.971932 0.778845 1.102517 0.989610 -0.088124 0.196054 -0.051979 -1.339045 0.212617 0.084865 0.306973 -0.213868 -0.203486 -0.025488 -0.127388 -0.288723 -0.530469 -0.259674 -0.146385 -0.118323 0.280611
<VARIANCE> 39
48.570319 41.026902 58.562709 107.841664 81.738435 125.741975 95.078336 108.066603 84.374464 77.107798 84.828360 40.132075 89.105347 3.330407 4.223240 4.184681 5.295069 5.323929 6.642666 5.493637 7.638500 6.764412 6.098971 5.401196 3.252822 4.016695 0.390716 0.667403 0.763582 0.942524 1.229197 1.274044 1.185832 1.309014 1.151082 1.034520 1.130221 0.666841 0.991596
<TRANSP> 5
0.000000 1.000000 0.000000 0.000000 0.000000
0.000000 0.804413 0.195587 0.000000 -0.000000
0.000000 0.000000 0.817197 0.182803 0.000000
0.000000 0.000000 0.000000 0.740492 0.259508
0.000000 0.000000 0.000000 0.000000 0.000000
<ENDHMM>
~h "ow"
<BEGINHMM>
<NUMSTATES> 5
<STATE> 2
<NUMMIXES> 2
<MIXTURE> 1 0.601784
<MEAN> 39
2.809933 -12.604004 -4.372004 -13.813255 -5.716499 -2.689050 -8.032148 -0.552606 -4.356564 0.567384 -4.032999 -10.271361 62.637903 0.278416 -0.282736 0.090949 -1.075409 -0.223580 1.011457 0.076227 -0.379997 -0.179127 0.031640 0.142039 -0.697113 1.200965 -0.222346 0.377154 0.071976 0.257347 -0.029822 -0.030523 -0.057720 -0.088821 0.092649 -0.000393 0.129262 0.341341 -0.572387
<VARIANCE> 39
19.556946 38.674444 39.949495 56.327137 56.256222 113.665180 75.031701 67.636659 69.024971 82.251073 156.565245 55.339218 36.109747 1.232079 1.626935 1.687339 1.813623 2.405457 2.443618 2.980161 2.706735 2.560104 2.614074 3.405161 2.398925 2.459966 0.300659 0.293645 0.262220 0.354366 0.382598 0.350409 0.442338 0.425178 0.461613 0.459298 0.557460 0.399370 0.666839
<MIXTURE> 2 0.398216
<MEAN> 39
-8.194380 -7.012835 -4.496431 -8.213901 -1.646970 -2.363387 -1.828366 -0.239670 1.013735 0.733551 -4.895029 -3.741875 45.396541 2.326798 -2.081496 -0.620206 -2.214500 0.181787 0.110950 -0.740235 -1.034306 -1.410189 -1.056439 -1.793799 -1.343842 4.663439 0.312673 -0.036387 0.040840 -0.301821 -0.227415 -0.003073 -0.233998 -0.124145 -0.151406 -0.028973 0.024036 -0.185072 0.575361
<VARIANCE> 39
52.716567 59.688281 30.863656 72.384792 44.672563 64.572619 47.353644 54.387360 55.011887 65.520453 89.853792 49.972464 173.941061 5.997557 5.463309 3.727073 7.842817 5.074411 5.362678 5.359158 5.705761 5.844825 5.971752 8.194232 5.126764 15.828692 1.301132 1.262034 0.660599 1.457502 0.794742 0.868937 0.883429 1.065476 1.228704 1.017178 1.400890 0.819379 3.708481
<STATE> 3
<NUMMIXES> 2
<MIXTURE> 1 0.511266
<MEAN> 39
6.131147 -7.444281 -1.285271 -17.138164 -11.456863 5.427073 -8.916670 -3.937422 -4.994295 -0.033913 4.954308 -7.428565 63.421426 0.151840 0.752637 0.250002 -0.193816 -0.384660 0.137850 0.144417 -0.271611 -0.518634 -0.238780 -0.000619 0.449645 -0.487483 -0.026024 0.062980 -0.011181 0.158113 0.106924 -0.131608 -0.018630 0.041781 0.031350 -0.018409 -0.140057 0.004321 -0.120792
<VARIANCE> 39
11.971439 43.055379 33.147006 64.271529 63.171384 73.622573 72.739447 61.014717 74.107569 74.517497 99.613750 50.514391 31.564649 0.232216 0.654824 0.586443 0.988234 1.030737 1.113763 1.255605 1.166336 1.314166 1.391640 1.534223 1.337727 0.440779 0.038010 0.087852 0.090747 0.134795 0.149324 0.150192 0.180011 0.161358 0.183912 0.204628 0.205110 0.190136 0.038509
<MIXTURE> 2 0.488734
<MEAN> 39
2.343877 -12.616181 -7.378597 -18.042779 -4.190805 -7.438513 -9.301562 -3.832185 -7.447278 -1.975984 -14.896919 -9.348515 62.998248 0.183995 0.789045 0.010298 -0.442021 -0.144353 0.298329 -0.521514 -0.735125 0.025212 0.406636 0.220413 0.164891 -0.447964 0.016898 0.110235 0.074197 0.079235 -0.035111 -0.061537 -0.023924 -0.002928 -0.033703 -0.055654 0.134842 0.131476 -0.124548
<VARIANCE> 39
13.662086 49.997454 30.008077 54.262138 42.477030 71.921816 64.993427 70.337451 58.248848 76.689426 58.058275 42.338988 27.883467 0.258544 0.529260 0.560125 0.864750 0.946284 1.516871 1.248728 1.584001 1.648364 1.637243 1.560695 1.453531 0.264985 0.034468 0.070732 0.077546 0.134887 0.141676 0.164730 0.197289 0.210043 0.227245 0.263399 0.186864 0.194458 0.028793
<STATE> 4
<NUMMIXES> 2
<MIXTURE> 1 0.464525
<MEAN> 39
1.469084 0.610939 0.240458 -5.795201 -4.542326 0.322542 -5.259025 -5.392040 -6.939052 -3.659644 -1.749252 -4.385068 50.439282 -2.546192 0.470221 0.593518 2.919552 1.899718 -0.039072 1.477460 0.640705 1.112567 0.151941 0.014295 0.478617 -1.717477 -0.490497 -0.299406 -0.199213 -0.195219 0.049514 0.059180 0.077039 0.288826 0.234563 0.294820 0.209094 0.103581 0.040443
<VARIANCE> 39
40.549546 33.630818 30.615344 84.221227 77.637319 84.454767 92.553703 60.315932 50.768364 60.097492 77.033461 36.674787 68.116488 4.029245 5.210218 3.303531 6.355443 4.535748 5.310619 5.266578 5.102184 5.190692 6.361332 7.336246 3.512053 2.107893 0.672468 0.639350 0.509265 1.161060 0.946542 0.744544 0.915783 0.796090 0.741677 0.878938 0.778059 0.577605 0.342660
<MIXTURE> 2 0.535475
<MEAN> 39
3.470570 -3.673977 -4.390892 -14.844607 -6.193449 -2.625390 -9.954072 -6.530475 -8.244743 -0.065950 -4.618155 -5.322209 54.218409 -0.630546 0.740077 0.576777 1.447198 -0.001969 -0.449165 0.253159 -0.024091 0.518242 -0.484618 -0.103365 0.165090 -1.214286 -0.299775 0.054030 0.199636 0.506379 0.086302 -0.056295 0.312600 0.155032 0.127401 -0.216985 -0.033489 -0.070147 -0.058567
<VARIANCE> 39
28.545997 53.062960 40.010638 102.708139 62.769989 100.963585 91.296961 71.402964 88.303320 96.999747 119.894376 51.496842 68.063786 1.210828 3.040645 2.186610 3.749155 3.057983 3.386564 3.939137 4.716745 5.337816 5.392513 4.287994 3.763347 1.650191 0.284051 0.449670 0.358047 0.709984 0.559948 0.655180 0.731640 0.756729 1.085726 0.948211 0.883696 0.703923 0.345482
<TRANSP> 5
0.000000 1.000000 0.000000 0.000000 0.000000
0.000000 0.751188 0.248812 0.000000 -0.000000
0.000000 0.000000 0.906769 0.093231 -0.000000
0.000000 0.016491 0.000000 0.839711 0.143798
0.000000 0.000000 0.000000 0.000000 0.000000
<ENDHMM>
~h "sp"
<BEGINHMM>
<NUMSTATES> 3
<STATE> 2
<NUMMIXES> 2
<MIXTURE> 1 0.434524
<MEAN> 39
-13.706291 1.741042 -0.222881 1.211729 0.007011 -0.097472 1.166786 1.533886 2.029863 1.357120 1.334191 0.185057 30.951392 -0.351373 0.201719 0.204142 0.149034 0.178004 0.233688 0.249228 0.290083 0.508995 0.561153 0.432638 0.207362 -0.335275 0.122327 -0.130789 -0.043478 -0.054737 -0.058099 -0.074809 -0.090280 -0.081392 -0.161812 -0.150331 -0.103493 -0.051229 0.212058
<VARIANCE> 39
13.629768 7.729085 9.873933 12.116184 14.469237 15.922566 14.925077 15.291355 17.742978 18.966240 17.395594 12.707526 8.052042 0.498392 0.771119 0.957800 0.898813 1.212514 1.419396 1.479139 1.648856 1.760109 1.789100 1.637938 1.333551 0.370197 0.116086 0.151153 0.176367 0.201714 0.250336 0.291287 0.302355 0.334758 0.365040 0.348816 0.327249 0.269621 0.112817
<MIXTURE> 2 0.565476
<MEAN> 39
-11.740210 -1.863263 -1.988202 0.762017 -0.773452 -1.570172 -0.086892 1.230529 -0.400086 -1.959774 -0.567620 -0.193586 34.243385 -0.025564 0.027509 -0.120849 -0.167821 -0.317057 -0.290015 -0.239705 -0.273224 -0.252748 -0.200985 -0.222820 -0.169223 -0.045838 0.034688 0.038932 0.108640 -0.024199 -0.031063 -0.022808 -0.015345 -0.048304 -0.044623 0.019824 -0.017499 -0.055786 0.140491
<VARIANCE> 39
15.716397 24.697742 16.375444 13.034627 21.659444 23.213222 25.462944 25.810511 32.117919 36.009270 28.632034 18.881014 17.939065 0.549669 1.248207 1.068093 1.053679 1.380669 1.588370 1.638537 1.733661 1.946757 1.986020 1.767028 1.477195 0.683854 0.155529 0.232715 0.224630 0.243408 0.305119 0.334674 0.340140 0.388741 0.431760 0.432236 0.397940 0.321629 0.214411
<TRANSP> 3
0.000000 0.075754 0.924246
0.000000 0.938110 0.061890
0.000000 0.000000 0.000000
<ENDHMM>
~h "th"
<BEGINHMM>
<NUMSTATES> 5
<STATE> 2
<NUMMIXES> 2
<MIXTURE> 1 0.448191
<MEAN> 39
-15.226540 0.977929 0.635091 2.661156 -2.072400 -1.493017 -0.592918 -1.044605 -0.136088 -1.069194 0.709110 -0.996823 45.335443 -1.277167 -0.121804 -0.094116 -0.191155 0.423554 1.039481 0.871354 0.879500 1.052987 0.835059 0.696013 0.617977 -0.410132 0.449508 -0.344558 0.150882 -0.314468 -0.319464 -0.232069 -0.177091 -0.083080 -0.239369 0.002528 -0.120462 -0.149979 0.359533
<VARIANCE> 39
24.529910 33.511875 26.668734 28.441880 30.132356 27.903799 29.795027 25.672524 26.295958 22.673143 21.480333 16.884675 77.910802 4.023394 3.343268 3.803765 3.405656 2.895873 3.287789 3.356824 3.747365 3.397899 2.961807 3.331888 2.354433 9.040699 0.601434 0.825518 0.879185 0.862334 0.725877 0.765895 0.839734 0.766761 0.729229 0.625784 0.705752 0.491213 1.554118
<MIXTURE> 2 0.551809
<MEAN> 39
-17.349312 -1.403899 -1.613918 1.236547 -2.802340 -0.103583 -0.322078 0.485078 1.038475 0.454845 2.274924 -0.190542 41.439846 -0.115114 -1.023647 -0.751141 -1.120741 -0.953301 -0.447225 -0.310731 -0.415162 -0.156625 -0.314564 -0.013346 -0.060165 2.681257 0.528450 0.095667 0.450660 -0.127574 -0.160961 -0.365057 -0.101407 -0.265867 -0.254790 -0.159937 -0.272339 -0.191984 0.881491
<VARIANCE> 39
18.983754 24.847491 16.589824 17.687838 20.927881 19.614017 19.081242 16.415316 17.089087 16.931886 13.565945 12.297300 72.132914 1.879915 2.322858 2.005624 2.131484 2.092528 2.192674 2.425325 2.330465 2.183802 2.095832 1.858488 1.599954 9.290381 0.502177 0.487734 0.607052 0.456712 0.494652 0.565351 0.565135 0.541791 0.494341 0.495783 0.420757 0.362786 1.405151
<STATE> 3
<NUMMIXES> 2
<MIXTURE> 1 0.594004
<MEAN> 39
-14.583141 -4.905006 4.472161 -1.504887 -4.799667 -2.169868 1.433475 0.869232 1.083063 1.397621 1.828812 -1.296307 56.426634 2.182238 -0.904465 1.994210 1.299242 0.058507 -0.660228 -0.419557 0.372755 -0.331836 -0.143718 -0.175803 -0.437372 0.699334 0.913504 0.122467 -0.414996 0.547410 0.326036 -0.394215 -1.034894 -0.368617 -0.192954 -0.366299 -0.252159 -0.041485 -0.841222
<VARIANCE> 39
29.697304 25.062716 47.748618 39.501865 25.349850 32.748299 36.186508 27.237164 26.831776 22.874533 20.432872 17.642900 18.207241 4.759986 3.344845 5.784491 5.429116 3.990469 3.939021 6.574251 4.217717 3.137464 3.157526 2.289512 2.165910 4.775329 0.679774 0.650523 1.669480 1.405400 0.792125 1.027399 1.270340 0.981501 0.839779 0.629434 0.569480 0.553228 0.887210
<MIXTURE> 2 0.405996
<MEAN> 39
-11.027654 -4.188035 5.394411 1.104385 -5.277697 -4.760906 -0.786419 -0.943382 -1.080928 -3.044783 -0.832485 -2.074764 54.622947 4.282055 -0.526776 0.237425 -0.128770 -0.702919 -3.458726 -3.639503 -1.644530 -1.600940 -1.070217 -1.731571 -1.252304 1.193247 0.851430 -0.259715 -0.825579 -0.307333 0.145379 -0.588127 -1.203721 -0.114636 -0.250266 0.163537 0.037783 -0.119014 -0.392528
<VARIANCE> 39
37.198502 29.759772 52.649098 47.194461 33.523608 34.226251 38.815770 43.106581 31.688520 25.980885 25.775822 20.652671 27.917642 4.154950 3.163031 8.119774 5.216268 5.190031 6.073449 6.619449 4.216339 4.563964 3.208251 3.470783 3.063381 7.416882 0.641929 0.781341 1.702160 1.378502 0.883023 1.228322 1.137460 1.199678 1.030748 0.696508 0.744220 0.622868 1.407199
<STATE> 4
<NUMMIXES> 2
<MIXTURE> 1 0.547450
<MEAN> 39
9.636403 -7.432732 -5.330059 0.860618 2.294653 -6.916714 -22.580082 -8.512888 0.758864 -1.415218 -0.626092 -1.817775 57.396967 2.012740 -1.059967 -1.173307 -0.115551 0.391089 -0.954585 -3.371798 0.376551 0.851509 -0.922738 -0.296558 0.405148 0.835090 -1.213348 -0.270125 1.121483 0.247420 -0.882669 -0.448123 1.105606 1.107924 -0.148811 -0.313373 0.157360 0.020768 0.190077
<VARIANCE> 39
16.008533 18.052619 46.577708 34.275773 36.371170 52.224543 63.835097 52.174326 36.814776 28.146510 28.579134 22.481782 18.350245 5.450527 1.933292 6.209342 3.565199 4.871551 5.429457 8.199550 8.581076 3.229603 3.744583 2.385673 2.096470 1.034703 0.447041 0.306760 0.781146 0.702428 0.623293 0.790820 1.280597 0.705466 0.804470 0.519225 0.485358 0.398758 0.128544
<MIXTURE> 2 0.452550
<MEAN> 39
2.252899 -7.575064 1.824167 -1.779829 -8.216563 -17.102185 -13.589462 -5.015050 -7.165871 -4.247641 -4.259316 -6.700452 56.270150 3.907598 -1.810951 -1.892827 -0.394297 0.517091 -3.232660 -3.704556 0.160768 -1.558195 -0.078915 -0.456909 -0.594777 0.397026 -0.863066 -0.068585 -0.323602 -0.111021 0.368730 0.683750 0.711284 0.602087 0.253282 0.269651 0.394029 0.462594 -0.112031
<VARIANCE> 39
22.673489 22.994997 43.803234 41.269639 49.427477 51.157644 35.862868 35.046953 31.983449 32.513716 31.716923 23.280346 22.835284 4.077873 3.537320 6.798904 4.755815 4.972306 8.393020 7.239027 6.612803 5.096218 3.728308 3.923689 3.243104 1.812654 0.475327 0.482870 1.704114 0.804204 1.096751 0.952117 1.151665 0.810927 0.735166 0.691286 0.733148 0.537796 0.634859
<TRANSP> 5
0.000000 1.000000 0.000000 0.000000 0.000000
0.000000 0.842748 0.157252 0.000000 0.000000
0.000000 0.000000 0.764477 0.235523 0.000000
0.000000 0.000000 0.000000 0.745323 0.254677
0.000000 0.000000 0.000000 0.000000 0.000000
<ENDHMM>
~h "uw"
<BEGINHMM>
<NUMSTATES> 5
<STATE> 2
<NUMMIXES> 2
<MIXTURE> 1 0.482629
<MEAN> 39
-5.277828 -4.959107 14.265580 3.359004 -9.824884 -8.964470 -8.472163 3.482221 -4.852010 -7.015916 2.104916 -2.653922 60.412921 4.341357 -1.345284 1.362143 1.192936 -2.468673 -0.607324 -4.275070 -1.190219 -0.692858 -1.716928 0.836131 -1.237868 1.876751 -0.705060 -0.215423 -0.424669 -0.639276 -0.081215 0.195470 -0.289616 -0.062107 0.072089 0.099983 0.384907 0.120392 0.245822
<VARIANCE> 39
52.510196 20.926233 25.289567 26.412973 43.360106 23.928529 73.426663 33.472668 40.497751 39.068761 27.778627 22.361553 38.146621 3.400934 2.063739 2.826078 3.270624 3.239595 3.315627 3.815245 3.930664 3.708729 4.640225 3.295256 2.386511 1.484672 0.975681 0.361852 0.337254 0.296461 0.743459 0.415479 1.480950 0.612940 0.451110 0.591673 0.456157 0.375424 0.579906
<MIXTURE> 2 0.517371
<MEAN> 39
-8.125349 -2.287227 11.465070 -9.276772 -15.325836 -12.680517 -3.555502 -9.753208 -13.452389 -1.375543 -5.990727 -3.772310 58.118154 3.938850 -1.377887 1.296616 -2.036546 -2.944832 -3.525418 -3.523862 -1.302711 -2.784600 -0.316382 -3.159813 -0.553531 1.125184 -0.808902 -0.198072 -0.491455 -0.251854 0.504398 0.219949 0.242569 0.718836 0.453806 0.721356 0.340453 0.110059 0.300713
<VARIANCE> 39
45.586324 23.674011 19.668072 43.536087 38.983619 57.025368 63.313404 45.636521 51.607493 33.565474 43.464706 19.654006 20.777593 3.743345 2.686638 2.915086 2.599667 3.578921 3.698338 4.888451 5.158437 4.912455 5.617218 3.474741 2.508850 1.051194 0.807684 0.331034 0.305775 0.735090 0.679216 1.113299 1.268170 0.573153 0.774029 0.584275 0.956217 0.384103 0.289616
<STATE> 3
<NUMMIXES> 2
<MIXTURE> 1 0.511300
<MEAN> 39
0.358173 -9.117120 15.159869 1.076750 -15.760144 -10.960374 -18.924210 -0.880495 -6.787427 -8.966962 3.550292 -5.378895 63.874856 0.227621 -0.023643 -0.250091 -0.080060 0.373176 0.109989 -0.638542 -0.191463 -0.036174 0.354484 -0.018993 -0.335298 -0.229876 -0.303346 0.325642 -0.194946 0.056364 0.444266 0.227318 0.506658 -0.049499 0.110316 0.200681 -0.033152 0.047598 -0.308907
<VARIANCE> 39
14.310935 20.744479 32.675760 79.532283 38.715275 46.247439 53.607349 54.094556 73.258510 80.931415 64.041902 33.923040 24.429769 0.402643 0.949045 1.005766 0.904717 1.344447 1.240342 1.619489 1.476487 1.267936 1.620335 1.264266 1.100011 0.547411 0.256051 0.184072 0.185144 0.256835 0.341322 0.309347 0.425606 0.282932 0.336253 0.309293 0.350510 0.203682 0.148800
<MIXTURE> 2 0.488700
<MEAN> 39
-2.988381 -7.097618 12.964117 -12.708108 -18.159723 -20.308732 -8.948661 -6.840989 -17.616083 2.007127 -10.126074 -2.791494 60.511861 0.312021 0.139165 -0.320231 0.479421 0.566691 -0.249025 -0.483853 0.184612 0.110369 -0.279176 -0.350192 0.190864 -0.441715 0.011188 0.178554 -0.148955 0.134809 0.144441 0.145157 -0.059714 -0.147111 0.206030 -0.170211 0.010030 -0.035293 -0.124369
<VARIANCE> 39
10.083269 22.901190 28.374048 33.236787 32.481163 34.321516 50.710191 55.696580 50.968136 43.495146 40.394626 28.084091 18.360723 0.225788 0.406090 0.793383 0.604685 0.939828 0.845928 1.202022 1.006472 1.488731 1.308414 1.161686 0.980036 0.170841 0.054573 0.090540 0.102781 0.156427 0.154346 0.189900 0.183822 0.210922 0.230299 0.266026 0.231751 0.177613 0.032684
<STATE> 4
<NUMMIXES> 2
<MIXTURE> 1 0.487430
<MEAN> 39
0.029007 -0.229297 4.743904 0.338211 -5.832034 -4.353369 -10.536971 -7.516084 -8.744974 -4.630654 -0.569701 -5.117106 50.784707 -1.597403 0.419625 -0.516382 0.864617 1.024227 0.641559 2.006069 0.640746 1.102784 0.205261 0.002962 0.595130 -1.290298 -0.390616 -0.128893 -0.046751 -0.092501 0.086793 -0.012278 0.189046 0.351658 0.209445 0.202079 -0.005342 0.092890 -0.015616
<VARIANCE> 39
36.065093 38.065248 59.713294 59.605617 69.378843 97.179154 102.148178 64.282873 63.890871 70.514521 86.417126 42.849144 75.902243 2.943141 3.839646 2.720609 4.191607 4.190975 5.384035 4.831578 5.207625 5.472864 5.354212 5.755304 3.319044 1.630283 0.494257 0.602659 0.461392 0.620317 0.687073 0.745862 0.870061 0.789923 0.792008 0.782384 0.684993 0.544442 0.297239
<MIXTURE> 2 0.512570
<MEAN> 39
3.077542 -2.937099 3.696670 -7.062787 -7.521269 -9.864325 -18.103360 -9.010685 -10.187624 -0.350821 -5.027494 -6.073723 56.442412 0.300096 0.856107 -1.100960 -0.226229 0.685599 1.307206 0.403151 -0.941044 -0.044796 -0.000265 0.360374 -0.241734 -0.911940 -0.182404 0.043827 0.114502 0.143786 -0.191901 0.078501 0.428311 0.131519 -0.039254 -0.203350 0.185666 0.090192 -0.050579
<VARIANCE> 39
14.636766 33.428320 43.467128 71.585068 45.925898 126.297142 73.649306 67.054184 69.273218 86.068971 164.495998 53.514164 41.090402 0.641846 1.279297 1.507903 2.483982 2.529780 2.623192 3.388736 3.414112 4.097955 4.364461 2.783342 2.172169 0.541792 0.107720 0.198627 0.191259 0.358480 0.352085 0.522967 0.483164 0.599155 0.623867 0.600485 0.560884 0.429924 0.078215
<TRANSP> 5
0.000000 1.000000 0.000000 0.000000 0.000000
0.000000 0.714968 0.285032 0.000000 0.000000
0.000000 0.000000 0.886917 0.113083 -0.000000
0.000000 0.000000 0.000000 0.869292 0.130708
0.000000 0.000000 0.000000 0.000000 0.000000
<ENDHMM>
~h "sil"
<BEGINHMM>
<NUMSTATES> 5
<STATE> 2
<NUMMIXES> 2
<MIXTURE> 1 0.513702
<MEAN> 39
-8.967653 2.034674 0.932350 2.845748 0.485637 0.014659 0.808770 -0.646312 -1.879580 -1.811696 -1.214986 -1.097697 34.800975 -0.316837 0.556258 0.224979 0.163610 0.282322 0.288291 0.277260 0.341846 0.543824 0.475514 0.364608 0.143404 -0.513152 -0.008320 -0.061061 0.043390 -0.014716 -0.019587 -0.028738 -0.018231 0.028432 0.030047 0.026969 0.024649 -0.010822 0.066235
<VARIANCE> 39
15.060902 26.604414 24.535859 18.409420 19.190084 19.910327 20.393850 22.310965 23.530750 23.791849 19.802714 16.994300 10.237990 0.453873 0.963270 1.047350 1.092731 1.303385 1.511987 1.643911 1.781151 1.836291 1.920027 1.668655 1.465804 0.301572 0.083990 0.166678 0.218434 0.240836 0.278438 0.321993 0.374318 0.405819 0.423327 0.417237 0.387489 0.344665 0.041345
<MIXTURE> 2 0.486298
<MEAN> 39
-10.331296 -4.495220 -1.100745 -0.013908 -2.216854 -3.002368 -0.785149 0.240976 -2.701334 -3.265480 -0.799327 -0.970044 38.067764 -0.067300 0.254362 -0.239952 -0.091107 -0.083833 -0.053659 -0.181579 -0.242202 -0.098842 -0.141736 -0.158856 -0.041610 -0.401778 -0.018746 0.125592 0.076295 0.023051 0.045688 0.038117 0.018281 -0.041878 0.017414 0.059324 0.010073 -0.018805 -0.020986
<VARIANCE> 39
13.480178 30.330578 20.376373 20.531897 26.891101 28.351844 28.625398 32.861909 31.085394 33.665702 25.877120 22.221877 23.794546 0.505107 0.940538 0.855103 1.094887 1.258678 1.453798 1.598902 1.690491 1.769907 1.833830 1.579254 1.448491 0.493436 0.087458 0.146359 0.185404 0.235017 0.296133 0.338054 0.389708 0.409681 0.431887 0.457831 0.404297 0.352956 0.053000
<STATE> 3
<NUMMIXES> 2
<MIXTURE> 1 0.492500
<MEAN> 39
-14.926015 2.007267 0.069450 1.203060 0.040970 -0.067081 1.093607 1.712517 2.447018 1.590321 1.834372 0.373119 29.840508 -0.133600 0.103777 0.210520 0.242112 0.297085 0.315278 0.309364 0.355447 0.476752 0.491185 0.363027 0.196999 -0.114220 0.065037 -0.076095 -0.041438 -0.024074 -0.040189 -0.040878 -0.035765 -0.059983 -0.098209 -0.073124 -0.036114 -0.011449 0.102045
<VARIANCE> 39
