~h "f"
<BEGINHMM>
<NUMSTATES> 5
<STATE> 2
<NUMMIXES> 2
<MIXTURE> 1 0.393465
<MEAN> 39
-16.960831 -5.095016 0.922491 2.967564 -0.312736 0.230274 -1.630195 0.349801 0.117184 0.232843 0.453577 -1.873738 46.080115 -1.447612 -0.732721 -0.343135 0.150332 0.238865 0.650404 0.608215 0.781526 0.877102 0.759702 0.599851 0.386644 -0.301137 0.633091 0.010453 -0.190397 -0.463550 -0.349867 -0.288342 -0.269501 -0.259115 -0.342005 -0.172476 -0.130899 -0.090303 0.311413
<VARIANCE> 39
25.860828 20.827332 18.295790 17.325497 19.986948 20.408448 19.808463 20.726658 21.196683 20.344027 17.782048 15.920514 53.038056 3.635174 2.398543 2.242965 1.933641 1.889773 1.953329 2.039487 2.456403 2.703182 2.374113 2.171259 2.027074 2.506814 0.667005 0.425467 0.465711 0.562590 0.460408 0.446397 0.505904 0.560308 0.612249 0.516563 0.511597 0.430857 0.499268
<MIXTURE> 2 0.606535
<MEAN> 39
-19.683800 -8.159485 -1.910889 0.236542 -2.893201 -1.517932 -2.695222 -0.028777 0.157329 0.637472 1.247182 -0.958718 47.170530 -0.119360 -0.520168 -0.556156 -0.503652 -0.394905 -0.281930 -0.388214 -0.388170 -0.276258 -0.151058 -0.071718 -0.039896 0.671319 0.738005 0.282406 0.139289 -0.074112 0.057672 -0.000536 -0.041185 -0.160655 -0.220121 -0.172241 -0.196401 -0.195007 0.244176
<VARIANCE> 39
12.952883 16.041673 12.672497 14.213109 14.366372 16.322812 16.731383 16.626837 16.560411 15.645730 13.777686 11.969223 39.052890 1.518406 1.269528 1.206042 1.388580 1.458972 1.483254 1.537970 1.607828 1.649875 1.569970 1.429884 1.307974 2.340296 0.544178 0.286772 0.283340 0.379768 0.315934 0.337220 0.373744 0.405318 0.425336 0.372483 0.364272 0.314046 0.389597
<STATE> 3
<NUMMIXES> 2
<MIXTURE> 1 0.539882
<MEAN> 39
-14.816631 -8.203294 -2.635194 -0.665717 -1.727122 -0.727331 -2.899976 -1.421596 -1.062557 0.478790 0.670692 -1.845516 52.188587 4.985296 1.528632 0.408393 -2.057764 -1.143150 0.458896 0.139678 -0.138046 -0.796545 -0.875906 -0.086968 -0.853687 1.332876 1.366004 0.376630 0.099919 -1.214542 -0.994872 0.217649 -0.129333 0.090909 -0.308002 -0.364655 0.091479 -0.412470 0.302648
<VARIANCE> 39
32.189215 14.617454 12.528635 13.814445 17.297437 18.136489 17.356851 15.798156 15.592059 14.330344 14.265925 11.514885 22.495905 4.539405 2.937563 1.894531 4.472765 5.001288 2.701702 2.219530 2.759150 2.732236 2.783979 2.689952 1.957211 2.911226 0.669208 0.731330 0.427610 0.576161 0.689531 0.674335 0.562525 0.659918 0.624637 0.561291 0.754233 0.407723 0.570225
<MIXTURE> 2 0.460118
<MEAN> 39
-15.645680 -7.226224 -1.610772 -0.752492 -3.209949 -2.314707 -3.547843 -1.408067 -0.882121 -1.102508 -0.179519 -1.955880 49.318088 5.444932 -0.254298 -1.610945 -3.608440 -1.150961 -0.694022 -1.386589 -1.746466 -2.026413 -1.072993 -2.047408 -1.725939 3.543503 1.137702 -0.239016 -0.435241 -1.269644 -0.165318 0.151337 -0.128020 -0.210452 -0.511844 -0.030943 -0.578297 -0.482284 0.554629
<VARIANCE> 39
27.462338 18.383791 13.538231 15.184706 16.145420 16.324840 16.476259 18.369423 18.438388 15.533391 14.934962 12.527226 40.991123 4.875653 4.544235 1.918918 5.617110 2.627746 2.844877 2.802345 2.953446 3.751750 2.812978 4.703767 3.119283 4.853525 0.718816 0.829413 0.376264 0.823719 0.584551 0.581883 0.588965 0.733893 0.645312 0.538463 0.806288 0.562316 0.785581
<STATE> 4
<NUMMIXES> 2
<MIXTURE> 1 0.512301
<MEAN> 39
4.249487 -15.767893 -6.870788 -16.418741 -4.887303 1.259632 -5.004846 -4.492467 -4.847150 -2.475083 -3.717108 -12.028428 65.891442 1.182201 -2.692491 -0.704857 -1.972647 0.671027 1.279047 0.079411 -0.378506 -0.302954 -0.549836 -0.668092 -1.305783 2.714435 -1.818651 0.406694 0.420223 1.345443 0.482299 -0.043545 0.232660 0.201845 0.410959 0.004419 0.154900 0.807431 -1.090984
<VARIANCE> 39
12.622958 27.195372 35.816128 43.591298 40.383165 66.323081 52.215906 62.945109 45.278514 52.564561 152.340850 43.732161 16.683875 4.577980 1.874319 1.984637 5.039962 3.156470 2.756452 3.080850 3.359378 3.301366 2.305247 5.050452 3.365268 2.359982 0.292036 0.353988 0.346714 0.446568 0.416470 0.559703 0.515022 0.562656 0.473808 0.551186 1.628601 0.519785 0.209066
<MIXTURE> 2 0.487699
<MEAN> 39
2.637268 -2.944159 -4.815171 -11.143383 -8.433657 -2.683427 -5.185020 -4.548216 -6.215784 -4.234329 -3.617842 -6.442345 56.160488 6.242185 0.040566 -1.073350 -5.481640 -2.494249 0.554022 -0.773813 -0.583566 -1.949361 -1.023215 -1.090506 -2.033131 3.064551 -1.316721 -0.668559 0.080145 0.155181 0.206903 0.337834 0.155224 0.372203 0.328714 0.275172 0.269922 0.162884 -0.149319
<VARIANCE> 39
23.822828 35.039034 22.567744 37.491383 29.175344 28.174830 27.747563 32.477325 28.094654 26.315786 41.915810 20.355849 27.847299 1.903119 8.369102 4.782957 5.903979 8.224206 5.729330 4.850002 6.558780 6.153603 5.288844 10.842627 4.435691 4.006314 0.367241 0.295848 0.260981 0.539033 0.419974 0.378596 0.413928 0.451267 0.412625 0.413328 0.452794 0.353201 0.377427
<TRANSP> 5
0.000000 1.000000 0.000000 0.000000 0.000000
0.000000 0.860245 0.139755 0.000000 -0.000000
0.000000 0.000000 0.616803 0.383197 -0.000000
0.000000 0.000000 0.000000 0.563828 0.436172
0.000000 0.000000 0.000000 0.000000 0.000000
<ENDHMM>
~h "k"
<BEGINHMM>
<NUMSTATES> 5
<STATE> 2
<NUMMIXES> 2
<MIXTURE> 1 0.564737
<MEAN> 39
-3.149120 -5.542850 12.381819 -1.947681 -16.080754 -19.216199 -3.495414 -2.596275 -14.096990 0.436640 -0.965570 -4.756305 54.835976 -0.888760 3.966202 -0.993897 3.398622 2.652804 1.398318 0.253755 -0.732628 0.568159 -0.628161 0.546671 0.631131 -6.395205 -0.684254 0.063152 -1.044301 -0.308993 0.849195 1.037987 -0.350873 0.159784 1.470280 -0.155349 0.040137 0.366863 -0.629436
<VARIANCE> 39
11.983090 30.474590 34.600862 89.846212 58.337208 44.452342 72.657221 169.938507 65.458517 87.294659 109.814422 39.532784 46.926053 2.250664 3.189697 3.811610 4.439770 3.770332 4.619621 6.531822 6.526962 6.767101 7.278502 8.048209 4.407799 3.381865 0.254712 1.087990 0.501490 1.121712 0.724310 0.652730 0.823751 1.769627 1.025853 1.438912 1.408982 0.706069 1.178782
<MIXTURE> 2 0.435263
<MEAN> 39
-6.893831 5.144432 7.528069 4.314589 -7.933871 -12.709801 -6.274480 -5.720732 -8.700978 -3.655571 -0.323437 -2.935498 38.186854 -2.604007 0.840893 -3.347676 0.892854 3.638368 3.166109 -0.287092 0.685802 3.398243 0.019257 0.735864 1.415464 -4.312306 -0.305903 -1.908936 -0.592470 -1.099973 -0.340819 0.010688 0.257931 0.707013 0.479792 0.557109 -0.048501 -0.019068 2.272506
<VARIANCE> 39
20.321508 30.796571 26.929748 31.791375 46.506690 32.495084 38.608679 65.085835 35.986001 36.863529 45.614244 37.345479 27.312835 1.957830 8.459396 3.563564 7.146679 4.454657 4.343200 5.979427 11.219471 5.946897 7.224767 9.274364 3.685295 9.367038 0.609210 1.104493 0.677143 0.630929 0.818224 0.865578 1.099369 0.988605 0.909984 1.059947 1.212806 0.873771 1.266747
<STATE> 3
<NUMMIXES> 2
<MIXTURE> 1 0.547612
<MEAN> 39
-13.685607 2.610014 1.083376 1.726113 -2.172566 -4.428410 -2.297337 -0.441927 0.832079 1.575469 2.810650 1.270041 31.490804 -0.747670 -2.271794 -2.763111 -0.105733 1.560555 1.567918 0.359020 0.986466 1.729620 0.312198 -0.226373 -0.014590 1.265940 0.452672 -0.952507 0.063373 -0.128758 -0.751672 -1.002034 -0.182328 -0.050517 -0.713844 -0.271499 -0.377368 -0.529961 2.502918
<VARIANCE> 39
9.120137 15.136947 9.805961 13.710484 18.527787 24.529918 22.803201 21.246017 18.496363 18.392881 18.269316 16.611815 12.550758 3.420403 6.994267 4.301330 2.824217 3.487855 4.890989 4.003310 4.909348 4.817443 3.393056 3.833761 3.190687 11.734778 0.470800 1.006127 0.563697 0.591776 0.759287 0.826898 1.006510 1.006254 0.645715 0.651024 0.705043 0.528379 1.106084
<MIXTURE> 2 0.452388
<MEAN> 39
-10.099207 -10.692018 -8.322922 2.630093 -0.773174 -5.929672 -5.609479 0.678776 0.084754 -0.800200 -0.261370 -2.104080 48.278816 -1.836064 -2.292602 -2.268258 -0.312351 0.056737 -1.190995 -0.308459 0.936627 0.944086 -0.236041 -0.363955 -0.467662 5.823669 -1.177296 1.501681 1.415932 -0.085784 -0.643481 -0.621713 0.424631 0.111095 -0.414951 -0.221220 0.197303 0.195254 -0.207019
<VARIANCE> 39
20.186676 40.850367 48.276565 27.050499 34.075767 41.392493 36.284451 33.492661 31.063887 24.991665 20.593221 16.339090 60.327111 5.882889 4.863576 4.606465 4.774420 4.105225 5.073122 4.711825 4.088060 3.948220 3.297297 3.060363 2.720570 4.237082 0.696700 0.992363 0.803488 0.585163 0.787961 0.987051 0.783536 0.886038 0.881298 0.692267 0.645307 0.540921 1.778102
<STATE> 4
<NUMMIXES> 2
<MIXTURE> 1 0.482285
<MEAN> 39
-17.242622 -6.870385 -6.564573 1.377761 -0.536411 -10.824661 -5.582183 2.195118 2.284811 -0.758846 0.014166 -2.194651 55.827062 -5.170892 2.056627 1.362983 -0.403076 -0.593191 -1.161002 1.516582 1.343348 0.472430 -0.641479 0.137520 0.629545 2.289204 -0.452077 1.292397 0.884419 -0.028714 -0.208541 0.624860 0.540178 -0.129137 -0.510536 -0.128381 0.188469 0.313688 -1.827111
<VARIANCE> 39
34.710959 22.467672 41.950928 33.757223 45.502470 35.721944 37.541768 27.963066 29.759845 23.673059 18.955260 16.341527 21.286490 2.361054 3.459198 3.478800 3.023903 3.998256 3.772420 2.789401 2.736772 2.929959 2.482411 2.625315 1.865794 3.619639 0.774213 0.596029 0.625278 0.525675 0.507474 0.671341 0.705892 0.650498 0.671999 0.596095 0.457833 0.433566 0.569121
<MIXTURE> 2 0.517715
<MEAN> 39
-27.147278 -3.922371 -2.444834 2.092792 -3.567178 -11.191983 -0.818541 5.822433 1.917920 -3.347452 0.056974 0.283216 55.481115 -4.049510 2.189197 0.784005 -0.529298 -0.548105 0.712914 1.746662 0.666335 -0.635231 -0.660493 0.342909 0.743883 -0.173507 1.088966 0.108458 -0.268137 -0.140127 0.255967 0.792076 -0.230019 -0.606904 -0.412406 0.258258 0.104419 -0.155642 -1.129181
<VARIANCE> 39
18.489241 17.309204 31.823272 33.426863 54.263406 36.810987 40.465245 26.406706 27.069457 19.756763 26.136996 16.719402 19.891009 2.350158 2.303771 2.500864 1.826644 2.579406 2.715042 2.401864 2.642418 2.771652 2.253579 2.226913 1.636089 1.502307 0.401653 0.401915 0.377680 0.334705 0.548945 0.458312 0.519716 0.449107 0.496931 0.415000 0.436339 0.394247 0.404116
<TRANSP> 5
0.000000 1.000000 0.000000 0.000000 0.000000
0.000000 0.752879 0.247121 0.000000 -0.000000
0.000000 0.000000 0.762738 0.237262 -0.000000
0.000000 0.000000 0.000000 0.618115 0.381885
0.000000 0.000000 0.000000 0.000000 0.000000
<ENDHMM>
~h "n"
<BEGINHMM>
<NUMSTATES> 5
<STATE> 2
<NUMMIXES> 2
<MIXTURE> 1 0.518084
<MEAN> 39
3.840448 -3.714513 9.675061 1.979821 -10.160177 -4.674443 -4.351599 -7.515522 -9.988840 -2.263869 -2.820281 -8.392614 55.378707 0.051850 1.087914 -0.013926 0.733093 0.387580 -0.145740 0.679905 -0.757319 -0.595700 0.414411 -0.332641 0.001928 -0.999561 -0.156376 -0.064525 -0.200611 -0.141724 0.253589 0.069699 -0.100897 0.352984 0.295928 -0.178056 -0.134572 0.118372 0.038960
<VARIANCE> 39
8.695386 32.716705 29.055694 57.443633 47.955480 42.619254 54.494056 90.266150 52.419085 62.639852 67.216336 45.419901 35.705630 0.505498 1.615051 1.498289 2.402786 1.826044 1.955614 2.513231 3.837548 3.080554 2.776373 2.104479 1.752563 0.981179 0.117651 0.257122 0.339429 0.520927 0.395717 0.404768 0.529873 0.746503 0.609444 0.474724 0.441322 0.344564 0.158525
<MIXTURE> 2 0.481916
<MEAN> 39
2.031093 -1.726181 6.717281 -8.452528 -14.189689 -9.284726 -5.178675 -15.899662 -14.554029 -5.739483 -13.085645 -4.922375 53.284641 0.622340 1.315708 0.024291 0.930941 -0.265422 -0.256350 -0.098695 -1.460047 -0.002351 0.213389 -0.296416 0.035134 -0.946738 -0.229544 -0.258442 -0.180758 0.133578 0.376511 -0.007665 -0.113584 0.604694 0.065147 -0.253028 0.243294 -0.056358 0.124127
<VARIANCE> 39
14.845529 49.879160 28.716036 79.611023 43.832281 62.673277 62.284760 85.296866 78.706306 66.953589 55.077587 46.278973 43.662091 1.778560 2.570289 2.401642 3.769278 3.054323 3.915178 3.058347 5.278579 3.606358 3.893469 3.239447 2.639062 2.380815 0.272745 0.377506 0.469911 0.850310 0.568295 0.795913 0.603868 1.093144 0.709019 0.679268 0.557802 0.513294 0.221217
<STATE> 3
<NUMMIXES> 2
<MIXTURE> 1 0.544737
<MEAN> 39
3.216366 1.156048 9.349295 5.230162 -7.214494 -6.417063 -2.284278 -9.091821 -11.463163 -0.528772 -5.029325 -8.228665 50.938208 -1.253746 -0.027619 -0.345409 -0.280706 1.352626 0.628583 -0.265645 1.337028 1.061061 -0.635823 0.085201 0.418406 -0.192767 -0.730078 -0.673359 -0.418820 -0.724862 0.189392 0.366157 -0.278804 0.822586 0.819434 -0.276230 0.160087 0.247917 0.316683
<VARIANCE> 39
14.653232 33.624852 23.542501 38.051611 46.365679 45.066498 50.841383 53.117238 58.292134 68.679268 59.255750 35.727199 38.364254 4.060174 5.243238 2.641809 4.690364 4.896606 3.990122 5.252088 5.854690 5.391300 4.217784 4.230860 3.268781 5.166084 0.512658 0.503931 0.487948 0.527077 0.792570 0.677938 0.786408 0.733063 0.841419 0.900128 0.705012 0.487272 0.346037
<MIXTURE> 2 0.455263
<MEAN> 39
3.178203 1.220347 6.686970 -4.735317 -15.306644 -11.045292 -6.582938 -18.595139 -13.916205 -6.866619 -13.345118 -3.274028 50.663478 -1.034728 -0.748244 -0.193096 0.218410 1.489912 0.201845 -0.438737 2.282270 -0.022105 -0.774023 0.717708 -0.443940 0.510450 -0.805421 -0.736403 -0.459152 -0.225963 0.699170 0.394553 0.077148 1.323511 0.287475 -0.066512 0.513348 -0.081184 0.321064
<VARIANCE> 39
9.651039 34.460619 19.690295 37.870367 34.466778 59.602643 61.958783 62.152812 67.983996 67.610645 49.634189 47.306571 25.412400 3.007539 5.021888 2.245627 5.287597 4.824075 4.956388 4.577904 8.502770 4.441272 4.435495 4.318792 3.413718 4.179379 0.457613 0.446171 0.400125 0.547778 0.682923 0.775684 0.874522 0.999572 0.885326 0.955788 0.708176 0.695876 0.353128
<STATE> 4
<NUMMIXES> 2
<MIXTURE> 1 0.587450
<MEAN> 39
-6.628997 0.472296 4.670423 3.350642 -2.287835 -3.297093 -1.348083 -3.664427 -6.658189 -5.174060 -4.541998 -3.838637 43.428623 -2.392368 -0.574203 -1.383005 -0.328491 0.798093 0.791649 0.520668 1.558060 1.718987 0.614398 1.248653 0.771493 -0.988176 0.131911 -0.160796 -0.043857 -0.304811 -0.398428 -0.197323 -0.109680 -0.207558 -0.031159 0.218389 -0.001073 0.040817 0.360069
<VARIANCE> 39
31.137214 32.362709 32.967033 38.592528 44.235195 36.876124 45.402486 67.242002 62.543591 55.357893 40.869750 35.803468 50.222580 5.003075 3.800250 2.867677 3.713151 4.292307 3.737024 4.132418 5.552404 5.139410 4.977542 4.466175 3.155626 3.209039 0.481931 0.696799 0.539908 0.604029 0.650954 0.607605 0.765939 0.779729 0.861377 0.802166 0.690115 0.601455 0.638685
<MIXTURE> 2 0.412550
<MEAN> 39
0.578676 -11.747926 5.347133 -8.660961 -8.124646 -6.595234 -9.595110 1.101329 -7.950142 -7.988273 -8.267798 -5.906998 61.414481 -0.775822 -2.274009 -1.834933 -1.396592 1.455349 1.349101 -0.541434 2.613173 1.239256 -1.296741 0.081440 -0.040602 1.628396 0.113133 0.523330 -0.170515 0.602842 0.014411 0.113641 0.389096 -1.062565 -0.030292 0.287883 0.045069 0.000504 -0.529808
<VARIANCE> 39
16.201604 39.948153 40.038748 57.441119 46.804522 63.409535 56.220589 74.429021 109.230071 61.433093 49.097343 43.104004 41.965715 1.038693 4.061024 2.488998 4.764503 4.731853 4.754606 5.697223 7.707008 6.722944 4.590426 4.623929 3.625740 3.765357 0.163246 0.401426 0.457698 0.623599 0.610577 0.770659 0.917884 1.046864 0.947931 0.637733 0.618749 0.495398 0.307095
<TRANSP> 5
0.000000 1.000000 0.000000 0.000000 0.000000
0.000000 0.752898 0.247102 0.000000 -0.000000
0.000000 0.000000 0.584014 0.415986 -0.000000
0.000000 0.026139 0.000000 0.654136 0.319725
0.000000 0.000000 0.000000 0.000000 0.000000
<ENDHMM>
~h "r"
<BEGINHMM>
<NUMSTATES> 5
<STATE> 2
<NUMMIXES> 2
<MIXTURE> 1 0.534903
<MEAN> 39
6.919337 -12.378279 2.876972 0.495130 -7.655346 -11.688179 -21.158040 2.501349 -0.133908 -8.342229 3.158089 -1.486325 62.240085 0.668908 -0.642913 -1.220143 0.760346 1.176076 -1.011506 -1.418283 0.825027 1.095182 0.046596 -0.654873 0.181747 -0.099610 -0.390441 0.462752 0.241306 -0.296196 -0.088096 0.331513 0.630059 -0.286212 -0.307006 0.337360 -0.120204 -0.130632 -0.105073
<VARIANCE> 39
17.422783 27.789316 159.180579 59.207103 89.381204 78.664480 69.916645 62.056603 67.187229 63.012157 51.578240 33.167267 26.546266 1.602552 1.323753 8.075285 2.170522 6.718979 3.831590 3.863649 5.351473 4.143775 4.616573 2.876877 2.054838 0.941485 0.271701 0.186970 0.925833 0.348810 0.928805 0.559455 1.089405 0.565757 0.695967 0.612261 0.552628 0.335346 0.076316
<MIXTURE> 2 0.465097
<MEAN> 39
2.707696 -13.423104 3.751559 -9.031275 -13.369373 -24.045926 -7.922524 1.515695 -18.035488 0.519089 -5.854177 -8.163275 60.670755 1.154321 -0.868781 -2.408336 1.622766 1.866498 -2.115376 -0.861868 2.371582 0.533047 -1.262800 -0.193213 0.013098 -0.310078 -0.167183 0.418437 -0.118261 -0.264208 0.242943 0.632361 -0.271206 -0.384462 0.517124 -0.064924 -0.227009 0.215620 -0.089269
<VARIANCE> 39
13.809615 22.880141 126.727381 32.939481 76.025584 69.033936 63.729955 56.298929 38.985648 42.069218 39.209921 27.808171 18.479092 0.884277 0.850053 4.506127 1.748351 3.143279 2.748021 3.379045 2.271120 3.432571 2.364145 2.419627 1.668182 0.474451 0.209399 0.158126 0.738438 0.271538 0.747506 0.579443 0.869480 0.454182 0.458799 0.531598 0.415480 0.313062 0.054922
<STATE> 3
<NUMMIXES> 2
<MIXTURE> 1 0.536538
<MEAN> 39
9.568690 -10.983472 -6.059476 -1.871954 -1.265438 -8.389535 -23.749747 1.602468 3.838242 -3.901794 2.225050 -1.742190 61.470907 -0.088652 -0.037856 -0.234049 -0.232824 -0.104919 0.238069 0.508942 0.384574 -0.112549 0.293305 0.191329 -0.259432 0.022288 -0.260518 0.038830 0.534201 -0.090652 -0.421060 0.049915 0.617837 0.049693 -0.397186 -0.112041 0.188323 -0.076125 0.021822
<VARIANCE> 39
9.348087 30.727946 82.510618 56.251533 74.155958 62.054620 83.438890 95.247449 58.063761 55.199359 47.912160 35.400742 24.794870 0.769052 1.045538 4.876811 2.265110 3.794730 2.949209 3.428995 3.190340 2.913606 3.231128 2.702702 1.736043 0.645693 0.084446 0.198129 0.181920 0.263907 0.291763 0.370322 0.524826 0.527980 0.437011 0.387502 0.310867 0.289644 0.089995
<MIXTURE> 2 0.463462
<MEAN> 39
6.696811 -13.787125 -7.879376 -6.122860 -4.442741 -24.340404 -13.881719 5.475985 -12.784928 -2.872594 -8.051187 -8.535209 58.687379 -0.153255 -0.417031 0.063746 0.013974 -0.287480 -0.044545 0.545151 0.729264 -0.188354 -0.346604 -0.359452 -0.011940 0.199351 -0.336495 0.146732 0.660926 -0.230486 -0.559051 0.529356 0.594517 -0.491361 -0.248092 0.180610 0.127342 -0.040540 0.033295
<VARIANCE> 39
7.244996 26.010972 61.789601 28.768515 61.239754 61.077230 60.825502 60.808269 40.730046 46.109385 41.573316 25.981367 18.119432 0.832132 1.076468 5.313909 1.358228 4.563275 3.366231 4.087346 2.807419 3.618253 2.813078 2.120077 1.686039 0.786881 0.095474 0.238971 0.253388 0.204354 0.360671 0.537290 0.409111 0.650512 0.374159 0.405168 0.362436 0.276296 0.102967
<STATE> 4
<NUMMIXES> 2
<MIXTURE> 1 0.476690
<MEAN> 39
1.561144 -6.740037 -4.219576 0.332595 -0.184644 -7.838047 -9.864379 1.734027 -3.872446 -4.927545 -4.554746 -4.775980 52.398578 -2.676200 1.155659 2.377273 1.493059 -0.102236 0.938041 2.277691 -0.635380 0.573720 0.052826 0.117936 0.516909 -1.887247 -0.424749 0.135835 -0.179475 -0.341306 0.007219 0.351152 0.217980 0.007168 -0.020049 0.223033 0.356406 0.093642 -0.100317
<VARIANCE> 39
45.896893 41.460712 70.812912 71.619947 105.900536 92.711344 105.184626 80.794114 98.768960 65.386328 56.158955 40.549696 76.971311 4.376041 5.430412 5.235145 5.334486 5.712086 6.186292 6.700436 6.767793 6.612435 5.675456 5.157109 3.631092 3.043880 0.768568 0.910425 0.999746 0.863319 1.049653 1.057530 1.333443 1.119313 0.993826 0.950225 0.721180 0.623225 0.596592
<MIXTURE> 2 0.523310
<MEAN> 39
4.416088 -14.886335 3.840763 -3.081607 -12.180613 -18.704324 -12.349250 5.878915 -10.431967 -5.631133 0.231008 -4.685222 62.520016 -1.391925 0.397093 2.893610 -1.433898 -2.423638 1.334238 2.613963 -1.245904 -2.002074 0.860100 0.692553 -0.833924 0.391000 -0.035641 0.560307 -0.148365 -0.368404 0.435067 0.756475 -0.404737 -0.983866 0.421764 0.457965 -0.376096 -0.159070 -0.237516
<VARIANCE> 39
15.276006 26.465492 109.924838 61.583917 62.605988 115.518819 92.007382 57.859227 116.031149 73.064498 87.341986 44.292329 22.881535 0.734289 1.156890 3.762949 1.735951 3.906553 3.001109 3.314185 4.238249 3.661917 4.020268 3.048048 2.186414 0.429633 0.087285 0.180691 0.292432 0.278409 0.416776 0.650766 0.573339 0.576886 0.631245 0.468461 0.410952 0.322881 0.043811
<TRANSP> 5
0.000000 1.000000 0.000000 0.000000 0.000000
0.000000 0.499287 0.500713 0.000000 0.000000
0.000000 0.000000 0.752639 0.247361 -0.000000
0.000000 0.000000 0.000000 0.651377 0.348623
0.000000 0.000000 0.000000 0.000000 0.000000
<ENDHMM>
~h "s"
<BEGINHMM>
<NUMSTATES> 5
<STATE> 2
<NUMMIXES> 2
<MIXTURE> 1 0.316074
<MEAN> 39
-18.140342 5.828395 4.159005 1.325892 -1.345463 -7.225683 -2.907431 -4.003747 -5.674136 -5.952242 -2.735213 -4.291998 55.657078 -5.735059 0.612562 -2.442553 0.262726 1.902251 2.011568 2.518438 2.240765 1.971872 0.983009 1.785246 0.938232 -0.282849 0.575275 -0.896061 -0.586626 -0.686102 -0.660976 0.030851 -0.388113 0.089518 0.080044 0.571573 0.100123 0.173612 -0.057090
<VARIANCE> 39
47.693817 34.375790 71.550210 33.966192 65.533343 59.156196 51.093958 60.923046 47.991914 38.672339 30.678956 24.865733 29.070081 4.789322 5.031747 6.162039 7.436331 4.789619 5.958430 5.500845 4.898748 4.589328 4.911878 5.485760 3.206269 1.753253 0.942857 0.734424 1.094179 0.729568 0.955086 1.074944 1.104046 1.049214 0.925221 0.911548 0.834846 0.656313 0.223425
<MIXTURE> 2 0.683926
<MEAN> 39
-25.381815 1.021236 -2.732499 -2.311270 -1.131366 -5.004568 0.421126 1.897013 -0.487930 -1.211665 1.510509 -0.681194 51.859639 -2.417632 0.460450 -1.463439 -0.631339 0.121764 0.512948 0.337323 0.220249 0.260698 0.435459 0.497946 0.315025 0.519238 0.941957 -0.065116 0.117932 0.194304 -0.105210 -0.039182 -0.381696 -0.344198 -0.200363 -0.041472 -0.251569 -0.171910 -0.217580
<VARIANCE> 39
36.370995 30.705138 50.184549 46.683032 57.027988 38.395317 37.591972 34.805315 26.587267 24.801485 24.371485 18.498241 41.738493 2.852358 2.944906 3.191988 3.346625 2.556816 3.227572 2.688089 3.056431 3.121987 2.783483 2.386166 2.021084 3.155774 0.758658 0.509250 0.642188 0.540342 0.661118 0.642124 0.645902 0.601510 0.576322 0.547688 0.530083 0.400375 0.314845
<STATE> 3
<NUMMIXES> 2
<MIXTURE> 1 0.490548
<MEAN> 39
-30.600987 2.043548 -2.929941 -6.348585 2.569306 -6.523511 -0.886375 2.939602 -0.932012 -1.016281 0.238336 -0.118603 55.323215 0.018631 0.080893 -0.201836 -0.081467 0.009238 0.074620 0.094137 -0.113968 -0.017669 0.137127 -0.048087 -0.044693 0.039807 0.559534 -0.131792 0.269434 0.176703 -0.082984 -0.045981 -0.070000 -0.029487 0.043749 0.023331 -0.055141 -0.107815 -0.030916
<VARIANCE> 39
12.311460 19.835504 34.136919 37.192137 35.833353 31.188868 31.176506 28.881913 22.145304 20.126552 17.825682 15.204297 19.199605 0.801619 1.003092 1.056367 1.088594 1.341368 1.591698 1.404203 1.588344 1.515267 1.463436 1.360898 1.296468 0.427950 0.344005 0.195049 0.238399 0.231138 0.271531 0.281112 0.314908 0.329403 0.303732 0.307539 0.276024 0.282908 0.087867
<MIXTURE> 2 0.509452
<MEAN> 39
-27.188517 1.468296 -10.334315 3.755521 -5.993235 -0.232040 0.622559 -0.302258 0.021043 -0.091909 3.105649 -1.201447 50.751596 0.052421 -0.185813 -0.072506 -0.187783 -0.126661 0.180033 -0.150739 -0.068009 0.003115 0.027417 -0.057617 0.036974 0.134136 0.554488 -0.026468 0.389258 -0.211896 -0.118139 -0.395923 -0.145467 -0.194734 -0.168249 -0.233426 -0.197031 -0.074504 0.167771
<VARIANCE> 39
9.884087 22.963364 17.127304 22.834810 25.280369 21.817671 19.017901 17.855153 17.438412 16.890361 15.518654 13.307063 20.553614 0.632572 0.903725 1.054088 1.264412 1.369190 1.546645 1.598857 1.593273 1.648569 1.643290 1.483109 1.403854 0.682112 0.333237 0.233268 0.262514 0.257268 0.322780 0.382681 0.370180 0.365548 0.396069 0.349223 0.341734 0.304597 0.140042
<STATE> 4
<NUMMIXES> 2
<MIXTURE> 1 0.517453
<MEAN> 39
-18.580713 -1.948650 -0.606994 -2.540363 -0.690304 -6.848747 -2.512500 1.841203 -0.285432 -1.179858 -0.557653 -1.659830 47.964617 2.330642 -0.346709 0.548417 0.434554 -0.073155 0.505604 -0.270034 -0.310555 0.013467 0.403654 -0.161999 -0.195110 -1.687969 0.017302 0.041550 -0.112060 0.106763 -0.098218 0.187016 0.107986 -0.006357 0.018191 0.022752 0.059908 -0.012690 -0.066226
<VARIANCE> 39
71.167421 33.587258 32.763942 37.842069 55.949160 54.478974 50.746144 44.548448 41.555267 38.756533 32.067864 33.007660 74.386629 5.839704 3.371704 3.155752 3.240019 4.626496 4.860454 4.431386 4.316585 4.013521 3.590742 3.206608 3.079619 3.926308 1.206894 0.642833 0.530878 0.589762 0.852698 0.861677 0.854373 0.830794 0.785171 0.724046 0.617256 0.630555 0.787745
<MIXTURE> 2 0.482547
<MEAN> 39
-26.465789 1.566593 -6.530236 -0.979009 -3.339377 -2.993481 1.128217 0.079775 -0.534146 -0.967354 1.886001 -0.633161 53.622812 3.653332 0.021055 1.992431 -0.774878 -1.449678 -1.871407 -1.072145 -1.130017 -0.780153 -0.763003 -1.094910 -0.562799 0.935330 1.638559 -0.559620 0.753082 -0.439928 -0.794801 -0.991173 -0.826517 -0.243056 -0.257551 -0.086317 -0.555609 -0.212565 0.525756
<VARIANCE> 39
27.903560 19.433165 30.781575 41.985382 40.572826 38.414790 21.542116 24.072935 19.211006 19.208075 20.499231 15.383000 28.451188 4.349705 2.310435 2.371959 3.064624 3.333515 3.856530 3.111371 2.806519 2.593739 2.399755 2.342386 1.987549 1.606128 0.457712 0.401909 0.420583 0.647175 0.520656 0.730860 0.561094 0.577651 0.589258 0.543444 0.628546 0.460905 0.322415
<TRANSP> 5
0.000000 1.000000 0.000000 0.000000 0.000000
0.000000 0.658478 0.341522 0.000000 0.000000
0.000000 0.000000 0.822136 0.177864 -0.000000
0.000000 0.021776 0.000000 0.620622 0.357602
0.000000 0.000000 0.000000 0.000000 0.000000
<ENDHMM>
~h "t"
<BEGINHMM>
<NUMSTATES> 5
<STATE> 2
<NUMMIXES> 2
<MIXTURE> 1 0.513198
<MEAN> 39
-11.069899 3.626602 5.719250 2.324321 -2.984163 -4.463286 -4.884203 -4.081622 -3.284828 -1.981019 -0.383917 -1.399918 36.087871 -2.193920 -0.573156 -2.227585 -0.249764 1.826010 1.618027 1.509449 1.729986 2.115028 1.272754 1.164938 0.942642 -1.959896 0.132872 -0.736825 0.199019 -0.804813 -0.560404 -0.085611 -0.021135 0.056444 -0.168466 0.208172 -0.028079 -0.119928 1.533869
<VARIANCE> 39
26.403608 35.603931 41.317165 35.964828 42.081908 34.075324 31.894159 32.675215 31.805548 30.192492 27.517998 25.503034 43.355644 4.623150 5.959969 6.095295 5.602290 5.453263 3.785947 4.241592 5.163732 5.041892 4.389578 4.587001 3.035942 10.787552 0.499986 1.130912 1.312322 0.827610 1.128685 0.855458 0.719829 0.771497 0.788119 0.801228 0.873241 0.594645 1.798975
<MIXTURE> 2 0.486802
<MEAN> 39
-4.175082 6.631325 9.545858 3.183307 -8.057949 -9.311660 -7.538508 -8.892405 -9.281310 -6.398558 -5.395146 -5.337519 40.008092 -1.613095 1.041668 -3.097838 1.408842 2.886106 1.128369 0.895922 0.975879 1.341719 -0.440361 0.518142 0.167745 -3.345773 -0.677475 -1.163866 0.039935 -1.242248 -0.223373 0.453558 0.111588 0.449711 0.398930 0.881614 0.432710 0.394526 1.148207
<VARIANCE> 39
16.380884 39.580343 39.935932 46.682726 52.184921 31.965650 37.470548 39.192355 35.408446 43.220572 33.848640 33.325532 36.736026 3.767963 7.825552 6.983667 7.691079 5.819175 4.358656 4.602701 5.945577 5.556613 6.489056 6.334543 3.974464 9.978146 0.454410 1.091643 0.951033 0.877879 1.127094 0.762088 0.971476 0.914482 0.940235 0.983928 0.910556 0.693029 1.401962
<STATE> 3
<NUMMIXES> 2
<MIXTURE> 1 0.582949
<MEAN> 39
-14.893500 2.426069 0.974810 1.470622 -0.331000 -0.707917 -0.007993 0.764114 2.105961 1.986984 2.244814 0.473455 30.419708 -0.825865 -1.461028 -0.747998 -1.037412 0.236145 0.456313 0.677745 0.814332 0.671867 0.566004 0.455996 0.121802 1.479260 0.273325 -0.243193 0.541511 -0.502077 -0.606863 -0.572943 -0.426868 -0.555034 -0.789073 -0.381667 -0.344081 -0.321957 1.976594
<VARIANCE> 39
6.372386 7.825919 9.079909 10.652776 14.118493 14.839154 15.070293 14.844251 15.191868 14.729633 13.799171 12.806528 7.030136 2.310063 3.632100 2.674567 3.407213 2.875838 2.938778 3.317996 3.631444 3.608689 3.158056 2.763717 2.318841 12.330570 0.507336 0.533889 0.574324 0.519770 0.570037 0.469743 0.519656 0.642372 0.573172 0.508005 0.532630 0.386237 1.328734
<MIXTURE> 2 0.417051
<MEAN> 39
-14.520473 -5.618955 2.585912 -5.294092 -2.098125 -1.922404 -2.985874 -1.190037 -1.603257 -0.098235 0.986999 -1.569552 46.991267 -1.664937 -1.440516 -0.333755 -2.685573 -0.876558 -0.898382 -0.117534 0.145592 -0.752496 0.115339 0.516590 -0.024687 6.689307 -0.141726 0.943484 0.439657 0.454379 -0.345626 -0.377429 0.294216 0.045329 -0.243956 -0.016923 -0.028160 0.036991 -0.119329
<VARIANCE> 39
30.771557 44.580544 32.569818 44.214034 38.826156 34.166174 30.182931 34.403846 32.125771 23.577434 20.496540 17.751222 125.049127 4.027143 4.261554 3.886278 3.354413 3.609050 3.680243 4.478676 4.127550 4.217290 3.792970 3.126100 2.840114 10.031558 0.548429 0.855192 0.714684 0.968214 0.793011 0.698023 0.751852 0.797654 0.690814 0.663886 0.579695 0.440037 2.494063
<STATE> 4
<NUMMIXES> 2
<MIXTURE> 1 0.441330
<MEAN> 39
-21.933225 -0.849424 1.422553 -8.543829 -3.561135 -5.407780 -0.092439 -0.100491 -3.058767 1.417752 3.305787 -0.904860 59.254433 -1.509865 0.908256 1.004378 0.293185 -0.863148 -0.696314 1.408051 0.687831 -0.429025 0.155099 0.424521 0.308568 1.659042 1.012738 0.083523 0.520780 1.069251 -0.027305 0.227391 0.023435 -0.018185 0.089350 -0.228333 -0.325234 -0.037292 -2.103199
<VARIANCE> 39
26.369490 27.535874 37.971503 23.427448 24.717744 25.588288 35.021804 33.699342 25.142386 27.696530 21.331780 19.132734 26.085871 3.316448 3.164416 3.011482 3.733187 2.639195 3.441877 2.870537 3.336305 3.112102 2.810963 2.256451 1.965265 10.038341 0.690589 0.881493 0.639382 0.655875 0.618459 0.563907 0.733326 0.643625 0.665959 0.562040 0.549130 0.447824 0.839125
<MIXTURE> 2 0.558670
<MEAN> 39
-17.999434 -2.237160 5.943261 -4.091624 -5.867265 -4.851683 3.034590 0.878135 -3.292989 0.716087 2.252632 -0.548220 52.441092 2.395140 -0.540134 1.219189 0.939498 -1.086368 -0.566689 -0.421541 -0.496290 -0.827733 -0.893934 -0.985990 -0.357042 -0.461698 0.952719 -0.103826 0.020677 -0.172968 -0.289950 -0.342245 -0.991404 -0.512241 -0.353460 -0.292542 -0.397061 -0.259893 0.143463
<VARIANCE> 39
54.626496 25.119158 29.847765 33.786869 33.861571 31.644192 38.941249 50.028351 35.243558 33.826375 26.700607 22.787480 93.050746 4.405170 2.164816 3.474433 3.833488 3.624869 3.446504 3.990020 4.106290 3.823838 3.156971 2.886811 2.187294 3.119944 0.922954 0.565942 0.502937 0.585027 0.713156 0.882652 0.811235 0.700047 0.729702 0.682262 0.746164 0.459861 0.748419
<TRANSP> 5
0.000000 1.000000 0.000000 0.000000 0.000000
0.000000 0.594734 0.405266 0.000000 -0.000000
0.000000 0.000000 0.673961 0.326039 -0.000000
0.000000 0.026088 0.000000 0.718638 0.255274
0.000000 0.000000 0.000000 0.000000 0.000000
<ENDHMM>
~h "v"
<BEGINHMM>
<NUMSTATES> 5
<STATE> 2
<NUMMIXES> 2
<MIXTURE> 1 0.489304
<MEAN> 39
1.742555 -15.772747 2.693700 -9.786298 -9.073629 -5.766817 -9.449680 5.681910 5.239753 -0.291348 -3.621303 -13.293140 68.649480 0.577657 0.303757 0.058519 0.472060 0.197552 0.008489 -0.609355 -0.755698 -0.478798 0.595108 1.121042 -0.012186 -0.808490 0.027227 0.531851 0.053009 0.400775 0.338319 0.050992 -0.202308 -0.655478 -0.437397 0.116346 0.337223 0.292257 -0.564302
<VARIANCE> 39
12.273700 21.676113 38.080642 28.209004 35.677850 46.944854 46.303595 56.614735 55.025658 60.063804 59.084620 39.190199 25.012955 0.297759 1.086761 0.838600 0.915688 0.945582 1.690906 2.294793 2.204665 1.443345 1.697499 2.123911 1.618545 0.786987 0.080195 0.155485 0.177682 0.187445 0.271263 0.269258 0.277384 0.293191 0.274121 0.295096 0.312806 0.221755 0.114894
<MIXTURE> 2 0.510696
<MEAN> 39
-2.191460 -16.303523 -1.116526 -15.708525 -12.400413 -10.939984 0.938541 -0.081650 -9.740034 -10.346323 -14.294461 -4.591378 66.423443 0.479268 0.207346 0.115196 0.309473 0.101718 -0.471290 -0.595555 -0.037094 0.320417 0.315647 -0.302502 -0.449834 -0.603036 0.102009 0.544399 0.097667 0.586761 0.160755 -0.221567 -0.735080 -0.396409 0.232690 0.238246 0.203486 -0.051434 -0.564579
<VARIANCE> 39
9.939771 22.906811 27.363559 33.517297 43.894851 38.688109 43.891743 45.715556 42.946175 37.075352 28.046818 27.320232 20.460869 0.308781 1.335211 0.787327 0.896891 2.081306 2.674784 2.361323 1.279663 1.728336 1.710533 1.024748 1.244881 0.756508 0.075671 0.164835 0.157883 0.333659 0.397001 0.330286 0.307420 0.345936 0.290404 0.295764 0.246328 0.271684 0.122260
<STATE> 3
<NUMMIXES> 2
<MIXTURE> 1 0.514575
<MEAN> 39
4.305109 -10.694709 3.206682 -3.786340 -6.133430 -6.504864 -12.671412 -0.362721 -0.141836 1.060757 3.168647 -10.296475 60.880073 -0.402461 2.907137 0.324082 2.292149 1.796539 0.734757 -0.023334 -2.428260 -1.785386 0.000016 0.799370 1.264176 -3.090784 -0.667310 0.152567 -0.009941 -0.029685 0.131310 0.315896 0.727688 0.278077 0.115399 -0.404689 -0.676743 0.074914 0.033284
<VARIANCE> 39
8.950443 30.154338 30.324711 37.953989 30.916748 43.474553 33.535552 66.754426 44.219087 50.898388 53.292228 39.506192 35.023664 2.153479 2.353342 2.196813 2.053268 2.554070 3.427194 3.878564 3.289889 3.760585 3.061973 4.128857 2.524346 1.354680 0.336490 0.517758 0.250058 0.459401 0.525219 0.533436 0.451984 0.748392 0.568595 0.419286 0.401231 0.412007 0.476362
<MIXTURE> 2 0.485425
<MEAN> 39
0.773128 -10.840187 0.992828 -9.606366 -11.706182 -15.015627 -6.375891 -4.059731 -7.726814 -6.877098 -13.806012 -7.657015 58.601825 -0.374173 3.305984 1.293004 3.395552 1.581725 0.157243 -2.545043 -2.143337 0.030018 0.424075 0.974274 -0.630353 -3.476594 -0.761050 0.172830 0.022208 0.351210 0.508432 0.815593 0.399190 -0.071448 -0.258783 -0.317000 0.416937 0.240354 -0.104334
<VARIANCE> 39
8.767383 37.281088 32.155557 44.815611 46.100247 33.738904 56.968390 44.641494 38.752241 42.493375 29.522210 29.745132 37.720571 2.354499 2.521597 2.155438 2.985223 3.567263 3.693355 3.860862 3.597243 3.244763 3.565814 2.622938 3.049464 1.330144 0.317800 0.712304 0.364879 0.896523 0.759525 0.495204 0.857285 0.756175 0.572273 0.550244 0.425592 0.443651 0.568040
<STATE> 4
<NUMMIXES> 2
<MIXTURE> 1 0.536424
<MEAN> 39
-9.363760 -2.141390 3.978278 2.719721 -1.386860 -3.271950 -2.005144 -1.595036 -3.259872 -3.785559 -2.795398 -3.599702 46.937987 -2.029261 0.157025 -0.232041 0.293840 0.731584 1.181488 1.120010 0.491590 0.505045 0.352927 0.558845 0.876573 -1.214214 0.361761 -0.522566 -0.307489 -0.594158 -0.472769 -0.280164 -0.093681 0.241538 0.135076 0.115269 0.004291 -0.128205 0.489258
<VARIANCE> 39
51.969323 31.894965 26.618117 25.469446 29.222306 30.130142 34.832501 40.447048 40.416572 34.024866 30.354254 23.871991 42.055762 7.846363 4.904503 3.007315 4.186433 4.048341 4.077188 4.169326 4.224408 4.247607 3.799699 4.778883 2.658260 3.055897 1.041951 1.101235 0.608894 0.816277 0.677998 0.653747 0.844833 0.887495 0.756386 0.646383 0.648392 0.475871 0.657942
<MIXTURE> 2 0.463576
<MEAN> 39
-0.214756 -3.683549 2.966629 -1.261997 -4.909723 -8.037350 -11.816701 -8.851453 -7.201279 -4.272155 -4.742341 -8.883885 53.224497 0.042076 -0.198806 -0.140919 -0.586093 -0.734555 -0.204746 0.223309 0.659649 0.051936 -0.494167 -0.225863 0.169312 0.526182 0.178734 -1.013985 -0.189518 -1.072389 -0.602866 -0.211447 0.371522 0.975398 0.431673 -0.035487 -0.358535 0.054580 1.059491
<VARIANCE> 39
26.655182 27.494425 19.414848 26.215915 27.539738 49.522842 32.280615 38.319890 37.479224 58.293145 83.800255 26.820971 30.932052 2.437551 4.557436 1.779239 5.072605 2.921849 2.650633 2.975384 4.139281 3.158430 2.556605 2.567338 2.001787 3.709628 0.465121 0.694984 0.522054 0.859676 0.639020 0.649870 1.009810 0.793125 0.833641 0.772700 0.636175 0.697435 0.610918
<TRANSP> 5
0.000000 1.000000 0.000000 0.000000 0.000000
0.000000 0.736769 0.263231 0.000000 0.000000
0.000000 0.000000 0.659263 0.340737 -0.000000
0.000000 0.000000 0.000000 0.740981 0.259019
0.000000 0.000000 0.000000 0.000000 0.000000
<ENDHMM>
~h "w"
<BEGINHMM>
<NUMSTATES> 5
<STATE> 2
<NUMMIXES> 2
<MIXTURE> 1 0.529091
<MEAN> 39
7.098520 5.369492 2.771182 -10.078247 -13.943678 -3.327236 -3.928459 -3.005996 -6.126492 -3.164765 -0.914361 -7.438807 50.758982 0.711668 -0.487133 0.179525 -1.307699 -1.261442 -0.016547 0.005531 0.676825 0.484448 0.205671 0.271691 -0.530958 1.183141 -0.246392 -0.415084 -0.213653 -0.148903 0.277085 0.382561 -0.009080 0.126703 -0.008255 -0.185520 0.013519 0.043357 0.177066
<VARIANCE> 39
23.691632 32.354868 25.035302 50.155915 53.030606 33.159397 42.620015 46.592853 41.487553 40.209355 43.031858 31.364849 42.124350 2.533611 2.685871 1.548076 3.448265 3.795612 2.589371 2.636487 2.963932 2.576477 2.553843 2.135794 2.222585 2.696681 0.428956 0.377815 0.279956 0.523421 0.742819 0.471438 0.474878 0.501232 0.510068 0.533835 0.449999 0.417006 0.297880
<MIXTURE> 2 0.470909
<MEAN> 39
5.411476 4.840762 -3.114548 -12.272542 -11.116413 -7.628414 -8.497484 -10.050850 -11.797181 -6.643341 -9.742824 -8.013385 47.537705 1.366767 0.178480 -0.333618 -1.691660 -1.303060 -0.097744 0.058487 0.242614 -0.287246 -0.355091 -0.592365 -0.647816 1.093266 -0.340657 -0.535953 -0.031277 -0.132239 0.312659 0.242399 0.086252 0.366623 0.126420 0.251871 0.232370 0.158888 0.246072
<VARIANCE> 39
24.599345 32.722947 24.696053 63.503022 35.260239 32.739038 35.554671 42.294204 33.161028 30.151679 40.456664 27.637738 36.703840 4.535162 3.710737 2.543083 7.947477 4.138866 3.401291 4.255192 5.365120 4.626564 3.670154 4.001939 2.795394 4.079542 0.490310 0.539914 0.437927 1.007206 0.775876 0.698085 0.643552 0.769821 0.734532 0.618746 0.570955 0.475406 0.326617
<STATE> 3
<NUMMIXES> 2
<MIXTURE> 1 0.550421
<MEAN> 39
7.921745 -2.440022 1.442530 -16.983782 -17.058037 3.226217 -3.238828 1.982325 -3.147934 -7.311174 0.225158 -8.445937 59.542864 -0.228074 -1.403536 -0.989989 -1.161956 1.127781 1.972391 0.301726 0.589383 -0.113380 -1.375887 0.064369 0.502053 1.211627 -0.096630 -0.094761 -0.136488 0.306006 0.617648 0.132836 -0.215271 -0.485375 -0.311046 0.047086 0.125458 0.214222 -0.051563
<VARIANCE> 39
8.342556 27.471790 27.669988 48.423342 41.630207 57.597617 64.105807 75.754594 58.128440 52.170859 55.753256 41.211242 21.492789 0.262906 1.139298 0.910827 1.693617 2.308328 2.268771 2.121871 3.078169 2.529046 2.209173 2.002607 2.139823 0.527672 0.040334 0.126565 0.154079 0.233781 0.302993 0.399722 0.385902 0.402002 0.367304 0.582348 0.338354 0.348429 0.053267
<MIXTURE> 2 0.449579
<MEAN> 39
7.032518 -3.641748 -6.630442 -23.924553 -8.916023 0.389253 -5.238738 -2.990936 -14.392079 -8.156636 -8.154816 -8.899054 57.912530 -0.539581 -2.485790 -1.105192 -0.772106 3.150953 2.147480 -0.654037 -0.261982 -1.279048 -0.625367 0.961631 0.038170 1.699514 -0.258532 -0.131926 0.266997 0.946518 0.514946 -0.369861 -0.695987 -0.552703 0.467637 0.295290 0.166477 -0.170869 -0.130995
<VARIANCE> 39
7.622608 28.226122 27.376102 43.484201 50.215788 55.028909 54.292064 53.936143 53.941545 53.175003 68.919122 32.901843 22.275210 0.399901 1.602432 1.123725 3.125378 2.707756 2.404914 3.495182 3.948339 3.203923 2.824766 2.845047 2.729510 0.672560 0.102625 0.238784 0.199359 0.406561 0.623748 0.688772 0.453820 0.516637 0.690010 0.604577 0.588002 0.490755 0.094499
<STATE> 4
<NUMMIXES> 2
<MIXTURE> 1 0.558724
<MEAN> 39
5.413374 -10.840888 -3.904845 -16.836877 -3.475270 10.535534 -8.287343 -2.790042 -6.359833 -8.383320 2.652367 -6.433049 64.648770 -0.430611 -1.099671 -0.144011 1.449082 1.575255 -0.375250 -1.727771 -0.850350 0.950587 1.092790 0.062159 -0.797764 0.507668 0.005031 0.193931 0.248180 0.301974 -0.436373 -0.659295 -0.047603 0.356808 0.394156 0.165684 -0.463690 -0.378433 -0.152445
<VARIANCE> 39
8.901244 22.915376 24.743182 55.097984 46.225613 55.218675 80.784018 66.886562 87.262903 52.812194 65.537910 54.765607 25.657237 0.177745 0.586921 0.561882 0.901049 1.817810 2.026424 1.559286 1.929415 1.919174 1.732847 2.470639 1.851760 0.225519 0.028052 0.085460 0.092900 0.165658 0.189706 0.306193 0.248585 0.289115 0.364526 0.367329 0.296848 0.339188 0.028713
<MIXTURE> 2 0.441276
<MEAN> 39
3.174514 -13.375183 -8.535690 -18.741534 4.976070 0.854799 -14.804258 -7.055694 -11.071361 -7.408975 -6.139435 -13.004465 63.405409 -0.853601 -1.493196 0.610925 2.078037 0.729348 -1.615059 -1.658280 0.614216 2.115148 -0.428439 -1.447723 -0.559804 0.777689 0.017623 0.391853 0.381683 0.125402 -1.002018 -0.550904 0.563951 0.607726 -0.047869 -0.464612 -0.444360 0.515224 -0.224223
<VARIANCE> 39
8.452403 24.085118 28.272840 47.225969 50.289167 46.040020 57.448749 52.029609 82.615340 55.728195 65.700105 36.164237 20.534482 0.292354 0.900247 0.749290 1.069092 3.387015 2.084361 2.622418 2.640837 2.107987 2.574100 2.836470 2.577061 0.325235 0.036719 0.124465 0.146732 0.255998 0.355864 0.442461 0.473858 0.372587 0.764402 0.317759 0.538451 0.376325 0.040798
<TRANSP> 5
0.000000 1.000000 0.000000 0.000000 0.000000
0.000000 0.825113 0.174887 0.000000 0.000000
0.000000 0.000000 0.795898 0.204102 -0.000000
0.000000 0.000000 0.000000 0.807749 0.192251
0.000000 0.000000 0.000000 0.000000 0.000000
<ENDHMM>
~h "z"
<BEGINHMM>
<NUMSTATES> 5
<STATE> 2
<NUMMIXES> 2
<MIXTURE> 1 0.566247
<MEAN> 39
-9.928572 5.491523 7.561328 0.495278 0.622170 -7.671306 -7.014466 -2.164485 -2.974309 -2.445293 -3.030745 -3.884920 48.569493 -1.542314 2.064104 0.367156 -0.376635 1.257406 -0.827482 -0.243787 -0.282616 -0.053244 -0.030452 -0.407515 0.194014 1.642379 -0.210389 0.002433 -0.225720 0.001688 -0.078355 0.101990 0.004954 0.074757 0.011040 -0.006262 0.147071 0.061982 0.051360
<VARIANCE> 39
63.557745 42.259774 53.571662 41.815876 44.837856 51.558556 70.570810 38.466139 31.172729 29.942637 27.197051 29.066143 104.642186 7.443669 4.060334 3.798346 3.236548 4.614921 4.210438 4.515340 3.695574 3.414247 2.822907 2.785040 2.648309 4.344116 0.660455 0.605870 0.552604 0.550333 0.650082 0.794003 0.683011 0.598743 0.549073 0.517375 0.512207 0.433202 0.537149
<MIXTURE> 2 0.433753
<MEAN> 39
-5.881134 6.324270 2.298895 0.005191 -11.954023 -16.313893 -10.314472 -10.774400 -10.216618 -10.773821 -8.821724 -4.337421 51.012508 -1.908602 2.935155 -1.276798 2.068554 0.481300 0.256886 0.054804 -0.681712 -0.113565 -1.616180 0.444780 -1.331783 0.671368 -0.627333 -0.178171 -0.214711 0.042512 0.409347 0.737602 0.380239 0.445977 0.169336 0.521158 0.194468 -0.130080 -0.141188
<VARIANCE> 39
27.547271 40.990032 34.768344 44.324903 44.218961 46.315451 32.831140 32.473772 35.044649 31.307769 30.721975 35.391616 59.820001 6.777903 5.134632 3.621899 4.456907 5.422058 5.159506 4.532243 4.635082 4.646458 4.343497 4.273440 3.139304 4.451107 0.456273 0.732317 0.707365 0.538941 0.666135 0.613408 0.589957 0.703005 0.781993 0.617057 0.591860 0.665322 0.369460
<STATE> 3
<NUMMIXES> 2
<MIXTURE> 1 0.491966
<MEAN> 39
-16.001306 12.876753 8.279228 -0.173267 5.355968 -10.418477 -8.910426 -3.073755 -2.663491 -1.887801 -3.657659 -2.435562 57.614833 -2.172940 1.025266 -0.163555 0.044735 1.110065 0.628981 0.650085 0.574830 0.142421 0.069906 0.028191 0.304029 0.128006 0.543114 -0.733814 0.163600 0.013281 -0.496248 0.170851 0.032534 0.002477 -0.191697 -0.083166 0.075706 -0.155580 -0.036295
<VARIANCE> 39
28.785338 27.061708 40.257048 42.107124 36.707744 49.285193 46.925843 31.779324 26.024731 25.480450 20.931771 19.350333 23.038329 2.720402 2.378790 1.579198 1.729692 2.140448 2.573084 2.524613 2.020214 1.688716 1.785912 1.621118 1.471205 0.981605 0.278355 0.348684 0.312328 0.329276 0.372075 0.485367 0.357020 0.394431 0.354542 0.353448 0.326845 0.252723 0.163762
<MIXTURE> 2 0.508034
<MEAN> 39
-16.065830 14.026171 -1.444594 7.164536 -8.239079 -9.929539 -8.701820 -11.452220 -11.460897 -12.802027 -7.339688 -10.223908 52.301345 -2.070367 0.137879 -0.482027 0.852434 0.918473 1.574170 0.731653 0.319809 0.120324 0.369235 0.535110 -0.317884 0.025510 0.509815 -0.853592 0.195643 -0.744224 -0.427307 -0.285822 0.118739 0.042138 0.217718 0.473607 0.061495 0.487505 0.153367
<VARIANCE> 39
21.435385 26.479241 19.821805 23.572396 39.229628 41.081969 28.835748 21.774190 24.923946 21.605693 24.284929 21.869384 16.815120 2.616144 3.307385 2.434132 2.807386 2.944608 3.813743 2.528228 2.457970 2.466463 2.572296 2.244217 2.092266 1.219628 0.298667 0.543126 0.359273 0.397188 0.671459 0.630727 0.452492 0.522957 0.513772 0.523268 0.474767 0.354960 0.207288
<STATE> 4
<NUMMIXES> 2
<MIXTURE> 1 0.508680
<MEAN> 39
-21.853119 11.750338 8.912655 -2.107853 7.057284 -6.376175 -6.086140 -0.136751 -3.161593 -2.150380 -2.517913 -2.130536 58.133997 0.797449 -1.215388 0.275141 -0.239603 -1.237782 -0.557242 -0.269384 -0.017219 -0.083979 0.057279 0.151208 0.014230 0.970220 1.252942 -0.788733 0.245810 0.051291 -0.935649 -0.500470 -0.538480 -0.294537 0.046476 -0.051392 0.047048 -0.076585 0.267623
<VARIANCE> 39
31.528331 23.175352 38.517491 35.406129 34.744892 58.756021 58.545962 34.393056 26.150298 21.418070 17.515952 18.738592 23.607555 3.334372 1.967208 2.371165 1.729131 2.567448 2.787468 2.397837 1.907900 1.753493 1.800111 1.349638 1.059250 0.709224 0.401166 0.417608 0.433662 0.362003 0.421694 0.525925 0.486573 0.417875 0.350646 0.378274 0.308087 0.248055 0.112873
<MIXTURE> 2 0.491320
<MEAN> 39
-24.435888 6.868893 -6.905753 5.156410 -5.704662 -2.450936 -0.764357 -5.239635 -5.074417 -4.886330 -1.072673 -5.451112 51.070677 0.526416 -0.725472 0.411525 -1.496058 -1.330547 -0.932129 0.293525 -0.492333 0.333312 0.535735 0.688126 0.513148 1.097156 1.323866 -0.083465 1.034513 -0.700513 -0.792303 -1.136098 -0.641445 -0.647500 -0.501059 -0.215613 -0.417892 -0.003225 0.381044
<VARIANCE> 39
23.248117 35.957947 33.297166 23.109454 29.343001 33.270824 31.907967 34.298463 36.448162 38.748747 31.962625 28.227062 22.178078 4.255041 2.778648 4.550931 2.340592 3.081504 4.759971 3.148232 4.744951 3.675195 3.820856 2.879308 2.537050 1.069610 0.438072 0.696836 0.445520 0.505458 0.661803 0.619426 0.675221 0.640897 0.625116 0.740632 0.586436 0.535147 0.174469
<TRANSP> 5
0.000000 1.000000 0.000000 0.000000 0.000000
0.000000 0.663393 0.336607 0.000000 0.000000
0.000000 0.000000 0.721497 0.278503 0.000000
0.000000 0.000000 0.000000 0.675387 0.324613
0.000000 0.000000 0.000000 0.000000 0.000000
<ENDHMM>
~h "ah"
<BEGINHMM>
<NUMSTATES> 5
<STATE> 2
<NUMMIXES> 2
<MIXTURE> 1 0.482893
<MEAN> 39
4.088984 -11.814198 1.327322 -6.259704 -5.317528 -0.025906 -13.753466 -0.383629 1.370933 -1.394067 -0.555834 -11.107623 63.651034 -0.145476 -0.389474 0.825594 0.262401 -0.540512 -0.963878 -0.450391 1.506315 0.614539 -0.307135 -1.458860 -0.368373 0.494068 -0.008156 0.499637 0.319164 0.248632 -0.030020 -0.083123 0.447492 -0.410754 -0.678314 0.002688 0.064412 0.275448 -0.479205
<VARIANCE> 39
9.995452 22.347591 31.991717 31.186376 30.583019 56.521789 49.660912 51.578796 53.997248 55.398702 58.924754 34.318812 29.704244 0.537771 1.407451 1.174118 2.911244 1.890462 3.223378 2.103531 2.564749 2.787334 2.637548 2.477128 2.359238 1.243665 0.106307 0.269615 0.219609 0.414280 0.375184 0.386864 0.473382 0.776428 0.649705 0.468473 0.470044 0.355783 0.232645
<MIXTURE> 2 0.517107
<MEAN> 39
0.077889 -15.190008 -2.092671 -11.803409 -3.156972 -9.991541 -13.003639 -0.397855 -8.427599 -13.356136 -12.820308 -7.859239 62.959098 -0.397223 -0.195910 0.885009 -0.177378 -1.554395 -1.074230 1.427932 1.375563 -1.008156 -1.217606 -0.115266 1.385435 0.494878 0.095071 0.535071 0.155484 -0.000757 -0.094968 0.202687 0.153543 -0.458418 -0.495995 0.354186 0.368451 -0.002862 -0.397495
<VARIANCE> 39
9.023441 26.104425 33.147527 31.213445 77.375437 54.357479 56.604858 55.717896 51.619127 52.517523 37.708284 37.332695 22.487313 0.426351 1.207793 1.196614 3.434150 2.106473 2.143660 1.876849 2.010277 2.218000 2.223877 2.147010 1.831824 1.088968 0.094287 0.209334 0.141192 0.469602 0.367386 0.302026 0.460489 0.456141 0.410067 0.386223 0.406894 0.350878 0.159194
<STATE> 3
<NUMMIXES> 2
<MIXTURE> 1 0.442003
<MEAN> 39
3.573092 -11.187044 4.177357 -4.844003 -5.915501 -2.401624 -14.303039 2.134605 0.534676 -3.519734 -3.436757 -10.905057 63.338258 0.157333 1.844349 1.815213 2.380085 -0.784076 -1.496120 1.578953 -2.057691 -2.158858 0.765659 -0.559104 0.287154 -1.906312 0.068424 0.541104 0.106210 0.371269 -0.097724 0.122913 0.803871 -1.155451 -0.767423 0.339791 0.223323 0.248969 -0.502616
<VARIANCE> 39
9.540234 26.300159 34.899475 36.613951 43.269819 50.720707 57.163730 65.299391 60.591407 69.330703 49.157468 35.617545 28.944599 0.503946 1.249159 2.046480 2.377480 2.705073 4.089584 3.718431 5.569297 4.476649 3.475001 3.433713 3.080348 0.660216 0.083603 0.249535 0.362928 0.493108 0.513052 0.647612 0.582986 0.790123 0.835241 0.686837 0.615636 0.490390 0.127795
<MIXTURE> 2 0.557997
<MEAN> 39
-0.696799 -12.066836 2.075629 -13.099552 -9.253397 -13.266707 -8.166595 0.985167 -15.246895 -13.731978 -11.520057 -4.266799 61.972287 0.609400 1.873623 1.354860 0.730968 -1.494632 -0.494022 0.595668 -1.796106 -1.131852 0.897653 0.100477 0.825355 -1.497940 0.292800 0.570506 0.091549 0.601572 -0.064684 0.265651 -0.197807 -1.387688 0.456660 0.574859 -0.158701 -0.133419 -0.643419
<VARIANCE> 39
9.726639 27.079927 31.035891 35.473920 43.912185 46.418321 47.524324 50.079158 56.124119 43.901367 38.037726 32.248841 19.505795 0.651620 1.363742 1.584376 2.292633 3.071173 4.042208 2.942354 6.280945 3.322617 3.196662 2.977274 2.928680 1.091210 0.098722 0.253827 0.320382 0.455578 0.487342 0.773010 0.622985 0.742789 0.602996 0.595172 0.555343 0.530636 0.150893
<STATE> 4
<NUMMIXES> 2
<MIXTURE> 1 0.445964
<MEAN> 39
4.112343 -5.302656 8.929862 3.231657 -8.083440 -5.127263 -6.989659 -7.828551 -6.911964 0.650903 -3.553209 -10.134946 57.517554 0.063675 1.994808 1.503251 2.096394 -0.968074 -0.739335 2.335590 -2.920476 -2.477599 0.957940 -0.313228 0.494744 -1.845902 -0.069678 -0.225020 -0.484429 -0.622785 0.215451 0.385675 -0.254763 0.570987 0.466845 -0.280858 0.100539 0.086375 0.312830
<VARIANCE> 39
8.252957 24.716073 26.374096 34.780973 36.606565 45.031144 48.197356 55.733250 56.856912 52.085531 51.429142 39.379636 24.725940 0.483198 1.313410 2.461892 2.687868 2.771246 4.209796 3.963506 4.921630 5.605653 3.336968 3.543411 2.732473 0.556039 0.073588 0.200737 0.265399 0.318467 0.343642 0.447366 0.449360 0.674826 0.575833 0.440990 0.417858 0.347437 0.113417
<MIXTURE> 2 0.554036
<MEAN> 39
2.778155 -4.123938 6.305903 -7.147720 -14.514588 -14.639987 -6.054437 -12.240100 -15.296440 -8.405494 -14.468285 -1.144147 54.673986 0.684509 2.213487 0.919159 1.198731 -1.449408 0.605565 0.801505 -4.104641 0.179880 1.300050 -0.324141 0.546599 -1.835817 -0.202308 -0.359181 -0.385565 -0.269051 0.429708 0.379316 -0.264405 0.570351 0.227689 -0.329267 0.223768 -0.444325 0.313994
<VARIANCE> 39
5.225923 22.960521 21.771007 31.500494 37.445995 49.260476 56.485515 80.544890 65.648091 60.000076 56.013167 38.655095 15.072355 0.480116 1.362007 2.119186 2.200017 2.677755 5.105895 4.337622 5.226869 4.483743 3.806673 3.351163 3.665786 0.660476 0.058649 0.193954 0.241358 0.260766 0.388850 0.525754 0.459592 0.912297 0.532834 0.474216 0.463141 0.391247 0.089924
<TRANSP> 5
0.000000 1.000000 0.000000 0.000000 0.000000
0.000000 0.690491 0.309509 0.000000 0.000000
0.000000 0.000000 0.597711 0.402289 -0.000000
0.000000 0.000000 0.000000 0.518485 0.481515
0.000000 0.000000 0.000000 0.000000 0.000000
<ENDHMM>
~h "ao"
<BEGINHMM>
<NUMSTATES> 5
<STATE> 2
<NUMMIXES> 2
<MIXTURE> 1 0.564438
<MEAN> 39
9.472005 1.360450 0.433789 -19.005999 -21.412397 3.081569 -5.141932 0.414232 -4.765699 -7.532725 3.459232 -6.974513 58.739006 1.415913 0.380332 0.391045 -2.047178 -2.370505 0.262037 -0.317770 0.492001 0.302216 -0.542928 0.616431 -0.690465 0.691990 -1.410724 -0.513035 -0.264530 1.190327 1.287207 -0.396667 0.153309 -0.096600 0.227801 0.489588 -0.234609 0.371391 -0.372985
<VARIANCE> 39
10.869909 22.321582 32.260016 34.547230 40.056428 52.012539 50.231727 69.364636 53.138078 52.273314 47.948856 39.151286 20.908711 3.473364 1.453472 1.454179 4.291832 5.528162 2.935509 2.519929 2.733566 2.802472 2.880686 2.569445 2.080722 1.063971 0.432813 0.366512 0.328524 0.365677 0.419037 0.472770 0.442921 0.496414 0.585509 0.486697 0.456463 0.380240 0.171821
<MIXTURE> 2 0.435562
<MEAN> 39
7.236805 -1.638812 -8.562103 -28.197289 -11.638640 -2.849702 -8.507103 -4.431500 -16.531933 -0.778161 -9.758828 -4.665960 56.710438 1.575725 0.437542 -0.604994 -3.498982 -1.006903 0.406260 0.026010 0.966652 -1.291283 0.649788 -1.057552 -0.192444 0.848754 -1.497017 -0.423758 0.410637 1.977529 0.570736 0.066195 0.323024 0.273782 1.035421 -0.028541 0.713235 0.043692 -0.449001
<VARIANCE> 39
6.697538 26.539772 19.172909 30.718063 28.635114 41.748039 40.578259 43.324116 28.349780 36.405900 36.126170 27.540853 15.009645 3.669137 1.786889 1.626052 9.211788 2.679077 2.550570 2.467333 2.693974 4.148759 3.133955 3.046160 2.002194 1.260525 0.392076 0.437275 0.248118 0.478430 0.414560 0.503569 0.469711 0.662446 0.473519 0.525260 0.443629 0.376305 0.172826
<STATE> 3
<NUMMIXES> 2
<MIXTURE> 1 0.532167
<MEAN> 39
9.189409 1.269264 0.543811 -19.648726 -22.409163 0.933402 -3.562142 1.388086 -3.981262 -6.857776 4.017392 -7.978737 59.316646 0.059020 -0.537544 -0.762690 0.397216 0.697254 -0.282103 0.238050 0.485682 -0.485241 -0.462194 0.503247 0.678101 0.214564 -0.019291 -0.234929 -0.318402 0.248063 0.475405 0.038046 -0.159706 0.038521 -0.146790 -0.126480 0.134982 0.307181 0.075762
<VARIANCE> 39
12.380495 23.154541 33.466246 33.737330 44.015700 67.463074 63.858616 79.222683 64.329598 56.674311 51.976068 48.310134 23.395405 0.129162 1.010813 1.325297 0.911290 1.447842 1.032733 1.326655 1.222730 1.800860 1.684096 1.755497 1.711731 0.332587 0.030491 0.085302 0.133768 0.136329 0.200477 0.183989 0.306088 0.199741 0.267949 0.241447 0.236368 0.223990 0.037269
<MIXTURE> 2 0.467833
<MEAN> 39
7.494483 0.210182 -7.465798 -28.914729 -13.555418 -1.425797 -6.965123 -1.814413 -14.123599 -2.588192 -9.004329 -6.172294 56.240699 0.036809 -0.283610 -0.306892 0.511446 -0.006464 0.115119 0.382656 -0.145180 -0.342322 0.276200 0.265648 -0.333510 0.064562 -0.042361 -0.277032 -0.149974 0.389679 0.203584 -0.093386 -0.029803 -0.173063 -0.126013 0.167711 0.191244 -0.103433 0.067769
<VARIANCE> 39
6.890619 27.045088 27.048796 23.507649 29.269886 40.034308 43.366329 45.790396 47.392983 48.784453 37.461861 32.807927 17.677712 0.139888 1.461678 0.788465 0.995403 0.992561 1.208991 1.075532 1.458694 1.765289 1.850040 1.277586 1.101326 0.408903 0.029107 0.105855 0.093493 0.194427 0.145892 0.215793 0.177824 0.208842 0.248616 0.276724 0.216494 0.242431 0.041835
<STATE> 4
<NUMMIXES> 2
<MIXTURE> 1 0.556621
<MEAN> 39
10.070352 -4.514096 -10.272672 -14.400454 -8.579224 -1.305923 -9.084301 5.364991 -6.312271 -10.515080 7.347796 0.165514 61.294474 0.024942 -1.143431 -1.760198 1.447407 3.147718 -0.195065 -2.566408 -0.305545 0.900477 0.701392 0.123855 0.595412 0.336749 -0.061491 0.134898 0.346844 0.100958 -0.039971 -0.132390 -0.322278 -0.213767 0.455125 0.578156 -0.467345 -0.558711 -0.142451
<VARIANCE> 39
10.658472 28.314727 46.110785 38.462054 99.022333 60.764371 103.433143 84.265902 91.128892 78.904908 65.689864 43.249369 27.398044 0.242791 0.901862 1.571068 1.737084 1.885101 2.631547 3.078751 3.479850 3.430265 4.780228 3.350580 4.012109 0.345440 0.038733 0.125312 0.246321 0.228365 0.428451 0.390931 0.616809 0.484096 0.565711 0.590044 0.545124 0.459854 0.037654
<MIXTURE> 2 0.443379
<MEAN> 39
7.194865 -9.388630 -14.154840 -17.890320 -7.139796 -4.592921 -6.950049 -3.705943 -18.908764 3.718852 -4.877978 -10.952447 59.664391 -0.146846 -1.696353 -0.695129 2.570452 1.505539 -2.110510 -0.994363 1.120248 0.348708 0.465275 -0.007180 -1.024556 0.447049 -0.016354 0.183035 0.335400 -0.002100 -0.127689 -0.440095 -0.190899 0.523325 0.491023 -0.631743 -0.445307 0.290067 -0.153992
<VARIANCE> 39
8.701028 31.565519 26.804857 47.986146 52.703390 63.181154 60.303122 55.933532 63.089346 45.741801 61.791360 42.846215 17.999276 0.181036 0.924607 1.210947 1.030958 1.794533 2.399453 2.583353 2.869668 3.699494 4.094138 3.329255 3.082699 0.276429 0.030780 0.121178 0.179455 0.235715 0.342944 0.361734 0.425313 0.381251 0.447462 0.579513 0.440762 0.516791 0.029235
<TRANSP> 5
0.000000 1.000000 0.000000 0.000000 0.000000
0.000000 0.663715 0.336285 0.000000 -0.000000
0.000000 0.000000 0.849624 0.150376 0.000000
0.000000 0.000000 0.000000 0.798330 0.201670
0.000000 0.000000 0.000000 0.000000 0.000000
<ENDHMM>
~h "ay"
<BEGINHMM>
<NUMSTATES> 5
<STATE> 2
<NUMMIXES> 2
<MIXTURE> 1 0.554254
<MEAN> 39
3.153506 -16.644043 -4.582826 -11.060928 -2.075052 3.809678 -5.125144 -2.736449 0.063051 -4.488407 -4.002219 -11.350482 67.466613 -0.322759 -0.543735 -0.332101 0.125613 0.920290 0.496438 0.386099 -0.580648 0.191337 -0.503001 -0.396234 0.302719 0.315946 -0.077377 0.387933 0.317716 0.356069 -0.156999 -0.319670 -0.101899 -0.039882 -0.130249 0.098338 0.106424 0.161945 -0.404545
<VARIANCE> 39
12.877261 24.508855 46.926864 55.640301 37.069196 70.203719 78.512334 82.462912 65.436507 50.309773 74.372305 47.574486 20.007423 0.373749 0.580203 1.037262 1.333008 1.241908 1.592356 1.731792 1.749734 1.302257 1.378718 1.822828 1.321207 0.300070 0.130579 0.184629 0.180278 0.301275 0.258453 0.258511 0.340977 0.501728 0.385504 0.273330 0.335949 0.269280 0.156865
<MIXTURE> 2 0.445746
<MEAN> 39
-0.930086 -19.729616 -5.053137 -10.978712 0.584738 -5.271333 -12.548357 -2.452873 -10.046039 -12.700702 -11.857281 -6.323452 66.009333 0.032212 -0.503007 -0.624923 0.743598 1.217275 0.587367 -1.204216 -0.469357 0.864145 -0.132004 0.568131 -0.577563 0.046334 0.125652 0.401072 0.325536 -0.053869 -0.411284 -0.213994 0.128000 -0.077928 -0.021512 0.192897 0.030018 -0.018452 -0.287633
<VARIANCE> 39
10.041279 23.723142 36.555877 37.283620 48.854115 56.487013 54.097767 62.386632 45.182361 53.048222 34.727698 36.016122 15.109955 0.310250 0.595135 1.041358 1.144812 1.937609 1.429244 1.596332 1.649196 1.785477 1.700784 1.257177 1.650736 0.189015 0.068047 0.158408 0.132509 0.221916 0.247516 0.253813 0.324518 0.399026 0.333040 0.307343 0.287482 0.270994 0.090908
<STATE> 3
<NUMMIXES> 2
<MIXTURE> 1 0.534145
<MEAN> 39
2.639750 -18.183281 -2.503079 -10.516003 -0.830806 4.600254 -5.917717 -1.302739 0.837840 -5.770101 -3.949237 -10.609347 67.913837 -0.067428 -0.109533 0.235890 0.445118 -0.119770 -0.527690 -0.103714 0.467021 0.196630 -0.204540 -0.299236 0.065414 -0.041330 0.009425 0.066821 0.090973 0.058416 -0.180372 -0.165922 -0.017431 0.173392 -0.022074 0.003890 0.024010 0.016448 -0.037983
<VARIANCE> 39
11.089556 24.422360 31.868834 48.756499 39.092966 71.069264 78.330301 72.929677 56.164519 53.453537 63.828894 53.323318 22.520610 0.115019 0.261529 0.341416 0.507700 0.706168 0.944843 0.609851 1.001379 0.577308 0.549254 0.684849 0.525266 0.098561 0.018946 0.037084 0.048475 0.061593 0.080420 0.092555 0.095330 0.107331 0.088581 0.090133 0.101608 0.087395 0.012445
<MIXTURE> 2 0.465855
<MEAN> 39
-0.662263 -19.952262 -6.432731 -8.786380 1.005666 -3.497559 -11.781465 -4.937371 -7.487444 -12.144099 -10.754372 -7.804797 65.378636 -0.100015 -0.050244 0.356241 0.152461 -0.385482 -0.231833 0.346835 0.229724 -0.225234 -0.286621 0.097243 0.278067 -0.017072 -0.022388 0.057790 0.117707 -0.089530 -0.229223 -0.077157 0.236121 0.072720 -0.147990 0.002077 -0.022835 0.056368 -0.001060
<VARIANCE> 39
11.269999 25.423104 33.858981 37.736842 51.067275 48.495705 77.624345 72.810564 47.165848 50.158079 35.655625 36.895813 22.389525 0.122938 0.226657 0.371241 0.443379 0.843938 0.606644 1.042770 0.723844 0.843479 0.707812 0.577000 0.705748 0.072630 0.019370 0.039020 0.051357 0.071101 0.100155 0.091849 0.131226 0.120168 0.141631 0.120836 0.105225 0.111086 0.009951
<STATE> 4
<NUMMIXES> 2
<MIXTURE> 1 0.557228
<MEAN> 39
1.581374 -16.295650 3.095107 -5.355834 -7.873966 -3.245353 -5.571860 5.377470 0.121991 -9.064779 -4.717146 -7.963785 66.195178 -0.091881 0.781387 1.364224 0.290581 -1.505725 -1.006979 0.177576 0.783860 -0.761360 0.154369 0.776467 0.330833 -0.500895 0.084151 0.244864 0.035762 -0.009559 0.141877 0.051498 -0.060918 -0.414689 -0.212418 0.283358 0.192211 -0.063726 -0.212756
<VARIANCE> 39
11.152037 34.023496 60.416254 36.365920 59.287105 50.647274 69.921789 61.328174 64.690726 54.361238 52.203581 45.774687 32.065740 0.283258 0.610862 0.951893 1.085353 1.629804 1.657504 2.232457 2.370349 1.904569 1.613347 1.737998 1.403994 0.294093 0.047955 0.102251 0.180015 0.253384 0.329490 0.197958 0.308287 0.388282 0.250917 0.254475 0.308698 0.213807 0.055657
<MIXTURE> 2 0.442772
<MEAN> 39
-2.631890 -19.035883 1.073480 -12.166935 -7.818357 -6.213551 -4.797116 -2.259185 -14.848461 -13.060890 -9.825478 -5.423534 65.682374 -0.154473 1.174248 1.462614 -1.316867 -2.146006 -0.234097 1.654188 -0.343718 -1.105340 1.060314 -0.207802 -0.404690 -0.443354 0.170676 0.352355 -0.012671 -0.032793 0.022873 -0.052774 -0.352312 -0.292026 0.294614 0.347081 -0.158454 -0.186276 -0.265771
<VARIANCE> 39
10.446062 27.901663 52.954877 36.136929 59.005851 37.649906 63.790402 53.836740 48.163142 40.020530 39.200656 31.442505 20.576849 0.298665 0.768793 0.719974 1.175479 1.524691 2.112789 2.148473 2.654956 2.187585 2.674955 1.809887 1.673809 0.239751 0.046905 0.083553 0.126018 0.314039 0.286847 0.254788 0.375993 0.307344 0.319327 0.336132 0.269679 0.274335 0.034635
<TRANSP> 5
0.000000 1.000000 0.000000 0.000000 0.000000
0.000000 0.695545 0.304455 0.000000 0.000000
0.000000 0.000000 0.894281 0.105719 0.000000
0.000000 0.000000 0.000000 0.789444 0.210556
0.000000 0.000000 0.000000 0.000000 0.000000
<ENDHMM>
~h "eh"
<BEGINHMM>
<NUMSTATES> 5
<STATE> 2
<NUMMIXES> 2
<MIXTURE> 1 0.564519
<MEAN> 39
-22.588410 2.072357 0.804744 -6.626392 1.771446 -8.941874 -0.599490 1.597634 -0.181157 0.139856 -2.665798 -1.495910 56.653892 7.675345 -2.031575 2.431920 0.429915 -2.309238 -1.024874 -3.167014 -0.802495 0.691698 0.794212 -0.898772 -2.278869 1.989749 1.039960 -1.034750 0.036289 -0.329326 -0.656207 0.262739 -0.911951 0.232088 0.440917 0.150344 0.196094 -0.612264 0.891010
<VARIANCE> 39
42.577981 14.749480 29.437836 26.345556 24.569152 28.013887 27.382686 28.899554 23.875006 20.581670 20.480689 17.272814 18.794887 2.183555 2.350401 2.620785 2.373052 2.425435 2.925268 4.029310 3.657451 3.058836 3.134627 3.205975 2.329979 1.642509 0.996705 0.290789 0.545176 0.459768 0.459387 0.558093 0.618818 0.650558 0.659889 0.505194 0.518186 0.433410 0.156121
<MIXTURE> 2 0.435481
<MEAN> 39
-20.169681 1.311991 -6.042380 0.611076 -8.663844 -1.483216 -0.938461 -1.880339 -1.584157 -2.579854 2.674386 -1.413852 54.282343 6.389194 -1.418950 2.705177 -3.579112 -3.140514 -4.924549 -1.874403 -0.978613 -1.362895 -2.146392 -3.178851 0.129635 2.482840 0.761728 -1.178397 0.086283 -1.058601 -0.381766 -0.847919 -0.001141 0.235202 -0.291281 -0.189586 -1.148190 -0.019928 0.645438
<VARIANCE> 39
22.307511 16.835317 22.556517 18.208263 19.671288 22.687692 19.684865 19.115666 21.585968 22.405854 15.670365 14.742351 14.789509 1.255476 3.140564 2.083927 2.978972 2.605925 2.779395 2.439545 2.391796 2.048020 2.320268 2.799044 1.752874 1.252816 0.544618 0.337211 0.436549 0.435698 0.551777 0.711567 0.560738 0.539590 0.473567 0.518499 0.407025 0.353829 0.188812
<STATE> 3
<NUMMIXES> 2
<MIXTURE> 1 0.510128
<MEAN> 39
-1.893342 -4.639627 5.214579 -6.522902 -5.522707 -11.345463 -11.894939 -1.451120 1.877713 2.508677 -4.001314 -8.340046 64.131985 6.586561 -4.110005 1.149237 -0.896242 -3.175021 -0.127713 -3.552820 0.410501 1.745084 0.750856 -0.094827 -2.681808 3.475145 -1.872004 -0.238667 -0.796880 -0.429240 0.283763 0.643191 0.924307 0.737665 0.237494 -0.328310 0.245366 0.279055 -0.085898
<VARIANCE> 39
20.590277 36.496814 25.072869 23.107583 30.093627 28.172157 39.968825 39.567839 29.840237 34.489413 34.005233 24.630942 26.581565 3.478699 1.910788 4.331680 3.243702 3.275071 3.972923 5.280446 6.443826 5.175044 4.605199 4.096104 2.963131 0.827164 0.416332 0.412484 0.251999 0.324712 0.355599 0.334772 0.577962 0.412251 0.403923 0.330610 0.388705 0.342980 0.259492
<MIXTURE> 2 0.489872
<MEAN> 39
-3.307900 -2.559023 -0.844404 -8.189306 -18.388161 -15.801994 -7.583746 -5.041696 -5.382435 -7.824574 -7.423682 -1.093817 60.223879 5.209380 -3.764690 1.767782 -4.782299 -2.400750 -4.258387 -0.561309 0.140677 -1.446890 -1.665209 -4.267157 -0.090495 3.259948 -1.562271 -0.689084 -0.697275 0.187376 1.092663 1.465513 1.077562 0.721145 0.065282 0.372781 0.222709 -0.206190 -0.082710
<VARIANCE> 39
20.315304 31.276284 15.993145 33.562052 24.682313 28.989459 22.085156 20.690714 20.772564 19.206099 26.967305 18.519055 21.822843 2.409184 2.708629 3.001749 3.709941 3.882832 4.823522 4.422597 4.065418 3.156980 3.480629 2.868981 2.151901 1.103306 0.345471 0.407946 0.256265 0.481059 0.374006 0.591879 0.381596 0.345988 0.335144 0.305191 0.458089 0.269307 0.187439
<STATE> 4
<NUMMIXES> 2
<MIXTURE> 1 0.525896
<MEAN> 39
0.599303 -12.867563 4.776995 -9.878538 -10.150215 -8.648274 -13.344510 3.628026 6.359135 2.227771 -3.224383 -11.305322 69.234001 0.844894 -2.480476 -0.499296 -0.990637 -1.025816 1.177394 0.357206 1.630303 1.293292 -0.471579 -0.189903 -1.217376 1.474788 -1.528484 0.928259 -0.445576 0.238483 0.913932 0.189293 1.141330 -0.130401 -0.486736 -0.309412 -0.019082 0.534295 -0.874515
<VARIANCE> 39
10.520720 19.314329 35.860450 24.034355 31.046556 35.923044 47.371600 61.594333 52.767426 57.190272 46.255553 34.847533 18.069867 1.688439 2.157948 1.317662 1.498168 2.409331 1.571540 3.589999 2.312868 2.349974 1.904159 1.803422 1.838091 1.259550 0.520761 0.181257 0.388287 0.294455 0.318636 0.329832 0.632608 0.682953 0.511138 0.428679 0.416646 0.367495 0.093740
<MIXTURE> 2 0.474104
<MEAN> 39
-2.484839 -12.767217 0.051288 -16.748605 -16.387946 -16.484687 -2.095437 -0.674729 -6.944561 -8.327469 -12.955613 -1.870361 65.996010 0.319907 -3.172260 0.055248 -2.282960 0.974369 0.900854 1.979004 1.391235 -1.082225 -0.835750 -1.882865 -0.739375 1.782492 -1.327485 0.792294 -0.525560 1.290307 0.858338 1.450849 0.268040 -0.022992 0.163490 0.230371 1.017501 -0.119989 -0.796822
<VARIANCE> 39
8.727990 19.340521 22.801311 31.430224 36.632933 37.164136 40.447384 37.585893 32.273225 35.352594 28.270516 20.743599 12.338351 1.751839 2.123319 1.339348 3.172650 2.429730 3.861242 2.654302 2.370465 1.971451 1.714023 2.212562 1.516059 1.068202 0.401178 0.261193 0.287358 0.354832 0.541508 0.753337 0.639751 0.463854 0.353493 0.426348 0.341831 0.297566 0.094781
<TRANSP> 5
0.000000 1.000000 0.000000 0.000000 0.000000
0.000000 0.404252 0.595748 0.000000 -0.000000
0.000000 0.000000 0.391955 0.608045 0.000000
0.000000 0.000000 0.000000 0.557105 0.442895
0.000000 0.000000 0.000000 0.000000 0.000000
<ENDHMM>
~h "ey"
<BEGINHMM>
<NUMSTATES> 5
<STATE> 2
<NUMMIXES> 2
<MIXTURE> 1 0.563618
<MEAN> 39
-1.718524 -11.839375 17.874887 -7.961043 -20.488329 -7.456812 -7.686233 4.251745 -5.414133 -1.302894 3.783748 -4.699320 65.835430 -0.234001 0.392926 1.039347 0.027809 -0.462944 0.202368 -0.298668 -0.929754 -0.785453 0.025880 0.394534 0.046560 0.029888 -0.025083 0.166698 -0.026873 0.080942 0.189008 -0.009702 -0.060051 -0.162698 -0.100883 -0.016087 -0.126130 -0.060105 -0.284413
<VARIANCE> 39
9.377099 22.690782 62.415916 35.454268 48.430877 40.638811 43.203336 57.484100 52.250025 44.758477 59.250579 27.325567 24.032927 0.285241 0.897001 1.004378 0.779617 1.286193 0.961078 1.523110 1.681995 1.333313 1.158061 1.411401 0.952591 0.879260 0.063460 0.129255 0.142657 0.147314 0.177175 0.170681 0.225172 0.261040 0.177589 0.190057 0.208641 0.143163 0.101912
<MIXTURE> 2 0.436382
<MEAN> 39
-6.791785 -9.582481 7.401286 -11.739528 -13.732840 -7.460610 0.453707 0.819081 -4.153047 -0.209193 -4.645761 -4.284424 54.772215 1.172771 -1.649248 1.490193 -2.036070 -1.730563 -0.278242 -0.117792 -0.197558 -1.254926 -0.550888 -0.897799 -0.906962 4.020125 -0.117965 0.293350 -0.102078 0.153387 0.147182 0.085208 -0.276221 -0.153964 0.102870 0.101817 0.184099 0.046846 -0.278608
<VARIANCE> 39
32.065770 52.515503 56.274179 105.320255 63.558856 57.027301 57.748687 62.358977 69.382913 45.051497 70.131546 30.580765 161.918773 3.285278 4.246504 3.671485 5.613134 5.239995 4.090463 4.804929 4.697008 5.263132 3.976359 5.673269 3.038733 11.196654 0.739010 0.873684 0.587194 1.133321 1.028466 0.751248 0.709067 0.779780 1.028827 0.662157 0.847269 0.545516 2.757477
<STATE> 3
<NUMMIXES> 2
<MIXTURE> 1 0.420926
<MEAN> 39
-5.791977 -3.839903 20.680329 -18.125986 -18.810743 -8.855937 -12.510072 -11.089334 -9.233155 1.572351 -6.261207 -2.762559 61.537681 -0.098426 0.936892 0.869336 0.686176 0.411959 0.065501 -0.612106 -0.990576 -0.539863 0.015100 -0.326687 0.407964 -1.305318 0.107902 0.044214 -0.357491 0.554705 0.071128 -0.002798 0.486912 0.231326 0.047638 -0.105296 0.058184 -0.104186 -0.467339
<VARIANCE> 39
12.262079 31.994173 37.091509 102.412327 28.022525 42.330465 49.047957 69.853601 54.034166 55.881296 90.450985 36.721580 30.093964 0.468426 1.045234 1.050572 1.203164 1.119136 1.445642 2.163583 1.684628 1.780649 1.904916 1.817361 1.965964 0.595929 0.108973 0.204766 0.246589 0.301307 0.255975 0.313069 0.365709 0.303871 0.355001 0.401792 0.374710 0.316782 0.191340
<MIXTURE> 2 0.579074
<MEAN> 39
-4.891338 -10.420583 10.454207 -23.557457 -18.365992 -7.836528 -2.463888 -7.536229 -8.924015 -1.235413 -13.014684 -7.462533 64.681755 -0.129428 0.867311 0.881182 -0.341084 -0.239200 -0.293199 -1.210290 -0.966052 0.378664 0.542398 0.061332 0.529652 -0.347421 -0.025965 0.081690 0.108068 0.106966 0.097288 -0.063448 -0.128322 -0.049655 0.024094 0.079699 0.097203 0.217764 -0.152392
<VARIANCE> 39
9.287555 39.621924 38.323212 35.781123 27.218280 33.617344 55.799478 46.925989 41.517944 50.476085 29.887781 25.210139 18.270292 0.254952 0.505361 0.769804 0.693273 0.846959 0.911625 1.528442 1.219201 1.286198 1.391630 1.054986 1.457382 0.242104 0.048985 0.083939 0.094102 0.119979 0.140789 0.149266 0.189990 0.174990 0.222208 0.207844 0.189669 0.181186 0.055549
<STATE> 4
<NUMMIXES> 2
<MIXTURE> 1 0.507913
<MEAN> 39
-3.199210 -3.781697 24.891896 -3.390069 -18.657144 -8.235385 -10.245333 -5.212410 -14.779987 -2.605951 3.278020 -6.446545 55.091646 -0.236308 2.466638 -2.478904 2.812555 2.514082 -0.686086 1.343908 -0.257405 0.598608 -0.928015 -0.858127 0.107066 -4.382710 -0.358206 0.324041 -1.277912 0.157911 0.849161 0.286403 0.331232 0.153378 0.883914 0.045477 -0.293457 0.281225 -0.621265
<VARIANCE> 39
10.308258 32.870096 36.468131 52.076043 35.542934 43.013758 37.940282 44.266430 41.931477 54.549161 37.061686 31.295720 43.144976 1.540428 3.306041 5.712092 3.829456 4.177139 3.193420 4.154428 3.648292 4.823814 4.048396 3.341231 2.778727 3.187727 0.290406 0.619156 0.470020 0.821954 0.526850 0.649064 0.576588 0.637006 0.662595 0.650125 0.425458 0.425861 0.560945
<MIXTURE> 2 0.492087
<MEAN> 39
-6.066101 -0.498840 20.149610 -16.331664 -18.350531 -10.038751 -11.125281 -17.330004 -8.561286 4.480688 -10.690592 1.672123 54.113083 0.282332 1.521014 -1.806965 4.204327 0.628112 0.009616 1.043548 0.865531 -0.032364 -0.756360 1.720598 -0.231980 -3.979919 -0.223399 0.126733 -1.279444 0.609124 0.765932 0.061883 0.248416 0.878438 0.272977 -0.649718 0.506585 -0.438281 -0.704650
<VARIANCE> 39
10.446150 35.012405 25.405152 80.091836 29.696597 39.400154 48.267432 42.513154 52.116323 58.526570 39.493723 39.216684 42.948310 1.621054 2.279742 5.735194 3.711481 3.724804 2.849046 4.299642 4.460708 3.618973 5.358410 3.504015 3.688382 3.282030 0.348421 0.467421 0.499181 0.873208 0.630925 0.618236 0.737062 0.628195 0.695894 0.807930 0.553008 0.570827 0.592423
<TRANSP> 5
0.000000 1.000000 0.000000 0.000000 0.000000
0.000000 0.888467 0.111533 0.000000 0.000000
0.000000 0.000000 0.869409 0.130591 -0.000000
0.000000 0.000000 0.000000 0.683014 0.316986
0.000000 0.000000 0.000000 0.000000 0.000000
<ENDHMM>
~h "ih"
<BEGINHMM>
<NUMSTATES> 5
<STATE> 2
<NUMMIXES> 2
<MIXTURE> 1 0.537930
<MEAN> 39
-14.768352 5.003688 8.436648 -3.470220 -0.080543 -12.610988 -6.848200 -1.286769 -3.024602 -1.056547 -3.395173 -2.748383 60.656119 5.885580 -3.346233 2.497960 0.543895 -3.618305 -1.349584 -3.071163 -0.511017 0.082553 -0.516570 0.385065 -0.918488 1.891353 0.232013 -0.895962 0.039880 0.041975 -0.599318 0.387487 -0.374849 0.384302 0.123220 -0.308097 0.585554 0.000334 0.093129
<VARIANCE> 39
48.128567 24.327302 34.700323 25.224079 27.518736 41.161528 53.544521 31.325948 26.025616 20.558430 17.164624 20.209267 21.842346 5.202899 3.123150 4.483136 2.766434 2.739582 3.571649 4.716008 4.231594 3.557373 2.775177 2.568010 2.321973 1.083628 0.881001 0.353937 0.605201 0.399568 0.443540 0.561565 0.738831 0.586884 0.575922 0.470316 0.438601 0.355997 0.231253
<MIXTURE> 2 0.462070
<MEAN> 39
-14.432618 6.429531 -0.538818 -0.530883 -14.563157 -11.538406 -5.479609 -11.440617 -7.506840 -7.924382 -1.949333 -5.174385 56.757334 5.097366 -2.448424 3.727090 -3.909453 -3.689724 -4.785996 -1.743135 -1.677332 -1.622898 0.346070 -1.911818 0.680156 2.368484 0.015167 -1.039186 0.400795 -0.681499 0.190721 0.128743 0.128720 0.657706 -0.198272 0.915700 -0.418187 0.178025 0.062225
<VARIANCE> 39
32.684479 23.637484 23.013702 21.927787 36.808028 49.112562 28.520434 31.357366 26.434822 20.960075 20.870700 21.446315 17.454486 3.224092 4.380381 3.249815 3.081908 3.060925 4.083780 4.722481 3.790568 3.841362 4.848179 4.012876 2.628289 1.097418 0.644237 0.325835 0.502105 0.422284 0.639332 0.875544 0.707073 0.522345 0.587182 0.455825 0.525309 0.384379 0.170543
<STATE> 3
<NUMMIXES> 2
<MIXTURE> 1 0.496042
<MEAN> 39
-1.962119 -7.418289 13.280480 -2.835200 -10.781769 -12.476558 -15.549034 -0.761022 -1.092264 -3.423948 0.296601 -4.627548 65.489093 3.291699 -3.822049 1.459487 0.281264 -3.490949 0.013800 -2.072159 1.113355 0.188343 -1.052230 1.725604 -0.322643 1.282131 -1.349742 0.645310 -0.645132 -0.000964 0.736605 0.153298 0.795778 0.471387 -0.235552 -0.072195 0.195477 0.332678 -0.517884
<VARIANCE> 39
13.694988 25.745211 45.467563 23.870555 33.531381 30.116475 35.994949 41.412814 48.472393 37.532383 28.485393 27.992002 16.422976 4.160765 1.963695 3.937967 2.692223 2.812484 3.937434 5.047417 4.258340 4.987184 3.812117 3.141875 2.534810 1.394725 0.705064 0.394528 0.454776 0.269481 0.495299 0.462469 0.768864 0.565656 0.537474 0.411346 0.447905 0.353552 0.163546
<MIXTURE> 2 0.503958
<MEAN> 39
-4.842289 -4.764706 7.371158 -11.768604 -20.347066 -19.936588 -7.474255 -10.175584 -10.497140 -2.566998 -7.289664 -1.894724 62.043972 2.378839 -3.506310 3.027925 -3.891420 -1.333075 -1.777306 -0.165631 0.606781 -1.472117 2.297902 -1.778024 0.270863 1.592826 -1.323402 0.376798 -0.677724 0.786150 0.983193 1.335547 0.699468 0.517082 0.207379 0.277056 0.483910 -0.400442 -0.606072
<VARIANCE> 39
10.597310 28.594510 36.472198 38.476384 27.430938 27.777115 33.960294 43.974409 27.413758 31.544445 24.815111 21.965865 13.711441 3.587995 2.579169 2.669852 3.271755 4.207615 6.447611 5.220254 4.089574 3.487005 3.724159 3.268991 2.461656 1.233264 0.371661 0.548180 0.417804 0.651535 0.413871 0.586463 0.645966 0.586881 0.484374 0.673580 0.522492 0.364713 0.181170
<STATE> 4
<NUMMIXES> 2
<MIXTURE> 1 0.417096
<MEAN> 39
-0.789060 -12.056600 13.526832 -3.524311 -16.411493 -14.174761 -13.433614 4.424441 -4.079923 -4.784864 4.463564 -5.141544 66.030132 0.266586 -0.091548 0.313898 1.147930 -0.265249 -0.635553 0.431660 1.006068 -1.619904 -0.634473 1.143178 0.220125 -1.027865 -0.420163 0.947382 -0.484281 0.388767 0.980616 0.004079 0.282769 -0.275394 0.020482 0.125141 -0.370463 0.202892 -0.935839
<VARIANCE> 39
13.528682 19.987943 55.090560 37.101535 41.595633 46.905227 59.430853 64.963220 90.337977 62.791034 53.957924 36.255470 24.429650 1.022078 2.441863 1.932390 2.065756 2.318626 1.786361 2.378281 2.690479 4.548198 2.704230 2.362469 1.897123 2.310198 0.387850 0.499157 0.486436 0.343326 0.501481 0.585581 0.726845 0.627770 0.995359 0.593922 0.634569 0.388261 0.593321
<MIXTURE> 2 0.582904
<MEAN> 39
-4.459792 -9.113579 12.078994 -16.943073 -19.808905 -17.189182 -4.477709 -8.142145 -11.765419 2.426753 -8.660774 -4.088761 62.918918 0.304632 -0.606178 0.484812 0.184306 -0.103844 -0.159794 0.815617 0.138042 -0.757094 0.839905 -0.051738 -0.665587 -0.375270 -0.039652 0.510047 -0.567088 0.980172 0.230446 -0.119860 -0.015978 0.037255 0.083645 -0.424784 0.356379 -0.046433 -0.554147
<VARIANCE> 39
11.387629 25.843963 44.586662 36.974407 28.368029 38.478395 65.106475 66.598091 45.427081 41.720993 36.527035 24.415676 17.672941 0.620225 1.581868 1.555105 2.675318 1.038622 2.016040 1.765904 3.206576 1.787890 1.906275 1.810827 1.422649 0.906444 0.183957 0.414466 0.415964 0.506019 0.352665 0.541662 0.461148 0.455501 0.351051 0.506256 0.401675 0.294885 0.367949
<TRANSP> 5
0.000000 1.000000 0.000000 0.000000 0.000000
0.000000 0.442305 0.557695 0.000000 -0.000000
0.000000 0.000000 0.571363 0.428637 -0.000000
0.000000 0.000000 0.000000 0.755589 0.244411
0.000000 0.000000 0.000000 0.000000 0.000000
<ENDHMM>
~h "iy"
<BEGINHMM>
<NUMSTATES> 5
<STATE> 2
<NUMMIXES> 2
<MIXTURE> 1 0.598557
<MEAN> 39
-1.822229 -8.293759 24.542582 -1.723479 -19.704670 -7.829430 -14.165180 -1.201199 -10.853020 -8.569688 6.402420 -3.994128 63.390700 -0.614142 1.062003 0.837971 -0.534276 -0.127964 0.870789 0.450940 -0.685950 -0.722095 0.520724 -0.206251 -0.547800 -0.412289 0.162859 -0.007244 -0.461268 0.211154 0.322946 -0.185314 -0.052760 0.140572 0.245547 0.056921 -0.156553 0.092734 -0.112647
<VARIANCE> 39
16.357297 27.096651 34.082786 36.916748 33.675820 45.977663 30.492289 38.420888 40.715142 55.396586 30.554287 35.808940 20.381201 0.542623 0.856391 1.454086 1.123388 1.117993 1.675872 1.428907 1.455990 1.430268 1.165174 1.010907 0.956425 0.257446 0.072303 0.130301 0.208844 0.172027 0.244466 0.255838 0.351976 0.229774 0.266271 0.194725 0.209498 0.167008 0.040272
<MIXTURE> 2 0.401443
<MEAN> 39
-2.326700 -10.648244 15.550604 -14.092367 -21.159456 -18.573541 -4.754997 -7.356894 -19.892290 5.871638 -7.565768 -8.299379 61.272157 -1.332210 1.851210 2.029019 -2.436025 -0.361572 2.739051 -0.785635 -3.111310 1.319654 1.038598 -1.843737 0.376542 -0.136578 0.252755 0.167742 -0.695080 0.355731 0.807199 -0.320995 -0.753245 0.486373 0.566737 -0.835135 -0.050737 0.358008 -0.224422
<VARIANCE> 39
12.542799 27.578203 33.257745 39.885359 22.119977 44.741150 47.241817 62.498548 44.033868 38.852026 53.186096 24.538622 14.892369 0.359758 0.607798 1.302565 1.464750 1.872905 2.354923 2.337913 2.168459 2.172480 2.825695 1.680155 1.392568 0.217488 0.051684 0.124878 0.176877 0.241849 0.349849 0.359473 0.492131 0.380390 0.535436 0.318953 0.386956 0.197340 0.025419
<STATE> 3
<NUMMIXES> 2
<MIXTURE> 1 0.417071
<MEAN> 39
-4.033917 -1.703776 21.800377 -10.079242 -18.147751 -7.865725 -10.693241 -9.265948 -13.944469 -1.605850 -4.294815 -5.660446 57.459228 -0.193436 1.253172 -1.244626 1.402217 0.907404 0.227803 1.356344 -0.282750 0.525328 -0.151000 0.015542 -0.059345 -1.267290 -0.213942 0.021524 -0.843216 0.657041 0.634220 -0.094693 0.430766 0.401529 0.450327 -0.120828 0.213366 0.118766 -0.316381
<VARIANCE> 39
12.123614 40.171891 36.870475 101.390330 36.453988 77.529642 50.734419 98.032512 49.472434 71.511163 120.108706 40.192909 35.897091 1.420557 2.481864 2.501169 3.834204 3.133489 4.820483 3.949467 3.618642 3.295605 4.729153 3.692804 2.445886 1.184508 0.341329 0.371002 0.431156 0.655689 0.555332 0.750136 0.649442 0.722721 0.624595 0.632701 0.700817 0.498059 0.281353
<MIXTURE> 2 0.582929
<MEAN> 39
-5.943985 -0.889507 18.211347 -20.566857 -17.596524 -10.801875 -12.005668 -15.092070 -11.465166 1.393173 -12.489232 -3.645933 58.175312 -0.168540 0.973154 0.145446 -0.126027 0.378655 0.657660 -0.635248 -0.625770 0.565784 -0.682101 -0.315984 0.417977 -0.609134 0.122041 -0.157335 -0.215091 0.395395 -0.072727 -0.157748 0.265592 0.194181 -0.146811 -0.036001 0.229641 -0.132375 -0.075117
<VARIANCE> 39
10.744352 40.186432 21.046559 33.424538 27.859237 38.634640 39.388115 39.886106 54.421613 45.102574 47.427907 32.236392 23.598691 0.315384 0.869297 0.670699 1.271398 1.167469 1.135255 1.488450 1.270652 1.410094 1.559664 1.437973 1.166189 0.318889 0.059110 0.101986 0.136082 0.269328 0.187281 0.251573 0.229651 0.242642 0.244029 0.267372 0.265418 0.185928 0.040293
<STATE> 4
<NUMMIXES> 2
<MIXTURE> 1 0.533580
<MEAN> 39
-6.216016 3.064877 15.805923 -1.849367 -11.580757 -5.744684 -4.878363 -10.219949 -10.655031 -4.976607 -4.039141 -5.060629 50.609177 -1.881930 0.486581 -2.998436 2.315063 2.720428 0.679413 1.958743 1.480425 1.918691 0.111367 0.747461 0.418569 -1.970129 -0.487131 -0.519693 -0.474186 -0.432731 0.165709 0.216761 -0.102210 0.616580 0.443555 0.403727 0.185974 0.193429 -0.000713
<VARIANCE> 39
21.200508 28.620648 41.941131 67.697955 58.422679 100.081081 65.322510 95.622568 38.955354 41.676507 68.483641 31.865359 60.647273 3.967255 5.447477 3.344908 6.144575 4.993856 6.620189 5.315608 6.907068 6.042034 5.805973 7.707581 3.870395 3.008415 0.393434 0.463544 0.498204 0.654971 0.776269 0.965128 0.757776 0.860397 0.687318 0.740753 0.648321 0.501389 0.244271
<MIXTURE> 2 0.466420
<MEAN> 39
-8.651345 -2.746947 7.240145 -5.377164 -8.684775 -4.158865 -3.134848 -3.472837 -2.845902 0.654113 -2.100185 -2.512065 46.487174 -0.440219 -0.422292 -2.556996 0.333172 1.311301 0.961565 0.838817 1.287190 1.160906 0.111533 0.239364 0.033819 -1.307419 0.244694 0.132042 0.371726 -0.224454 -0.218801 -0.002735 -0.147330 -0.357977 -0.577757 -0.304966 -0.226207 -0.152245 0.276637
<VARIANCE> 39
47.920544 37.927205 55.507078 103.785150 80.717953 122.070414 95.266833 92.226441 75.292772 73.293321 74.576331 39.589167 88.628566 3.204388 3.759207 3.890313 4.491979 5.051270 6.641060 5.480399 7.775690 6.585663 5.911887 5.184736 3.328006 3.276613 0.356080 0.619000 0.667560 0.879483 1.174593 1.223066 1.198323 1.181833 1.071527 1.002632 1.048254 0.661381 0.836288
<TRANSP> 5
0.000000 1.000000 0.000000 0.000000 0.000000
0.000000 0.792661 0.207339 0.000000 -0.000000
0.000000 0.000000 0.824317 0.175683 -0.000000
0.000000 0.000000 0.000000 0.731189 0.268811
0.000000 0.000000 0.000000 0.000000 0.000000
<ENDHMM>
~h "ow"
<BEGINHMM>
<NUMSTATES> 5
<STATE> 2
<NUMMIXES> 2
<MIXTURE> 1 0.613262
<MEAN> 39
2.737629 -13.041880 -4.406329 -14.189643 -5.446269 -2.929169 -7.840518 -0.441537 -4.654869 0.186533 -4.676025 -10.065092 63.314826 0.241820 -0.247982 0.057452 -1.018020 -0.205315 0.941455 0.003661 -0.446476 -0.246681 -0.013785 0.008497 -0.660611 1.144229 -0.197834 0.387677 0.051076 0.257164 -0.051431 -0.032954 -0.085433 -0.090234 0.106297 0.024099 0.135707 0.312768 -0.587797
<VARIANCE> 39
18.918908 37.583103 38.467989 54.033586 55.785564 112.996722 74.504085 65.757876 67.437667 83.141525 163.159659 57.976426 30.704405 1.025376 1.532929 1.585583 1.715737 2.267407 2.376725 2.897267 2.515413 2.351792 2.536312 3.361056 2.261224 2.091662 0.272589 0.283540 0.240416 0.343741 0.359010 0.327370 0.425695 0.391307 0.429974 0.434460 0.549665 0.387629 0.661167
<MIXTURE> 2 0.386738
<MEAN> 39
-8.119309 -6.343455 -4.572321 -7.892233 -2.213760 -2.175013 -2.216585 -0.161901 1.580937 1.506741 -3.942376 -4.038260 44.542218 2.178305 -1.977323 -0.552791 -2.076301 0.251813 0.195983 -0.583677 -0.920849 -1.238621 -0.966101 -1.627040 -1.292504 4.386673 0.318454 -0.104495 0.071189 -0.327179 -0.170543 0.012533 -0.215666 -0.151273 -0.218067 -0.104003 -0.038250 -0.139315 0.689264
<VARIANCE> 39
53.711006 55.834157 32.263705 69.278901 47.217532 64.767372 48.157538 55.863162 55.557664 68.203022 86.184376 55.517435 156.783715 7.030510 5.866261 3.900819 8.635403 5.421519 5.699941 5.842387 6.193298 6.460672 6.483883 8.836278 5.438224 18.228958 1.345752 1.246371 0.700264 1.445622 0.878193 0.930435 0.964132 1.122337 1.330149 1.123325 1.458240 0.922855 3.529651
<STATE> 3
<NUMMIXES> 2
<MIXTURE> 1 0.510992
<MEAN> 39
6.300743 -6.794596 -1.396644 -17.622300 -11.622093 5.949953 -8.645598 -4.364322 -5.145739 -0.192239 5.611380 -7.117830 63.202725 0.162901 0.785020 0.254922 -0.179374 -0.423042 0.093765 0.136995 -0.236493 -0.545896 -0.301340 -0.029348 0.463117 -0.524410 -0.029248 0.049994 -0.011170 0.157488 0.106107 -0.135747 -0.021794 0.045256 0.035928 -0.016851 -0.152422 -0.017242 -0.114198
<VARIANCE> 39
11.556368 43.538017 33.771582 65.248370 63.430009 67.282924 72.367078 60.009253 74.145513 74.777232 85.480863 50.036961 33.845146 0.222482 0.646974 0.572668 0.960247 1.021150 1.096758 1.238925 1.157593 1.291796 1.364673 1.492359 1.332974 0.415119 0.036400 0.086926 0.088605 0.132612 0.149269 0.148895 0.173880 0.159234 0.183534 0.207061 0.199621 0.188821 0.036655
<MIXTURE> 2 0.489008
<MEAN> 39
2.186426 -13.321509 -7.247467 -17.663611 -4.176358 -7.619364 -9.340755 -3.540304 -7.134997 -1.898712 -15.536259 -9.650152 63.336420 0.189036 0.773652 0.005418 -0.461363 -0.106196 0.327176 -0.529946 -0.765033 0.061677 0.487670 0.255587 0.173365 -0.430937 0.025367 0.116850 0.071601 0.063402 -0.032002 -0.057231 -0.022900 -0.000701 -0.048166 -0.050996 0.148670 0.149721 -0.123419
<VARIANCE> 39
12.862670 40.108877 30.574585 52.411038 42.927814 69.872505 63.408054 69.445171 58.490229 76.906051 46.380140 40.427172 24.435491 0.250497 0.476556 0.525193 0.811306 0.882132 1.454379 1.178811 1.498732 1.572736 1.500965 1.502900 1.393365 0.236337 0.032199 0.064033 0.074254 0.124500 0.135742 0.157143 0.189987 0.201163 0.212652 0.246504 0.171721 0.180289 0.025251
<STATE> 4
<NUMMIXES> 2
<MIXTURE> 1 0.424286
<MEAN> 39
0.692628 0.881911 -0.021577 -4.593661 -3.322870 0.148745 -4.562048 -5.640737 -6.750043 -3.825792 -2.532874 -4.323152 49.210831 -2.806756 0.319607 0.622717 3.018630 1.959193 -0.005139 1.507860 0.773585 1.254203 0.185860 0.150871 0.523606 -1.769942 -0.454870 -0.330609 -0.201357 -0.331555 -0.065195 0.070428 0.020786 0.307600 0.190705 0.299062 0.256715 0.111932 0.090478
<VARIANCE> 39
37.898509 30.272178 30.802509 75.527343 73.376569 83.844515 90.867089 61.590646 53.063747 60.935304 72.515568 37.496094 65.688662 3.745914 5.532372 3.484312 6.654772 4.673145 5.400571 5.518362 5.250213 5.464665 6.573804 7.445369 3.747994 2.378865 0.713949 0.629963 0.527878 1.092882 0.946541 0.773771 0.937154 0.833181 0.787379 0.936051 0.799326 0.603056 0.339892
<MIXTURE> 2 0.575714
<MEAN> 39
4.766468 -3.694823 -4.016447 -16.274925 -7.479280 -2.542105 -10.894688 -6.607929 -9.001783 -0.223262 -4.173745 -5.609332 56.031363 -0.492283 0.923683 0.568100 1.480724 0.127530 -0.425719 0.279044 -0.161131 0.430870 -0.478729 -0.211344 0.158506 -1.221401 -0.377415 0.048160 0.167588 0.608502 0.183894 -0.074640 0.355821 0.175466 0.216589 -0.185546 -0.045172 -0.064189 -0.123759
<VARIANCE> 39
19.458241 55.122898 42.217503 86.693205 57.612518 102.299420 83.440152 67.852409 78.748637 91.073854 127.783396 49.157880 47.527506 0.973074 2.762415 1.980160 3.548429 2.983731 3.338446 3.687267 4.309793 4.800291 5.006216 4.210994 3.491381 1.326051 0.242923 0.431035 0.332566 0.587420 0.526394 0.602816 0.665671 0.670295 0.899918 0.863330 0.795686 0.640585 0.249371
<TRANSP> 5
0.000000 1.000000 0.000000 0.000000 0.000000
0.000000 0.764910 0.235090 0.000000 0.000000
0.000000 0.000000 0.903243 0.096757 -0.000000
0.000000 0.015171 0.000000 0.839958 0.144871
0.000000 0.000000 0.000000 0.000000 0.000000
<ENDHMM>
~h "sp"
<BEGINHMM>
<NUMSTATES> 3
<STATE> 2
<NUMMIXES> 2
<MIXTURE> 1 0.425345
<MEAN> 39
-14.505843 1.845138 -0.287386 0.932132 -0.253695 -0.265980 1.024471 1.628226 2.616882 1.938121 1.980779 0.569788 30.230596 -0.292399 0.097711 0.108861 0.058180 0.071005 0.112668 0.108808 0.155275 0.332875 0.376469 0.269682 0.107186 -0.245660 0.134455 -0.144091 -0.056123 -0.059082 -0.067115 -0.084364 -0.087426 -0.085600 -0.192924 -0.187054 -0.136861 -0.067219 0.233033
<VARIANCE> 39
8.112471 5.217398 7.373173 9.667743 12.034658 13.359782 12.613516 12.526565 14.515261 15.458228 14.248070 11.087092 4.357216 0.465330 0.672764 0.884993 0.874380 1.149085 1.355466 1.419703 1.559826 1.761825 1.733228 1.595564 1.281547 0.327545 0.103546 0.150283 0.163779 0.191179 0.237004 0.270309 0.287902 0.319241 0.353271 0.331508 0.307007 0.260676 0.113693
<MIXTURE> 2 0.574655
<MEAN> 39
-10.383718 -2.939493 -1.835633 0.969162 -0.562075 -1.657045 -0.180760 1.183031 -1.522260 -3.029384 -1.426432 -0.766387 36.388446 -0.068362 0.139608 -0.076743 -0.093909 -0.238454 -0.206058 -0.157315 -0.177955 -0.107611 -0.067497 -0.097171 -0.086825 -0.159500 0.005576 0.092049 0.133109 -0.002276 -0.011035 -0.007234 -0.012075 -0.042421 -0.002535 0.059541 0.019694 -0.038700 0.101120
<VARIANCE> 39
18.032657 29.989048 21.753241 17.709321 27.961493 29.190393 32.350375 31.436357 34.828142 36.597286 29.763485 22.370310 21.119286 0.709835 1.578951 1.312289 1.272979 1.663728 1.884744 1.968100 2.034295 2.272946 2.293998 2.024568 1.674781 0.925239 0.185742 0.255879 0.250021 0.273624 0.338764 0.376033 0.382865 0.419364 0.454431 0.445017 0.421521 0.343653 0.208313
<TRANSP> 3
0.000000 0.075754 0.924246
0.000000 0.940721 0.059279
0.000000 0.000000 0.000000
<ENDHMM>
~h "th"
<BEGINHMM>
<NUMSTATES> 5
<STATE> 2
<NUMMIXES> 2
<MIXTURE> 1 0.421266
<MEAN> 39
-15.196447 1.819297 1.075053 3.212221 -1.805228 -1.465381 -0.686395 -1.320324 -0.134228 -1.223300 0.681511 -1.078690 45.523599 -1.659132 -0.332553 -0.371499 -0.253238 0.406623 1.158747 0.951863 1.064924 1.247376 0.907482 0.851381 0.746360 -0.615985 0.533880 -0.440164 0.116996 -0.440323 -0.431042 -0.294391 -0.234234 -0.142424 -0.303711 -0.000541 -0.153878 -0.169624 0.534067
<VARIANCE> 39
24.273389 31.317932 28.031246 28.749412 30.223491 28.055154 30.776962 26.019021 27.341366 23.503795 22.136643 16.921567 75.156399 3.884019 3.650263 4.297481 3.701091 3.060330 3.424548 3.506617 4.110138 3.617915 3.234698 3.647038 2.503118 9.435902 0.602001 0.846719 0.937881 0.898410 0.726301 0.820420 0.902330 0.839532 0.776004 0.695973 0.795305 0.529810 1.739957
<MIXTURE> 2 0.578734
<MEAN> 39
-17.752400 -1.514100 -1.847141 1.154888 -3.085928 -0.089688 -0.336443 0.437195 1.085180 0.465578 2.405189 -0.068182 42.032083 -0.061824 -0.949109 -0.684391 -1.112531 -0.908808 -0.408880 -0.249800 -0.407177 -0.137955 -0.276877 -0.022090 -0.046265 2.742202 0.555228 0.120020 0.492650 -0.105261 -0.135961 -0.352517 -0.082823 -0.254463 -0.248473 -0.156750 -0.278031 -0.200630 0.864579
<VARIANCE> 39
17.544602 23.407795 15.930500 17.098763 20.252792 18.682722 17.407818 15.467635 15.627404 16.147573 12.655428 11.492462 72.515731 1.818746 2.276041 1.971557 2.119505 2.142610 2.184430 2.433336 2.142351 2.030461 2.087079 1.774589 1.533462 9.573674 0.472823 0.467989 0.590634 0.445343 0.482988 0.546088 0.553736 0.514209 0.463626 0.483481 0.393179 0.342754 1.390907
<STATE> 3
<NUMMIXES> 2
<MIXTURE> 1 0.590069
<MEAN> 39
-15.180316 -4.579176 3.744167 -2.294082 -5.012824 -1.810471 1.575090 0.507376 1.161393 1.342988 1.865398 -1.073456 56.571307 1.927254 -0.938384 2.254130 1.136505 -0.171694 -0.692001 -0.083881 0.452383 -0.432630 -0.121098 -0.212079 -0.525960 0.954835 0.939666 0.098611 -0.266970 0.682707 0.314197 -0.475553 -0.980402 -0.287871 -0.256349 -0.368387 -0.264167 -0.098916 -0.950386
<VARIANCE> 39
25.604063 23.696429 49.589874 33.858518 25.311393 32.210192 34.792661 26.322386 26.890266 23.117090 20.415900 17.089999 17.790113 4.188537 3.280216 4.905487 5.789729 3.853650 4.086111 5.317142 3.927313 3.201510 3.183349 2.404235 2.152779 5.537110 0.690907 0.648723 1.717434 1.172126 0.800438 1.034734 1.280288 0.938059 0.833860 0.636360 0.590075 0.557796 0.812935
<MIXTURE> 2 0.409931
<MEAN> 39
-10.328469 -4.627036 6.058567 2.271598 -4.777558 -5.097555 -1.004609 -0.359684 -1.017580 -2.860957 -0.806112 -2.252197 54.324113 4.497142 -0.414466 -0.173222 -0.002399 -0.313673 -3.255685 -3.995653 -1.717743 -1.344172 -1.044589 -1.622949 -1.067607 0.939772 0.800337 -0.215482 -0.933367 -0.486620 0.137067 -0.466248 -1.223489 -0.219897 -0.184438 0.156395 0.055349 -0.059659 -0.225500
<VARIANCE> 39
37.013762 31.453053 48.269019 46.340884 33.042757 31.206698 38.772845 44.421486 30.497871 25.750127 25.241732 20.149738 27.594345 3.889802 3.118863 7.876858 5.162320 5.635195 6.504599 5.984527 4.313660 4.936105 3.253557 3.459278 3.231464 6.613826 0.621045 0.810721 1.543585 1.312569 0.862805 1.215046 1.139560 1.282554 1.013954 0.680652 0.703820 0.602803 1.326778
<STATE> 4
<NUMMIXES> 2
<MIXTURE> 1 0.531838
<MEAN> 39
10.037210 -7.559007 -5.956348 0.489087 2.487074 -7.189238 -23.207066 -8.524270 0.587396 -1.495238 -0.885262 -1.966541 57.334642 1.789733 -1.099307 -1.080713 -0.128933 0.321362 -1.106534 -3.164197 0.623148 0.785211 -0.880495 -0.314644 0.359638 0.865855 -1.242788 -0.282916 1.239385 0.306704 -0.939760 -0.495976 1.195591 1.154124 -0.190064 -0.319098 0.163814 0.026143 0.202343
<VARIANCE> 39
13.106895 18.222329 42.307378 34.779478 36.562329 58.301728 59.064070 53.173599 40.735085 28.831835 29.594155 23.777949 18.281635 4.834805 1.821478 6.084080 3.521792 4.763730 5.736413 7.655616 8.260916 3.440111 3.754565 2.377291 2.056515 1.007880 0.438451 0.297040 0.647892 0.656583 0.590730 0.775842 1.226944 0.666889 0.806272 0.514789 0.501404 0.391306 0.124455
<MIXTURE> 2 0.468162
<MEAN> 39
1.908267 -7.458388 2.526793 -1.338375 -8.425151 -16.311981 -13.160720 -5.182969 -6.635667 -4.090019 -3.835242 -6.334651 56.610781 4.127227 -1.799045 -1.891179 -0.277590 0.550925 -2.970297 -3.908502 -0.094032 -1.394454 -0.174789 -0.398509 -0.512284 0.355119 -0.827890 -0.055012 -0.475736 -0.151101 0.444242 0.716600 0.600504 0.569905 0.307231 0.251482 0.385632 0.454208 -0.158853
<VARIANCE> 39
21.174149 23.275592 36.508226 41.592938 46.357606 53.177956 33.073878 33.667755 32.197825 32.375974 32.930470 24.124036 22.398233 3.772599 3.561266 6.914240 4.869492 5.072537 8.831358 7.388099 6.509451 5.285368 3.762949 3.932278 3.433474 1.782961 0.465348 0.486421 1.404717 0.800462 0.954784 0.853521 1.087877 0.796331 0.701357 0.692014 0.711729 0.550821 0.622438
<TRANSP> 5
0.000000 1.000000 0.000000 0.000000 0.000000
0.000000 0.827853 0.172147 0.000000 0.000000
0.000000 0.000000 0.769433 0.230567 -0.000000
0.000000 0.000000 0.000000 0.744357 0.255643
0.000000 0.000000 0.000000 0.000000 0.000000
<ENDHMM>
~h "uw"
<BEGINHMM>
<NUMSTATES> 5
<STATE> 2
<NUMMIXES> 2
<MIXTURE> 1 0.463212
<MEAN> 39
-4.159747 -5.098697 14.687584 3.612382 -10.328521 -9.134548 -9.431018 3.084309 -5.217786 -7.413603 2.250965 -2.977400 60.867942 4.179921 -1.462816 1.303076 1.031926 -2.596321 -0.578120 -4.438610 -1.190989 -0.715558 -1.751243 0.976110 -1.220689 2.023953 -0.869492 -0.175424 -0.461219 -0.646600 -0.004724 0.196970 -0.143212 0.005624 0.113219 0.150783 0.352288 0.163191 0.160046
<VARIANCE> 39
43.086737 22.451507 25.290536 25.685231 43.414209 23.501340 71.841728 32.661750 41.184405 40.100221 28.415577 21.259742 38.248006 3.728543 1.929936 2.782079 3.101868 3.081835 3.314625 3.547454 3.996896 3.802500 4.732133 3.257691 2.434978 1.209411 0.720696 0.369646 0.322849 0.288905 0.724293 0.389706 1.415395 0.562830 0.428187 0.554265 0.458843 0.344247 0.576501
<MIXTURE> 2 0.536788
<MEAN> 39
-6.544550 -2.924812 12.020169 -10.358458 -16.696018 -14.381435 -5.152517 -10.424599 -14.653987 -1.494883 -7.431737 -4.052035 58.799148 3.344801 -1.515916 1.093755 -2.088148 -2.600800 -3.284487 -3.184756 -0.849641 -2.467883 0.109829 -2.853899 -0.452666 1.242237 -1.000262 -0.115754 -0.499268 -0.052422 0.679084 0.460264 0.499302 0.784233 0.595072 0.715212 0.545586 0.155150 0.152757
<VARIANCE> 39
33.020729 26.993418 19.263113 45.506383 33.930982 49.959237 55.181612 42.574446 46.609244 35.414875 36.860310 19.219619 21.139834 4.766357 2.504132 2.798838 2.339784 4.004696 4.228828 5.703426 5.390161 5.318904 5.522565 4.224116 2.564100 0.862385 0.522524 0.355582 0.294424 0.756145 0.553972 0.911955 0.969354 0.476531 0.642383 0.586210 0.771020 0.367172 0.314956
<STATE> 3
<NUMMIXES> 2
<MIXTURE> 1 0.514885
<MEAN> 39
0.695757 -9.041555 14.991861 2.025939 -15.379843 -10.251838 -19.668068 -0.625491 -6.224404 -9.543841 4.343685 -5.640151 63.793241 0.223311 0.101228 -0.309625 -0.049709 0.466730 0.197606 -0.576108 -0.293994 0.002012 0.339599 -0.024549 -0.359052 -0.316718 -0.259609 0.311516 -0.170908 0.017324 0.399536 0.177566 0.485703 -0.073711 0.065208 0.204705 -0.080942 0.050567 -0.283896
<VARIANCE> 39
14.006146 21.040124 33.858879 68.759481 39.137720 46.144794 47.896959 50.476834 68.992017 75.398841 55.875451 36.346937 25.377849 0.387403 0.769292 0.988870 0.839627 1.297205 1.153596 1.597411 1.391664 1.229188 1.466030 1.186572 1.078651 0.444784 0.221085 0.177054 0.178505 0.225699 0.320800 0.279068 0.404451 0.270585 0.313395 0.297353 0.298658 0.204467 0.145762
<MIXTURE> 2 0.485115
<MEAN> 39
-3.040306 -7.121845 13.097099 -12.695079 -18.199120 -20.266609 -8.850171 -6.793851 -17.590687 2.045035 -9.916027 -2.797280 60.634535 0.305780 0.126716 -0.291995 0.481870 0.547497 -0.266252 -0.467612 0.207972 0.077894 -0.273681 -0.335380 0.202763 -0.433822 0.021067 0.171679 -0.149197 0.129671 0.143776 0.133663 -0.067899 -0.134385 0.200919 -0.171149 -0.006737 -0.029097 -0.123674
<VARIANCE> 39
9.928150 22.749877 27.819995 33.996796 32.535658 34.032279 49.825268 56.475897 51.247449 43.210234 39.932890 27.936773 18.701687 0.221565 0.384352 0.768797 0.581014 0.894673 0.806546 1.154366 0.958560 1.423655 1.266182 1.124564 0.946374 0.166886 0.047736 0.086073 0.098966 0.148612 0.145949 0.179224 0.174933 0.198115 0.218127 0.254285 0.217146 0.169599 0.031494
<STATE> 4
<NUMMIXES> 2
<MIXTURE> 1 0.483253
<MEAN> 39
-0.550229 -0.078006 4.639487 -0.582931 -5.938904 -5.782461 -9.768176 -8.109658 -9.086609 -3.838167 -2.625709 -4.668976 50.318556 -1.791721 0.413583 -0.533934 1.131351 1.062826 0.663753 2.020495 0.782578 1.386975 0.055520 0.111366 0.517827 -1.373634 -0.419912 -0.130635 -0.083203 -0.099962 0.096949 0.071185 0.164009 0.370113 0.220593 0.193602 0.096489 0.050715 -0.033726
<VARIANCE> 39
33.742874 39.369820 64.878629 69.963570 73.708015 108.801802 92.873936 66.947827 72.159337 78.383377 84.298322 41.699519 73.334388 2.777687 4.279313 2.977599 4.198483 4.625013 5.839580 5.212500 5.663240 5.453342 6.252828 6.320678 3.566595 1.975647 0.524836 0.661233 0.508255 0.683622 0.766560 0.831065 0.904540 0.856176 0.883306 0.909875 0.757960 0.594878 0.369087
<MIXTURE> 2 0.516747
<MEAN> 39
3.500073 -2.878538 3.821709 -7.071548 -7.725984 -9.232757 -18.821138 -9.094011 -10.362925 -0.397905 -3.944063 -6.377568 56.901591 0.395233 0.941289 -1.118862 -0.392679 0.711926 1.301975 0.478256 -0.981067 -0.191336 0.114194 0.275869 -0.131811 -0.930280 -0.172996 0.038982 0.122109 0.156550 -0.194209 0.025840 0.436156 0.142973 -0.007147 -0.200822 0.122066 0.111623 -0.049583
<VARIANCE> 39
13.541994 32.513096 41.366221 65.935633 41.809040 130.793270 63.221989 63.362676 62.548816 80.783425 175.403707 52.628445 34.645122 0.474332 1.059859 1.355739 2.169475 2.270536 2.452486 3.296188 2.986211 3.842556 3.921580 2.680140 2.136205 0.474034 0.088125 0.174289 0.167673 0.322797 0.319795 0.490333 0.441933 0.567661 0.568462 0.551163 0.548042 0.401079 0.067137
<TRANSP> 5
0.000000 1.000000 0.000000 0.000000 0.000000
0.000000 0.707327 0.292673 0.000000 0.000000
0.000000 0.000000 0.884737 0.115263 0.000000
0.000000 0.000000 0.000000 0.868752 0.131248
0.000000 0.000000 0.000000 0.000000 0.000000
<ENDHMM>
~h "sil"
<BEGINHMM>
<NUMSTATES> 5
<STATE> 2
<NUMMIXES> 2
<MIXTURE> 1 0.529031
<MEAN> 39
-8.902723 2.534351 1.126506 3.146660 0.854537 0.322737 1.054863 -0.528032 -1.732980 -1.719411 -1.192089 -1.098262 34.571517 -0.335989 0.513956 0.195602 0.087347 0.206578 0.218018 0.193391 0.258803 0.473000 0.418533 0.320246 0.113009 -0.493993 -0.020396 -0.093964 0.016669 -0.048798 -0.064882 -0.069064 -0.051947 0.010225 0.012612 0.019020 0.024953 -0.005987 0.066649
<VARIANCE> 39
14.262831 22.926635 23.085058 17.141030 17.401483 18.371469 19.196289 20.842160 22.362747 22.658450 19.006114 16.408681 9.136993 0.431414 0.914375 0.997630 1.067870 1.281736 1.479035 1.635748 1.756406 1.832600 1.903098 1.655790 1.442487 0.270093 0.073703 0.141918 0.199157 0.227897 0.264094 0.303627 0.357206 0.388629 0.405326 0.398077 0.374266 0.333643 0.036009
<MIXTURE> 2 0.470969
<MEAN> 39
-10.392674 -5.372711 -1.415993 -0.443334 -2.704255 -3.435587 -1.094682 0.148633 -2.946245 -3.503679 -0.868568 -1.009006 38.583667 -0.050377 0.286355 -0.238202 -0.019992 -0.022803 0.016100 -0.098348 -0.170168 -0.036341 -0.088514 -0.115869 0.004604 -0.437256 -0.005853 0.174536 0.114605 0.068380 0.102219 0.087157 0.058319 -0.017725 0.041802 0.072136 0.013845 -0.023952 -0.022651
<VARIANCE> 39
13.855848 25.408663 20.253911 19.302814 26.125357 27.600391 29.063348 34.869844 32.232956 34.802110 26.873423 23.311694 23.805812 0.491081 0.924834 0.859093 1.097132 1.273795 1.472077 1.638410 1.734560 1.803242 1.862510 1.606807 1.475538 0.491892 0.094404 0.144456 0.189421 0.230184 0.286450 0.335621 0.391159 0.414429 0.441697 0.468081 0.411729 0.358792 0.051884
<STATE> 3
<NUMMIXES> 2
<MIXTURE> 1 0.503845
<MEAN> 39
-14.901310 2.013894 0.092260 1.279125 0.138716 0.024314 1.148675 1.692141 2.350202 1.452116 1.696962 0.289617 29.825845 -0.159370 0.087253 0.189633 0.221707 0.283018 0.296488 0.286675 0.343311 0.497713 0.514203 0.372875 0.195383 -0.131509 0.055678 -0.074172 -0.056112 -0.037605 -0.058172 -0.058102 -0.051212 -0.069245 -0.095213 -0.066339 -0.024639 -0.003537 0.084455
<VARIANCE> 39
